{"axis_types":[["z","y"],["x","x","y","y","y","x"],["x","x","y","y","y","x"],["y","z","x","z","x"],["y","z","x","z","x"]],"fixed_joints":[],"base_link_motion_bounds":[[-0.05,0.05],[-0.05,0.05],[0.3,0.36]],"static_environment":{"cuboids":[{"name":"Torso","x_halflength":0.05,"y_halflength":0.07,"z_halflength":0.1,"rx":0,"ry":0,"rz":0,"tx":0,"ty":0,"tz":0,"is_dynamic":false,"coordinate_frame":"torso"}],"spheres":[{"name":"LHand","radius":0.05,"tx":0.05,"ty":0,"tz":0,"is_dynamic":false,"coordinate_frame":"l_wrist"},{"name":"RHand","radius":0.05,"tx":0.05,"ty":0,"tz":0,"is_dynamic":false,"coordinate_frame":"r_wrist"},{"name":"Head","radius":0.08,"tx":0,"ty":0,"tz":0.04,"is_dynamic":false,"coordinate_frame":"Head"}],"pcs":[]},"fixed_frame":"base_link","modes":[{"name":"default","weights":[1,1,5,30,25,30,25,30,25,30,25,30,25,50]}],"goals":[{"name":"default","values":[{},{},{},{"vector":[0.05353586731324259,0,0.5245501624613702]},{"quaternion":[0.9992290326354848,0,-0.03925990751839833,0]},{"vector":[-0.00013513300888084602,0.07255472444220003,-0.0008873909244672684]},{"quaternion":[0.9998099484008025,0.019419750618993658,-0.0017087310312977242,-0.00014353725391329981]},{"vector":[-0.0002895169082757993,-0.07275236986494815,-0.0008795405785292365]},{"quaternion":[0.999766442804279,-0.021611567330445555,-8.711795033888703e-18,9.794067228231553e-19]},{"vector":[0.030457214033440108,0.1590938517749226,0.2848584917077489]},{"quaternion":[0.7772500891642931,-0.16052306859284377,0.5566081432087039,0.24556469261152958]},{"vector":[0.0304170020797297,-0.15966465803414398,0.28509163593933445]},{"quaternion":[0.7766672130566936,0.16311429817797207,0.5548468232795032,-0.24965329677234413]},{}]}],"joint_limits":[[-2.08567,2.08567],[-0.671952,0.514872],[-1.14529,0.740718],[-0.379435,0.79046],[-1.53589,0.48398],[-0.0923279,2.11255],[-1.18944,0.922581],[-0.397761,0.768992],[-1.14529,0.740718],[-0.79046,0.379435],[-1.53589,0.48398],[-0.0923279,2.11255],[-1.1863,0.932006],[-0.768992,0.397761],[-2.08567,2.08567],[-0.314159,1.32645],[-2.08567,2.08567],[-1.54462,-0.0349066],[-1.82387,1.82387],[-2.08567,2.08567],[-1.32645,0.314159],[-2.08567,2.08567],[0.0349066,1.54462],[-1.82387,1.82387],[0,1],[0,1]],"joint_names":[["HeadYaw","HeadPitch"],["LHipYawPitch","LHipRoll","LHipPitch","LKneePitch","LAnklePitch","LAnkleRoll"],["RHipYawPitch","RHipRoll","RHipPitch","RKneePitch","RAnklePitch","RAnkleRoll"],["LShoulderPitch","LShoulderRoll","LElbowYaw","LElbowRoll","LWristYaw"],["RShoulderPitch","RShoulderRoll","RElbowYaw","RElbowRoll","RWristYaw"]],"joint_ordering":["HeadYaw","HeadPitch","LHipYawPitch","LHipRoll","LHipPitch","LKneePitch","LAnklePitch","LAnkleRoll","RHipYawPitch","RHipRoll","RHipPitch","RKneePitch","RAnklePitch","RAnkleRoll","LShoulderPitch","LShoulderRoll","LElbowYaw","LElbowRoll","LWristYaw","RShoulderPitch","RShoulderRoll","RElbowYaw","RElbowRoll","RWristYaw","LHand","RHand"],"joint_types":[["revolute","revolute"],["revolute","revolute","revolute","revolute","revolute","revolute"],["revolute","revolute","revolute","revolute","revolute","revolute"],["revolute","revolute","revolute","revolute","revolute"],["revolute","revolute","revolute","revolute","revolute"]],"mode_control":"absolute","mode_environment":"ECAA","nn_jointpoint":{"intercepts":[[-0.1556395316701996,-0.048451798793376716,-0.005280745446056112,-0.06556097005279145,-0.05689659416201526,-0.19955854710988855,0.540564732706699,1.8364248118691304,0.6844493717460037,0.6089179172432991,-0.17062010176491044,0.43091601161635595,-0.034506604599310556,0.7973376919540797,0.7920054566855915],[0.8008028396780573,0.9155897326019896,-0.14584203550224023,0.7229886338374027,0.9715073659845421,0.573898184302731,-0.39125371633686584,-0.021394935205531825,0.798603721843383,0.9775586430634642,0.3314421722368648,-0.29943572380511957,-0.0051229011561614276,-0.027397016944648953,0.36633910824384447],[0.63852487673407,-0.014934820509639115,-0.3296564483409385,0.6681915311993241,0.8895327770169263,0.5067755124087341,0.3508230913796916,-0.04046776766422778,0.6597536298683525,-0.1411461651875906,-0.3179491247529543,-0.0292395223197579,-0.2968878270879358,-0.48169064072496204,-0.017977254096977997],[-0.33155468536992505,0.766223302531664,-0.5324857193391416,0.7588958797904054,-1.1927619460988939,0.2860025119456549,0.861381543736722,0.8683730236449503,-0.38904058087781657,-0.05287935902771506,-0.10419811806983864,0.5616208402748667,-0.23828878806581225,-0.03778437772056862,-0.06356343677413342],[0.6421438121723433,-0.16627994685137681,-0.15083530592687872,-0.1695845386429955,0.3242781730454465,-0.0791137020318121,-1.0393079758364414,0.16721066257551054,0.8007499367176827,0.41356701159349313,-0.09316143670472046,-0.06809506242642716,-0.2042075050598838,0.5189720341373923,-0.06782158875032653],[0.32797098360964644]],"coefs":[[[-4.8117e-320,-2.1885994507195057e-13,2.7271652457548685e-13,-1.4146615452687581e-9,7.415060623534223e-9,-4.19344472596028e-11,-0.0005764999811472706,-0.0005903777015979389,-0.000575612945754407,-0.0005762768874363752,-0.00001094457020713767,-0.0005779565829623951,0.00005033583382810763,-0.0005793856820036862,-0.0005767847749065699],[9.199485883832675e-10,-0.000019412610469190118,-6.595208862857207e-8,-0.0000012605910383391344,-3.1441417736208185e-13,5.847018605090609e-11,-0.0006057039960807044,-0.00018202924483116617,-0.0006426384866069569,-0.0006173926776925766,0.00004478314577689985,-0.0006093282792004605,4.138556149945368e-13,-0.000566894275452138,-0.000604481823808637],[-7.182129513594592e-12,0.000006408727356602239,-1.081213466821559e-12,-1.167846158600752e-8,0.0000014371774926947098,-3.17037e-319,0.2611092958323504,0.39694505199449287,0.1499574330598624,0.22032834041729485,-0.0000018628807412098955,0.2647589063583373,-0.000012927256802507585,0.13241129116814265,0.2900226893445574],[-0.000028005771494336196,-1.1692688449549612e-9,1.8154963906338248e-13,-4.407445252626283e-12,7.411031984335239e-10,-4.1578982908386315e-12,-0.0005764999811472706,-0.0005903718927969129,-0.000575612945754407,-0.0005762768874363752,-6.356171786879127e-11,-0.0005779565829623951,-7.028033945356248e-11,-0.0005793856820036862,-0.0005767847749065699],[-2.9034132579500374e-11,-0.000040691940939120355,3.0788623863635033e-7,4.881786916416855e-7,3.5002365974911563e-9,0.000003341088180874204,-0.0006057039960807044,-0.00018202923452571824,-0.0006426384866069569,-0.0006173926776925766,1.2619245269026472e-7,-0.0006093282792004605,-1.3267055373931257e-7,-0.000566894275452138,-0.000604481823808637],[-0.000013250069962428258,-1.770058271312615e-10,-1.161203856428507e-13,5.620476739062992e-14,2.2939942103394003e-9,-3.21143e-319,0.19475204171880725,0.42046712229369915,0.19295672227805377,0.29991983838164654,0.000004596850966917421,0.20359428410819308,7.433112158833285e-11,0.19214624879876743,0.0654252790730224],[1.6226115334112106e-9,-0.00002975811106405819,-6.880348218550755e-7,-1.4221356463843895e-9,7.15120309569301e-7,2.8006596684744606e-7,-0.0007516557058493868,0.002179832844613759,-0.0012537009396397956,-0.0009442579435865284,2.1717005762791378e-11,-0.0009632031486521294,-1.2275734362357439e-12,-0.00042809799700433034,-0.0007486580633348969],[1.0468159391576377e-9,-0.000014776722017469916,-5.414066235908218e-10,-3.579312682254469e-12,-6.539628736957392e-12,-4.847234650743319e-9,-0.0011220497323998501,-0.0011246588315639665,-0.00111923957413015,-0.0011198680354155513,4.638595149299583e-9,-0.0011192819526075516,-3.650482185541463e-12,-0.0011237459439369147,-0.001123129054916881],[-0.0000036945442223286815,5.136435216580475e-9,-1.2742948557413867e-11,2.3438e-319,-2.0852280130742712e-9,-1.6384711562994843e-11,0.1907341229827451,-0.134755543888446,0.1275386012724819,0.005119273650522173,5.222403041019362e-10,0.11525409700114916,6.582046697844711e-7,0.003200048656809296,0.11996081429787941],[2.721658537741778e-9,-9.810926606853962e-12,-3.8814950286827085e-7,-8.124380033106093e-12,7.65313850277751e-12,-2.171569807686447e-10,-0.0005764999811472706,-0.000590375096811288,-0.000575612945754407,-0.0005762768874363752,3.4835914283867807e-7,-0.0005779565829623951,1.6528242711675396e-11,-0.0005793856820036862,-0.0005767847749065699],[0.00012008261179849655,-9.134878796458019e-11,-1.3219451766018295e-7,7.771215130550865e-13,1.4995254358505956e-7,-3.956635650415507e-9,0.03316995665444727,0.5747664115947115,0.021831960816720522,0.028978509274494108,0.0000015997339853159298,0.030025097632321286,-0.0000015830029011888805,0.041526353541309666,0.03101295360083951],[-3.7038426465189825e-11,0.000011094114721937014,-1.602182391468638e-10,0.00014620158815058915,9.590952050836224e-12,-2.1629169043769324e-9,0.09733848742776166,-0.780714899803863,-0.04514119430068704,0.07618442899698243,-3.354317579993574e-8,0.10377850875574805,-8.632732862544539e-12,0.06867985611618284,0.03676078496240753],[-2.048367689482478e-12,7.348984604380149e-11,3.2141678525915465e-9,9.296282001169547e-10,0.00009573098579409079,0.00004796040723397084,-0.0005764999811472706,-0.0005903730229651246,-0.000575612945754407,-0.0005762768874363752,2.0398505719581412e-9,-0.0005779565829623951,1.5386741227058425e-12,-0.0005793856820036862,-0.0005767847749065699],[-5.447147841933253e-12,-1.9491629292296738e-7,2.4363094230728282e-8,-2.98920527422632e-11,-5.4555790598607526e-12,0.0000031572167354818096,0.03213485201548138,0.5439578296032209,0.021383737381288213,0.02781045026893784,-2.3199432292486954e-7,0.030601264048381687,-6.2256888751992795e-12,0.04313040431353797,0.031653180517296514],[1.4030655863873516e-10,0.000028177881262815273,1.3924305521500086e-8,-0.00003617263196862117,0.00000664307441108555,-2.53554e-319,0.06936267473487384,-0.5181789449490393,-0.027039143419336158,0.05693754707910239,-1.436293114705222e-7,0.10447887752584398,4.1219373592697446e-10,0.1179761777594388,0.09304634539155172],[-2.846033628964997e-11,-1.087335506494448e-9,9.323024165245394e-7,1.8650159854644448e-12,-1.441751661847791e-8,4.0005146700090957e-11,-0.0005764999811472706,-0.0005903677029316778,-0.000575612945754407,-0.0005762768874363752,2.1837898285708033e-7,-0.0005779565829623951,1.4921695173512613e-8,-0.0005793856820036862,-0.0005767847749065699],[0.00021691042666205018,-6.0060819557208165e-9,0.00002017762459796617,-9.38297542632322e-9,1.661707712163245e-11,5.240901267415659e-7,0.033183770711284866,0.6177632679924222,0.02136677023787221,0.02733990560371235,6.276418190196853e-13,0.029637726710507795,-2.033719000333322e-13,0.04063973917696856,0.032766466806215915],[5.016452277918082e-11,-5.287547401341121e-10,0.000007985764544983154,8.493874509627902e-13,2.1636095323035033e-8,3.750053496853382e-7,0.0704745148748845,-0.5182493548874157,0.02765803285435865,-0.019790294565894036,0.00004929055172506471,-0.033610284892348276,1.884409558787697e-10,0.024044659752018364,0.02423824985693453],[1.877184178665378e-8,-0.000002895606796806595,0.000002944134461544088,-0.0000075034858812346605,-2.6484676441687053e-11,-7.048017322202686e-9,0.0015238422391636115,-0.0006340241605556599,-0.0014501097734164298,0.000024782721665820683,1.0073574441038282e-7,0.0002706439087793771,5.212747926648683e-7,0.0018985366846228573,0.00033418871068972963],[9.007294964641554e-11,-0.00002209441864147007,-2.1125835606685394e-14,-9.93919005113769e-7,0.00008172718488550817,-4.391602130662269e-12,0.0059943368809367206,-0.008326154748497072,0.0007178626085223476,0.004020681391949324,5.208811809393192e-7,0.003652996483931712,2.3535180983417292e-7,0.011831480565533304,0.00530826395210766],[2.6611606111154906e-10,2.200323417347722e-12,8.514269646297988e-7,1.048743143857391e-12,1.764637345699941e-9,-0.0000014711564188341907,0.14421455259843693,-0.18229676056915173,0.06136802991923874,0.13734247914545877,-2.303854525230177e-11,0.12527315170604986,-1.8151421040473458e-8,0.15064285750008882,0.08643193368908153],[-0.00002671703726985013,-0.0000012129119310202708,-7.31145758739689e-8,1.1221644722667466e-9,1.0383954292591905e-11,7.210232450832207e-7,-0.00022248802807788186,0.0014226407290844096,-0.0004301130369250496,-0.000301450328163571,8.357643080938417e-13,-0.00031904283621365617,2.919534975301214e-10,-0.00011007271904980848,-0.00021689024461695722],[-0.0000011789623354093582,2.5056838313664352e-9,-9.535176199932624e-11,-2.579388707971451e-10,4.830798142145601e-11,1.287469210074408e-8,0.0028853114080125875,0.014078928614437606,-0.0009713938035587734,0.0002386988095235509,7.393664084459167e-10,0.0019066456126436869,1.356732751011743e-9,0.00415399038118945,0.0017787495540328132],[-1.6919390520345443e-11,-8.607300479762355e-9,-5.7475930313270916e-8,7.804155048560597e-13,-0.000006249514382255723,-3.7138e-319,0.09069884410737127,-0.11063384900031872,0.0455926925567379,0.038832495613814834,0.00006804034014681889,0.036860328365836414,1.1534180361840898e-8,0.10027851299716867,0.09483179746767337],[2.1445844208480377e-8,-0.00000863004704914476,-0.000002658140628348923,4.3455689076792414e-7,0.000001543227098881695,-7.753300886951913e-14,-0.00022251278200733217,0.0012518003408109979,-0.0004301130394995215,-0.00030144970609558377,-3.681341099183985e-8,-0.0003190414043349255,-4.955301342470487e-7,-0.00010990756802162324,-0.00021688787157997776],[2.182003691866271e-8,-7.994034413650055e-13,-6.224490949357086e-8,-5.913241767031203e-10,-8.543249034306229e-12,-2.2428191462187933e-12,0.0039705568707487406,-0.022453548141870654,-0.001280208566564698,0.0011841486396164799,2.0798220640660392e-10,0.0013212407705740941,-4.847118972042758e-12,0.006585212250949471,0.0032811766911741615],[-0.000001631186296073103,-5.1377994786113254e-11,-2.668481325249035e-8,4.870705208206722e-10,8.409075796127219e-9,-4.1205605217842294e-12,0.08086571821648829,-0.08930145234797449,0.04399835561891961,0.05413984792870937,0.00002242818187793945,0.04396604452999178,-4.2603312702983735e-13,0.06407726116050155,0.07795018244335496],[-0.00005044503002881692,0.0000010444594945001663,0.000006775344269338032,-2.5639916055359185e-7,-7.780432731124021e-10,1.1927000758454144e-8,-0.0007358532363153202,-0.00032227480840035143,-0.0007880704909062471,-0.0007554035461674846,-1.3417310664809416e-12,-0.0007582994921492138,8.027182601918505e-8,-0.0007084835476160993,-0.0007334484428268582],[-1.2919447855009738e-9,6.409822135986634e-12,-3.78788303172509e-11,4.757723618372886e-12,-3.3404793278756202e-12,-5.196274983643769e-11,0.008175321585821608,-0.009041948800976168,0.000002280005220838307,0.004168323871594892,7.25204808925926e-9,0.0056840148104674495,1.0302183919010313e-9,0.012167933902011074,0.002749904486970319],[8.201243784235872e-8,9.873461184171197e-14,1.0261121924898486e-8,-0.000005979705071987338,2.0373741554928399e-10,-4.024068217496626e-9,0.016599409434946737,-0.06496715579245918,0.013380420446181665,0.0443186199153996,-0.00003360420308605307,0.05012558272404275,-2.150560355617697e-12,0.09330753282021946,0.025283383621527333],[-7.469090168610234e-8,0.00004032327110455875,-0.000008197002994148421,2.4113e-319,6.159297705320416e-14,2.351693250191214e-14,-0.0005764999811472706,-0.0005903853258933076,-0.000575612945754407,-0.0005762768874363752,6.145255104534242e-10,-0.0005779565829623951,1.2286639644032919e-11,-0.0005793856820036862,-0.0005767847749065699],[2.2354942278723224e-8,1.906318223623265e-12,5.2579886091786016e-12,1.1700827473232191e-9,-1.0570721453867943e-8,-0.0000935734194680694,-0.0324792749912281,-0.5816392538419537,-0.021182410010119244,-0.028057556230239207,7.557329781649703e-12,-0.029965917075877962,5.210468262395186e-7,-0.04159918245662899,-0.031126206559812804],[6.705452824905637e-12,2.644679915330722e-12,5.675928596589686e-9,-3.6311e-319,-5.31651555846863e-8,1.254637441024615e-8,0.00262498779078411,-0.5151437913111834,-0.03486995933339258,0.07953079590244916,-4.994712830082488e-9,-0.0057219367574548,2.468754528317192e-7,0.0840302387236894,-0.010639801959178373],[-1.678371894339228e-11,-1.302121603242861e-10,0.000013005020150862592,3.1248708559046495e-7,3.907084998937067e-9,1.6956e-319,-0.0005764999811472706,-0.0005903751807849034,-0.000575612945754407,-0.0005762768874363752,0.00001630351750399305,-0.0005779565829623951,-3.2779565053820124e-10,-0.0005793856820036862,-0.0005767847749065699],[0.000014497082533639215,-2.14681546486826e-10,-8.512481054116952e-7,-2.1085e-319,-1.0304012295239962e-12,0.0000010400471881076395,-0.032041620601392255,-0.6133818386433431,-0.021274138289406278,-0.027266185000905746,-1.322938141120053e-13,-0.02934710719981178,-5.219950272965091e-7,-0.045282216149967344,-0.031593623812164816],[-4.3878087591966964e-8,0.000004702592327453691,-9.53123287827986e-13,-0.000003090798001704944,-8.707302739571455e-13,-0.00005829737455498493,0.07584775672763816,-0.8601660938523111,-0.02194062537586958,0.024381483644689093,1.1233213339738798e-8,0.017176124477351472,1.843386849760835e-13,0.13519232163248965,-0.00569767832227106],[-9.385630583955223e-13,1.082660637566613e-12,-2.7019446710939465e-12,1.9372032777520383e-9,-0.000024838528765009068,4.4071541560037886e-12,-0.0005764999811472706,-0.0005903695538428884,-0.000575612945754407,-0.0005762768874363752,-0.000002021855011990104,-0.0005779565829623951,2.3684228104512188e-8,-0.0005793856820036862,-0.0005767847749065699],[0.00001971625381622292,-1.2210954970396768e-12,-1.3805857099798733e-12,1.79084e-319,-9.04314595503545e-12,-0.00022363423359850437,-0.031673099174068055,-0.5751274237439336,-0.02127369072365383,-0.027227444153440136,1.4316833984797375e-8,-0.029895370814246047,7.671855706012881e-8,-0.045204493921860565,-0.030515668587408402],[0.00004283868542100745,2.0765396273902293e-8,1.1916227579308384e-7,-1.586906416450958e-7,-0.000028756421747407736,0.00003062437883113944,0.02182099478150194,-0.586157811561851,-0.0652265999509925,-0.04189829570033496,-0.000005979922037453386,0.005060970437505799,8.346923706398744e-8,0.0735565189047605,0.02915343683708643],[2.3511412293126697e-8,0.00004334497867127363,3.867368179784197e-11,-9.745322747557653e-14,-4.266459419241188e-11,4.387290002333878e-11,0.0022868714988998205,-0.0031595144311449314,-0.0005373419311907404,0.0007757840227332432,-6.085462029917324e-8,0.0014324838237623754,0.0000060392425174002,0.006250961335204593,0.0017022971342953589],[0.00008617216515550317,-5.502748643755791e-13,5.545518108237979e-10,1.490892294227264e-10,4.942675642929265e-7,-1.7184e-319,-0.013564874267144374,0.02666620385221688,-0.007969668464016429,-0.017486107982968072,2.6300726679188267e-8,-0.017170727762476468,-3.9382743800313265e-9,-0.028305219106307525,-0.015823964378150996],[1.5266284873100164e-10,-0.0000013408740000505762,3.522446431887888e-8,6.587212612287035e-9,3.0602370458940287e-13,2.965777309098987e-7,0.16442747025940574,-0.1565965352509159,0.032364840912409015,0.06537931667380957,-3.5647247462021305e-8,0.07398011239881222,1.2239442322779128e-8,0.14110023090927884,0.11405670100098309],[1.1997854671144808e-7,-2.683279817205127e-12,-4.0448575930985534e-13,3.10525e-319,1.0929423698141488e-9,-1.5371600557723522e-10,-0.00016439702769352186,-0.001614783455156717,-0.0003680832580588102,-0.00024060772417866744,0.00017312804994087163,-0.00025872427358994134,6.088944861638259e-10,-0.00005420228013676702,-0.00015879054823008778],[0.000011250060809679035,-2.5436336122247604e-11,3.1494243074799467e-8,1.9984452406777663e-11,8.028468988307821e-8,-2.09752066472968e-11,-0.036698320324065566,0.1220291528570368,-0.01565105622906145,-0.01574624357680685,-0.000013402700530537419,-0.04205886137399883,-0.0000051789664628194235,-0.05374584742206497,-0.01767682407768357],[9.547194422308629e-13,-1.3009710726267156e-7,-1.4983641715098664e-7,7.204132281344402e-13,-4.514806057391522e-11,-0.0000961420195839703,0.061275538459464776,-0.08900453023557364,0.008202701111731516,0.07638102804848781,2.8214882557124585e-13,0.09400909983091722,7.496694945989783e-11,0.05194646450434133,0.04474948114979743],[3.703471682065343e-10,0.00002378068529088499,-5.830972290223913e-13,-1.2920873001012013e-10,-3.4060566230327803e-10,-3.41706e-319,-0.0001643958079068603,0.0043715787164469964,-0.0003680833350762328,-0.00024060907764800703,-1.3609933982788915e-8,-0.0002587225267307007,-1.1637523845072873e-8,-0.00005425548400231993,-0.00015878749638523974],[-1.1347077868420407e-12,-0.000003433466833056086,-4.511347782538234e-8,4.834822703661596e-7,-0.00005003878982788768,0.0000718916330253831,-0.020153461205915102,-0.034906898474312505,-0.018844811975523162,-0.03448223206547596,3.413044924410668e-8,-0.0284224695020843,0.000008093460827291628,-0.02286299400806168,-0.032541976418391814],[-0.00003361226537067379,-6.036343649743684e-10,6.009543052681554e-8,-2.5438520094316e-7,-0.000017798909876625183,9.064678240506618e-13,0.08409291284553763,-0.10456603506509617,0.008971502556192692,0.08315355572550084,-0.00004322580764726526,0.09470042096430256,4.0154472026437984e-9,0.08104553380959037,0.0586869979081887],[-2.5037447531427666e-7,-2.3660084441757823e-13,-0.00004187787970775785,-0.000004070683836313182,-1.0519567194407642e-8,-0.000007481873466092935,0.00037024812320352344,0.00072689141651332,0.0003256738244904921,0.00035431604591889567,-5.420918806021559e-11,0.00035143233684648337,-0.000054022477190841006,0.00039586732111661664,0.0003728645670458733],[-1.9426590591361847e-8,-5.259967188094878e-7,9.21055307287129e-13,3.92756155072482e-13,1.0933715148014057e-9,-2.1120489508156388e-10,-0.04561911306116122,0.05535437237521174,-0.005789804567634826,-0.04461531533260711,1.2960136905629304e-9,-0.04975831966002106,-0.000023210846742842254,-0.03844783940766619,-0.03158768116563108],[-3.231623358019574e-8,-1.9420906818365377e-8,5.353309515474618e-9,4.721597893557277e-11,-0.000005669755109843532,2.0006310786695936e-10,0.025469613634706643,-0.05684837437571999,0.011875269392283465,0.018354498879520904,-1.8971606237218258e-11,0.063458440952046,8.29160616705219e-8,0.05296370560787019,0.045174742595398096],[1.0104700458219262e-8,1.468324211567938e-11,-1.9922953610847078e-11,0.000009412089568727842,-5.236468838360905e-9,-6.130364963462267e-10,-0.0005764999811472706,-0.0005903857412320069,-0.000575612945754407,-0.0005762768874363752,-2.1305193389382108e-8,-0.0005779565829623951,-2.9718302779576566e-12,-0.0005793856820036862,-0.0005767847749065699],[1.382329566904273e-8,-1.7387354626412322e-11,5.710404944313047e-11,1.0204437752660724e-9,-5.020254546705241e-13,2.4141992476321855e-11,0.06806705477946087,1.0612281130177967,0.04544076342070234,0.0658155668660058,2.682665944875516e-12,0.09483079859260661,-0.0000019565216055387538,0.13703524190958824,0.07851059713579708],[-1.4294847610662542e-11,0.000025430742199245773,5.338346369458682e-10,6.918929462476767e-12,-4.2231488960556535e-12,7.929364491669947e-11,0.0938609593479205,0.4153549008838989,0.025768998138296986,0.03856272078291812,-1.8072064394622443e-10,0.2538260230015382,-4.735739871860964e-10,0.2824326030263944,0.06511435684497396],[-1.6466640718394226e-12,0.0000011472780772359165,-3.295933353179361e-11,-1.1183912954607025e-10,1.3156121184529382e-10,-3.4047e-319,-0.0005764999811472706,-0.0005903880619832233,-0.000575612945754407,-0.0005762768874363752,6.435773464989977e-15,-0.0005779565829623951,1.73826571970965e-12,-0.0005793856820036862,-0.0005767847749065699],[-1.8869670502527857e-10,-2.2763278352416197e-8,9.775601915704217e-11,5.291096867514313e-7,2.488065787694642e-7,-1.0352811968308411e-11,0.07340859197575239,1.0915280506409841,0.05741812642912789,0.07847503777622303,5.744486674096267e-12,0.0711050297226247,8.01958949718764e-13,0.11597357756359929,0.09124343937957685],[6.711921357712415e-13,2.540185916597678e-11,2.6232249239092397e-8,0.0000025536733415368084,-5.419714936008366e-9,0.000020710261536072194,0.07372846195679252,0.2714450914187987,0.2087652144550829,0.09743747027779077,4.918118102349002e-9,0.13423483936827058,1.9614266572634873e-11,0.07995887735953885,0.19662754423568443],[3.1495333502394354e-12,-7.914871156606179e-10,-3.4692565085631228e-9,-3.06815e-319,-6.995876422519075e-10,-7.922915647631727e-9,-0.0006938775623250201,0.005364300742044316,-0.0016969445981498536,-0.0010796550606047828,1.816930726408869e-7,-0.0009468300633588102,-6.771795722883787e-10,0.00029262584842197306,-0.0006686766522336305],[3.1297251527231214e-10,3.688645062253251e-12,7.286948623937411e-8,-1.3208459764949024e-11,-0.000011808120130241698,0.000007474248981494862,0.09394552038640369,-0.03787680085366081,0.046058310517993015,0.021161995708703748,0.000025774519112105692,0.05470580960620882,6.843560156811315e-14,0.03823183478886251,0.08658023507628353],[0.000017771729071136,6.662346373367943e-13,-3.1189433205898493e-13,-5.190161682494325e-7,2.6319094876784674e-9,-1.7622394707734593e-12,0.05720006481228693,-0.27321435110914954,-0.01451315095093165,0.1870386859898029,3.2619657922682075e-9,0.040191581276760875,1.7807780853690105e-7,0.17355236936291463,0.08993250492534721],[-0.000019516301489804223,-1.4533323652851106e-12,-1.0937224910425142e-11,1.5054237096615257e-12,3.1254374670788204e-9,2.3179420288710624e-8,-0.0006601913055219487,-0.0020373783945166943,-0.0016995228797387297,-0.0010244757009842138,-3.0254137093352436e-8,-0.000931711400276056,0.000004537666873556374,0.00013288972979623467,-0.0006802726876911043],[7.928070956337382e-9,-0.00003459110451366337,-0.000228607961398212,-1.9168554574759985e-9,-3.5612824139311793e-9,-1.0600447327956092e-8,0.03435777833931698,-0.12790620818228648,0.03280510353039689,0.049165959845984604,-0.00001945095134312521,0.07126256098269575,-2.43908818701816e-12,0.05180669838191247,0.07642598331128284],[-1.8271409501464205e-11,5.146417674228965e-13,6.453546980289504e-10,-4.8586e-320,8.178023897970979e-7,0.000026719434810950137,0.22560499083508997,-0.16578137527341713,0.1741612839547598,0.19397213769782376,8.329857167108157e-14,0.1282034998297404,-6.78894151334883e-11,0.27781142768072786,0.1528660020742544],[0.000016946539791312434,4.509070754545269e-12,5.776099662818079e-12,-0.000011704840897591273,-0.000003849671741223068,-1.009564868868935e-8,0.00705878083456607,-0.031069483484418913,0.0021339532126802446,0.004714684580184252,-0.00006826837558719751,0.006615798873447891,-8.88828932824659e-7,0.013796125322526297,0.006825151597775094],[2.491051763389194e-12,-1.8008477420571063e-13,0.000004510761748915607,-2.0742318192520293e-12,1.0869941442958012e-13,0.000011750873459931286,0.12749193784945853,-0.11374512767116382,0.07538998280839188,0.0727974103082747,-2.4663075054278344e-10,0.09010867965381125,-1.1372497753980509e-8,0.15854643422405995,0.09295410843364121],[0.00007095023752243388,0.00000146914346469561,0.00021356407124959782,6.932628741958699e-9,2.136844026268815e-11,0.0000057104314406787,0.08372944872864421,-0.21082359296424785,0.13062494970046157,0.2631951729442343,0.0000015716339477696187,0.13760097494893278,3.78427626970508e-7,0.24215303880594652,0.12231644748250098],[0.000006942188740982376,-0.00001965669156675056,-7.885627915407164e-12,-5.034779254651141e-11,1.816219118825814e-12,-5.639350663621371e-7,0.007968794712602435,0.009729548412126972,0.0022863870195762546,0.005026312748900432,1.207745000290184e-7,0.006585490842770152,8.878679772774257e-13,0.01342784978432877,0.005852528441691639],[3.8514399698990537e-10,-4.1484203812355544e-11,-5.444518014029183e-7,-0.000023806474766246562,-0.0000016523327791724413,0.00007948590613257416,0.08305391823306928,-0.16505356073224303,0.02843423366822168,0.05729474388789145,-2.1625886897537633e-10,0.07349497065152368,-0.0000069523672699026215,0.1547284433452945,0.042204495453543635],[0.000004332309960259181,-4.414129723126042e-12,1.8551829624369456e-9,1.1002858944420817e-9,9.967001562181407e-13,-5.545044954768735e-7,0.17108436030102775,-0.24611376640739932,0.14781396263958418,0.15936414911250946,1.9606497267336684e-11,0.09234546496050904,3.221483956924901e-8,0.07068676046037227,0.19807819581118719],[6.223938428348204e-12,-7.44614751304955e-8,0.000003781633867093086,6.384387285285276e-10,9.444603591615306e-7,0.000001104511132395608,-0.0005764999811472706,-0.0005903911923936701,-0.000575612945754407,-0.0005762768874363752,-8.215627241752631e-11,-0.0005779565829623951,0.00010350455902134858,-0.0005793856820036862,-0.0005767847749065699],[3.5545569561197227e-13,2.5643152927417116e-9,2.0002467834907043e-11,-0.000003717650850606009,0.000002249456955337623,-7.597493589848755e-12,-0.06792437617949068,-1.0738692116008983,-0.057396568654279,-0.07621419904758198,-5.461484564348573e-10,-0.08543558536833755,1.2735189320666017e-10,-0.1045288990844328,-0.0669851408099118],[0.00013866112400109774,-7.740708395867425e-13,-0.00007991788076535549,5.7486371523297575e-9,0.000022824992660471302,1.9197684751168744e-13,0.0445730817302465,0.23308638051005184,0.1001625455374104,0.13027386185324552,-1.1404526288122368e-10,0.29259661185520713,-1.3192616632972947e-10,0.23564318290232678,0.2528162551259612],[-6.112581360629744e-11,1.988638996966309e-12,1.4468280522237624e-11,-4.073189204290613e-12,8.370581821545767e-9,-5.034506092060591e-11,-0.0005764999811472706,-0.0005903701363844699,-0.000575612945754407,-0.0005762768874363752,-3.0301842441422704e-13,-0.0005779565829623951,-0.00000669231773870473,-0.0005793856820036862,-0.0005767847749065699],[3.266845549102892e-11,0.00000690602043435758,5.14938615179432e-13,-8.520942476441998e-12,3.335882416277569e-7,-2.5366100790959863e-11,-0.07507828557154884,-1.06571956360545,-0.05201986725831739,-0.0704962885179863,4.74908025820166e-10,-0.09356278501908795,-4.465327685035632e-10,-0.09006157093691361,-0.08235952464218589],[0.00009139310762270754,5.3883426449455154e-8,8.793646937444035e-14,-5.904969477363421e-10,-5.822969601304089e-7,-3.0913277074114006e-9,0.08692620025743036,0.2426239371898401,0.19904000019299786,0.075692229259404,0.00004784223948430757,0.07781828714911054,-1.6511209735250247e-11,0.07339853415192765,0.1836952272000703],[0.000002110995990636562,-2.973778740752879e-11,2.7482338075131755e-10,0.000002571893532700485,2.830722586537092e-10,4.827819994496382e-7,-0.001112074245291475,-0.015078033545730864,-0.0022928988310223545,-0.0015859781973944307,1.354245811778136e-12,-0.0015333362545372924,3.5348492719566983e-12,0.00014681633174706303,-0.0011025506013720937],[-3.8196018974352254e-12,-0.00006666563956007286,-5.010119683103653e-9,-2.3821259766299465e-9,-1.4559412237422584e-11,-6.871245626225412e-11,-0.050176391006226596,-0.01118014069701127,-0.0024986890539140504,-0.06011845146386891,3.2529319068237164e-11,-0.07435862090125336,0.00001759862766168646,-0.039493620190582605,-0.05900254483717285],[0.00004627016833230132,-6.054263529253231e-13,-2.958498547203165e-13,-2.6193816093888655e-10,-1.033587142505061e-12,1.1163094002390464e-7,0.07134089816116328,-0.2702158150832663,0.19868658468462444,0.14357052147042293,2.753375219906054e-9,0.10529755875178734,-3.949536108922475e-12,0.1420373531112162,0.1975042158255339],[-6.153739843430732e-10,-6.902564042011088e-13,-0.00013028962939602926,-7.417319584104763e-7,4.713769994200119e-7,-1.2107532722301404e-12,-0.0011602568245396702,0.015885971559359273,-0.0022993842093467646,-0.0016114583645412532,5.472478967953895e-13,-0.0014465473500022037,2.8616381630918994e-7,-0.0001316804098806763,-0.0012051437820046866],[1.2603187300857848e-12,-1.32647573753811e-12,-1.946417372592679e-9,-5.147470478840773e-7,5.960602156017509e-13,4.495531182951278e-8,-0.0885735471647452,0.16778474454572184,-0.0074513557926459495,-0.08115642010527838,-0.000002648869652679333,-0.048183986795870486,8.611668813987434e-9,-0.0799235106739775,-0.01602818346171932],[6.709095606608522e-8,-1.4123305935565478e-11,1.3290579314002624e-8,-6.126509971938233e-10,2.528283375516826e-12,-0.000020951814372509227,0.20023838422973175,-0.13945798890215302,0.1735883237964146,0.11192749505227939,2.2902965649202572e-7,0.12838141107540837,2.5018211595727196e-8,0.15144623606078148,0.02320849815855593],[5.478474415850081e-7,-0.00004192985908191336,1.0578438532431307e-9,5.1309402258532325e-8,0.000019931228136539942,-1.5608372831178303e-8,0.00718191465289913,-0.05395696440158637,0.0021399669357320423,0.004925861319160903,0.000009593537889593602,0.006082614299295554,-6.077217927458368e-10,0.013979439465510338,0.0072854552902629705],[7.932166816703002e-12,0.00008330775022103866,-1.1793352366019333e-8,1.1171831670001296e-12,-5.534687666708837e-10,0.00015599471349598241,-0.08462747810590514,0.12384490064649133,-0.05325634507606526,-0.0907548149841049,6.603943202273856e-7,-0.1330802763030541,3.485154310981495e-7,-0.15098067807215687,-0.07956105232750364],[1.4799071694329078e-9,0.000007360352296195617,1.6800584405020334e-12,-0.0000039611739421340624,0.0000011656259794208585,-1.879557449396788e-9,0.20360498137009078,-0.20516341163264262,0.15180003891692298,0.05644916725224792,-8.825241020271397e-10,0.2552986815189117,1.8677929602913485e-9,0.0823377802360643,0.16903842029434296],[1.0241096919778731e-7,2.018764256650596e-10,3.9333376432708743e-13,-1.2689685596086346e-12,-3.9612766734338996e-8,0.0000013486832727327333,0.007864132607157131,0.029980920351631638,0.001935805287482989,0.0049229862660452855,-4.505049154316569e-11,0.00609910302341966,-1.1560693416913114e-10,0.013697589459335717,0.0074000543888119155],[-4.113076863239371e-12,-2.4069861424377498e-8,-6.479583701947074e-7,-8.126437305016453e-9,4.5405703700112404e-7,7.004901902736113e-11,-0.06250146973453652,0.14873072143413155,-0.059109944778922605,-0.11548367104087967,-3.1029432489701426e-10,-0.07617727007500717,1.7387830626757763e-11,-0.10102891196452729,-0.050982751555052955],[-4.555847349301181e-11,1.0177889917372535e-10,-4.75902668344303e-7,-3.271791319409388e-12,-3.8992574509008794e-11,0.00002301906189930538,0.01932204224511429,-0.22429901832073407,0.09844411779391617,0.07786861439488316,-0.000001501521457479856,0.17791778431000266,6.854249711066735e-13,0.1614889678440136,0.24777617141172056]],[[-6.528825238408312e-12,1.1993562226184473e-12,7.309286924380333e-8,-2.924001620044495e-13,2.1027199067413092e-12,4.916272001243823e-13,-3.79106e-319,0.000023489644707542552,-1.2460791347236552e-11,1.7842771759836745e-8,4.2479008667803376e-7,-1.5245724794495095e-10,4.27594345226523e-10,5.687170050244824e-13,1.4935426598362597e-8],[-4.725732380516845e-10,1.2333517882189731e-8,2.9164243101472056e-9,-2.0866259886228745e-8,0.000020821225680239412,-1.8493509199336434e-7,5.914464866356729e-8,-1.624937020737456e-7,-0.00004882924931655492,-0.00003232719978599948,-3.329551694874611e-8,-3.570870649608648e-11,-0.00022042279657517652,1.142064403503988e-13,1.7485167150315713e-12],[1.1488960368358155e-11,-1.2621176198194074e-9,1.0580463268535046e-10,-4.8627e-319,-1.219279519152825e-10,2.7690486136202813e-8,6.119099886065983e-8,1.7175805604612506e-7,-0.0000017365334099224415,-9.047996144530122e-7,-3.727220939091855e-10,0.000022587654152293493,0.000032681525605092837,1.193809402869508e-11,6.389954478029249e-8],[-2.1095074076040204e-9,-9.31805491566571e-13,-0.0000036508144355525473,3.4091142097974715e-12,-7.829063501459015e-8,2.1274242231747202e-10,2.7661178256975776e-10,0.00003241245102337369,-2.695360920130835e-11,-0.000001757720628132691,-4.2084429750504494e-12,1.899795727757335e-11,-3.30115e-319,5.893044172384908e-12,-3.087739685346583e-11],[-3.5355832028053235e-11,5.438714280635931e-8,-3.8582458818384805e-8,1.3677336068639519e-8,-0.00006208816766128985,1.4256048859298166e-7,3.715162522356032e-14,-0.000003941719133636623,-8.458360318468766e-13,-1.8974561669787372e-7,7.377063409134e-7,3.0305119451440243e-10,1.448976089717234e-10,3.0517283830507115e-14,-8.875827738663251e-13],[-2.289764670983358e-12,0.000019887239951330555,-0.00014745011408360788,-0.000024780122713197188,-1.39854481942372e-10,-2.377006088259774e-11,7.223028804334998e-9,6.197963010979178e-9,6.038936231792204e-9,3.9414555593595514e-8,-4.0087414566063385e-11,0.000005274992013262365,-5.938427228491093e-8,2.1294041349750864e-13,3.045470633640733e-8],[0.41690804840499573,-0.09635711443774642,-2.446232239825882e-12,0.33887085358468344,0.4733033566100171,0.5241308156691536,1.3794188083390377e-10,-2.1775666532220403e-10,-0.027064179779838955,0.565198733931223,0.010427236728180973,4.002796564721209e-9,3.7927900191569406e-13,0.00017546473159145795,0.21448752869447063],[1.0836632027782178,1.0969370509620784,4.906286910549417e-9,0.9112543159448385,1.32886492690707,1.1414712125025408,-1.3140480438966157e-12,3.2797596323734394e-12,1.0026081544439769,1.150483549032096,1.3187696533488837,-0.000019719922319079382,-1.41020301844739e-9,1.488709157848059e-12,1.0659396414698363],[0.246355893099569,0.37675135725298603,8.095271403171219e-12,-0.021868448685183135,0.2839086287658861,0.48487692323951126,-4.983246372898009e-9,-2.0066125469017825e-10,0.005075775771064852,-0.02708827858675275,0.4924847393438834,8.492703477604958e-12,-0.0000011933865663459457,1.3138942758268423e-10,0.20850853582898196],[0.40126839031534206,0.24183889215804102,2.2183889430225117e-8,0.10164142341918829,0.2814224386928828,0.3780117789948378,-2.504489319258172e-11,-4.881426437699435e-12,0.23745788308812055,0.38036291010814127,0.13221218393721404,-3.9629025274912605e-8,4.439e-320,-1.113188906596572e-12,0.1547700614893134],[-7.43026064264869e-12,-0.00000202817660511458,-2.6288639573133467e-8,-0.000008849171808037289,-2.2388310909868318e-10,-0.00007688896800072194,-2.6039993131762256e-13,-3.839581543666948e-9,-3.0285054726685193e-11,1.597802754827285e-8,-2.4882515126990774e-9,-2.9453310383393894e-11,-9.682401627350316e-10,1.9672524148827741e-10,8.579505462684714e-7],[0.2124823501724814,0.26100563996849807,-8.310347058299777e-14,0.4340309402408884,0.04932354726825072,0.4845760080062261,0.00014331125044875822,6.177887629101149e-9,0.16550539702171602,0.1934042322004327,0.2638646371115564,5.2484022679607763e-11,5.564781779787468e-9,3.886377888596601e-8,0.5017091852190966],[-4.532874347602196e-8,-3.234482815310281e-10,-0.000012199670014290898,-0.000004299201456192945,-5.55417108272955e-10,-1.4584796267342557e-7,2.47473e-319,7.695854249048178e-7,-0.000005750662798803208,1.4805199332529528e-12,1.4601185098264227e-7,-3.869580144846815e-11,-5.935721958683656e-10,-2.096212095308396e-7,-0.0000034136075711036047],[0.17297953692531123,0.31638975296793637,3.5126154530269976e-10,0.33512020012699206,0.27563189224668644,0.23246331097220455,-2.0912801098917445e-7,3.7112206141327585e-9,0.2883664651167051,0.5175465612944047,0.47751937184256277,-1.3394416506963854e-9,4.5838075422299655e-9,-6.61158988630305e-11,0.5077936019401643],[-0.07632332332299409,0.3727973177064449,2.6115752971807823e-8,-0.031052603009362734,0.19855838499299935,0.4328372621863087,2.6306441738539647e-13,-2.7232602835523148e-11,0.5613048206852682,0.4437770988859021,0.3378151256780241,-7.584795571749421e-14,1.0671322838699683e-9,-0.00011868572532547329,0.21969345640037125]],[[0.16852125823506486,1.0072676666253614e-11,0.000012300334351242935,0.038182505602630236,0.4678155982725729,0.04485189316818288,0.5840510602964999,2.0782855013507512e-11,0.6337056656287281,-2.735154245731616e-13,-0.000002614127183459964,-3.856e-319,-1.349139527075614e-8,-1.9153886324836174e-7,-9.007811337267669e-12],[0.22015529798120326,2.013732407385855e-10,-1.9552198973089444e-13,0.6215213890721781,0.3664928296308987,0.1619760413772842,0.308654411634227,-8.701574499710137e-12,0.2882524951164649,-6.896296533493444e-13,0.000004460951415458949,4.454689605708856e-9,-0.00014165634538346715,-0.000010391730735474766,0.00000738204203198043],[1.5577236094514695e-10,-8.729309652117539e-8,1.1645166106456473e-12,-1.5383215820558776e-12,2.7598571065805857e-13,1.3243297113450944e-9,3.152174497295044e-10,3.2888878870194184e-7,0.000015554420744495756,-0.0000028172681648407618,-4.4509e-319,-0.00006693549341007228,-5.273595721908463e-12,0.0002042775649192678,-0.000008282916823374428],[0.14219164925023448,-7.562285977573623e-9,0.000029742582004031063,0.381397414271501,0.27989822360833905,0.140580639663602,0.3488101102931953,-0.0000016908484546182449,0.4281078299735026,1.8431103896726032e-12,-0.00001753166546306085,-0.0000095254090509982,-9.945707014681349e-9,3.342402401263901e-10,-0.0000014397397670664462],[0.20352100825088035,0.000035416295865971074,-7.506789371388665e-10,0.5692476343172008,0.06532456213142827,0.27878193407784924,0.6646272458927238,-8.683811471812047e-11,0.6028635954034479,-3.714524727978412e-8,-2.4753695600471098e-11,-1.322387671029826e-10,-1.86445216460047e-10,0.0000012868905198641997,-1.2550532395046355e-7],[0.45281404859826835,-0.0000014947218051123291,-0.0001053630703723081,0.25589373042500024,0.6932119731536316,0.2801385265854272,0.10395075366157504,3.697398131465445e-7,0.649819839386402,0.000005554491514868145,2.66613786897796e-10,5.983853561625202e-10,-9.13919224729104e-10,-1.1500491064067744e-13,-9.545965165162898e-10],[3.202204563903348e-11,-0.000003894297963747331,4.762608530735707e-10,1.699166932107923e-9,-0.00001554227717025472,-0.0000020972023556478156,1.1532657014477204e-8,-1.2237264431846019e-8,-2.127602297388022e-9,-4.613939737474077e-9,3.0615864821922176e-12,-4.1251539865735116e-12,4.5286037195954494e-9,2.7137e-319,1.0042858812885784e-12],[-6.48167599161843e-11,8.512304313523477e-10,-0.00003302523133628016,1.771392677702866e-12,-3.4982860356859064e-10,-0.00004053286081892018,-9.57848889006714e-11,-3.568491492225747e-8,7.053826199998366e-10,1.0177699458440475e-10,-3.0819262669867313e-12,0.000010621553025054474,-1.1278737653464836e-7,-2.455446836752946e-10,1.1932321964725145e-11],[0.0958798064309074,-7.389336422801639e-13,-9.297403936875725e-9,0.534971903535756,0.5414985431163714,0.42644219474161194,0.3458008594336485,-1.0735632256637055e-11,0.08415600594421671,-3.9398646126973776e-11,-4.001145856850219e-10,0.000175488573107422,-8.610596349582255e-10,0.00006217801393829143,-8.406961072278792e-11],[0.6141122139242654,6.412051235070263e-13,1.653129470860069e-8,0.6428181561329614,0.6145068113346047,0.31256291194059416,0.5720880143535607,-3.8769721218641296e-8,0.5553469718521301,5.86942347319777e-13,-0.000009470914496421729,1.16194e-319,-3.9912860136823996e-7,4.9121e-319,0.000021999792057724178],[0.37520001737575953,-3.794368360405039e-12,-6.929527239169889e-11,0.27543327400612,0.6005771183307852,0.5384430017223362,0.029644016384282875,2.414249310555636e-7,0.5704736002640667,1.8649144972846527e-13,-0.00003470840524130112,-4.419974182647955e-9,0.00011535863361109797,-1.2247275810590863e-12,9.15972930443224e-12],[2.628909570949498e-9,0.000027138482247069253,2.4790332524514114e-10,-4.274919123199328e-12,2.56046091766329e-7,-6.235465807991765e-8,-7.74825343907563e-10,2.950485025950966e-8,-0.000009903806905135233,3.108560266801608e-9,8.327992853995621e-13,3.1805463280632407e-10,2.5865901163922013e-11,0.000005805143435246622,-3.3555518839416193e-13],[0.000006760634436728262,-2.2130604808593554e-12,-2.803097641161578e-13,2.801425967690799e-7,1.7066184843465524e-8,-6.8058725584657e-12,-6.068661981433119e-13,0.0000021261731796191094,1.2999940152436564e-13,-1.916572683733045e-9,-0.0000010586843751599508,4.200725410975718e-12,0.000003538306841112128,1.2840724057918584e-12,3.909347083795984e-8],[-4.4432315168739493e-10,-1.2954187282379307e-9,6.23188429530032e-7,-0.000001091115782129967,-1.7929200546856147e-12,-1.0693159396692037e-9,-1.5915942407255124e-9,-2.795420920030017e-10,-7.601636334051421e-13,1.5837468712854132e-12,-3.236952321440961e-13,-3.923289519015552e-10,-1.768314337693392e-12,-2.5900809337494714e-13,2.6605606881994215e-10],[0.2909993881894738,-2.2468862370725235e-13,6.1583566314030655e-12,0.6328517477076167,0.26745266857917765,0.5011268852926742,0.34871255246676985,-2.5818132674722272e-12,0.27230080421251845,2.599753451055099e-7,2.3685501956326417e-8,2.4283537058870406e-13,4.304864501746566e-9,2.388014123456482e-13,-3.151871006460892e-8]],[[4.841074922408192e-12,0.4327688790656174,6.38793216881551e-11,0.1093995844277145,3.2378774587236166e-8,0.6964500687719326,0.41896446537883736,0.10099939884264839,8.693312962541511e-12,7.10784698300318e-12,-3.648503463028642e-8,0.2308588653364377,-5.142201735967619e-7,-4.436117797004467e-11,0.000054719158539518396],[0.000013560474199254745,3.773717276628624e-8,-3.849772270406758e-13,-6.354636742874287e-9,-4.275543396533079e-12,2.979609296246543e-9,-1.0432843172772696e-9,3.118036660507125e-7,3.8664491183201184e-13,2.405852020449341e-7,3.9172643799087174e-11,-2.5550142611525567e-8,-0.000002964361635480475,-9.64025510514992e-11,9.789236160491747e-7],[-0.0000503271549700618,-8.095556695049809e-8,-0.000014953588023149887,-3.3337818741738123e-10,-1.9891422907260426e-9,0.000004846811092288872,-4.3117898103493055e-11,1.040721560222134e-10,-9.502270643051044e-11,1.5045081928302442e-12,-2.8798853305808327e-11,-2.0195441270055986e-10,2.51277e-319,-4.732542604246304e-9,-1.211818705179807e-8],[-0.000009680928818915513,0.5427280889368891,-5.285547471186371e-8,0.29254221529289093,-5.3966055272147235e-11,0.6416865607854289,0.588514066311684,0.2633073241757008,-1.0831086131446316e-12,-6.032316024126761e-8,-3.1315922706735024e-11,0.6904271816851081,-1.0231470117393127e-8,-4.816916478361836e-10,3.354469750314655e-13],[-5.6405532285397235e-9,0.3164481556540177,-7.902047204522189e-13,0.5860800432394742,2.9865e-319,0.5279106775493903,0.47358262682322005,0.6193872177672725,1.9403470360715505e-11,-2.2197033739715965e-13,-0.000012120464050004727,0.3591443658487155,-1.412201009249329e-12,6.468172824501609e-9,-0.000004741346355756946],[2.4669177625875275e-13,0.2968120187411587,0.000016216709502685263,0.252405429258563,9.63371473721502e-11,0.3258434623281286,0.42674437750671634,0.6054606170503052,-0.00014653546207540078,1.2419920592637536e-8,-2.1322460288542803e-9,0.27280747426524926,-1.5758713567176708e-10,1.4428762981933175e-8,1.3912937870316288e-10],[7.872668648306435e-8,0.3332573534000532,-2.388779505987433e-13,0.6365462424066924,1.0549500235604245e-9,0.2678953521718252,0.5465760557029835,0.13200013245463274,-1.8733446390226065e-12,-1.2796500113051021e-11,-3.0883349022497467e-13,0.7400819941227723,3.8169876644931314e-10,1.994332538952211e-12,-6.8562409910809e-11],[3.954911153848599e-13,7.279804350110198e-11,-1.9901e-319,1.5497016627670123e-9,2.802033936093034e-7,1.0335924951794792e-8,-0.0000012889753132505595,6.689547581399893e-10,-0.000007170558482543525,-6.223554816732178e-12,-0.000001228778954674689,-0.000005310950459545218,-6.924096947898114e-10,-2.7002e-319,-1.531551668378177e-12],[1.421690472332268e-8,0.3340520111430441,2.6228543715312388e-8,-0.007284088612206056,0.00000243535487263878,0.7792357400899432,0.28573150914319995,0.2721687691795194,-0.0000010790946719151465,-0.000003942946244353486,-2.8762150256482895e-10,0.5574765293121032,-0.00002243390611802427,-1.2847688596091642e-7,0.000006749864849471776],[-4.598570205657911e-12,-1.7526302951922164e-13,-1.0216317804796996e-7,1.046953850633773e-12,-1.4314793321632177e-9,-0.00021137975592975118,0.000005438812699924013,-8.703539353913817e-10,0.000015248677917798232,-4.154748543854414e-11,-8.081029625691104e-13,1.826230185511608e-11,0.00009537392392921133,7.698420146621863e-13,-1.3954448266775723e-12],[5.436299284120819e-9,-7.750955864156541e-11,1.7447876976989787e-10,1.5515820003018723e-13,1.1112829334575369e-7,-7.439015306806601e-11,2.3508707190701645e-11,2.2734927536838474e-7,3.132714370354174e-11,3.09317328623614e-10,2.2617535744874353e-10,7.924006242152242e-13,-2.201092414221529e-8,1.605446785838258e-8,-0.000002576261186727698],[-0.00006697087691678297,-2.217130042881281e-13,0.0000029838657130027384,0.000056104248548958,-3.867509531631311e-8,2.20086e-319,-1.9806109662383342e-13,4.490741690589363e-11,5.3384e-320,-1.0657853830899538e-12,1.0997121314070643e-10,3.996441795408996e-11,6.1351953411124376e-9,0.000013660880733684413,-0.00013960758103167935],[-1.7370449918352236e-7,7.02395126639539e-8,3.489662737005853e-9,-1.0279589787663244e-10,8.032817799371179e-9,4.710376063443526e-11,-4.603948470323161e-9,-1.5621405389383533e-7,8.016258862095407e-11,-1.4646074182485896e-11,-1.110522279006863e-12,-0.0000012547510664716758,0.000004983322519651888,0.00001568476430722401,2.732232936400459e-9],[-0.00000936504827733605,2.3281975286865405e-13,1.5363329058774287e-12,1.2658925892910542e-13,-0.00000714308230009903,-3.5215762371253743e-13,-0.000017833960970133573,-1.2935212040053118e-9,-8.87049123231961e-12,2.0257879128751773e-12,-1.7020053696853287e-12,0.00009365433030477451,-4.6616e-319,-2.53873053603294e-10,-1.8127527131918493e-8],[-3.7965155286199684e-10,-3.666605585423795e-12,6.972962146249158e-13,3.190459925371059e-11,-7.307649887719564e-12,-8.242014454668121e-7,0.00006166375149380793,7.325121845650967e-13,-2.2145738422807936e-7,-9.983054622068329e-12,1.7026440257607267e-11,3.1317107131066544e-7,5.070995661722826e-7,2.4578082804228303e-10,1.6188086529967062e-11]],[[5.968761539208924e-12,-1.7979352140687452e-8,-9.126415791632875e-12,3.726730442373542e-9,1.8957014755517898e-10,-0.000006194487430277363,-4.1800861975945645e-7,0.00005493835032262996,-3.405949904830723e-13,-2.516288076543827e-12,1.4026896692425565e-11,0.00000889995461561165,1.403447690078919e-7,9.537553647256257e-13,-6.7606682862406526e-12],[0.17548490214327825,-2.5279233764114114e-13,-2.0391209564457853e-11,1.1516881257651596e-11,0.3470519883637315,1.8346795506802757e-10,-1.1813202128741866e-11,0.5629525971230701,0.2858387036256814,0.5811112755842749,3.713832562116563e-12,2.849109859486078e-14,-1.467427899846067e-9,0.24635776768484838,5.4727430765719895e-11],[4.366885664679207e-13,2.456020979442532e-11,6.65025689690188e-12,-4.2532731736840864e-12,-0.000007583033822102854,-1.934374542952778e-12,1.5018429242817985e-12,-5.599735332530316e-13,-5.967432179558727e-13,-0.00003554308212409555,-2.1223759539772115e-13,1.8997e-320,-0.0000011171856610093064,-2.721198727310731e-13,-0.00021604967798361912],[0.5969653194460566,0.00008656554806450817,-3.169438997604059e-12,7.530591770339203e-7,0.1521212960357902,-2.697620811808829e-12,0.000007651405056803869,0.09229653689674361,0.4524121548249087,0.2748731486270366,0.0000014752675716285614,7.53713637738671e-10,4.08550684077268e-9,0.5402106166887437,-3.049383539393439e-10],[-1.605055668129645e-12,-1.2832622785733824e-11,-8.811200934562499e-13,2.6835374040194294e-9,1.215055863867842e-12,-0.0000016904158279798603,0.000013447395948533463,7.606773181997357e-13,0.00004738973114830988,-4.16107e-319,2.5840699682359587e-7,1.0572495868633384e-11,1.4675630013420765e-10,-1.0865119773457911e-10,-3.1628828372657774e-10],[0.5159456856820905,-0.000003847371486771479,-8.882173009468294e-7,1.401550149153299e-12,0.3109176305094021,-1.4533663826106908e-10,1.5214331342270495e-10,0.5702855338743307,0.3028096534473387,0.7859084236818136,6.518028525942606e-8,-2.504505902362016e-9,3.2461549838036526e-8,0.48691803550315627,-1.601524138245128e-9],[0.7584323613130266,-9.014004343907757e-7,-3.302505192880324e-10,9.753241864608616e-10,0.14709521520365643,-5.124091874663222e-10,1.2978410732551066e-10,0.6651268000077224,0.49886226621527974,0.06269018602175655,0.0000021132814911838655,4.326904231213753e-13,3.348437712606152e-8,0.45921529616191464,-5.909600591533165e-8],[0.3618371113683315,-1.350289782694234e-8,-1.1327942794368965e-12,0.00000343655856582003,0.23131012747326476,-0.000013790751411791785,-0.0000018617261705122577,0.3553294212288684,0.5377108643565492,0.180679236636551,-1.3133913408368012e-12,3.203492307677908e-12,8.130151306801184e-9,0.43490245017788054,4.026421208315574e-12],[1.2860470342863042e-7,4.262284350022342e-12,6.498839318214896e-13,-2.534574690666141e-9,-8.71650576268896e-13,1.4566404926751335e-11,-3.0158278174030957e-10,0.00005000956630986225,5.8317063099817e-12,3.160400856677514e-10,-1.3234456763813342e-7,-1.4645718147961754e-8,-3.849935022212578e-14,-1.4421121447446322e-9,-5.754177316191908e-10],[1.1455955590360171e-11,-0.0000984262849266249,0.00014344666335340477,-7.779226092709601e-7,7.006871211530058e-13,1.18949628878576e-8,1.1507690645207498e-10,-2.2535642182521527e-7,2.0562435830812763e-10,5.924276594282947e-12,0.0000023170014240717353,4.239409700486771e-7,5.912325127312628e-8,2.568840818731431e-11,1.3541e-319],[-9.128702192861737e-11,1.6186973664538206e-10,7.401669222775827e-8,-3.092162214597587e-7,3.341800746430422e-11,1.0747972640742277e-9,-1.6285627989876505e-10,-1.465290511709809e-11,-6.054032364559127e-8,7.622481783469683e-11,2.6828709383520324e-12,-7.718092039814856e-13,0.0002251897128389844,2.9212901196207498e-9,-1.0400550655046599e-11],[0.493848585043685,-1.1826553571119594e-11,1.682908920750232e-10,3.7060905351543523e-10,0.3020732212457418,2.8124694181041887e-12,1.0759178599994185e-11,0.27898653433689513,0.648046153917735,0.44376176272160417,4.5246822574725484e-8,0.0000025145693810939248,1.2328596453982253e-12,0.7759268948344319,-4.27113137417229e-10],[-1.2021331282708835e-9,3.8851092426114535e-11,-2.69432007036273e-8,-1.199162439482933e-12,-5.401979540721995e-9,3.1183512703169396e-10,5.6505986620271764e-11,4.906711628748314e-10,3.00995e-319,0.00004028185950495083,-1.2757439228503024e-12,-1.838666740343405e-9,3.206869889278888e-11,-9.76356612150123e-13,-4.5596674451747054e-9],[-0.00011024555928306261,1.4415189248260574e-9,-7.949556184400861e-13,-4.4881606373790964e-12,-5.027753585993827e-12,-7.495086172462092e-9,5.875985250334261e-10,-0.0000014735512263596231,-5.920263921489208e-10,-0.000026944288949998095,-1.1809153563303744e-7,6.509186909936977e-11,9.32228111563888e-7,2.0782434124691558e-9,-1.228874398053435e-9],[-0.000004106971582859845,-8.383942432099156e-9,9.414286698673309e-14,-0.0000021110832418471554,0.0000012968525894687608,0.000020889003063553113,4.693113801254458e-10,0.000021249726680394582,-0.0000015024338793670304,1.642707264764495e-12,-7.128801571208517e-11,1.1240014716920265e-12,-1.1661968154007969e-8,-0.000016547113238692843,8.260304006838928e-7]],[[0.7588459573638786],[-0.00020992281744705322],[5.27603484523661e-13],[-1.710742728784304e-7],[0.3309318968501666],[-6.09840707121408e-11],[-2.066368644163642e-11],[0.8909499897664054],[0.41924081786658385],[0.8066778906577662],[5.6593585266351496e-8],[-1.6756925206453163e-7],[0.000016146696003944925],[0.7895581185739734],[1.2325583945895794e-9]]],"split_point":8},"nn_main":{"intercepts":[[0.5770776811293631,0.8183511968600948,0.8499022785937972,-0.010216372374730004,-0.00834023745681996,1.0228962757243367,0.7233494143244201,0.778472184629753,-0.03991406829077822,1.901632444323764,1.1883873936927392,-0.00707441246144409,0.6393083541901219,-0.009587512949158172,-0.011299889632063725],[0.4387603796564739,-0.029030647641191842,0.08492642919392364,0.8508012026414092,1.0132596769397926,0.2033739214826081,0.8447898618722254,1.0637445258607576,0.896484585940126,0.9506017412568236,-0.25010475609546656,0.4164348626504702,0.7069579922932785,0.7072759358984604,-0.028547884139877706],[0.1770164913005845,-0.060112937437711594,0.6354609726250384,0.3730544392260018,0.5139901164679589,-0.01725913726496561,0.44673938333589347,0.789004102129685,0.292786726596266,0.2588619817595125,0.5454435227702584,-0.014487665012035437,-0.10690151919227245,0.12330968566907378,-0.05930825468812057],[0.41059470687096045,-0.024919409945104633,0.1797849686790942,-0.060427121147394916,0.7021507436369143,-0.036612038558391985,-0.2477019065993818,-0.3264509783224339,0.785833618867886,-0.2673435858678361,-0.03458427135073122,0.821913700577093,-0.19894566028731406,0.3631865476297327,-0.42103962651278815],[0.23176649723556425,0.4766039614194387,-0.011167941519292394,0.2784515128249144,-0.11672493774305066,-0.033813022827461944,-0.05321777204541593,-0.00930219214826829,0.005734857777303278,-0.01372499936098704,0.43928944842178813,-0.5701179024775036,-0.08229395855944767,-0.06981813342625294,0.7907973015240508],[-0.20742144330286055]],"coefs":[[[0.0000653217596913785,0.000101805430298693,0.00008832984500367528,-1.9305152562748786e-7,9.608549899340973e-8,0.00012249585757523657,0.00008638448581364289,0.00006168341981579751,4.4439036083436657e-13,0.00008997455984213515,0.00009907361956725368,-0.000004977682329045919,0.00007285606907181226,0.000029069191827287733,6.634944888026768e-9],[0.00007605654950616752,0.000059261319530531775,0.00004996535392038978,-0.000018035133672981734,4.55219484722084e-8,0.00007128029586111352,0.00005451424213428818,0.00006702457702400484,-8.774068220306286e-8,0.00010552975108867399,0.00005654400602504451,7.12411347663424e-13,0.00007025773487875826,-7.598010801163894e-11,-0.0000021086216409312807],[0.15536982857713028,0.1273254398822127,0.154986633675661,1.6330044266419003e-11,-7.556449186170136e-14,-0.18257881347098673,-0.11599214544892636,0.12391537248944542,-1.265685065087467e-7,0.06923499336725439,-0.34156517143625936,-0.0000010767770218500179,0.22643886805639696,-1.0235195529279146e-12,0.0000018519309565403063],[0.06370049661680033,0.11827065297567915,0.08922949057877756,-2.6357333287885705e-10,-0.000002995465181530038,-0.045736187701688524,-0.03220735951103876,-0.017887440642559326,-5.307689169740683e-12,-0.011660740734781287,-0.023753098835258384,-6.125261663429386e-8,-0.01838569854780356,-1.4920062980717484e-13,-9.208912400176411e-12],[0.011054990117162286,0.10773156637782894,0.08907759993356476,3.3716e-319,-9.540639883075845e-7,0.051325785595315525,0.04018377882489596,0.005379712595677719,-9.59289803538412e-7,-0.05818583161002382,0.02056342278792078,7.867624007775782e-7,0.01061375554134563,1.9554609089424854e-10,2.124071049133243e-8],[0.0638459455634196,-0.02867008934781597,0.12391214775273908,4.758629282816077e-8,2.6065201744361904e-13,-0.17483524554080493,0.0658874056309498,-0.10098955118289633,1.4332271592191674e-13,0.06145953243163496,-0.18258320476203835,2.53006e-319,0.06126102108034319,1.2120469213820942e-8,-1.1883832843907772e-12],[0.026567942370334337,0.030155452617258226,0.16525474761580505,0.000023815667236585487,-6.92363487980669e-7,-0.06895870944997708,0.1817588283601764,-0.020095775158685065,-2.059058033182872e-9,-0.04654381440623963,-0.059691615411919016,-3.6547445130658204e-7,0.20490108675487037,-3.833791351859322e-9,0.00004181950866788119],[-0.08826853552642427,-0.24696979122103743,-0.22277233039347843,3.24744e-319,1.956817056105235e-12,-0.2127768066471952,-0.12201434740400766,-0.22955468210631205,6.134494183884088e-12,0.11838265291554485,0.16210591776229435,1.7598048199371638e-10,0.01285555594892563,5.4025417333029085e-9,0.00007800319872899599],[0.15414743697397187,0.14950656936693424,0.3258575198575,-6.41862671519533e-8,0.000007721610369677126,-0.14615596755010293,0.005399471725797856,0.060506570384886924,5.719752833326874e-7,-0.10963470609225431,0.12962117001042822,-8.569769953638353e-12,0.30955193381485774,-1.4587539476095042e-11,0.0000027678053524140512],[0.010763491449145634,-0.00849834464552717,-0.09673374760656821,6.048411642900632e-13,4.859926878369286e-13,0.006829863355705128,0.047094822688616346,0.00006594206518853113,-7.234763863844361e-10,0.0022092525677333873,-0.016581902145765,2.2867070251082278e-10,0.07651810345405109,1.9819376066914638e-11,-5.810615178006828e-15],[-0.03367750927433571,-0.027413974432162518,0.057641044802770054,-8.779935013781819e-7,0.00020243998776246595,0.24450295224709045,-0.041094455617897756,0.018503576019653033,1.514211792194426e-11,-0.10937500836831382,0.20473417705466576,-3.0547130984677965e-10,0.012794607425251427,-6.287800245167464e-7,-2.251828138942213e-12],[-0.02463901221662112,-0.055287436942950643,0.05807701048700995,-1.3621170897123625e-10,-2.3517481309715515e-7,-0.016149933810005315,-0.057307639834263166,0.03474560438569052,0.000006482987070219503,0.016210215373653216,0.029243404830819195,1.0529142664188698e-12,-0.08711376547765669,-1.379642253095964e-12,-0.00001674878489959383],[-0.058524922589901766,0.16106575345580476,0.18357453163215853,-1.2653775141850131e-12,-0.000002110691775541223,-0.11118888542903482,-0.21201216512210602,-0.05202075360860962,-4.376244192213471e-12,0.00993726057465176,0.04600068224921256,-2.4389361492585007e-12,-0.13289086740865552,1.3723535078617086e-12,-1.181324019154719e-9],[-0.026666622306024786,-0.15381121864080646,-0.1617568860381124,1.0713392882771577e-7,3.272937022552853e-11,0.03408428074408242,-0.34141533035188654,-0.01728731195838123,-6.629330792881796e-10,0.09014790006144596,-0.036539529704661705,-2.1382854941894086e-8,0.13152279983081339,-9.17722514845894e-8,-2.3610390665123047e-11],[0.16285276705431195,0.31752870089692536,0.39298054074199207,5.332878381572554e-8,9.487761330543325e-12,-0.015707784043285006,0.30006895289837776,-0.1461831468290389,-3.9574240525431985e-12,-0.21424615133103442,0.2449143880406641,-5.311020858701237e-10,-0.005522157001547434,-2.1774969683197436e-10,-1.3683659180035547e-11],[-0.0041763996507798995,0.08066565607152672,0.09374548388576176,0.00000921610819110322,6.970535476425753e-12,0.06884305903150044,-0.006610508419902866,-0.0015266953730258023,1.5200518253503822e-7,-0.04241950752200652,-0.007925983472320224,-0.000029053670354660742,0.000010266711639164927,-4.303e-319,1.499619524537788e-10],[-0.03164715460003485,-0.2759183799771775,-0.21003985894473803,6.631418619070402e-8,-1.2677684990526164e-9,0.12524522318196862,-0.2186418470505949,-0.02118948961065536,2.6053e-319,0.1043890785047249,-0.06127703565274438,2.9532256738993853e-10,-0.05091153050883023,3.744541257393667e-11,1.208201875029026e-9],[-0.016863584462566666,-0.0446894406207203,-0.04699188736806317,-1.58447e-319,-3.227665464697067e-8,-0.026605294450532942,0.09688369048999608,0.07127096853894137,-1.3855358128235352e-13,0.015321901292680035,-0.017365441077836222,-0.000002539170026617231,-0.05549338688478652,3.581822097561363e-11,-5.26222718564475e-13],[-0.08923633367499408,0.34052253123286885,-0.19775614582719028,9.322207459702188e-8,1.4887066818644028e-13,0.17988045434292468,0.2780790127778945,0.014749560467006699,0.00003551250462859032,-0.04860430576730606,-0.27693263332931733,7.693961466959828e-11,-0.03002728534256456,-0.000005859962131390864,8.455837144227824e-13],[0.016644008885910208,0.1353762296023192,-0.19512584426900237,0.000006064221027052474,-4.377155227487534e-12,0.06038265065686015,0.013063142394172597,-0.04018560458484687,-1.864471153304301e-10,-0.005463678882336351,0.014006928407193402,-3.7352515300760783e-10,-0.10441002104382427,-2.4871769863039313e-7,4.952960859933645e-7],[0.13730825547401063,-0.0607734866954228,-0.19555186965137256,0.000051173362195976674,-0.00007950806901205407,-0.10841533980805557,-0.005109985547018624,0.12301498153292073,-1.0314440155606285e-11,0.007804196593054442,0.18932784885475845,1.9701101215383786e-9,0.04717754415016423,-5.944624018535621e-10,2.3960011636006412e-8],[0.0017237286970288993,0.07242758890565845,-0.12624165780452212,-3.0739499290024616e-7,4.808869610977835e-12,0.009887244679316712,-0.06306670697028582,-0.014673400247478909,-1.85458590397112e-11,0.0002427317565770019,0.05277344946894539,0.000002260047126670327,-0.010681190615119456,1.934496913739817e-9,-3.761251110820027e-12],[-0.03977859870927754,0.0791582847099387,0.010397000465208379,0.00003875123125803434,-2.730344976925762e-10,0.10019886851936548,-0.045278245812333376,0.018027819512616415,0.00001219011373777197,-0.04053726599300181,0.01843465415194537,1.5633698344078443e-10,0.019091923976321055,4.1255e-319,-0.000003243224162765981],[0.1467262418746495,0.16044895988768834,-0.038456043754438514,-4.94275779665977e-10,4.155130333678584e-12,-0.20631548787992038,-0.22822363798762926,-0.022908733174201456,-0.000006245695825398853,0.08154314146879098,-0.06572663249382746,5.524921264424254e-11,-0.06496541063177795,1.6067657252801905e-12,1.3622436951656236e-7],[0.011471356532869388,0.011818296348381522,-0.06311382936825265,-0.000021845277623703715,-0.000012032711439901863,0.025513679302492574,0.11952021581630977,-0.015546640351939886,-1.2330127093857702e-12,-0.007285639773756646,-0.04587614274073693,1.0444108941767224e-10,0.010965522528140554,1.1840981289907578e-7,-5.4288133565831724e-11],[0.06603184577328268,0.1315013832394058,0.3789382857445674,-3.6368e-319,-1.5173104478737363e-12,0.36374849142769516,0.10738896342754672,0.1159490347940042,-3.137393784169132e-11,-0.18846904254225227,0.007084318228542584,-1.7101045127039233e-7,-0.042884622699828116,2.0224086953594781e-10,-4.331691852725533e-8],[-0.007167296201128259,-0.1552629775717463,-0.023311793617708496,1.0892139249438564e-10,6.134322528249479e-13,0.0939495691398825,-0.06894120536701467,-0.01206385841288422,6.698342440726747e-7,0.03497420315385286,-0.05614862416219218,5.943684292737628e-10,-0.01641225488789255,-3.0632912986720316e-11,2.031674619369077e-11],[0.14763879627238297,0.27816791613821135,-0.17375766520539015,2.9089112973711662e-12,5.669752189201106e-12,-0.057683722400542675,0.40540100674846014,0.11319106510204262,4.917195782854627e-10,-0.17760744460465772,0.3097283521559861,-0.000008059959201169566,0.19698845852468436,-1.7376292255483067e-8,6.674630055284832e-13],[0.22301240577527653,0.24595502593554752,0.2646308814334482,6.467933611085251e-9,-1.8901184747305e-12,0.13684022176993335,0.029852170800420803,0.007396244664853189,-1.2348569031687973e-9,-0.15773084235178053,-0.026069005507810706,-2.0338506113386265e-8,0.3342559941869679,-0.000009513251614853439,3.6658402422409164e-12]],[[-0.2161634024004092,1.9815085259829284e-9,0.3660434938814239,-0.04402226061294159,0.3887527382733238,-0.2094572624332132,0.4750671766712054,0.46501123553185636,0.15056000568247374,-0.176575314367415,4.055119154037956e-12,-0.12263584589321433,0.010105407597369255,-0.21631853723646985,3.965407402429907e-12],[0.2527577004947321,5.0072658710063635e-9,0.4351738001941274,0.3498954799659288,-0.09387446304584937,0.5281321887087016,0.4522221477898007,0.4955604038253518,0.31079910426029883,-0.1396006014608034,2.6838812341867965e-7,0.09532456983529676,0.5167926719035155,0.08813632426024909,2.344333349764149e-9],[-0.0032359190932408723,-2.9156661125135634e-8,0.5623886534295185,0.006611738651495699,0.2318584027126047,0.35683271745256856,0.3541502518649858,0.18412110360417117,-0.008308365386012607,0.41579149761743694,2.5163546286680405e-13,-0.10136343486054471,0.14162345730299333,-0.035914351593463636,0.000006272404834087814],[0.000001003667054173815,-0.000019316478667765238,-7.1366092784819794e-12,-7.91783225794248e-9,1.5732588103834665e-10,-1.734916215290681e-9,0.00013760046420820655,-9.820349863965983e-9,1.742639847909314e-8,-1.081826296555517e-8,-1.3437640472829404e-10,-0.000005420125900630982,-3.6653849289433456e-12,-8.749837385028043e-12,0.0000018707896221654014],[0.00000516560633144025,5.2445256022367724e-8,1.165370245504068e-10,-6.024713713482224e-11,4.6989377868243264e-8,8.209745057128866e-10,4.834873359263182e-13,2.596892683655556e-9,-3.035537201623287e-10,-0.000027692241236982144,2.588512211956487e-7,1.72759575138542e-13,-7.179261404071228e-8,2.6115188747744086e-8,0.000014665541972227704],[0.6378394274841099,7.981801005515899e-10,0.360635317179001,-0.018674990680019432,0.2807960679827424,0.6222257601107375,0.5542678232040398,0.6335628721381836,0.5148776711356409,0.07040277842688722,1.2340775712261014e-9,-0.03577063448849588,0.4486274304556449,0.045625199104085426,-2.325422850554874e-9],[-0.15908328338513564,4.2997070705149586e-11,0.23108039917688758,0.2628655091763157,0.3871870799162983,0.3032976883327223,0.18797684270139178,0.27832285504891613,-0.32396292319548603,0.1080672618155602,-1.2412082417906058e-9,0.5010710960259245,0.15803440070423222,0.42285334952089704,-0.000056451292776835564],[-0.1534139319927792,-1.276901199106048e-11,0.037534235287092814,-0.20718528991302515,0.3179169248113647,0.10573568249763927,0.4261569915069691,0.462927986855511,-0.13260472656632663,-0.22724132331315594,-0.00005616952495337955,0.18442594915271507,0.25327748590272176,0.004099160223057963,2.286468871899487e-9],[-5.856826225907582e-9,5.061386283913864e-10,3.25105e-319,-4.265165886266885e-8,2.1617969524537373e-10,3.133794529612253e-7,-3.017572783356075e-9,-2.4340299751654653e-8,4.0950557416672293e-13,3.2307106527416195e-8,1.1010215813416621e-7,4.0016103119651036e-7,-2.435428226280298e-11,-7.280709333580092e-13,-5.240126667928537e-9],[1.051157707613811,-6.496460954899276e-9,0.9370357077716787,1.2656668296038491,1.163084952619797,1.1507374106183441,0.8658506114847329,0.8128665847673366,1.6347203268029848,1.687319325956561,-1.2509966255739003e-12,1.1983265867909079,0.7156714639969983,1.5033874594694616,-2.070535051470296e-9],[0.4059110262536838,1.6309041991342344e-12,0.4298315284565947,0.5748707108139102,0.626731421274254,-0.06415657777975392,0.289138371350715,0.07203183066531141,-0.004829825146886669,0.5353871884309731,3.2306229674289255e-8,-0.04281147577801462,-0.007486645127036401,0.4014991053462763,-0.000009079361570612401],[2.2464713412140035e-13,8.467371448110927e-9,0.00004646664106454219,-2.1018090687986615e-14,-0.0000029237893114553596,3.9576493076480305e-10,6.578412970208431e-10,-5.550496122513129e-7,-1.6866938708985975e-9,-2.323605023860725e-11,-0.0000035114340715022706,-2.2943e-319,4.293034902963024e-7,-1.1693896003686609e-9,-1.889784871644165e-10],[0.30112770249718146,-2.709613357499652e-12,0.155315101800852,0.027540934550421368,0.4890569273084266,0.3507878152681442,0.45281201632923024,0.15696611741390704,-0.2390633304730468,-0.1179086936389411,0.00007349319553873139,-0.20307367074170246,0.5067769024849312,0.14444614036512443,-0.00006958846127338923],[-1.6482404725502223e-12,2.2699601861377735e-11,-1.916708354931705e-9,1.983770008717717e-9,-0.000018438326894348916,0.00001390904661274748,-0.00002522528046792886,3.512732632542931e-9,6.307300345063756e-12,-3.0727e-319,6.082287900208422e-13,-4.514293196846949e-11,1.8436102443123652e-8,-5.373723725167609e-9,1.3472769553302777e-10],[-6.654107809239043e-9,1.0207992194535417e-8,-0.00018031760911382946,0.00015219937313583337,4.75973e-319,-8.444183588742265e-13,-9.616337202486576e-12,4.339708537861728e-9,-9.066492774907054e-13,-0.0000026956608217959416,-2.2123404158454594e-9,-0.000005575499971104829,-1.3231486807773062e-13,1.2441734727171924e-10,4.854707479009526e-12]],[[0.27499757057752783,-0.000035942008373315024,0.5643488659803974,0.5558270607548185,0.7412718817981457,-9.816850930343152e-14,0.37319985144728485,0.5846750403543842,0.16688192575194585,0.07673615823888516,0.10269005610456206,8.012323636676765e-9,7.445546865098014e-12,0.34594016640887176,-4.543972168438326e-14],[9.543911522850075e-9,-2.7378104971958415e-10,4.843157234697881e-9,-3.471717160423087e-8,-1.6298965119512222e-9,-1.2023261325326962e-9,-1.0191408226337458e-10,-3.307618171245951e-9,6.371235750948761e-14,5.3255e-320,7.808725897359714e-10,4.931923549595895e-8,-1.191138809212178e-8,-4.701954279179178e-12,-3.329017684879033e-7],[0.5568938816091327,0.000018882773977333876,0.4942442216261817,-0.2508994042299669,0.34665900957475043,7.971183488490025e-12,0.531119761076296,0.16381480619686004,0.5272087927421055,0.2068882411716548,0.5578736231181952,1.1695e-320,4.38933e-319,0.3233623658829059,-1.361919005327013e-17],[0.15017338233300206,2.9021768348581413e-7,0.16613386746944847,0.2055111349016165,0.3620384762452382,-5.8763865792379704e-8,0.03964658626082415,0.05533626366016072,0.5926670370579866,0.3851156933922671,0.5426946490564105,-5.573180668208764e-7,-4.5449073219444e-8,0.5717081028664527,7.261963173556978e-20],[0.34713522635596217,6.451491758860665e-10,0.28956455219835725,0.21994674610527967,0.4167116890708643,-5.0509966752616424e-8,0.5631202161489677,0.536606552497904,0.23402936632328505,-0.08727061197386606,0.19403998213137694,0.000033459883801846255,2.3644228096682382e-11,-0.10278993525995,2.52463038526947e-10],[0.10500583046921641,2.2420687361488043e-13,0.3113761770005793,0.4043621147552621,0.16217319756496373,-9.235185217015488e-9,0.38081257405606694,0.015961227742293197,0.29032661320544134,0.46815265140575363,-0.025051092129564398,1.4458761506746603e-8,4.51013e-319,0.5494183953272443,-2.695614152915049e-19],[0.43855042502688407,-4.20643e-319,0.04708708597401467,-0.1349109837101332,0.44730746873148275,4.891602096666809e-13,0.5956405426936033,0.08550067302313737,0.11026183912033148,0.41994755266916634,0.37957281165604667,0.0000013759691245910048,-5.031199364550553e-12,0.10003851512222053,0.000002172208909906263],[0.21583510186432023,-2.8193343525606213e-9,-0.2053728670846176,0.37384770337640066,0.2544376622439289,-1.009933612256855e-7,0.22936788868028588,0.37296863884192666,0.1342917499080675,0.5305204945395114,0.5967261640253737,1.2409503281188448e-7,2.8124053587774682e-8,0.35900255990798724,1.186075602641377e-7],[0.5910988719592555,-1.2871500225986988e-8,0.3859307731570481,0.20519579856881873,0.4407963866506243,7.64246802820468e-9,0.2011779597599938,0.36363396116138014,0.48519765575265483,0.26416855568792497,0.5589426643075438,7.009360423164129e-10,0.000001804569021399176,0.18698641649478237,-6.892122806468934e-13],[0.8092087063414657,2.0636288428331352e-11,0.25162197109834433,0.5898853564142957,0.45602803942699527,5.108925067070999e-10,0.6065232122019469,0.7438691890780231,0.4739030752869911,0.46647439674443575,1.0309371382531367,3.359122408795e-10,4.458466671670013e-8,0.6771476741429688,4.3153856231277966e-7],[-1.6635e-320,-2.4813263649862523e-7,0.000003708592805392885,3.169486749149862e-7,-0.000013259681085422848,-9.479110206918415e-14,9.780153570258715e-8,-6.84898107281487e-12,-1.9629159901825133e-7,2.8940381910236533e-7,-5.637601071126112e-8,3.1377234792503655e-9,-2.6730242237347197e-12,1.7079916873608954e-8,5.256991070143658e-7],[0.4777760474868562,1.2078339244009423e-8,0.39435498696280463,0.38050928813579116,0.17640468230439468,-3.645852103133778e-9,-0.11051751136125178,0.42792769368964395,0.34830630085681147,0.24936568736190942,0.23276348495713856,-1.3957482737755892e-9,-0.0000015515819442780655,0.5494541407194692,-8.507057060591862e-8],[-0.13246725082878283,-8.452903449538247e-12,-0.10979997894330641,0.10941536254114628,0.5977712007881686,6.107228066726424e-11,0.4155829656178792,-0.05572213061588035,0.6047493664729913,0.36971861952893803,0.31278857982784003,9.273319445994385e-13,3.212308481514934e-7,0.38366429575543703,2.119303307731429e-22],[0.5789884616995148,-0.000016343890855735808,0.13806224366226527,0.6493494530457325,0.6765422812295361,-4.0405211482242245e-13,0.662814981680119,0.32285802951044623,0.794265339760276,0.4418600943140889,0.8040802491075975,4.8200772897188325e-11,-1.2309317510511353e-11,0.3417588799453015,0.000014376328211159957],[1.9947206836786455e-8,-4.248659700070335e-9,2.2463193831131118e-11,2.7262848757766867e-9,-2.733577921043489e-13,-3.4484758687222823e-12,-4.05124e-319,1.425573874784619e-12,-1.4770136226192013e-9,1.550382327698643e-7,-2.0783683195859135e-12,0.00000112507732741322,-9.051511539542776e-11,0.000005575073781493891,-3.017634289343126e-12]],[[0.42090935547369157,-1.608757e-318,0.3328399323885891,3.659407044622335e-10,0.07823911817604409,5.4997739958768616e-195,-1.6966564696920664e-7,-0.0000063924954233395656,0.521481215594912,-4.3537852636281163e-13,1.2946962841712993e-7,0.5421311245964109,2.4185222672247843e-8,0.1137189671868075,0.00003779710315865056],[-5.185209174665018e-10,-5.395558054747152e-12,-0.0000012797569742640913,2.8441224594524417e-12,-1.1603874151938015e-12,2.3106409242473348e-12,5.291972994918742e-9,-0.00004613329949309813,1.246366667989901e-12,-0.00002972099457561069,9.868650096655414e-9,-1.1668568146444428e-10,0.00000471526097446924,-1.2386157225760138e-8,-9.791793977491423e-13],[0.6034398282388116,5.010114714593309e-307,0.6542856626690566,-4.664526599603844e-12,0.2594961573862908,-7.108107463011633e-206,-3.58514e-319,-3.463306911304976e-8,0.4191182598213913,3.3226476897028287e-10,-6.646691400974817e-9,0.19905080941825662,-2.8922016726400023e-7,0.2967987031106171,-6.366360871063272e-7],[0.48936546435855605,-2.308965e-317,0.7429576762629003,-1.9083404996493003e-12,-0.009073859542644587,6.111243547100824e-204,2.199124035377574e-7,-7.1272364565658636e-9,0.4283267940530404,-0.0000017476601498930893,-0.00008993106172069547,-0.06582163194238619,-2.9942921220276e-8,0.3221711070469288,8.324285842510649e-13],[0.5642815134904033,-1.634885e-317,0.05385238586974386,4.742917328434802e-7,0.30229052636149906,-1.3652898200473665e-189,0.00007651688937416001,1.3726747452715875e-11,0.6229053296054612,-1.67314800134677e-11,-0.000002247952746993469,0.4644442063636244,-1.379830766506429e-8,0.5722075840961012,-7.567946210011697e-8],[7.630182309267377e-13,-1.2730035215438394e-12,-1.670936311331859e-10,-2.1551175226506614e-10,-0.000003216859748586199,1.080573924852733e-13,-1.4294865672501886e-9,-3.333406585244118e-7,-8.728125527384656e-10,8.165580894280639e-11,-1.2722623958518638e-8,5.60207726418347e-10,1.5975423254134156e-10,-0.0000011445636622357322,7.685625174257583e-13],[0.446302729158563,2.0994747e-317,0.6340143550975679,6.169015623908819e-9,0.15271624068282183,8.390002457483867e-190,-1.0180446674666082e-11,-0.000020726064115425593,0.16715300256041998,-6.804102091020876e-11,-2.50615e-319,0.6358028139722541,-7.049462289175447e-10,0.5124962473117392,1.244905183409529e-10],[0.6287496821058534,1.163517e-317,0.09845142980024786,-0.0000010483526081547805,0.16591610519981886,-5.083268565293467e-200,-5.299402035004568e-11,-2.2906211595646082e-14,0.49771118452249224,2.5719100272458744e-13,2.9063741998551703e-7,0.017036393736621167,3.801844550131623e-8,0.6960499484976098,-0.0000037589179597044224],[0.6457851280821882,2.2819563e-317,-0.08009546355735814,-3.197564813114861e-9,0.23104561537873072,-1.5747089869229697e-192,-1.31817e-319,-0.000012984921444704954,0.05141545717379951,-2.998670345005082e-7,1.823454670065039e-13,0.28787776524445985,-1.051229626110362e-10,0.3808149095801316,3.737381435418508e-11],[0.5524872922487482,-2.341524e-317,-0.012458127352041447,7.414616173282925e-10,-0.22189368821648986,-3.0334295553464377e-197,0.00003492148077439907,-1.8154225553036287e-11,0.3840434491869534,-5.61148305296766e-10,2.2861356987959196e-12,0.2913942653196403,-0.00010012254926348372,0.2625282368564505,4.322118213451082e-13],[0.5599844706283548,9.57206e-318,0.7240859724310592,-0.00005827718926955198,0.26093524489759146,-1.6308452349090703e-187,0.000027100202217079004,2.9355360978192435e-8,-0.004193360396885873,9.990230647627753e-11,-1.5473994304409554e-8,0.4005808956269803,-1.3802945648742796e-12,0.29628527622555795,0.000002925986701971115],[-4.972879291533998e-13,4.478237796846019e-11,2.926863118414172e-10,-5.232606088557243e-8,1.3672916235156607e-7,-7.007046878585187e-11,6.95899943765511e-14,4.467657765352082e-8,3.829348409037725e-13,-1.9003200857550707e-10,-2.250927538349473e-8,7.728795575027315e-13,8.278576854623035e-7,9.874440720222876e-10,2.3578225531738536e-12],[2.20477e-319,1.945605599162833e-9,1.0600059570621653e-12,8.929424859691278e-8,-0.00011145090241135612,-4.146015527306641e-10,-0.00012790170966264308,1.6159840172558388e-10,-5.5664734862547196e-14,0.0000013359032403011635,-2.0982110921842e-12,0.000008358859249329163,2.036821691172167e-8,0.00001578080093424501,7.057665115306274e-10],[0.33132806064381265,8.179647e-318,0.4196292819587194,-1.1176056405930315e-12,0.12438521005362985,1.2124702215557167e-196,0.000002141300342655818,-2.7738436502247776e-8,0.6680931533684586,-1.7511225585796226e-11,1.3075700278381012e-10,0.4679609366239987,1.4875463416099998e-8,0.12890041420844112,-3.1401317495622693e-11],[-4.652923294274832e-47,5.750002330958487e-13,-0.000002589459625859398,-1.2093175815649207e-7,4.7212368812337754e-8,-5.313346022432865e-13,8.916994816101693e-8,-1.0214396358996971e-7,2.762401795028886e-25,-8.715205676226034e-8,4.088754265600121e-13,3.2738481774886544e-45,-1.0921749147703572e-10,-4.5045910384227916e-49,-1.0035252449879078e-12]],[[0.6447138678872706,0.11626990397530144,1.3257259059446402e-275,0.6916647508943222,-0.000015207570685091316,-2.810967988944341e-271,2.0188075582715819e-305,-3.8927821736865064e-207,0.6517126361817858,-1.908485593879551e-283,0.362064109572346,7.789062481505573e-13,1.47141988223432e-13,-7.881579284627214e-213,0.2372399204069005],[-1.40028747060186e-310,-7.46613e-318,2.147920664777524e-11,-2.25562e-318,1.005655765133551e-12,7.215922653539004e-12,-1.1903626591555213e-8,-6.15568212776217e-10,1.004453e-317,-8.630650210774072e-10,-2.310394e-318,6.97e-321,-5.611568549268708e-10,-1.4793446677016739e-12,1.841711e-317],[0.3592750301637635,0.5905320370406549,2.1311640037928355e-293,0.4862970178324548,5.408248201494961e-12,-1.5449601983009786e-289,1.56582e-318,7.423548422118698e-225,0.019399810588793573,8.402685348679212e-303,0.0965892294383994,-3.9572257057318667e-13,-6.105763265534389e-13,3.914697027222903e-221,0.5656645430257156],[-2.4521e-319,2.6656e-319,0.000001164625457377378,9.457303044108825e-14,2.870380974238011e-10,-0.0000028914106264108798,-8.147830612566908e-7,0.000003866078161384934,1.9203999835967666e-9,1.3095332950711857e-7,2.1350690093435616e-13,-4.593031139374768e-9,2.65625e-319,3.4274704898874056e-8,-8.884626466728409e-8],[-0.09959444539282027,0.5179471061288382,8.05857e-318,0.06453555267774014,1.831664332317361e-8,-1.5309676e-317,-8.28012e-318,-1.392153285611916e-256,0.361107540410743,-3.948953e-318,-0.0030361395938317457,-1.1763804560690464e-8,9.457627260486147e-10,2.7702800541372626e-222,0.08465318793755786],[1.8202199646433113e-156,2.800103022345285e-181,6.748798191170752e-9,5.089984888100776e-170,5.23762808084355e-12,8.053777908208486e-7,-0.000038650252322022655,-0.000007279426671025931,1.634148498302004e-180,-3.618120447371629e-11,-1.9368114612525364e-179,-7.01997800771569e-11,5.634150042258005e-7,1.168986968754664e-10,1.9754160229148072e-191],[-1.2728196827996044e-12,-3.9047357208093274e-8,3.4285903425973155e-10,3.699787286845574e-7,2.8339465118567136e-10,-5.420007754308677e-12,1.5593220775185128e-12,4.544805621186105e-8,5.771069715556728e-9,-1.6281233346414415e-7,-1.4310440194396164e-10,3.071910184302788e-10,-1.6697566424538257e-11,1.1313668504339227e-8,1.4118273972888403e-10],[4.8878464187046865e-9,6.689088501074661e-9,-3.8383906192543375e-9,-3.738051713359067e-12,-2.558905279367539e-9,-6.951595084678169e-7,1.8608679106942094e-10,-3.2018853704606435e-9,0.0000015929627550075705,6.496677411960797e-9,0.000007917542779888552,-8.290606543763733e-12,-2.559595385900083e-9,-2.786104225516032e-7,-3.5534750070040486e-8],[0.7466670911437172,0.189542068301936,-1.1705998411624067e-293,0.13378711753520423,-1.1117786586794493e-9,-4.264121245069391e-288,-2.6634397e-317,-3.2039300718422457e-223,0.2929163493869341,-5.008712016660109e-301,0.3687624707664798,-0.00004278448652773053,-2.05519769898443e-12,-2.5072065768419365e-223,0.42340260234730087],[-2.8561e-319,4.006176908436346e-13,-2.6062334321880457e-8,-6.9317e-320,1.9349760641251402e-8,2.052464020921956e-12,-0.0000017881511682044087,-1.906261135799714e-7,-0.000003500465416799371,-1.1846471122522707e-9,-3.766912894214475e-8,2.6982857093778287e-7,-1.8805407826537544e-7,-7.680736814403882e-8,-3.196537792551958e-12],[2.5066769808582874e-8,-2.0797116468627445e-11,-9.066572334601692e-7,4.4011099784619886e-10,0.000009216095239781029,3.936796413595447e-9,-0.0000023422467701205762,1.0918506404920183e-11,7.941970747196164e-8,1.344398107109928e-13,1.038096387284444e-12,5.849858448593211e-8,7.748945660317448e-8,-1.6215121122835258e-8,-1.7426321012273012e-13],[0.6795961330306183,0.3923490025231469,1.390378763822736e-291,0.6547258773592682,0.000002314972575646209,-2.6028359711977556e-287,2.509206e-318,-4.422525749495867e-223,0.12186940379276101,-2.2842881098505474e-301,0.7230799202156818,0.000016457621003796212,-0.0000010247531423309925,1.246739390778277e-220,0.23849921645123973],[9.867165298362967e-8,-3.595794397613133e-8,-1.5053614241538611e-9,-1.369249609661098e-13,-2.025891877425717e-8,-0.000001175227166032789,1.9187879835464577e-12,8.331686081540365e-13,7.107545357878779e-12,-1.694273153699701e-9,-6.776472803596212e-13,-5.880990138818167e-13,-3.18183e-319,2.056800412754162e-12,9.655993289926689e-8],[0.3680285134691747,0.3360264723858743,2.9992097331810094e-291,0.6033472517012098,1.5814913877991957e-10,-2.895266482595247e-287,3.0533e-318,-2.183463350594389e-222,0.3433830145148705,-5.928237666012079e-300,0.6822193702823868,9.36710682556131e-10,7.198531991306254e-7,-3.086437579842865e-220,0.5681430897211998],[-2.556469849337317e-10,6.77700698110729e-11,2.9940286857943623e-9,-4.61307975328078e-13,-0.0000018459879126146602,-2.69127790778451e-7,-0.00004910032542167844,3.1603344644468326e-8,7.314749418271359e-11,0.00019894248368796663,-1.3942981200371676e-7,-4.576403394391874e-12,3.6954826759778273e-13,1.8148630424392517e-11,2.6471802845249277e-13]],[[0.8507696942885319],[0.44424500967983416],[-3.751891745512221e-248],[0.6086682497897536],[-1.0963064521142785e-8],[1.8515282022062327e-274],[-1.5425123884087763e-53],[-7.172950196206998e-187],[0.45389964531927557],[-1.477827570524594e-266],[0.4722024093736779],[-2.632339199381299e-12],[-0.000003098264247531466],[-1.3434143232831934e-178],[0.3335609245920389]]],"split_point":8},"objectives":[{"tag":"General Smoothness","variant":"macro_smoothness","indices":[]},{"tag":"Joint Limits","variant":"joint_limits","indices":[]},{"tag":"Self-Collision","variant":"nn_collision","indices":[]},{"tag":"gaze_joint Position Control","variant":"position_match","indices":[0,2]},{"tag":"gaze_joint Rotation Control","variant":"orientation_match","indices":[0,2]},{"tag":"LLeg_effector_fixedjoint Position Control","variant":"position_match","indices":[1,6]},{"tag":"LLeg_effector_fixedjoint Rotation Control","variant":"orientation_match","indices":[1,6]},{"tag":"RLeg_effector_fixedjoint Position Control","variant":"position_match","indices":[2,6]},{"tag":"RLeg_effector_fixedjoint Rotation Control","variant":"orientation_match","indices":[2,6]},{"tag":"LArm_effector_fixedjoint Position Control","variant":"position_match","indices":[3,5]},{"tag":"LArm_effector_fixedjoint Rotation Control","variant":"orientation_match","indices":[3,5]},{"tag":"RArm_effector_fixedjoint Position Control","variant":"position_match","indices":[4,5]},{"tag":"RArm_effector_fixedjoint Rotation Control","variant":"orientation_match","indices":[4,5]},{"tag":"Mimic Joint RHipYawPitch->LHipYawPitch","variant":"joint_mirroring","indices":[8,2]}],"states":[],"robot_link_radius":0.04,"rot_offsets":[[[0,0,0],[0,0,0],[0,0,0]],[[0,0,0],[0,0,0],[0,0,0],[0,0,0],[0,0,0],[0,0,0],[0,0,0]],[[0,0,0],[0,0,0],[0,0,0],[0,0,0],[0,0,0],[0,0,0],[0,0,0]],[[0,0,0],[0,0,0],[0,0,0],[0,0,0],[0,0,0],[0,0,0]],[[0,0,0],[0,0,0],[0,0,0],[0,0,0],[0,0,0],[0,0,0]]],"starting_config":[[0,0,0.33],[0,-0.07854,-0.09228599999999992,0.1955125,-0.1,0.2,-0.10342950000000005,-0.06438450000000003,0.09228599999999992,-0.1955125,-0.1,0.2,-0.1,0.06,1.4000000000000001,0.3461454999999998,-0.6,-0.16999999999999998,0.01,1.4,-0.35,0.6,0.17,0,0.5,0.5]],"urdf":"<?xml version=\"1.0\" ?><robot name=\"NaoH25V40\" xmlns:xacro=\"http://www.ros.org/wiki/xacro\">\n  <joint name=\"HeadYaw\" type=\"revolute\">\n    <parent link=\"torso\"/>\n    <child link=\"Neck\"/>\n    <origin rpy=\"0 0 0\" xyz=\"0 0 0.1265\"/>\n    <axis xyz=\"0 0 1.0\"/>\n    <limit effort=\"1.547\" lower=\"-2.08567\" upper=\"2.08567\" velocity=\"8.26797\"/>\n  </joint>\n  <link name=\"Neck\">\n    <inertial>\n      <mass value=\"0.06442\"/>\n      <inertia ixx=\"2.65584e-05\" ixy=\"1.57e-09\" ixz=\"0\" iyy=\"2.75654e-05\" iyz=\"-5.295e-08\" izz=\"5.53372e-06\"/>\n      <origin rpy=\"0 0 0\" xyz=\"-1e-05 0 -0.02742\"/>\n    </inertial>\n    <visual>\n      <geometry>\n        <mesh filename=\"package://nao_meshes/meshes/V40/HeadYaw.dae\" scale=\"0.1 0.1 0.1\"/>\n      </geometry>\n      <origin rpy=\"0 0 0\" xyz=\"0 0 0\"/>\n    </visual>\n    <collision>\n      <geometry>\n        <mesh filename=\"package://nao_meshes/meshes/V40/HeadYaw_0.10.stl\" scale=\"0.1 0.1 0.1\"/>\n      </geometry>\n      <origin rpy=\"0 0 0\" xyz=\"0 0 0\"/>\n    </collision>\n  </link>\n  <joint name=\"HeadPitch\" type=\"revolute\">\n    <parent link=\"Neck\"/>\n    <child link=\"Head\"/>\n    <origin rpy=\"0 0 0\" xyz=\"0 0 0\"/>\n    <axis xyz=\"0 1.0 0\"/>\n    <limit effort=\"1.532\" lower=\"-0.671952\" upper=\"0.514872\" velocity=\"7.19407\"/>\n  </joint>\n  <link name=\"Head\">\n    <inertial>\n      <mass value=\"0.60533\"/>\n      <inertia ixx=\"0.000957766\" ixy=\"8.78814e-06\" ixz=\"5.33702e-06\" iyy=\"0.000816836\" iyz=\"-2.99579e-05\" izz=\"0.000984976\"/>\n      <origin rpy=\"0 0 0\" xyz=\"-0.00112 0 0.05258\"/>\n    </inertial>\n    <visual>\n      <geometry>\n        <mesh filename=\"package://nao_meshes/meshes/V40/HeadPitch.dae\" scale=\"0.1 0.1 0.1\"/>\n      </geometry>\n      <origin rpy=\"0 0 0\" xyz=\"0 0 0\"/>\n    </visual>\n    <collision>\n      <geometry>\n        <mesh filename=\"package://nao_meshes/meshes/V40/HeadPitch_0.10.stl\" scale=\"0.1 0.1 0.1\"/>\n      </geometry>\n      <origin rpy=\"0 0 0\" xyz=\"0 0 0\"/>\n    </collision>\n  </link>\n  <joint name=\"gaze_joint\" type=\"fixed\">\n    <parent link=\"Head\"/>\n    <child link=\"gaze\"/>\n    <origin rpy=\"0 0 0\" xyz=\"0.05871 0 0.06364\"/>\n  </joint>\n  <link name=\"gaze\"/>\n  <joint name=\"LHipYawPitch\" type=\"revolute\">\n    <parent link=\"torso\"/>\n    <child link=\"LPelvis\"/>\n    <origin rpy=\"0 0 0\" xyz=\"0 0.05 -0.085\"/>\n    <axis xyz=\"1 0 0\"/>\n    <limit effort=\"3.348\" lower=\"-1.14529\" upper=\"0.740718\" velocity=\"4.16174\"/>\n  </joint>\n  <link name=\"LPelvis\">\n    <inertial>\n      <mass value=\"0.06981\"/>\n      <inertia ixx=\"2.3407e-05\" ixy=\"1.07922e-06\" ixz=\"-1.76003e-06\" iyy=\"4.76355e-05\" iyz=\"2.76058e-06\" izz=\"4.97021e-05\"/>\n      <origin rpy=\"0 0 0\" xyz=\"-0.00781 -0.01114 0.02661\"/>\n    </inertial>\n    <visual>\n      <geometry>\n        <mesh filename=\"package://nao_meshes/meshes/V40/LHipYawPitch.dae\" scale=\"0.1 0.1 0.1\"/>\n      </geometry>\n      <origin rpy=\"0 0 0\" xyz=\"0 0 0\"/>\n    </visual>\n    <collision>\n      <geometry>\n        <mesh filename=\"package://nao_meshes/meshes/V40/LHipYawPitch_0.10.stl\" scale=\"0.1 0.1 0.1\"/>\n      </geometry>\n      <origin rpy=\"0 0 0\" xyz=\"0 0 0\"/>\n    </collision>\n  </link>\n  <joint name=\"LHipRoll\" type=\"revolute\">\n    <parent link=\"LPelvis\"/>\n    <child link=\"LHip\"/>\n    <origin rpy=\"0 0 0\" xyz=\"0 0 0\"/>\n    <axis xyz=\"1.0 0 0\"/>\n    <limit effort=\"3.348\" lower=\"-0.379435\" upper=\"0.79046\" velocity=\"4.16174\"/>\n  </joint>\n  <link name=\"LHip\">\n    <inertial>\n      <mass value=\"0.13053\"/>\n      <inertia ixx=\"2.41106e-05\" ixy=\"-6.08684e-07\" ixz=\"6.33119e-06\" iyy=\"6.34892e-05\" iyz=\"-1.99137e-07\" izz=\"5.67694e-05\"/>\n      <origin rpy=\"0 0 0\" xyz=\"-0.01549 0.00029 -0.00515\"/>\n    </inertial>\n    <visual>\n      <geometry>\n        <mesh filename=\"package://nao_meshes/meshes/V40/LHipRoll.dae\" scale=\"0.1 0.1 0.1\"/>\n      </geometry>\n      <origin rpy=\"0 0 0\" xyz=\"0 0 0\"/>\n    </visual>\n    <collision>\n      <geometry>\n        <mesh filename=\"package://nao_meshes/meshes/V40/LHipRoll_0.10.stl\" scale=\"0.1 0.1 0.1\"/>\n      </geometry>\n      <origin rpy=\"0 0 0\" xyz=\"0 0 0\"/>\n    </collision>\n  </link>\n  <joint name=\"LHipPitch\" type=\"revolute\">\n    <parent link=\"LHip\"/>\n    <child link=\"LThigh\"/>\n    <origin rpy=\"0 0 0\" xyz=\"0 0 0\"/>\n    <axis xyz=\"0 1.0 0\"/>\n    <limit effort=\"3.023\" lower=\"-1.53589\" upper=\"0.48398\" velocity=\"6.40239\"/>\n  </joint>\n  <link name=\"LThigh\">\n    <inertial>\n      <mass value=\"0.38968\"/>\n      <inertia ixx=\"0.000509844\" ixy=\"2.11296e-06\" ixz=\"5.64129e-05\" iyy=\"0.000465358\" iyz=\"-7.91029e-06\" izz=\"0.000301098\"/>\n      <origin rpy=\"0 0 0\" xyz=\"0.00138 0.00221 -0.05373\"/>\n    </inertial>\n    <visual>\n      <geometry>\n        <mesh filename=\"package://nao_meshes/meshes/V40/LHipPitch.dae\" scale=\"0.1 0.1 0.1\"/>\n      </geometry>\n      <origin rpy=\"0 0 0\" xyz=\"0 0 0\"/>\n    </visual>\n    <collision>\n      <geometry>\n        <mesh filename=\"package://nao_meshes/meshes/V40/LHipPitch_0.10.stl\" scale=\"0.1 0.1 0.1\"/>\n      </geometry>\n      <origin rpy=\"0 0 0\" xyz=\"0 0 0\"/>\n    </collision>\n  </link>\n  <joint name=\"LKneePitch\" type=\"revolute\">\n    <parent link=\"LThigh\"/>\n    <child link=\"LTibia\"/>\n    <origin rpy=\"0 0 0\" xyz=\"0 0 -0.1\"/>\n    <axis xyz=\"0 1.0 0\"/>\n    <limit effort=\"3.023\" lower=\"-0.0923279\" upper=\"2.11255\" velocity=\"6.40239\"/>\n  </joint>\n  <link name=\"LTibia\">\n    <inertial>\n      <mass value=\"0.29142\"/>\n      <inertia ixx=\"0.000470586\" ixy=\"3.60392e-06\" ixz=\"-2.86648e-05\" iyy=\"0.000412654\" iyz=\"7.13013e-06\" izz=\"0.000185772\"/>\n      <origin rpy=\"0 0 0\" xyz=\"0.00453 0.00225 -0.04936\"/>\n    </inertial>\n    <visual>\n      <geometry>\n        <mesh filename=\"package://nao_meshes/meshes/V40/LKneePitch.dae\" scale=\"0.1 0.1 0.1\"/>\n      </geometry>\n      <origin rpy=\"0 0 0\" xyz=\"0 0 0\"/>\n    </visual>\n    <collision>\n      <geometry>\n        <mesh filename=\"package://nao_meshes/meshes/V40/LKneePitch_0.10.stl\" scale=\"0.1 0.1 0.1\"/>\n      </geometry>\n      <origin rpy=\"0 0 0\" xyz=\"0 0 0\"/>\n    </collision>\n  </link>\n  <joint name=\"LAnklePitch\" type=\"revolute\">\n    <parent link=\"LTibia\"/>\n    <child link=\"LAnklePitch\"/>\n    <origin rpy=\"0 0 0\" xyz=\"0 0 -0.1029\"/>\n    <axis xyz=\"0 1.0 0\"/>\n    <limit effort=\"3.023\" lower=\"-1.18944\" upper=\"0.922581\" velocity=\"6.40239\"/>\n  </joint>\n  <link name=\"LAnklePitch\">\n    <inertial>\n      <mass value=\"0.13416\"/>\n      <inertia ixx=\"3.22034e-05\" ixy=\"-8.83212e-09\" ixz=\"4.27549e-06\" iyy=\"6.7943e-05\" iyz=\"2.84849e-07\" izz=\"5.48269e-05\"/>\n      <origin rpy=\"0 0 0\" xyz=\"0.00045 0.00029 0.00685\"/>\n    </inertial>\n    <visual>\n      <geometry>\n        <mesh filename=\"package://nao_meshes/meshes/V40/LAnklePitch.dae\" scale=\"0.1 0.1 0.1\"/>\n      </geometry>\n      <origin rpy=\"0 0 0\" xyz=\"0 0 0\"/>\n    </visual>\n    <collision>\n      <geometry>\n        <mesh filename=\"package://nao_meshes/meshes/V40/LAnklePitch_0.10.stl\" scale=\"0.1 0.1 0.1\"/>\n      </geometry>\n      <origin rpy=\"0 0 0\" xyz=\"0 0 0\"/>\n    </collision>\n  </link>\n  <joint name=\"LAnkleRoll\" type=\"revolute\">\n    <parent link=\"LAnklePitch\"/>\n    <child link=\"l_ankle\"/>\n    <origin rpy=\"0 0 0\" xyz=\"0 0 0\"/>\n    <axis xyz=\"1.0 0 0\"/>\n    <limit effort=\"3.348\" lower=\"-0.397761\" upper=\"0.768992\" velocity=\"4.16174\"/>\n  </joint>\n  <link name=\"l_ankle\">\n    <inertial>\n      <mass value=\"0.16184\"/>\n      <inertia ixx=\"9.78911e-05\" ixy=\"7.88039e-06\" ixz=\"6.1279e-06\" iyy=\"0.000369977\" iyz=\"1.44233e-06\" izz=\"0.000419417\"/>\n      <origin rpy=\"0 0 0\" xyz=\"0.02542 0.0033 -0.03239\"/>\n    </inertial>\n    <visual>\n      <geometry>\n        <mesh filename=\"package://nao_meshes/meshes/V40/LAnkleRoll.dae\" scale=\"0.1 0.1 0.1\"/>\n      </geometry>\n      <origin rpy=\"0 0 0\" xyz=\"0 0 0\"/>\n    </visual>\n    <collision>\n      <geometry>\n        <mesh filename=\"package://nao_meshes/meshes/V40/LAnkleRoll_0.10.stl\" scale=\"0.1 0.1 0.1\"/>\n      </geometry>\n      <origin rpy=\"0 0 0\" xyz=\"0 0 0\"/>\n    </collision>\n  </link>\n  <joint name=\"LLeg_effector_fixedjoint\" type=\"fixed\">\n    <parent link=\"l_ankle\"/>\n    <child link=\"l_sole\"/>\n    <origin rpy=\"0 0 0\" xyz=\"0 0 -0.04511\"/>\n    <axis xyz=\"0 0 0\"/>\n  </joint>\n  <link name=\"l_sole\"/>\n  <joint name=\"RHipYawPitch\" type=\"revolute\">\n    <parent link=\"torso\"/>\n    <child link=\"RPelvis\"/>\n    <origin rpy=\"0 0 0\" xyz=\"0 -0.05 -0.085\"/>\n    <axis xyz=\"1 0 0\"/>\n    <limit effort=\"3.348\" lower=\"-1.14529\" upper=\"0.740718\" velocity=\"4.16174\"/>\n    <mimic joint=\"LHipYawPitch\" multiplier=\"1.0\" offset=\"0\"/>\n  </joint>\n  <link name=\"RPelvis\">\n    <inertial>\n      <mass value=\"0.06981\"/>\n      <inertia ixx=\"3.18766e-05\" ixy=\"-1.07152e-06\" ixz=\"-1.77295e-06\" iyy=\"5.18361e-05\" iyz=\"-7.00664e-06\" izz=\"5.39657e-05\"/>\n      <origin rpy=\"0 0 0\" xyz=\"-0.00781 0.01114 0.02661\"/>\n    </inertial>\n    <visual>\n      <geometry>\n        <mesh filename=\"package://nao_meshes/meshes/V40/RHipYawPitch.dae\" scale=\"0.1 0.1 0.1\"/>\n      </geometry>\n      <origin rpy=\"0 0 0\" xyz=\"0 0 0\"/>\n    </visual>\n    <collision>\n      <geometry>\n        <mesh filename=\"package://nao_meshes/meshes/V40/RHipYawPitch_0.10.stl\" scale=\"0.1 0.1 0.1\"/>\n      </geometry>\n      <origin rpy=\"0 0 0\" xyz=\"0 0 0\"/>\n    </collision>\n  </link>\n  <joint name=\"RHipRoll\" type=\"revolute\">\n    <parent link=\"RPelvis\"/>\n    <child link=\"RHip\"/>\n    <origin rpy=\"0 0 0\" xyz=\"0 0 0\"/>\n    <axis xyz=\"1.0 0 0\"/>\n    <limit effort=\"3.348\" lower=\"-0.79046\" upper=\"0.379435\" velocity=\"4.16174\"/>\n  </joint>\n  <link name=\"RHip\">\n    <inertial>\n      <mass value=\"0.13053\"/>\n      <inertia ixx=\"2.41136e-05\" ixy=\"5.67164e-07\" ixz=\"6.30461e-06\" iyy=\"6.34886e-05\" iyz=\"1.97457e-07\" izz=\"5.6773e-05\"/>\n      <origin rpy=\"0 0 0\" xyz=\"-0.01549 -0.00029 -0.00515\"/>\n    </inertial>\n    <visual>\n      <geometry>\n        <mesh filename=\"package://nao_meshes/meshes/V40/RHipRoll.dae\" scale=\"0.1 0.1 0.1\"/>\n      </geometry>\n      <origin rpy=\"0 0 0\" xyz=\"0 0 0\"/>\n    </visual>\n    <collision>\n      <geometry>\n        <mesh filename=\"package://nao_meshes/meshes/V40/RHipRoll_0.10.stl\" scale=\"0.1 0.1 0.1\"/>\n      </geometry>\n      <origin rpy=\"0 0 0\" xyz=\"0 0 0\"/>\n    </collision>\n  </link>\n  <joint name=\"RHipPitch\" type=\"revolute\">\n    <parent link=\"RHip\"/>\n    <child link=\"RThigh\"/>\n    <origin rpy=\"0 0 0\" xyz=\"0 0 0\"/>\n    <axis xyz=\"0 1.0 0\"/>\n    <limit effort=\"3.0226\" lower=\"-1.53589\" upper=\"0.48398\" velocity=\"6.40239\"/>\n  </joint>\n  <link name=\"RThigh\">\n    <inertial>\n      <mass value=\"0.38968\"/>\n      <inertia ixx=\"0.000510607\" ixy=\"-2.02799e-06\" ixz=\"5.69893e-05\" iyy=\"0.0004665\" iyz=\"7.09563e-06\" izz=\"0.000301333\"/>\n      <origin rpy=\"0 0 0\" xyz=\"0.00138 -0.00221 -0.05373\"/>\n    </inertial>\n    <visual>\n      <geometry>\n        <mesh filename=\"package://nao_meshes/meshes/V40/RHipPitch.dae\" scale=\"0.1 0.1 0.1\"/>\n      </geometry>\n      <origin rpy=\"0 0 0\" xyz=\"0 0 0\"/>\n    </visual>\n    <collision>\n      <geometry>\n        <mesh filename=\"package://nao_meshes/meshes/V40/RHipPitch_0.10.stl\" scale=\"0.1 0.1 0.1\"/>\n      </geometry>\n      <origin rpy=\"0 0 0\" xyz=\"0 0 0\"/>\n    </collision>\n  </link>\n  <joint name=\"RKneePitch\" type=\"revolute\">\n    <parent link=\"RThigh\"/>\n    <child link=\"RTibia\"/>\n    <origin rpy=\"0 0 0\" xyz=\"0 0 -0.1\"/>\n    <axis xyz=\"0 1.0 0\"/>\n    <limit effort=\"3.0226\" lower=\"-0.0923279\" upper=\"2.11255\" velocity=\"6.40239\"/>\n  </joint>\n  <link name=\"RTibia\">\n    <inertial>\n      <mass value=\"0.29142\"/>\n      <inertia ixx=\"0.000471336\" ixy=\"-3.8668e-06\" ixz=\"-3.71648e-05\" iyy=\"0.00041228\" iyz=\"-6.11093e-06\" izz=\"0.000183997\"/>\n      <origin rpy=\"0 0 0\" xyz=\"0.00453 -0.00225 -0.04936\"/>\n    </inertial>\n    <visual>\n      <geometry>\n        <mesh filename=\"package://nao_meshes/meshes/V40/RKneePitch.dae\" scale=\"0.1 0.1 0.1\"/>\n      </geometry>\n      <origin rpy=\"0 0 0\" xyz=\"0 0 0\"/>\n    </visual>\n    <collision>\n      <geometry>\n        <mesh filename=\"package://nao_meshes/meshes/V40/RKneePitch_0.10.stl\" scale=\"0.1 0.1 0.1\"/>\n      </geometry>\n      <origin rpy=\"0 0 0\" xyz=\"0 0 0\"/>\n    </collision>\n  </link>\n  <joint name=\"RAnklePitch\" type=\"revolute\">\n    <parent link=\"RTibia\"/>\n    <child link=\"RAnklePitch\"/>\n    <origin rpy=\"0 0 0\" xyz=\"0 0 -0.1029\"/>\n    <axis xyz=\"0 1.0 0\"/>\n    <limit effort=\"3.0226\" lower=\"-1.1863\" upper=\"0.932006\" velocity=\"6.40239\"/>\n  </joint>\n  <link name=\"RAnklePitch\">\n    <inertial>\n      <mass value=\"0.13416\"/>\n      <inertia ixx=\"3.22017e-05\" ixy=\"4.68321e-08\" ixz=\"4.28821e-06\" iyy=\"6.79885e-05\" iyz=\"-2.71089e-07\" izz=\"5.48747e-05\"/>\n      <origin rpy=\"0 0 0\" xyz=\"0.00045 -0.00029 0.00685\"/>\n    </inertial>\n    <visual>\n      <geometry>\n        <mesh filename=\"package://nao_meshes/meshes/V40/RAnklePitch.dae\" scale=\"0.1 0.1 0.1\"/>\n      </geometry>\n      <origin rpy=\"0 0 0\" xyz=\"0 0 0\"/>\n    </visual>\n    <collision>\n      <geometry>\n        <mesh 