{"axis_types":[["z","z","z","z","z","z","z"]],"fixed_joints":[],"base_link_motion_bounds":[[0,0],[0,0],[0,0]],"static_environment":{"cuboids":[{"name":"Table","x_halflength":0.3,"y_halflength":0.5,"z_halflength":0.01,"rx":0,"ry":0,"rz":0,"tx":0,"ty":0,"tz":-0.01,"is_dynamic":false,"coordinate_frame":"panda_link0"},{"name":"Gripper","x_halflength":0.12,"y_halflength":0.03,"z_halflength":0.07,"rx":0.8,"ry":0,"rz":0,"tx":0,"ty":0,"tz":0.03,"is_dynamic":false,"coordinate_frame":"panda_link8"}],"spheres":[],"pcs":[]},"fixed_frame":"panda_link0","modes":[{"name":"default","weights":[1,1,5,30,25,50]}],"goals":[{"name":"default","values":[{},{},{},{"vector":[0.4119074624736843,-3.2570071975398337e-12,0.7266415286028427]},{"quaternion":[-4.2518534361423e-12,-0.9210609940022492,0.3894183423101545,-1.7977212801003521e-12]},{}]}],"joint_limits":[[-2.9671,2.9671],[-1.8326,1.8326],[-2.9671,2.9671],[-3.1416,0.0873],[-2.9671,2.9671],[-0.0873,3.8223],[-2.9671,2.9671],[0,0.04],[0,0.04]],"joint_names":[["panda_joint1","panda_joint2","panda_joint3","panda_joint4","panda_joint5","panda_joint6","panda_joint7"]],"joint_ordering":["panda_joint1","panda_joint2","panda_joint3","panda_joint4","panda_joint5","panda_joint6","panda_joint7","panda_finger_joint1","panda_finger_joint2"],"joint_types":[["revolute","revolute","revolute","revolute","revolute","revolute","revolute"]],"mode_control":"absolute","mode_environment":"ECAA","nn_jointpoint":{"intercepts":[[-0.038313120710888014,-0.05338079237450238,0.8733377598519898,-0.006489595862773953,-0.0917298363863003,0.05575827341418716,0.48240417939618746,-0.34656790075728355,0.4333231945124201,0.3393789513210631,-0.049950269923766936,0.02202965189491503,0.03859977961423459,-0.08657987204197293,-0.005999764750952999],[0.05089835474111611,0.45831916556475716,0.36548622557908494,0.1463937537656904,-0.37052877665084877,-0.028719865346160754,-0.6020145241427656,-0.4009179592892565,0.10929879160164484,1.0585378803683672,0.3747709364738362,-0.2014964251630167,-0.10054489477071524,0.15683364471633843,0.7522733057049122],[0.3378423537228309,-0.04534598248153036,-0.03893977707003769,0.09304688060891365,0.04458483290619611,0.4202527646273603,0.09868001480648572,0.48051078263571967,-0.2429183459279901,0.054132020030475896,-0.09058871763254811,0.22660777408960084,0.35295460916682425,0.479699746621713,-0.39905295210816094],[-0.014690023299275067,0.029594560944490908,-0.07589735943747206,-0.2673865875914192,-0.27594969035057126,-0.011606028024487451,-0.40920870550301364,-0.01455187642033362,-0.1284436342780888,-0.436874342998573,-0.06122518628491274,-0.023243718647108693,-0.13324392420981895,-0.061845679774671924,-0.10739027510545762],[-0.3527560512147489,-0.4391606603922365,0.17268563435754716,-0.04000170683524017,-0.41674958339107326,-0.006370735776916001,0.36086330522010074,-0.2006784786994082,-0.3968569828303115,-0.06520479381947836,-3.01890759416575e-8,0.1969310420115941,-0.250951781798646,-0.017774383024666263,-0.3954739781021355],[-0.3190232352060744]],"coefs":[[[1.506301880679094e-11,-1.713383000790052e-8,7.119268084100202e-12,-1.0507532514161723e-7,1.586019556435741e-7,4.819887960568793e-12,3.925659054213289e-9,3.8910358051567846e-11,-4.745161339139589e-9,2.3017685214190138e-8,-2.258684120997683e-7,7.110980849636521e-13,-8.029694218166708e-9,1.1806118836505454e-8,2.41270189768276e-10],[-9.778502288973404e-11,1.5249833350500007e-8,-1.1442422707508506e-12,1.461056534731306e-10,-3.314210250797903e-10,-7.952716132396604e-7,-1.3808544483977859e-11,-0.0000013435687674968132,7.577832121545517e-14,-1.1420577749349494e-8,5.981592409773204e-7,5.810255230970398e-10,-5.917070875271396e-7,7.492208018584739e-10,-8.432008777480247e-7],[0.03641733481687657,-0.005039426192523701,0.09035910900275604,-0.0630045858865462,0.003066339133081588,-0.08273625495559334,0.0850065920354058,-2.1855017428835324e-9,0.036132552711407986,-0.017351729950896143,-0.11820834473285283,0.004632488763545509,-0.022047703169907003,0.05434257333250643,0.05604734018675086],[-4.657988133935433e-12,0.000020842601715139928,5.0547933094359635e-8,-0.00014162154966303653,-0.0000402568607323923,-2.6508677970864247e-12,2.690512019249117e-7,1.8025048089435658e-12,0.000004920763486084694,0.00001458521505514574,6.850093796514281e-7,-2.7651922738071845e-11,-7.987972706145445e-12,-4.8912e-319,-1.2293392651229393e-12],[-0.000016082340553996566,-3.2211779635872275e-11,0.00014043479323306242,6.390260637348626e-8,-0.000006294664239703429,8.172228474499164e-10,-0.000026616689475266563,1.5149603972490062e-7,-9.972441276824434e-12,-0.0000011002538035316268,1.0672741094498784e-7,9.191213007637221e-13,-1.0823122186811114e-7,-0.000033339436952780396,-2.2917045049878363e-7],[0.04877417695626547,-0.03273098345124828,0.09534743654530865,-0.01230119894982425,-0.002547637390573963,-0.10175155257684221,0.08173670523325145,-2.0998453399645233e-9,0.0743673723033246,-0.028342946091544856,-0.10392566822548177,-0.001438737789357108,-0.02167389794784037,0.04495962263341137,0.04983030789922016],[-0.045485037540136344,1.0553292438614503,0.035473494185850586,0.05759102682672536,-0.05697076541418974,-0.4995344224089365,0.06568487431325032,-5.129554863041231e-11,0.012246786739336,0.0008614857705335051,-0.5749070880647706,-0.017646911530713676,0.24878667762608025,0.060639463332763766,-0.14149194540909626],[0.08872171571704995,-0.01968278438166402,0.03880870363756607,0.06189794684492556,-0.031462423707262585,0.9579414352468097,0.1588620724347492,4.076193041225847e-13,-0.138406659796798,0.16376201295976583,-0.8382713716688606,0.014552811014216356,-0.14500168612662231,0.29884200333368094,-0.17167636117388424],[0.2914963244659965,0.16267431664428217,-0.09862451876840235,0.45415922330407765,0.05264660371533224,0.012390682139459232,0.17827041849340752,-2.9089961014316447e-9,-0.7728536540948598,0.6910033172023535,0.38166297462630694,-0.0819202343411138,0.2356100313159206,0.11044301809187784,0.23404618825628842],[0.04255177211667336,0.5323305560526562,-0.032141273957461435,-0.033666857849166926,0.023822833185373125,-0.2550169473661833,-0.0163882479598833,-0.000005561328242175276,0.0064961836721933895,0.023275282831187412,-0.3259092785483178,0.04438548876179987,-0.22215479638763988,-0.07521090813419157,0.09097826635760341],[-0.0019477109191875825,0.015284792157622119,-0.08461157185424864,-0.0437036788024232,-0.016110021635146705,0.48393881055565013,-0.02172434295256752,-9.97952869792671e-8,0.02601809428956269,0.1622598641972625,-0.44749298708270147,-0.04688196234230234,0.09769280592799817,-0.2605470718813134,0.07136275632949576],[-0.2401805337451364,0.18855600520750807,-0.14699892385652974,-0.46019489756439913,-0.08085301886792182,0.020176685647113644,0.002876834781759947,1.3044767920354858e-10,0.17772532227795332,0.7290395032896587,0.25219767293071454,0.01790613714772978,-0.11974790830411706,-0.17595265929286663,-0.131820455367096],[-0.46506452730045145,-0.34858345128382223,-0.06493745904893755,0.15476048589596164,-0.5350436100481666,0.16022812144158732,0.12880392158168938,-1.0488137636327386e-11,-0.06432061636860997,-0.07750421469024574,0.19304911239575642,0.14661264309515976,0.575308701440032,0.031683338665624644,-0.4599626084837765],[0.35290424278577975,-0.001007671713377909,-0.010145930390781903,-0.004972838678622605,-0.443294223842863,-0.3080889663103655,0.43779563596713866,-2.8918188822428287e-9,0.18472557888680685,0.0083184827838721,0.28030651214346464,-0.022854613525975787,-0.31811330367953894,0.5102282399137849,-0.23171893141255875],[0.16602799452168965,-0.04372518532942673,-0.655395838337612,0.6660605410803015,-0.1118064603338225,0.027317037170840212,-0.3882160076243769,1.4550666506218272e-12,0.00946880205435734,-0.5113102500417624,-0.19226864180919162,-0.5974190987457604,0.08668869082333948,0.09331415856341312,0.07851135043858612],[-0.4715504999203702,-0.32607977617231054,-0.06521692020503359,0.17787289730986477,-0.5352211995169734,0.1559644523109501,0.1284854614299851,9.045071511166809e-7,-0.06536188361134578,-0.08592305102557093,0.19013815468497652,0.14639320863102678,0.5755288378090642,0.03053592053778166,-0.4527529155363691],[0.3544263441331529,-0.004082216647959385,-0.010097971900537841,-0.011907023296550202,-0.44369137685457527,-0.3044465592461606,0.4386533416920995,2.582686167403101e-12,0.1889780385837061,0.01180732101164762,0.27381530148049865,-0.022941260750530892,-0.30472585529993257,0.510202770204696,-0.2374154673227102],[0.18939714081211909,-0.11290225326614907,-0.6553785227340745,0.7081673720466896,-0.10956395557796662,-0.053099773956770194,-0.3872460362793174,0.000016753740276759265,0.006319125923532135,-0.5151257450503499,-0.10027787193353464,-0.5974192304951784,0.08158064251496228,0.09269667125493818,0.08438913355308664],[-0.3705867594227986,-0.015473537867079008,0.04287566844465285,0.17529381881945302,-0.15414424808884933,0.00977167165150542,-0.03119229009039039,6.573405349256285e-13,-0.03948225044449957,-0.053368507654782,0.013438227231860228,0.21387401625811894,0.5355446989872363,0.052349880192396746,-0.5909284438453207],[0.2218202863831757,-0.0006626749227517691,-0.05282644899465644,0.07437180485407008,0.0016512566103769589,-0.010682778419353655,0.31251454028966524,4.330225317902872e-10,0.23193301849661055,0.07863174476452912,0.0060737161287664045,0.026202380626475143,-0.4165105774776344,0.586884015509255,-0.4827641284108442],[0.024503491802183894,0.007966313354204724,-0.4418280151185908,0.8623467520353035,-0.07318114341448122,0.005664770139508997,-0.3328938857248053,9.228675562342172e-8,0.7759667114345136,0.1776118416397055,0.004888487640808078,-0.9960628772678175,0.1420683851673971,0.12810742491692748,0.12322961370796953],[-0.12714764722752978,-0.0069332789516638686,0.04209545490181318,0.1110915687011524,-0.06291452884646323,-0.00010984083488235495,-0.02628814396631649,-5.028591593336885e-10,0.04649445367658365,-0.0018715244333029353,0.007424488998737671,0.07947328900114994,0.29931610217010657,-0.014080570615992261,-0.3854230007245893],[0.07413890340299836,-0.00007756117899001524,-0.008878949112138485,0.03879902039790064,0.08143934997699136,-0.007804175103774872,0.0657887254802201,3.038333721522696e-8,0.08992061913297283,0.03259327968019025,0.006914159513481975,0.021689814006623516,-0.21237651967361282,0.30398240160986556,-0.27438148509398697],[0.08843460901350886,-0.00245457154072729,0.006121608243792605,0.3744013025014415,0.039543188994939034,-0.005905623690447827,-0.2287784614309165,-0.0000029742020194626613,0.6327677119651303,0.20112178895207078,0.0013489053323026293,-0.45758095512793634,0.15168251326652013,0.1520131855839665,0.008480539997445061]],[[0.08164113677213862,0.00003225813873008565,-0.2029574448716173,-0.3197984961789493,-5.513047513033764e-7,-0.34759124704006994,0.5699487498785559,0.18042358925630408,0.2561541423186557,-0.4216310870249584,0.17354562780505933,-4.586223500425906e-8,-1.9562987186591267e-11,0.07574211760930201,-0.1866547364921793],[-0.8620078855327679,0.4977513914563482,0.4754837963515501,0.05400428362763685,-3.06323529344095e-8,0.02321589348315264,-0.003178068635265125,0.06705056127553435,-0.05373618553607309,0.028497405341050518,-0.3583700270206049,2.1148867560297683e-13,-1.6560314954012092e-12,0.06137901012639043,-0.01223893458450102],[0.02220091546946027,-0.013214296415477472,-0.5826053678506894,0.3770200521540385,4.0684782905350825e-10,-0.1680657334223263,-0.18025470322227063,0.07104843203779501,-0.006848060796612649,-0.5226738889525596,0.3015507883616503,0.00000111876368047023,2.934612552776086e-10,-0.30172147698909585,0.502373778459684],[0.022422097362193937,-0.2620859609230018,-0.16604001137262675,-0.9812458240121736,-1.4014347390426387e-8,-0.02023600723028457,0.4279216815856259,-0.05432485456715518,-0.4699812494794981,-0.674096462829734,0.19517836809245526,1.3729636463111473e-8,0.000018272008331476246,-0.16528746056350352,-0.34576135380109585],[0.09256255806583144,-0.00021680534732010836,-0.3533507785807289,-0.07583375414848789,-1.578038192897602e-12,0.004172420125390018,0.5213014794693416,0.13438401563678173,0.20968067094377738,-0.4657627208997201,0.14817272653018618,-2.153e-320,-1.4362045625534804e-10,-0.18985191828652673,-0.3036316071910415],[-0.8512756776096293,0.5751599926819075,0.4666234511668841,0.056376608413271585,-1.0047378510170831e-8,-0.003558846802674154,-0.021719012888664794,0.09291922541597178,-0.04843541581774391,0.028136301044112303,-0.31976428239574095,-1.8550433124701033e-11,2.8698960709591784e-10,0.056786316110337215,-0.13890669524183344],[0.07563416889984823,-0.0230708006195533,0.008067322064411906,0.028045677295916133,1.0812624289946316e-10,0.4324910385385977,0.7127216358984442,-0.05582558003431816,0.5353239304180628,-0.347893678617055,0.03271492060047777,0.000019099386008012895,8.271629243005399e-12,0.31136480497931157,0.02690885750686069],[-1.1451480798188065e-7,-2.5141905051276156e-7,2.9184176813955964e-7,-4.136742910077498e-9,1.4041749862116235e-8,5.509137322842583e-10,-3.459009954082751e-13,3.3726672251953445e-9,-5.189420840680937e-13,4.61487e-319,-2.6690250582438506e-11,-5.782426418771198e-10,-3.5925647246623496e-7,-1.2083421885237817e-10,-1.3218004789319683e-12],[0.15685164344052452,0.564197897671101,0.2556328820727969,0.06908989334938077,0.000001400177127707531,-0.02004252164286809,0.21917867900521185,0.04922725599413303,0.27687516170624976,0.555613933205015,-0.341168722951073,-2.451522379772346e-7,-3.32136e-319,0.11084825603522666,-0.8650379020031047],[-0.1802777293318592,-1.1810643532491711,0.33406112543892225,-0.02863723982433133,-8.908874768530655e-13,-0.12593324267450792,-0.05404401109233747,-0.005717122911576767,-0.07110463154006177,0.25941879122848455,-0.4548894217018438,0.000001998306491888419,-1.5652819751869508e-12,0.12007041017294727,-0.06567601703797112],[-0.8482001955533297,0.49997980774514833,0.4634457532316815,0.036500313740717785,-2.113972852519562e-12,-0.01098593998223597,0.02391817727610269,0.0398236637630249,-0.057346608480075265,0.012699274562488533,-0.34430551573323664,-0.0002337877555078161,0.000011804157845948312,0.12301865305307631,0.010100137259033583],[0.052411234892488785,0.08433678796960441,-0.06109637970530751,-0.7464100739704221,6.573314649794977e-7,-0.01271585814373294,0.3200159636357998,0.19714909669883654,-0.5318400248147839,-0.705354721911952,0.09468416086865356,0.000002359533269790542,-0.00006894454144399966,-0.2696460279998574,-0.10945365412797695],[0.07587375015790275,-0.007744268619483972,-0.2344518329475053,0.03251050952232814,-0.00010318277580112813,0.2365371623821979,0.4535493375118802,0.7840003344320468,0.0391675878338284,-0.0938922300936913,0.27706401348240933,-9.057257468259817e-11,-2.1588882785543616e-10,-0.40227333849169944,-0.6014883507730355],[-0.05021232182640533,0.00009356605901972347,-0.6486328640694907,0.136372000795609,-6.741877013436036e-7,0.15034461416381484,0.34021237054123554,0.31663698778713717,-0.4292765466180652,0.09646829758327324,0.2858129138221069,-2.5304945869377343e-9,-1.0204e-319,0.3070105094222066,-0.12420862230011],[0.04344619513166472,-0.002705803342637052,-0.10979600561643334,-0.22203762514632172,-1.878638377721942e-9,-0.25821554017477466,0.2958089324311136,0.734956552238718,-0.18996844558674303,-0.08990389378573646,0.32832477441756686,3.657724559819169e-13,-8.951295427796032e-7,-0.43282631999093657,-0.490389368898156]],[[0.08818669380426525,5.3758617576933366e-214,6.323600624535662e-10,0.12177490438841163,0.14842711647086773,0.22508542102592835,0.16586902487477911,-1.3110750513045404,1.5623730502008648e-7,-0.004527762755867697,-0.2608462132299193,-0.16435121612026315,-0.022956024137060577,-0.23131392270309692,1.0724291659957861e-10],[0.31529542373636765,2.48190949107995e-181,0.17437510216384866,-0.5288174932866196,0.03416432861840509,-0.6970150502144857,0.21187596596830582,-0.0211073313742402,-3.558519631186565e-10,-0.17265525081319844,0.7026823899695791,0.21524827068716687,-0.17580970687413178,0.7869136032880311,0.000005380615712918948],[0.3023637810231746,-2.0754738901399277e-121,0.3069536732656075,-0.18358943415486959,-0.13775059931543282,0.6432598258931832,-0.24992320959362938,-0.006094637971457054,-0.00016283505212781038,-0.41747625392380766,0.4535789425212675,-0.26962911459778655,-0.330836854737069,0.7372401432038402,-2.2026607011953768e-12],[0.045364207767901864,-1.9314199129388467e-191,0.06889579872099043,-0.2869836467066989,0.15136618336806545,-0.19253659315894017,0.21028820125556863,-1.0025573524502633,-1.3796532557905276e-8,0.1280933859666299,0.034438452080447476,0.042504518479098675,-0.05748076341601701,0.38786451668692334,-2.126318929980877e-10],[0.00006532292295171154,-0.000017138069752943555,-1.0121219678085528e-9,1.4178e-319,2.765134920797876e-9,-5.361869643830383e-13,-6.677569842035113e-7,0.0000021831567815600653,-2.8316364356554943e-11,-4.803026981518341e-8,-5.42825735802493e-7,-1.0505122783481862e-11,7.04263096422254e-9,8.621844015548562e-10,-2.6960471755697677e-9],[-0.19253542950703503,-6.810262670952586e-216,-0.015917611230060757,0.13561860529919803,0.1933256294948164,-0.020422093557848246,0.012542784844894277,0.002437725778488082,-5.199574814966523e-11,-0.4719383290963351,-0.037705904220423817,0.20460472516845699,0.1659743715259275,-0.2644021439369202,0.00002796908099519276],[-0.27766572099543635,-1.2246425695552918e-122,-0.7014545922152964,0.45478131453568277,-0.6447322815872463,-0.020377989737037427,-0.3784681324469427,0.03752513076268349,-4.974399918415594e-13,-0.5236067111265182,0.14438076468726474,0.3402347174227652,0.31983380346088724,-0.4522740109183387,2.9998385164930945e-10],[-0.2744221164099872,3.597318002117843e-142,-0.9698199937108757,0.32248795781890716,-0.020724545390611245,-0.18190271334794253,-0.32323714040695506,0.21617813674977965,-7.506834222580825e-8,-0.29944103704026054,0.2860450300521506,-0.06530424073708319,0.1872420303499341,-0.19529961279646949,-2.349989772608392e-12],[0.1793347417384977,-1.1921558262227175e-182,0.4586065125080889,-0.32355947194491397,0.6322052237175672,0.19602924623071494,0.38765197164268356,0.004025074578624748,-7.761689454976481e-7,-0.12178498060524758,-0.18082686151347369,0.15503674436329623,0.06528099037820634,0.12909484611564062,-0.0001417377976204],[0.27435978516207105,-3.3006872312483876e-104,0.2793198794336908,-0.18085673028092136,0.03672591202999529,0.3168090115965437,-0.03649409694770831,-0.2814027816414911,1.749206313887128e-11,0.41380731236557367,0.5505446508447513,-0.8868729699276541,-0.4404569844971891,0.6811675026318288,1.3029951541119817e-11],[-0.06635959558384326,-1.9148424767730592e-146,-0.4127483601559258,0.26436390227100093,0.06292208598621343,-0.15942674024355596,0.2659724163386006,-0.4929787306221258,-2.2726421214894022e-8,-0.21183971716319694,-0.08401319162747323,0.04356307681895882,0.21676195121513567,-0.5626752271289442,2.5093927861036347e-8],[9.297208674588064e-9,1.2414365227655412e-8,-9.579408274322334e-11,-1.4549893331906383e-12,2.4226203510717553e-12,-1.4346399201374599e-8,-7.304158004593244e-11,-9.005865211525484e-9,2.1059380894035992e-7,-4.128302635873612e-11,-3.866426191372537e-12,-1.438277133767657e-8,-1.8044074059872594e-9,-3.537908978925385e-9,8.076932929879395e-7],[1.3286804533203172e-11,9.31797034086943e-7,-5.890714250103495e-7,4.187983589653456e-8,-0.000039662411535550274,-0.0000028530590629062073,0.0000035597892706074226,-1.5516760238887242e-7,1.171579287542195e-10,-0.0000018294124042167736,1.26502822232496e-13,-6.956848604055925e-9,-3.27674e-319,-0.0000014070566957122333,8.197741880457486e-7],[-0.15060584678629413,2.8169970702929614e-175,-0.605527221448204,0.40407305227906387,-0.1455406568679925,-0.12073078904360723,0.01836839555204778,0.001183697445711519,1.7866966663275736e-13,0.2927897783474527,0.08176924497429323,0.07652456101927732,-0.18575547556730734,-0.10216555269384062,0.00008797824005112406],[0.30131488125769873,1.5898535161973095e-153,0.1724647086425639,-0.06737873043429528,-0.1343444380359559,0.22104032464807713,0.37922922780789736,0.09222408945154344,-2.992424506937215e-7,0.7333587554475591,-0.9772318070760998,0.058723570601748806,0.4138190688246082,0.18685847374589837,-1.1142011693684734e-7]],[[-0.00019226049366881192,0.3954525188660158,4.0547077183206845e-7,1.1389156859035798e-8,-0.00003529404196119028,0.06272933005885993,1.7441312452926128e-9,0.2742286133233601,0.20464689992341023,0.3280974049161966,0.3379411527642424,0.12836185535338862,-5.042226217905606e-9,-0.00009195976326141107,-7.830492720671851e-12],[1.713670843244787e-10,6.257120552229962e-142,0.000005348208899454541,-2.995853134433584e-10,2.389804656397068e-10,7.157751059579327e-209,-4.559244155130503e-9,6.255316958135364e-144,-1.0734665428332623e-155,4.887194613953551e-140,1.3992649157332894e-135,-4.5155250720397114e-175,7.820879197497885e-13,-3.6635489226261077e-7,3.6155424047348706e-7],[-4.78782075148061e-7,0.9288373512651245,-1.1401816284707454e-9,-5.489273895494877e-11,-1.6025709761674795e-12,0.1576103434395245,-7.241853722286551e-10,0.4873969626190558,0.369849461474432,-0.7378593768011887,0.6090418674485562,0.2296360872183917,1.406764346857026e-7,-0.0000015838217631625592,-2.1448502417408202e-10],[-1.0939552765897566e-13,0.7230953987109789,-2.972615749327494e-12,-0.00010541983199864653,1.3312387351561725e-13,0.15568255370432327,-2.641234152302182e-13,0.13126185558060477,0.14814930627368622,-0.5546175360990354,0.17708137490438408,0.0558002319614041,0.000037998795924691116,-0.00006158142258738767,2.3471277127409626e-11],[-7.25915923509075e-8,0.7502010896364057,6.344801605465389e-9,0.000016639471439953415,1.8219230607570296e-12,0.12171304938902046,-2.059402198923464e-8,0.2585935153418861,0.19705310035628681,-0.11268189372113499,0.32158523751608353,0.122429942922591,-7.586812872420162e-14,4.0596229219242065e-11,-8.523117367182444e-9],[9.008534404183818e-12,0.5570844220634189,0.0000041187953589233385,2.473006789319105e-11,6.172293103944067e-13,0.10679266769047627,-9.977408366282947e-11,0.2727476994040185,0.20716509731918292,0.6704662068633737,0.3455922613652394,0.13150511359869513,-7.586986823266812e-12,2.398455739166628e-11,0.000024599950858755465],[-7.507895236289111e-9,0.6012386104757901,6.930986312860108e-7,2.3397860412974555e-10,1.3462944753418395e-11,0.09025011722828509,-6.508787864675838e-10,0.26126541399235986,0.18527303873980844,-0.20152710308683608,0.32751601188693313,0.12081574504485738,-1.4987981212371564e-12,-1.7696676071540067e-7,-2.689357294694392e-11],[1.182016193542019e-9,-1.5573349875699583,-6.362002251500057e-10,1.1433787744141705e-10,3.2865944649802895e-12,-0.2675074183342425,4.3756206899189845e-11,-0.3707054261234629,-0.282816377243019,-0.0946729550683864,-0.46285663887773,-0.1756542316295464,4.5580789085732966e-7,1.6556880768910828e-9,-2.2104e-319],[-0.000011956456364612913,1.3174885425236105e-11,-5.975837568353009e-14,-6.608400539659846e-10,3.20693e-319,-2.6619482903737964e-7,4.782982204964488e-11,-8.256825921602185e-13,4.8220141442515475e-8,3.631901738578032e-7,3.751133835012725e-12,0.000008456703397434122,1.8811397609399335e-13,3.263348929479479e-9,0.0000013961257737531468],[-1.4087321333935887e-12,-0.8326611991331797,4.6709570214940976e-12,2.618722077301187e-12,0.000006611329247358623,-0.15433509108007704,6.170485648947815e-14,-0.43299299842235356,-0.33029851316210923,-0.29496195308249684,-0.5399568158507293,-0.20803059782932976,1.8913969962815694e-9,-5.300347112889952e-11,1.1743175585004662e-12],[8.980103776366019e-11,-1.2972884258698882,8.518949901578938e-8,-0.000014735411058256327,8.995642823288763e-12,-0.22662994741865933,8.805159093827469e-13,-0.07265707576811015,-0.044512668338699456,0.43001200518700833,-0.10617766599746271,-0.007751171165218582,-6.121675858258082e-8,-5.6613699862054865e-8,0.0000013962886571755526],[1.2216174745359807e-7,-0.5502337431501264,1.5930810715285257e-11,0.0000015029749242827908,-6.085136014781115e-7,-0.1118936263580922,-4.25667e-319,-0.3913607816847863,-0.2903546129564867,-0.3132084220615698,-0.4714416029982553,-0.19196555989048236,0.0000045312542421436135,0.00012302941858294752,0.0000011678216596476649],[-1.1928750829412521e-8,0.19756812230964782,3.5045149775765776e-11,-1.3337495727000844e-10,-1.0965976068415208e-8,0.0030918526455102078,2.0069904958442243e-7,0.10497749345299281,0.12188127340058198,-0.7852612520590863,0.14462776971920435,0.06861795771178177,-2.2585462393479156e-7,-9.307799985839127e-9,-5.358634541705606e-13],[-1.073945934132146e-8,0.09905147948916869,-1.319022532643428e-14,8.008131729754618e-12,0.00004973124042011854,0.024347439691946797,2.107271598572882e-9,0.7564760921227939,0.582536774093976,0.7208137444279116,0.9396881331844099,0.3784344682075685,6.058e-320,7.385425564162781e-14,3.192920987192647e-8],[7.180404381551958e-13,2.6761226345271947e-8,-4.818843421324742e-9,-0.0001416517190432327,2.8586281466636546e-9,0.000052351545247353744,1.9669391458785476e-10,-0.000007353694685301266,-1.4235417478908808e-13,3.4180362168395585e-8,0.0000027394151196043405,-8.489807717739298e-8,8.982857154906139e-9,-2.05655e-319,-0.000081282406334008]],[[5.5894804498613e-13,-3.3390761558388626e-7,-2.3830327919764807e-12,3.259828619263854e-7,0.00002030735604668034,0.000012725724651397022,-1.4259628234511762e-11,-4.554050032507887e-12,-7.507849195034303e-12,1.0650681641401551e-12,-1.3602830019845795e-9,-2.3078e-319,1.8533151319615824e-10,-0.000001399886697350067,3.9205518439808774e-13],[1.079867930952548,1.3677946146965054,0.16160760269003227,2.922603306361316e-10,1.5096146215572581,-4.768170352248407e-10,0.2884079468677486,0.8904430360822168,1.2210023292485348,2.291861934176341e-8,1.5607161755837309e-50,0.428654904083248,6.517905539625606e-12,-7.399589189891391e-11,-7.222368387697841e-9],[-0.00010996830221738618,3.213959015610086e-13,0.00000629831731890804,-1.4294881493908935e-8,-6.905226956070436e-10,-0.000041824261733101987,0.000058269537490808975,1.197177538338542e-12,-0.000040083249261566346,-1.6780509882858806e-9,5.518430561609893e-7,5.448082865388044e-13,4.256755340178928e-11,-7.606984116056121e-8,-2.6818353467901755e-13],[-2.8832762240124555e-12,6.374889788279773e-10,1.4685312446258578e-12,-2.2385561830255145e-10,1.786566691583276e-13,-1.1965345592854429e-10,1.2094354950874998e-9,-0.000002900957009986425,3.9808384486453495e-13,1.0751575404820521e-11,-8.108696510344646e-10,-3.0575266145270443e-12,1.3665753212484788e-12,-3.077056567567337e-11,4.277092322110259e-8],[1.335766958519226e-12,-4.3282437591740245e-10,1.9542012293368008e-11,-1.3102568113061802e-10,-5.808049256074395e-8,-4.4170701733544205e-9,-3.0772690958712105e-9,-0.00003406889151539171,-3.15515e-319,1.8302421960633928e-7,-0.000025012229413437158,0.000020523121491496974,4.361314654519356e-11,1.4123907491041006e-11,-1.0723709913388829e-10],[0.17656491829905271,0.2252521598989687,0.02674992197808517,2.09141763801688e-12,0.24724755508239146,-1.3751598286063621e-12,0.04718199929956252,0.14275548929287638,0.2002319796203246,-0.000006652086825902728,6.457448661933913e-51,0.06919342669814528,-0.000004033253600284412,0.00002459421692930176,1.3770323208322729e-9],[-7.659101043135456e-8,1.7166299728876753e-12,-4.661271249920413e-8,-3.448667082545012e-12,-0.000007708580907695981,-6.463831461047675e-13,-4.922119621524124e-13,3.9644862629722976e-8,-7.205383295045481e-10,1.2014210251617798e-7,-2.501482132416945e-13,3.301493718758992e-8,-0.0000074042317975097675,-2.323506049852252e-9,2.8790405941442975e-7],[0.47545013312321627,0.6022560490932478,0.059928608794127695,-6.676073810607658e-9,0.6410840778112387,-2.6402337397763965e-13,0.10916066290335526,0.3636044535557064,0.5376444251153591,0.000003033411468898143,2.65001872762817e-50,0.16545357543785216,0.0000017606542794370406,-1.943944157579286e-9,7.490273855960867e-12],[0.3573018261873701,0.45415582677010713,0.045268763441081224,-0.000004137628356520139,0.4845095451029463,-7.08632643337193e-10,0.08332024305215587,0.27499323220167676,0.4047202414045887,2.880262580051576e-13,7.470086756914476e-51,0.12612892689902971,3.377406816238931e-8,-2.736082278683177e-12,5.443656278638859e-7],[-0.6604200457048388,-0.8379866136845682,-0.10253554251769437,-0.000019551492173670854,-0.913008601572394,-1.192700327797182e-9,-0.17909513177307435,-0.5324188338329027,-0.7475205979922417,1.670910578848025e-11,-2.368006694750007e-50,-0.2653586306663367,-1.1460048723939955e-11,2.691955507849773e-12,0.0000021785621955475606],[0.5956793931370101,0.7533045284167568,0.07901898472346133,-3.070825436235552e-9,0.8044391347612849,-0.000007446043817105769,0.14247196488664163,0.4559692556111145,0.6730973200736672,1.2603280231968612e-8,-4.2489320372947646e-50,0.21583031298749103,-4.8406521248904823e-11,-2.7507064319646474e-13,-2.4835080855541395e-12],[0.2204629038848772,0.28257536409931394,0.023707526760448083,0.000002856901921256526,0.29750062781852105,-3.160391106633267e-10,0.0448005631184502,0.16532907869805416,0.25068467059347305,0.00003502714508824733,-4.0870589173211405e-50,0.0683665258237007,5.076936499011773e-8,1.4791804033998056e-12,0.0000010397838100584856],[-1.8130983641410806e-11,-1.4153703256114662e-13,1.458942968858153e-10,4.3214e-319,-0.000025033866951914713,-1.77973154772223e-12,-2.3980986715061814e-10,-2.5165512098989007e-8,5.296826100546017e-10,-0.00009783143715060927,8.780522547575981e-11,2.5440386479364824e-10,8.33376415469561e-13,-3.526492173712109e-13,-2.6610995157914504e-9],[-1.7451013742773967e-8,8.603403036532234e-8,5.123385483860474e-11,2.4835265005241915e-8,4.709967036517899e-12,-1.4517672230746394e-12,3.274505691532669e-8,4.9833450960872166e-12,3.111163076299743e-10,0.00003398192442505831,-1.4785503715462732e-8,-1.094231280917348e-10,-0.0000010983678524591835,-4.317506011772114e-12,-0.000003772299299963447],[-3.6453287127671393e-10,-2.1365388069914459e-13,4.302e-319,0.000009421227510430127,4.997864331928417e-13,-1.2515096794677663e-8,-5.8893e-320,1.0813271132423226e-9,-8.792756107560528e-13,-2.31791284743171e-9,5.787019824036389e-12,0.000055894807370427875,1.911756042144437e-11,1.5332186731027907e-7,0.0000010210115886003627]],[[1.5382074502853091],[1.9530890542056978],[0.21947308016020328],[0.000018962427611362734],[2.1272648808944523],[3.627105858356075e-8],[0.3979377871283284],[1.230166002376968],[1.7420396178357123],[-1.6707958967577252e-7],[4.867313689996705e-12],[0.5915594058518093],[6.19482151651257e-11],[-1.889579658069813e-7],[0.000026758945579704526]]],"split_point":4.210000000000081},"nn_main":{"intercepts":[[1.6849685487333879,-0.24747052159142532,-0.07245097522106449,-0.5073267787124551,-0.2337830209166424,0.33986367005893525,-1.0795002813786456,1.7563954392796348,-0.762364636791332,-0.3105533494415931,-1.0447211480158853,1.2330062018210064,-0.19716862500584667,-0.29239034479771653,-1.3683053658288002],[0.03301458011533328,-0.7679509382731134,-1.1188255954541335,0.5027603865062099,0.8315692719248642,-0.5707931049048993,0.7375859798549405,-0.318564993563745,0.16582904910780755,1.614294498636322,-0.5459365055168629,0.7685586715648218,-0.6990497159196134,-0.4607141574873433,1.3945598912842276],[0.4074818460811289,-0.5242723808940435,1.9251334063956769,-0.03227279306133105,0.7471676865799715,-0.23669936209812514,1.2821045910080824,0.007113121325120554,0.25665770123799186,1.347713729664008,-0.4724958568246709,-0.12606989658746334,-0.06391314497551678,0.16480759190989502,-0.3416694270550254],[0.5643277938273483,0.05191177041306713,0.8535095774617214,-0.4622686622736177,-0.15377224935781456,-0.2751267884582281,-0.14992209496578082,-0.23130419915046332,0.8116576658210871,0.45214392482798704,0.07198120914510969,-0.02113366687561691,-0.11554362794060731,0.21281627470920086,-0.4053641905464192],[0.5949850602704865,0.3164028836968725,0.3985556808266238,0.3066028407503996,-0.05164773540553233,0.28288535083806854,-0.1610085863981346,-0.3814872518232568,0.49636570735881785,-0.006757380036274532,0.21707653285372275,-0.009517434095578033,-0.05533293056765334,-0.028957759026857065,-0.10954251053893836],[0.6614706902790505]],"coefs":[[[-2.474879974605878e-11,1.2969838248103082e-8,1.731703327721868e-7,-1.2091892158584762e-10,1.1099756208703663e-11,1.0084515698050365e-10,2.550287716714955e-9,-4.2757114939891866e-8,-2.0138702821633348e-7,2.0587021561219684e-7,4.442170501206878e-12,2.658459493423493e-7,-1.2220430661020407e-11,-2.5202830863810625e-12,1.1829146785486216e-9],[0.00015480954489713187,1.0316786327438639e-10,1.4859497532787405e-8,-0.0000030113463248545895,0.00006283369823816367,6.720939026425998e-7,-4.237212331026547e-8,-9.44980043846421e-9,-3.218622523103489e-12,2.0068119655994165e-8,-1.8164541432772194e-12,1.0902445308170893e-12,7.568070122432429e-14,-6.81558915833498e-9,-0.0000030732046933863098],[-3.8401763524333245e-12,-1.2259717481824201e-12,0.000016952448059247483,2.019993934772125e-11,2.6399753967343683e-9,4.368459343371431e-7,1.6310767759948306e-11,7.17853472312789e-13,-8.547254653526808e-7,-4.1428053816703174e-14,8.627293204478838e-9,5.0834371531924594e-8,0.00005497250083756692,0.0000023185800938565737,2.4831447683493942e-11],[0.02161040647615127,-0.0036582079021964275,0.6603582564931982,-0.03345782488473747,0.0017104861218590242,0.00523294180458957,0.003280643181488432,-0.011418092822745033,0.028302152644208767,-0.02215859272352118,0.04961127055198888,-0.008304831477110206,-0.06670692247826181,-0.0011962160654190339,0.0004537330570344251],[-0.4732046634768215,-0.5268760629490769,-0.43627499560224137,-0.5679154580027977,-0.04754446598318284,-0.7695972036895382,-0.043057631522469955,0.3846883144425445,1.0920554575245245,-0.032815877074346675,-1.2779146210243262,0.2515577444264851,-0.6438902261144532,0.40084415955802166,0.3957544328931999],[-0.20568343995130553,0.6001421752132775,0.3314003009098497,0.9591177199300328,-0.018484771116545694,-0.80312540246692,-0.0148812271058952,0.02293693061703895,0.2717053324285026,0.01144961530631937,-0.02654398442453523,-0.9878717462250366,-0.44284452309053823,-0.9986240721231395,-0.8068898042614511],[0.4349061717407196,-0.4698351301429561,0.5208525035587699,0.7473307762902555,-1.1823427773011355,-0.28677258585437715,0.12381353479234253,0.11597579524394046,-0.21777257930451835,-0.36202983552164025,-0.32160749967837776,0.09145816298794925,0.5948557411149923,0.16313346505845294,-0.3741703857650626],[-0.023937367940299274,-0.010101405254217365,0.004659561028631079,-0.03527737210562897,-0.028815773389074168,-0.00604158881126905,0.14384662911227378,0.2049461688482478,-0.015809439785578656,0.05943134588284173,0.03822046517289468,-0.007234925274427674,0.003474999511057454,-0.04569075821349097,0.003376343676738304],[0.024673278529648155,0.01793423774539983,0.005384115782027925,0.14568963708929547,-0.04894232009281584,0.004995371615857934,0.6616761246785825,-0.5405246500086583,0.07953386255345034,0.41688366008881644,-0.06623903523642799,0.04981538099547055,0.04929612556375847,0.1319470002268355,0.003206841327231238],[-0.005772766939318779,0.005373297260574156,0.012363188728129408,-0.008139300332356169,-0.0032679279463666395,-0.01003744196460536,0.005472884156995304,0.003469204052984458,-0.0007195345866081164,0.01806956555179075,0.00221205898391943,-0.0016059589685720637,0.005769853756999372,-0.001907314624856918,0.009525389143228074],[-0.020712136647712934,-0.010309307188616508,-0.003276675573156058,-0.02528202345734643,0.06980633466352378,0.020984952533959465,-0.06595596543213535,-0.021935643789375982,0.04914566895800075,0.03652294105545579,-0.04060638329846322,-0.0384452396162647,-0.015636550802551222,-0.013301356485229376,-0.0038839960110830024],[0.023715711654702053,-0.04600524909099194,0.0032716520853665883,0.007777358353556523,0.05119588908475279,0.007140012059329216,-0.010479462441645366,0.010721526569947024,-0.025887869840166347,-0.030322713437677378,0.017583062362336605,0.052523561029541865,-0.018716822548619456,0.02270658261294761,-0.013358538630431852]],[[-0.25225415214370306,-0.17000661327655472,0.09123664338034276,0.06834989336563307,0.6379910860021294,0.14940333984770413,0.4160542557529289,-0.23617496924272502,-0.36778515862299604,0.07982991039923994,0.6365773671428065,-0.45288474670700923,0.24786654054268709,-0.17705851454515273,0.44091986903591773],[-0.41660120999607153,-1.0832930705946546,-0.04297033035196279,0.0512503008223223,0.11498365171641584,0.18491090030999768,0.20966084413482494,0.13597309387717182,0.11571445687287896,0.05449256815068787,0.17709484390579036,-0.44681973811408615,-0.0657837954117145,0.08052650003145526,0.10706429164278537],[-0.6401782406784247,-0.2892557130521901,0.00605439653306568,-0.10808087749072255,-0.136098758869576,0.1288341426475904,-0.02498773902149455,0.09408118206208643,-0.06975860140499497,0.07244279385933494,0.16764252667386675,-0.7983306263179549,-0.0835202344189777,0.0003808960980182217,0.11818931790281348],[-0.06454482637546088,0.00007228076408628438,0.6768645121127824,-0.13787192555120653,-0.7086380968839023,0.05042925938077899,-0.739984322936874,0.23439393982970202,0.2720403676895023,0.07672902069438488,0.44485785567539354,-0.11837651657001277,0.07393219678544094,-0.01565907065797384,0.44594179039226667],[0.08953288934211354,-0.3112779553320624,0.0634453879025224,0.6344211961642681,-0.2759214746119598,0.6524218470403828,0.06419194508152844,0.6912625976973304,0.0010743987890136602,-0.457413934142687,0.18138519008704398,-0.2712611287538989,0.7151139640396952,0.08527575245287497,-0.5224405348064542],[-0.17472761908330992,0.6943493648365204,-0.5708983534763022,0.14197449748434077,0.3824876612448509,-0.1156430638480087,-0.04960985798216769,-0.06965802903899225,-0.10471474890461967,-0.053364388143292044,-0.11227410148812868,-0.5427163822802867,0.00764434674415954,0.5037205809267471,-0.09327449947587976],[0.17111185821673253,0.2561679736933549,0.0026721568536936554,0.188767509869965,-0.21335060710388992,-0.017906049824859032,0.4525770381831277,-0.31106107519451864,-0.38975621002125405,0.13036736185276326,0.3748010807728004,0.26978473314372065,0.38355696047682003,-0.013105199856196232,-0.10188278659552968],[0.057171526468725725,-0.6231335114824778,0.12525392401665578,0.13086863665348797,0.04405653529879738,0.03467106385374222,-0.09342600201603131,0.15561236990693633,0.46266923720204145,-0.11351133077424065,0.5905609253254851,-0.0399218100260707,0.20936128084968633,-0.03889886485565836,0.39166574586675396],[0.20234070464537485,0.04393609831143608,0.6862804944611168,-0.055107380600063746,0.36834970240634923,0.11380793528769904,-0.8534583982577248,-0.05513071196556415,-0.28184156512172787,-0.12591899151994704,-0.1157060909077764,0.2850416202085029,0.024020369384737474,0.47206001563937633,0.05797502667674507],[-0.12335908440122009,-0.46557868478894016,-0.050945538854212186,-0.15988278831452865,0.27484755785712733,0.16473537649157,-0.21930755036091565,0.4178911113447056,0.30905074083937134,0.07686350102542516,-0.2678777849053934,-0.2455711446565176,0.002527906646835458,0.0559740171031183,-0.1282556033313116],[0.2083766822860288,0.2880952057835339,0.530589713383334,-0.41910394311656884,-0.13188368455067345,0.1628975478786433,-0.4456486032094622,0.04379674194767235,-0.22038601915513067,-0.3271955736559094,-1.1944355253425234,1.425320873493486e-12,0.24920113607887356,0.20463173090186493,0.05197313033461107],[0.47114531651945746,-0.025460364789206404,0.19912315482834939,-0.20409856663476314,-0.5266633109575535,0.06922365420601559,0.18465326232201443,0.34488640111377866,0.18873527752899932,0.08058958234970626,-0.06161470303903613,0.5103761185590839,-0.05696199070644318,-0.6331592959708737,0.18606249217220475],[0.17684832926701838,0.37696922453502596,-0.0012970494585894177,-0.17733626780812936,-0.3241842878523596,0.11291272081826248,-0.46633367977467743,0.01791920124789307,0.00939700865954259,-0.11419798407563883,0.1367087636277414,-0.0002207189321746169,0.10620111230391019,-0.3400249429421272,0.08697812912169542],[-0.12102226693147927,0.2703047416967391,-0.09526028956093435,0.05046970742635812,-0.3038708336943367,0.02709884088995078,-0.15497795761243932,-0.14681307851214145,-0.08472439315224523,0.17516497163847394,0.6410405094816433,-0.20374733565366,-0.025028248394169193,0.3929549072481926,-0.0782469123572289],[-0.17181496792191844,0.6630259834633601,-0.11417829585377876,0.08590702348348868,-0.1788107047456234,-0.08335222165680269,0.15865022583087163,-0.11947274499393967,0.08500853231633103,0.09940345956044934,0.4419181300417057,-0.6248661505723606,-0.08086955488214631,0.8267633405996238,-0.25051964638403024]],[[0.04014682755053574,0.3136432867025502,0.04379093678587953,5.053366794308312e-12,0.1374694901813708,0.07536380698117458,0.04411010243661512,0.06045143717589612,0.17707769285956945,0.1418395177076863,0.26743074649760507,0.4680097256795185,-0.011227620508567411,0.44800554879013565,0.09499966802231521],[0.04488279673931763,0.7841680495599641,-0.029226080471052275,5.616906459733817e-13,0.5196415083794742,0.16674419844464694,-0.5641470088719763,0.011383189283207138,-0.7318520031773443,0.4192992273118015,0.5236134991034329,0.4286500971103811,0.5744469202446121,-0.026195158548950864,-0.10580852411453286],[-0.07406888759218264,0.00004279607502317734,-0.2388852755939517,3.0777062853664086e-11,0.37829840799720027,0.09581050786180466,-0.41884058797057905,-0.19310260901805137,-0.5210624934370677,-0.0870029272338281,0.7137402905544195,0.575601163016033,0.14709706449326354,0.003950881483547718,0.2942455555509131],[0.8349563056687654,-0.038710313151867376,0.0482389667546659,7.291989181682268e-11,-0.1393307722249935,0.2656702203347091,0.11464463796346289,0.2401910559852591,0.22970567550177456,-0.04692901633278267,-0.040117606724495346,-0.25306894077323,-0.3125331561849496,-0.12968774785096565,-0.15493719922243618],[-0.017747184258004353,-0.05039226935987463,0.21665409378709857,-1.3461e-319,-0.1225711231553524,-0.17067956999524375,0.33217502376520375,-0.10941091180978457,0.5472650824613314,-0.13977307246757553,-0.30008026964034396,-0.258176310775965,-0.6057489479197299,-0.6911597929361545,0.1839971121105909],[0.5197480877250347,-0.14789059844117317,-0.31910759369778935,-2.1579248715436372e-9,-0.3335359607385238,0.02300189059744534,-0.4125580364052833,-0.06864127637670021,0.006283528190358424,-0.08576019336400083,0.16107104469433375,0.2612356437349017,0.05004653466183433,0.016925874697930124,0.06716213493679851],[-0.027029171512657085,0.06379762211661362,-0.1331917317370152,3.768053205970663e-9,0.10057038689382714,-0.11923847979445663,0.3039057176768018,0.17467827156279783,0.24071462338312832,-0.19598114182927343,-0.4644805137134938,-0.6229973083238888,0.1705402525147027,-0.8416599833830207,-0.22194356426796055],[0.8190272280815998,-0.1889515525088457,-0.3902663399846413,-7.595455290129998e-7,-0.25136839752636997,-0.01914277885762296,-0.2104661440146195,0.2902697465105086,-0.0754594345734761,-0.23939988842335563,0.14245991543843145,0.23247582332609093,0.36638007090012736,0.30459819835853463,0.2103741791431184],[-0.03316171239246775,0.17980750225413952,-0.14391630458605983,6.854390267686053e-8,0.3207814290495136,-0.08452719125022738,-0.007222197165276033,-0.12647692609391006,-0.21442985181464758,-0.1492028615963638,0.07698039551195128,-0.07565358993338327,0.5168857526214082,0.36698286636414795,0.06368278597580707],[0.015440448395740861,-0.14328179376966205,0.4521925860076277,-0.000014588938634047257,0.4365143129490259,-0.16822497669901568,0.19423194397702093,0.07486895395987948,0.099848223430938,0.6929820967211258,-0.16307444059921772,-0.3007324877536644,0.04841979164891237,-0.1013676606971726,-0.45428139879601137],[-0.12076920481147703,-0.5834010635664265,0.15807437171540104,-0.000006282620574602102,-0.534094126671675,0.07235973786148255,0.34596766230187065,-0.09618823176261479,0.08212176160006998,-0.4660771407119086,-0.29093790035638156,-0.08457411377887335,-0.7109874758960177,-1.035223076950411,0.08120307528719616],[-0.020646609522362556,0.00018649909094140693,0.03271390620015566,-1.2342921583924188e-7,0.1877050326127339,0.11719798575500873,0.05393403396388215,-0.011057494378103307,-0.04518829642838551,0.15392973657873357,0.6685814537399355,0.6265345563141955,0.4581182625986597,0.8812336812024818,-0.15158831060381112],[0.28696698911614094,0.11143250422391657,-0.05979315910400029,0.00018982208920169017,-0.42217655186795167,0.2690795384322761,-0.2984686893506498,0.049347996662543886,0.01984921186397507,-0.23629422088853563,0.34452516649078085,0.20180068160244702,-0.3546526530546054,0.026815668230516124,-0.029149165238241917],[0.13032011853519965,0.2721894476747461,-0.00349590465788521,-6.394242720500674e-7,0.03938159610736859,-0.06397160709630191,0.39501402314110085,-0.06438479159852147,0.1765225614366737,-0.23860395771768883,-0.11742090041722808,-0.06312631021220397,0.032363565923499954,-1.0696407989658863,0.3729571978473369],[-0.35224941862984227,0.08334497279420497,0.7128466173909013,4.463413291142812e-10,0.5058399637399352,0.05981587036099124,-0.028538306757387284,-0.30085735588496154,0.024430978657973983,0.6059620294668606,-0.03567207342327638,-0.11348398225421374,0.10114808501367714,0.3578840840005353,-0.34122482811064897]],[[-0.3091753355968229,0.03855424234340791,-0.798849679569602,0.4729250448533686,1.0869800402623029e-10,0.25697136680734783,-0.21244158875958205,4.59362e-319,-0.1440329435561635,0.3743716621053784,0.185834627385894,-2.2813093763769027e-8,-0.9732432397038934,0.42794471394375777,1.76006e-319],[0.2836908142116911,-0.06384043024303848,-0.20811309783348295,-0.4875440006379515,-4.3163354902152397e-13,0.1579442690424822,0.28255117303840693,-1.1744593941292652e-7,-0.38414683239663056,0.361542022763726,0.3102390102052025,-8.82587794291881e-10,-0.135374564922358,0.24411051139737702,6.83248729826587e-8],[0.2806020372325368,0.09746720314839649,0.5286094243562132,-0.5081561178988963,0.000013501575905856415,-0.09386790488860147,-0.3975385605097538,2.758106296340714e-7,0.9715859612309109,-0.014169729114650967,-0.07886677890468548,1.0514098530839769e-8,0.038912641933439934,0.008564348960619472,8.495405453084988e-11],[-4.56433e-319,0.0000034011814460218373,3.9951077955431274e-7,-3.4004839531425008e-9,2.756449227774651e-7,-9.614852919811956e-11,8.343155807504871e-9,-3.593244614002175e-13,-2.378575744332316e-9,1.3284722261306285e-11,-2.1837727625358385e-9,0.000006624337436508417,-3.451460599966444e-7,7.12924523629527e-7,1.5134041430848185e-12],[-0.26346472514930014,-0.06476539009961349,0.44564076007930187,0.12275008889965092,1.44150825825752e-9,-0.30404112469874134,0.5150763879988649,1.114099714749522e-9,0.5005876147613332,-0.4523419218834898,-0.21133865413677333,-2.6910384708452326e-8,0.17373704171201254,-0.3935459677263463,2.7735176427865702e-11],[0.22470089428198123,-0.042329969947372266,-0.09896380887244902,0.12453029753933986,3.500268960840998e-11,-0.029005724999621067,0.029277800559923534,-7.462125346876302e-10,-0.11085006993716467,0.30902035394503613,-0.022322792633439545,0.000016418998483518737,-0.04687360484478443,0.1394973178901954,-0.0001945058426824064],[-0.33641823988787806,0.03672108159807029,0.1345597818068142,-0.30505818971883353,1.464424730514716e-10,0.051811644554873845,-0.3268457606000681,-1.5712341669653962e-7,0.19082364551244418,-0.1515202080277241,-0.8534702382747765,0.00003426820731276177,0.2982705004875319,-0.1366450534489003,0.00001064787131692973],[0.017838769968647455,-0.06169000465135404,0.059080670560965,0.3873650284257109,1.337583424571537e-12,0.13102065154668519,-0.29605117675857573,-3.3863628802297406e-9,-0.03231284701470444,0.29504829292191376,0.06241516795692079,-0.00000302556670314239,-0.008904720026559634,0.22036633716621792,-4.5432892124237407e-13],[-0.32599381552961854,-0.05770144128003039,0.21860030325626476,-0.143313438002242,0.00009909538761806915,0.1021636552463661,-0.368850191324436,-1.4078248523440178e-9,0.274863846338464,0.007602106088257349,-0.8754727866804755,3.171459246269343e-8,0.22472871854384993,0.03914318930417364,8.099151689168585e-12],[0.41816514025418083,0.02084403599974846,0.3648167368257537,-0.6470873179850134,1.0698342619873388e-12,0.07418079654604307,-0.09478407955356763,-6.157378645265961e-10,1.0334268803514723,0.09250219532016846,0.24255745512009178,-0.000006992575745498067,0.020135026558803032,0.041963885195567215,1.8075915437979937e-8],[0.5713767316084766,-0.18670270736608455,0.03422303547324098,0.10333283405565923,-3.515683539298335e-9,-0.09662647606164126,0.934213115015605,2.8594756020907803e-10,-0.5445864411972321,0.16302803560368273,0.13921564170016307,5.65944005493957e-7,0.04273106912576702,-0.041344025871161066,-6.79832696378793e-13],[0.627195251190425,-0.24012776337038824,0.15267668983098975,0.3386155703472086,0.00010555628726393618,-0.10186279910767478,0.9285109923031338,5.096746267913501e-8,-0.43739550981840336,0.15412419543266812,-0.032071090504463454,1.8394028745924193e-12,0.06327626350308167,-0.05344724471459194,-1.4501896957484e-12],[-0.2962929536787612,0.009843485594057908,-0.2679184086014816,-0.9690883313841805,-9.622605955941391e-13,-0.1223545565362259,0.4133578661102522,-1.2657277049625292e-8,0.16238856574173774,-0.12277477134879054,0.31736985134913626,2.0485751703230178e-10,0.07409002548529701,-0.23814063425915194,1.676772185190089e-7],[0.7771305021444186,-0.08578978785534422,-0.2192262639419625,-1.3747328395368308,0.00006206984218278827,0.1845560601335511,0.7820066340931989,-3.273712667468714e-7,-0.22724000332553143,0.452855431417031,-0.1859683708232486,-3.135920036774666e-11,-0.44523915363014127,0.17846259109174345,3.755e-319],[-0.5379357014637869,-0.11661495841293887,-0.0000589931446891358,0.19153752511924507,3.676184272531727e-8,0.0030091653841835455,0.45197225625591103,-0.0000022908715366898732,-0.027838655472301813,-0.0771022035475274,-0.5680385694735514,-2.9644698316262027e-7,-0.00003342082232099364,0.006055966100641763,1.7714675637679571e-12]],[[0.23705756034615225,0.29873812666659233,0.19718098691328956,0.4048024988840427,-0.000004022994623228039,0.8334946559165793,-1.7238846976330632e-10,3.3525814434069824e-7,0.7543310732909042,0.6224869035800186,-0.12552924459554593,-9.53169329923935e-261,6.54885628171548e-14,8.022980271711108e-8,0.00002463857826279279],[0.028439195659147605,-0.052203250532349026,0.037746475575728675,-0.05337402785401037,2.220643586923655e-8,-0.1224474385572402,-7.190427558732504e-11,-1.5509571520753084e-11,-0.11429449331621436,-0.10037894591090187,-0.004275519187771066,-2.3147820663857866e-260,4.0140376256128953e-7,-2.7882390910109892e-8,-1.032379555177474e-8],[0.017894667936690225,0.3438125814828182,-0.009966404207884317,0.5445018424710065,-0.00010968423126343837,0.3875244793921541,6.724567687801435e-13,-1.3880356166625977e-11,0.3578782609950653,0.7813561467628672,-0.35274450806212193,2.954992497045755e-260,2.9541737377248355e-11,5.23906295416402e-13,-1.429083414600854e-12],[-0.696533760015253,-0.6383467810664544,-0.4374549041936762,-0.594169622698176,9.788783905512202e-9,-0.6939748002391791,-3.5045879301834268e-9,-1.5248801985913865e-12,-0.6007538631144914,-0.9453985578482109,0.7216444406100014,-9.301464518574128e-262,0.000002088992600845133,3.916749139186328e-12,-3.235093527892787e-12],[1.4791217987358313e-10,3.3509821679677226e-9,1.0312664110385237e-11,-9.00885654609053e-12,-9.09323870611446e-10,6.179826220938293e-10,-1.799382875987914e-7,-6.03364053016482e-11,7.200039076296163e-9,1.379190555949655e-13,5.281603191404749e-13,-4.802599998339287e-10,-5.867845098659898e-10,-1.1751670225197281e-13,-4.126998355977213e-8],[0.058008366543501916,0.09756802132915494,0.13919428789502752,0.15590975917945682,-1.9337837249499227e-10,0.21215965484541713,8.324250362665189e-10,-3.872161574009414e-11,0.14436935782066543,0.2898569851801789,-0.06012804102253965,2.9380981124159285e-260,5.639903504647682e-13,-1.7590114371440825e-13,-0.000003012549121839057],[0.6694084340225414,-0.441555156832311,-0.37987652558200935,-0.649330113101721,1.4060353823480506e-10,-0.7196314988427509,-0.0000013308117036845805,-0.000018472845190546753,-0.638286612224306,-0.9837642193971278,0.6962913225966005,2.820675171884061e-261,3.4066344073771166e-7,-3.2708149144809163e-10,2.478327562104371e-8],[4.3729734697139006e-9,9.656689989153857e-12,1.8542613622516134e-14,-0.00005588303192903719,-3.7427558902238025e-13,0.00008641195232957327,0.00006282923467953143,-0.000015007757353765356,1.0665182262476746e-11,2.52639610450015e-7,-4.780956608014656e-13,1.2393587304853303e-11,2.98925756700988e-7,-8.581628734048245e-12,-1.0564530306120858e-8],[-1.6343555837914179,-0.25809557964972496,-0.4488310663581526,-0.40067709549391767,1.1146354887376117e-9,-0.45008539652636015,7.842383357413428e-8,1.6341799914957274e-7,-0.43730414212542995,-0.5237507457968288,0.22996809131545473,-1.6799255937376633e-245,2.9647166569769306e-8,4.826610115848131e-11,-1.6887550299040862e-11],[0.35126408809005544,0.18035705759724546,0.2922577947932257,0.3536952429147937,-3.8042864259168987e-10,0.3929576157362425,-1.1876293060356286e-11,-1.7907934467275215e-7,0.37931151042579264,0.49711435198713794,-0.04999172826432958,-4.068763340800485e-247,-0.000005134714656173082,2.1531776596611426e-12,9.058448797125837e-11],[0.6433071044936223,0.29585203778599656,0.2609627787237385,0.4033968218185676,5.238294772421591e-10,0.471276727290354,6.178563642039521e-9,-7.163511124001455e-13,0.41108193160009937,0.6591925403825131,-0.2836329323039951,2.1854905902459704e-260,-2.0068839696594732e-8,4.793708953302297e-10,-6.840418120469769e-8],[-1.2667412324617619e-7,-0.0000030320499277349454,3.677770602977974e-12,-3.327634715404275e-10,6.7881036063712e-8,3.6601815833521825e-7,-1.3043611158405862e-9,-0.0002255582335071712,0.0000038692343473258395,2.2492467025135072e-11,-5.603490805122124e-11,-1.5126628262028464e-12,-0.000003461684886886678,-6.586624363515248e-8,4.63424e-319],[3.060404250665369e-10,0.3871977850793151,2.1633257638619705e-12,0.5101100731755502,-1.0025870661498244e-11,-0.04821644241819848,0.00010195067462169565,-6.5167e-320,-0.04234859744809593,0.8138269102957408,-0.2674678461781496,-4.351135023271567e-14,-4.1871270897909924e-10,4.1892608018042024e-9,1.0272448532955776e-10],[0.08254691665687408,0.16549792876127578,0.30658846838501863,0.2245755982907726,2.0002667291339538e-9,0.29941530636167957,2.3985306284129725e-12,-1.513338671741637e-12,0.24284709267660956,0.42900473204614636,-0.22475674641928337,-7.127732018104102e-251,3.1829767429506715e-12,-0.0000010398517323699457,0.00001710739938603897],[-0.000002652827515500723,9.279220376611908e-7,-1.7637484715223743e-14,-0.00003685846223165374,-3.045538086749806e-9,-3.828839928759278e-9,-2.6952952642129983e-10,0.00008132209373013492,1.1458325081171911e-11,1.5264247135477612e-11,1.065705480026381e-9,-1.0004929473503717e-11,-4.276415702118968e-8,-0.000034355966411080866,-3.081543078984594e-13]],[[1.9928066063010794],[1.0217624858794692],[0.8356805279625547],[1.2977649936322626],[-0.0000957336732143238],[1.5060367403559003],[-3.2415862028725894e-12],[1.13727712809846e-8],[1.3336905717005663],[2.061677371120111],[-1.0775201314871001],[-1.8734509092350195e-212],[-5.530726099798698e-13],[-3.2040462618344056e-10],[-2.46991672443675e-10]]],"split_point":4.570000000000073},"objectives":[{"tag":"General Smoothness","variant":"macro_smoothness","indices":[]},{"tag":"Joint Limits","variant":"joint_limits","indices":[]},{"tag":"Self-Collision","variant":"nn_collision","indices":[]},{"tag":"panda_joint8 Position Control","variant":"position_match","indices":[0,7]},{"tag":"panda_joint8 Rotation Control","variant":"orientation_match","indices":[0,7]},{"tag":"Mimic Joint panda_finger_joint2->panda_finger_joint1","variant":"joint_mirroring","indices":[8,7]}],"states":[[[0,0,0],[2.9062768883175334,-1.6643134586910227,0.14058437938754717,-1.7036011813208898,2.8490307992253046,0.2925798443854738,-0.5604051687514275,0.019998470098173952,0.0194428357653166]]],"robot_link_radius":0.055,"rot_offsets":[[[0,0,0],[-1.57079632679,0,0],[1.57079632679,0,0],[1.57079632679,0,0],[-1.57079632679,0,0],[1.57079632679,0,0],[1.57079632679,0,0],[0,0,0]]],"starting_config":[[0,0,0],[0,-0.34,0,-1.66,0,1.32,0.8,0.02,0.02]],"urdf":"<?xml version=\"1.0\" ?><!-- =================================================================================== --><!-- | This document was autogenerated by xacro from /opt/ros/kinetic/share/moveit_resources/panda_description/urdf/panda.urdf | --><!-- | EDITING THIS FILE BY HAND IS NOT RECOMMENDED | --><!-- =================================================================================== --><robot name=\"panda\" xmlns:xacro=\"http://www.ros.org/wiki/xacro\"><link name=\"panda_link0\"><visual><geometry><mesh filename=\"package://moveit_resources_panda_description/meshes/visual/link0.dae\"/></geometry></visual><collision><geometry><mesh filename=\"package://moveit_resources_panda_description/meshes/collision/link0.stl\"/></geometry></collision></link><link name=\"panda_link1\"><visual><geometry><mesh filename=\"package://moveit_resources_panda_description/meshes/visual/link1.dae\"/></geometry></visual><collision><geometry><mesh filename=\"package://moveit_resources_panda_description/meshes/collision/link1.stl\"/></geometry></collision></link><joint name=\"panda_joint1\" type=\"revolute\"><safety_controller k_position=\"100.0\" k_velocity=\"40.0\" soft_lower_limit=\"-2.8973\" soft_upper_limit=\"2.8973\"/><origin rpy=\"0 0 0\" xyz=\"0 0 0.333\"/><parent link=\"panda_link0\"/><child link=\"panda_link1\"/><axis xyz=\"0 0 1\"/><limit effort=\"87\" lower=\"-2.9671\" upper=\"2.9671\" velocity=\"2.3925\"/></joint><link name=\"panda_link2\"><visual><geometry><mesh filename=\"package://moveit_resources_panda_description/meshes/visual/link2.dae\"/></geometry></visual><collision><geometry><mesh filename=\"package://moveit_resources_panda_description/meshes/collision/link2.stl\"/></geometry></collision></link><joint name=\"panda_joint2\" type=\"revolute\"><safety_controller k_position=\"100.0\" k_velocity=\"40.0\" soft_lower_limit=\"-1.7628\" soft_upper_limit=\"1.7628\"/><origin rpy=\"-1.57079632679 0 0\" xyz=\"0 0 0\"/><parent link=\"panda_link1\"/><child link=\"panda_link2\"/><axis xyz=\"0   0 1\"/><limit effort=\"87\" lower=\"-1.8326\" upper=\"1.8326\" velocity=\"  2.3925\"/></joint><link name=\"panda_link3\"><visual><geometry><mesh filename=\"package://moveit_resources_panda_description/meshes/visual/link3.dae\"/></geometry></visual><collision><geometry><mesh filename=\"package://moveit_resources_panda_description/meshes/collision/link3.stl\"/></geometry></collision></link><joint name=\"panda_joint3\" type=\"revolute\"><safety_controller k_position=\"100.0\" k_velocity=\"40.0\" soft_lower_limit=\"-2.8973\" soft_upper_limit=\"2.8973\"/><origin rpy=\"1.57079632679 0 0\" xyz=\"0 -0.316 0\"/><parent link=\"panda_link2\"/><child link=\"panda_link3\"/><axis xyz=\"0 0 1\"/><limit effort=\"87\" lower=\"-2.9671\" upper=\"2.9671\" velocity=\"2.3925\"/></joint><link name=\"panda_link4\"><visual><geometry><mesh filename=\"package://moveit_resources_panda_description/meshes/visual/link4.dae\"/></geometry></visual><collision><geometry><mesh filename=\"package://moveit_resources_panda_description/meshes/collision/link4.stl\"/></geometry></collision></link><joint name=\"panda_joint4\" type=\"revolute\"><safety_controller k_position=\"100.0\" k_velocity=\"40.0\" soft_lower_limit=\"-3.0718\" soft_upper_limit=\"0.0175\"/><origin rpy=\"1.57079632679 0 0\" xyz=\"0.0825 0 0\"/><parent link=\"panda_link3\"/><child link=\"panda_link4\"/><axis xyz=\"0 0 1\"/><limit effort=\"87\" lower=\"-3.1416\" upper=\"0.0873\" velocity=\"2.3925\"/></joint><link name=\"panda_link5\"><visual><geometry><mesh filename=\"package://moveit_resources_panda_description/meshes/visual/link5.dae\"/></geometry></visual><collision><geometry><mesh filename=\"package://moveit_resources_panda_description/meshes/collision/link5.stl\"/></geometry></collision></link><joint name=\"panda_joint5\" type=\"revolute\"><safety_controller k_position=\"100.0\" k_velocity=\"40.0\" soft_lower_limit=\"-2.8973\" soft_upper_limit=\"2.8973\"/><origin rpy=\"-1.57079632679 0 0\" xyz=\"-0.0825 0.384 0\"/><parent link=\"panda_link4\"/><child link=\"panda_link5\"/><axis xyz=\"0 0 1\"/><limit effort=\"12\" lower=\"-2.9671\" upper=\"  2.9671\" velocity=\"2.8710\"/></joint><link name=\"panda_link6\"><visual><geometry><mesh filename=\"package://moveit_resources_panda_description/meshes/visual/link6.dae\"/></geometry></visual><collision><geometry><mesh filename=\"package://moveit_resources_panda_description/meshes/collision/link6.stl\"/></geometry></collision></link><joint name=\"panda_joint6\" type=\"revolute\"><safety_controller k_position=\"100.0\" k_velocity=\"40.0\" soft_lower_limit=\"-0.0175\" soft_upper_limit=\"3.7525\"/><origin rpy=\"1.57079632679 0 0\" xyz=\"0 0 0\"/><parent link=\"panda_link5\"/><child link=\"panda_link6\"/><axis xyz=\"0   0 1\"/><limit effort=\"12\" lower=\"-0.0873\" upper=\"3.8223\" velocity=\"  2.8710\"/></joint><link name=\"panda_link7\"><visual><geometry><mesh filename=\"package://moveit_resources_panda_description/meshes/visual/link7.dae\"/></geometry></visual><collision><geometry><mesh filename=\"package://moveit_resources_panda_description/meshes/collision/link7.stl\"/></geometry></collision></link><joint name=\"panda_joint7\" type=\"revolute\"><safety_controller k_position=\"100.0\" k_velocity=\"40.0\" soft_lower_limit=\"-2.8973\" soft_upper_limit=\"2.8973\"/><origin rpy=\"1.57079632679 0 0\" xyz=\"0.088 0 0\"/><parent link=\"panda_link6\"/><child link=\"panda_link7\"/><axis xyz=\"0 0 1\"/><limit effort=\"12\" lower=\"-2.9671\" upper=\"2.9671\" velocity=\"2.8710\"/></joint><link name=\"panda_link8\"/><joint name=\"panda_joint8\" type=\"fixed\"><origin rpy=\"0 0 0\" xyz=\"0 0   0.107\"/><parent link=\"panda_link7\"/><child link=\"panda_link8\"/><axis xyz=\"0 0 0\"/></joint><joint name=\"panda_hand_joint\" type=\"fixed\"><parent link=\"panda_link8\"/><child link=\"panda_hand\"/><origin rpy=\"0 0 -0.785398163397\" xyz=\"0 0 0\"/></joint><link name=\"panda_hand\"><visual><geometry><mesh filename=\"package://moveit_resources_panda_description/meshes/visual/hand.dae\"/></geometry></visual><collision><geometry><mesh filename=\"package://moveit_resources_panda_description/meshes/collision/hand.stl\"/></geometry></collision></link><link name=\"panda_leftfinger\"><visual><geometry><mesh filename=\"package://moveit_resources_panda_description/meshes/visual/finger.dae\"/></geometry></visual><collision><geometry><mesh filename=\"package://moveit_resources_panda_description/meshes/collision/finger.stl\"/></geometry></collision></link><link name=\"panda_rightfinger\"><visual><origin rpy=\"0 0 3.14159265359\" xyz=\"0 0 0\"/><geometry><mesh filename=\"package://moveit_resources_panda_description/meshes/visual/finger.dae\"/></geometry></visual><collision><origin rpy=\"0 0 3.14159265359\" xyz=\"0 0 0\"/><geometry><mesh filename=\"package://moveit_resources_panda_description/meshes/collision/finger.stl\"/></geometry></collision></link><joint name=\"panda_finger_joint1\" type=\"prismatic\"><parent link=\"panda_hand\"/><child link=\"panda_leftfinger\"/><origin rpy=\"0 0 0\" xyz=\"  0 0 0.0584\"/><axis xyz=\"0 1 0\"/><limit effort=\"20\" lower=\"  0.0\" upper=\"0.04\" velocity=\"0.2\"/></joint><joint name=\"panda_finger_joint2\" type=\"prismatic\"><parent link=\"panda_hand\"/><child link=\"panda_rightfinger\"/><origin rpy=\"0 0 0\" xyz=\"0 0 0.0584\"/><axis xyz=\"0 -1 0\"/><limit effort=\"20\" lower=\"0.0\" upper=\"  0.04\" velocity=\"0.2\"/><mimic joint=\"panda_finger_joint1\"/></joint></robot>","velocity_limits":[2.3925,2.3925,2.3925,2.3925,2.871,2.871,2.871,0.2,0.2],"disp_offsets":[[0,0,0.333]],"displacements":[[[0,0,0],[0,-0.316,0],[0.0825,0,0],[-0.0825,0.384,0],[0,0,0],[0.088,0,0],[0,0,0.107]]],"ee_fixed_joints":["panda_joint8"]}