condition,HeadYaw,HeadPitch,LShoulderPitch,LShoulderRoll,LElbowYaw,LElbowRoll,LWristYaw,RShoulderPitch,RShoulderRoll,RElbowYaw,RElbowRoll,RWristYaw,LHipYawPitch,LHipRoll,LHipPitch,LKneePitch,LAnklePitch,LAnkleRoll,RHipYawPitch,RHipRoll,RHipPitch,RKneePitch,RAnklePitch,RAnkleRoll,LHand,RHand
static,-0.00019911229065768373,0.020542254833951366,1.319059707381464,0.2000514698152487,-0.5024259276439673,-0.4960040560800523,-1.2892691325931125,1.065843555242901,-0.3467072803785974,-0.1963356552812,0.7748717883087359,-0.3663739391619677,-0.1768237782741206,0.1722779345961694,-0.1470549776807744,0.4753671577534068,-0.27091357708359015,-0.16017037431811673,-0.1416671551455253,-0.20775280473793137,-0.22488017140022823,0.495899221385672,-0.22275715860536965,0.226279653077728,0.4999999850988392,0.4999999850988392
naive,-0.00019911229065768373,0.020542254833951366,1.319059707381464,0.2000514698152487,-0.5024259276439673,-0.4960040560800523,-1.2892691325931125,1.065843555242901,-0.3467072803785974,-0.1963356552812,0.7748717883087359,-0.3663739391619677,-0.1768237782741206,0.1722779345961694,-0.1470549776807744,0.4753671577534068,-0.27091357708359015,-0.16017037431811673,-0.1416671551455253,-0.20775280473793137,-0.22488017140022823,0.495899221385672,-0.22275715860536965,0.226279653077728,0.4999999850988392,0.4999999850988392
lively,-0.015300109120488296,0.016275181886655003,1.3167925860128697,0.21028680591826568,-0.5087268690000736,-0.49696495343688896,-1.298034154052062,1.0793433985870313,-0.32625100613289487,-0.1283901985165833,0.7883661193263739,-0.26998573627156125,-0.18331772404711308,0.17989980384725202,-0.1503278304100936,0.47395770847756596,-0.3061201769547763,-0.1341210652722999,-0.15863971700249077,-0.2231129108713126,-0.25426064268406295,0.5280162263917239,-0.2657598158420677,0.2683806407990325,0.49999998509883925,0.49999998509883925
static,9.236481216472088e-05,0.014457584772875117,1.3297532152682476,0.1892751407708489,-0.49897506860488905,-0.48887486249059936,-1.2925596232094392,1.1021007551714432,-0.3311982185252232,-0.1393787235226279,0.8045758166462497,-0.3428751716872859,-0.16573270570613027,0.18441742242651113,-0.1387733851136548,0.47193243488875036,-0.26255618300254513,-0.16693243599692134,-0.14588675783058386,-0.21161377636554565,-0.21838768463660438,0.48904679636403786,-0.22675122498996417,0.2203938114089915,0.4999999850988392,0.4999999850988392
naive,9.236481216472088e-05,0.014457584772875117,1.3297532152682476,0.1892751407708489,-0.49897506860488905,-0.48887486249059936,-1.2925596232094392,1.1021007551714432,-0.3311982185252232,-0.1393787235226279,0.8045758166462497,-0.3428751716872859,-0.16573270570613027,0.18441742242651113,-0.1387733851136548,0.47193243488875036,-0.26255618300254513,-0.16693243599692134,-0.14588675783058386,-0.21161377636554565,-0.21838768463660438,0.48904679636403786,-0.22675122498996417,0.2203938114089915,0.4999999850988392,0.4999999850988392
lively,-0.00012083438574379646,0.012070841700542899,1.3193117352902375,0.19355373062816242,-0.5030955692004908,-0.492728270982891,-1.2974456925568802,1.0865728600929314,-0.30983351658624997,-0.10180892661928853,0.8066104535716644,-0.2917112703232275,-0.17277351291052923,0.1727845872613203,-0.16136115540988188,0.4859965579518522,-0.3309713171846988,-0.12002598466218413,-0.176104951290709,-0.23179412604090543,-0.24815598794005983,0.53823359981481,-0.27297656684218985,0.25977605153138916,0.49999998509883925,0.49999998509883925
static,0.0002901311749691748,0.012748905509873861,1.3263127516588857,0.20246107322632645,-0.49427985077442527,-0.49376135944510563,-1.287553278650565,1.0930167979713432,-0.33192890883129095,-0.15112780962911773,0.8130733839332694,-0.3709974166777085,-0.15661516750047547,0.17713688202629924,-0.1400711733478623,0.45679679775884546,-0.27080072092686,-0.17513795072859645,-0.14779792849314236,-0.2124799470451365,-0.20793152716454988,0.48871492027314256,-0.21366544098277823,0.22284589331871846,0.4999999850988392,0.4999999850988392
naive,0.0002901311749691748,0.012748905509873861,1.3263127516588857,0.20246107322632645,-0.49427985077442527,-0.49376135944510563,-1.287553278650565,1.0930167979713432,-0.33192890883129095,-0.15112780962911773,0.8130733839332694,-0.3709974166777085,-0.15661516750047547,0.17713688202629924,-0.1400711733478623,0.45679679775884546,-0.27080072092686,-0.17513795072859645,-0.14779792849314236,-0.2124799470451365,-0.20793152716454988,0.48871492027314256,-0.21366544098277823,0.22284589331871846,0.4999999850988392,0.4999999850988392
lively,-0.00045070979139505163,0.01159135607908596,1.3195000637552314,0.2062201933911592,-0.4956713754391865,-0.49719314151678035,-1.2917796490664766,1.0727707258394772,-0.3137990576341857,-0.1435978317538403,0.8025416054727292,-0.3476555825112376,-0.16753652798738788,0.17865851542775757,-0.1458050735998534,0.48834911578718637,-0.3259394382679567,-0.1299010929315234,-0.18079037052282274,-0.23339175478071045,-0.24595481995258944,0.5211923198241154,-0.27372517253036305,0.2608978486523989,0.49999998509883925,0.49999998509883925
static,2.126387095779475e-05,0.013133523618536643,1.3285724138305939,0.2107300294505929,-0.4943416546176431,-0.4950702284602002,-1.2949323038628715,1.0924390506061468,-0.32305059747914117,-0.16301142084063724,0.8212695538123851,-0.4218662849106066,-0.15706833912962284,0.18727429849388397,-0.14289084345059716,0.45408463583673164,-0.2660626523918298,-0.17709013353401354,-0.14785905397338567,-0.2107389945255817,-0.2078206754900637,0.47648228537864373,-0.2041418655621882,0.21885513846159443,0.4999999850988392,0.4999999850988392
naive,2.126387095779475e-05,0.013133523618536643,1.3285724138305939,0.2107300294505929,-0.4943416546176431,-0.4950702284602002,-1.2949323038628715,1.0924390506061468,-0.32305059747914117,-0.16301142084063724,0.8212695538123851,-0.4218662849106066,-0.15706833912962284,0.18727429849388397,-0.14289084345059716,0.45408463583673164,-0.2660626523918298,-0.17709013353401354,-0.14785905397338567,-0.2107389945255817,-0.2078206754900637,0.47648228537864373,-0.2041418655621882,0.21885513846159443,0.4999999850988392,0.4999999850988392
lively,-0.00010212529231190266,0.012409628842422735,1.3238199929208914,0.21046258743453913,-0.49573970526644223,-0.4986890310926603,-1.2907455149141625,1.0703744598663443,-0.30407098214319234,-0.1940972779649054,0.7849752299214843,-0.4324422891012337,-0.17805356863722124,0.1792502977018539,-0.13745919164644893,0.4733635775219038,-0.30489082669531326,-0.13787933982753237,-0.17645833582910628,-0.21923017943415354,-0.23706717443016903,0.5074554099982864,-0.2562278042334125,0.2581568709120576,0.49999998509883925,0.49999998509883925
static,-0.00021216402035863363,0.010956637158713929,1.3263042520033794,0.21770201148221843,-0.4990143700273816,-0.49889071387161293,-1.2932211784119159,1.0869940140601029,-0.3172611933858527,-0.16554904054703137,0.8243156956307968,-0.4692777788248188,-0.1722676642208678,0.1792364553597879,-0.1370285943067951,0.4550651944275272,-0.2633803270424212,-0.16817775632237092,-0.14869679936301755,-0.2256424078896344,-0.20241204618500672,0.4771193379923773,-0.19510127774200461,0.20992440317293326,0.4999999850988392,0.4999999850988392
naive,-0.00021216402035863363,0.010956637158713929,1.3263042520033794,0.21770201148221843,-0.4990143700273816,-0.49889071387161293,-1.2932211784119159,1.0869940140601029,-0.3172611933858527,-0.16554904054703137,0.8243156956307968,-0.4692777788248188,-0.1722676642208678,0.1792364553597879,-0.1370285943067951,0.4550651944275272,-0.2633803270424212,-0.16817775632237092,-0.14869679936301755,-0.2256424078896344,-0.20241204618500672,0.4771193379923773,-0.19510127774200461,0.20992440317293326,0.4999999850988392,0.4999999850988392
lively,-7.174974120217487e-05,0.01108220329720638,1.3238074244920535,0.21193859919955413,-0.4950057293848834,-0.502095418853843,-1.2926896082627082,1.0636689298187252,-0.29445472624829205,-0.22293445238562595,0.7760487650358734,-0.49917879572003465,-0.18156917702921685,0.17468678388307318,-0.13369671437551978,0.47658512147379944,-0.2883645359615859,-0.13173119463609329,-0.17557589890511974,-0.2210772207237437,-0.21690986780842908,0.5027281412044307,-0.2357762516730138,0.2474249205831208,0.49999998509883925,0.49999998509883925
static,0.0019781441176976305,0.00975307808598126,1.3205929620429433,0.20223235103530343,-0.49717825312552083,-0.5034278555890384,-1.2982996099668234,1.0758903546298104,-0.3221225285063495,-0.18959743660875805,0.8221034311687287,-0.4987407820267989,-0.18239493108532154,0.164644652538357,-0.14589119810071968,0.4575066366340754,-0.2605709762297885,-0.17370374820204734,-0.1375661436298108,-0.20996331169485294,-0.21025060471984383,0.475146726397767,-0.20113809041798458,0.21456882792497842,0.4999999850988392,0.4999999850988392
naive,0.0019781441176976305,0.00975307808598126,1.3205929620429433,0.20223235103530343,-0.49717825312552083,-0.5034278555890384,-1.2982996099668234,1.0758903546298104,-0.3221225285063495,-0.18959743660875805,0.8221034311687287,-0.4987407820267989,-0.18239493108532154,0.164644652538357,-0.14589119810071968,0.4575066366340754,-0.2605709762297885,-0.17370374820204734,-0.1375661436298108,-0.20996331169485294,-0.21025060471984383,0.475146726397767,-0.20113809041798458,0.21456882792497842,0.4999999850988392,0.4999999850988392
lively,-0.0004823439161762949,0.013108181754748628,1.3210815816082575,0.1972420932582306,-0.5070529970580653,-0.5026983698797274,-1.3048626927556144,1.0643723481153524,-0.30206070803548113,-0.2504809601467851,0.7689158368763593,-0.5257490690850101,-0.1742772673528883,0.16119263286619712,-0.14295178713547424,0.4640313520915075,-0.29544676863106817,-0.138686076946566,-0.18356530230405588,-0.23224241704298806,-0.23514606513756686,0.49880510389106075,-0.21939207211224382,0.24964978815302324,0.49999998509883925,0.49999998509883925
static,0.01023249763074188,0.010241532145281552,1.3264665015823123,0.20714310501066116,-0.49113933285888894,-0.49850126660666505,-1.2868026379668798,1.0617252128060948,-0.3276778389044693,-0.2152099806690555,0.8262739347249944,-0.5502571701165454,-0.15977531119002167,0.17439955058801596,-0.13678250421729002,0.4637499023615183,-0.25823234201795064,-0.16834734733009146,-0.16593242121894244,-0.2234562993192467,-0.2163921839190387,0.4924000116646002,-0.20007636688355554,0.20604164043039988,0.4999999850988392,0.4999999850988392
naive,0.01023249763074188,0.010241532145281552,1.3264665015823123,0.20714310501066116,-0.49113933285888894,-0.49850126660666505,-1.2868026379668798,1.0617252128060948,-0.3276778389044693,-0.2152099806690555,0.8262739347249944,-0.5502571701165454,-0.15977531119002167,0.17439955058801596,-0.13678250421729002,0.4637499023615183,-0.25823234201795064,-0.16834734733009146,-0.16593242121894244,-0.2234562993192467,-0.2163921839190387,0.4924000116646002,-0.20007636688355554,0.20604164043039988,0.4999999850988392,0.4999999850988392
lively,-0.0019421613065320365,0.012614712139275166,1.3275142265413624,0.1992085000685865,-0.5039371631063001,-0.5001455985418691,-1.3004313597900632,1.049865526742138,-0.3069289147514113,-0.27366384261367865,0.7750559567159808,-0.5671576282633229,-0.21054512855874946,0.160463913793909,-0.14775418433354418,0.48313892564855576,-0.28399774157790886,-0.122223035169419,-0.16709962880419993,-0.24020560179833664,-0.22843664136226355,0.5029872433878849,-0.21557432582670735,0.23432381558287746,0.49999998509883925,0.49999998509883925
static,-0.002921134704309543,0.010978345997206403,1.3252600730102762,0.2166308758375648,-0.49824783918419296,-0.5009318999067945,-1.3016963643213921,1.0649083786597504,-0.33619501828117127,-0.2463373432900187,0.8228044755526127,-0.5637308538347452,-0.18623741273181713,0.16689536011620287,-0.1428879163257716,0.46358517705665353,-0.2627447645673065,-0.17374604453141124,-0.142169499011878,-0.21929847515663645,-0.2176797631537878,0.5037810973410572,-0.21257566411343132,0.2100794446325683,0.4999999850988392,0.4999999850988392
naive,-0.002921134704309543,0.010978345997206403,1.3252600730102762,0.2166308758375648,-0.49824783918419296,-0.5009318999067945,-1.3016963643213921,1.0649083786597504,-0.33619501828117127,-0.2463373432900187,0.8228044755526127,-0.5637308538347452,-0.18623741273181713,0.16689536011620287,-0.1428879163257716,0.46358517705665353,-0.2627447645673065,-0.17374604453141124,-0.142169499011878,-0.21929847515663645,-0.2176797631537878,0.5037810973410572,-0.21257566411343132,0.2100794446325683,0.4999999850988392,0.4999999850988392
lively,-0.002622305771787052,0.0157156370209512,1.3148440584710523,0.20967482705743246,-0.4976250423494837,-0.500755247438405,-1.2943377994307825,1.0433658335849143,-0.31671936303390125,-0.29549368365258366,0.7716648212780749,-0.5708349152274297,-0.1897851740135091,0.14623105546660128,-0.1517729430749444,0.5014383770059923,-0.27462156124216913,-0.128296147490647,-0.19076908070926368,-0.22627535962380066,-0.22445295338799598,0.5152189266775408,-0.2060232233887787,0.238026667153298,0.49999998509883925,0.49999998509883925
static,-7.890106250802154e-05,0.01327790447789239,1.3299235583065068,0.19024249638884583,-0.48772489797267554,-0.4900992480947339,-1.286528879260114,1.0981260375799093,-0.28929084807248184,-0.1722117694259605,0.8004661743502032,-0.5900422606826564,-0.17361673101405492,0.1821773087613403,-0.13112946840585846,0.45115122438121563,-0.2603329327159651,-0.1782320253967587,-0.16178733057246306,-0.2198698037290524,-0.22135736682310972,0.4984794108563452,-0.2159893285076541,0.22347721182130326,0.4999999850988392,0.4999999850988392
naive,-7.890106250802154e-05,0.01327790447789239,1.3299235583065068,0.19024249638884583,-0.48772489797267554,-0.4900992480947339,-1.286528879260114,1.0981260375799093,-0.28929084807248184,-0.1722117694259605,0.8004661743502032,-0.5900422606826564,-0.17361673101405492,0.1821773087613403,-0.13112946840585846,0.45115122438121563,-0.2603329327159651,-0.1782320253967587,-0.16178733057246306,-0.2198698037290524,-0.22135736682310972,0.4984794108563452,-0.2159893285076541,0.22347721182130326,0.4999999850988392,0.4999999850988392
lively,-0.0005098890328550533,0.013197662696917065,1.3367429297665796,0.18137958089095438,-0.49485839823220973,-0.4889223835669849,-1.2925991985208818,1.0961457413284368,-0.26299017288526033,-0.24411210823799398,0.7479219817859458,-0.5694165187367273,-0.2062566394285015,0.1776858051507585,-0.13174656160324458,0.47876776190955866,-0.25638927395226857,-0.14133302258443536,-0.1794476684123456,-0.21952428257649445,-0.20395000278711073,0.45596591620186894,-0.18028792822870532,0.24290509880305236,0.49999998509883925,0.49999998509883925
static,8.696933997895889e-05,0.018577125982859537,1.3205200969548603,0.20106983578943466,-0.505319471642324,-0.4850312715405007,-1.292538214379151,1.1089453415055186,-0.29880139265947553,-0.19185324196288442,0.7907650070119291,-0.6034703756282261,-0.18410982108949464,0.1850788898731063,-0.1367365912684013,0.44459827200893554,-0.26542919088741285,-0.1741790525425307,-0.15209345385339285,-0.21682685269924293,-0.22508029231625207,0.49664644423711823,-0.21632688281947968,0.223613520672575,0.4999999850988392,0.4999999850988392
naive,8.696933997895889e-05,0.018577125982859537,1.3205200969548603,0.20106983578943466,-0.505319471642324,-0.4850312715405007,-1.292538214379151,1.1089453415055186,-0.29880139265947553,-0.19185324196288442,0.7907650070119291,-0.6034703756282261,-0.18410982108949464,0.1850788898731063,-0.1367365912684013,0.44459827200893554,-0.26542919088741285,-0.1741790525425307,-0.15209345385339285,-0.21682685269924293,-0.22508029231625207,0.49664644423711823,-0.21632688281947968,0.223613520672575,0.4999999850988392,0.4999999850988392
lively,-0.0005389690036199892,0.02026321947879741,1.3312635566414597,0.19698838359171353,-0.48548305476818115,-0.4823113469435273,-1.300414984117348,1.1105757096916464,-0.27660433484948777,-0.26970003992889363,0.7363569562885599,-0.5856228268680883,-0.19957020405407305,0.16984292391412042,-0.13495826075543876,0.48237399323954216,-0.261685216773316,-0.14543594416294983,-0.1697692971339369,-0.22795217355109773,-0.19306931745630404,0.4693708054450202,-0.16860427833358538,0.245294922913221,0.49999998509883925,0.49999998509883925
static,-1.6032411225238745e-05,0.024375055778551754,1.3296685651972477,0.19315933836479263,-0.5011848446435225,-0.47955699448535094,-1.2990951896261498,1.100689777489019,-0.3094622653730032,-0.21004688634893734,0.7803937234775835,-0.6171038531314029,-0.17288427991074237,0.17829578500474846,-0.12877220327482367,0.4611215897111988,-0.25959738269368754,-0.17697154445512162,-0.16417571751042664,-0.22379087448953217,-0.22737441055548,0.5032642345063915,-0.21422477507106633,0.22583990638311077,0.4999999850988392,0.4999999850988392
naive,-1.6032411225238745e-05,0.024375055778551754,1.3296685651972477,0.19315933836479263,-0.5011848446435225,-0.47955699448535094,-1.2990951896261498,1.100689777489019,-0.3094622653730032,-0.21004688634893734,0.7803937234775835,-0.6171038531314029,-0.17288427991074237,0.17829578500474846,-0.12877220327482367,0.4611215897111988,-0.25959738269368754,-0.17697154445512162,-0.16417571751042664,-0.22379087448953217,-0.22737441055548,0.5032642345063915,-0.21422477507106633,0.22583990638311077,0.4999999850988392,0.4999999850988392
lively,-0.0004440751300170535,0.026708652276640495,1.3325877328217974,0.1888962241302243,-0.5074779813353741,-0.4763338865459176,-1.3005957189612993,1.1026009477936556,-0.2890426881223879,-0.2917401343830374,0.7258023173241513,-0.601808245042235,-0.207476635070286,0.1624699568859853,-0.13489498231575336,0.48822901294875076,-0.2571121294606566,-0.14921286110069149,-0.15734483813094005,-0.22391277738596727,-0.2011383575561172,0.4619686524304357,-0.17466841516980108,0.2474768885899667,0.49999998509883925,0.49999998509883925
static,-5.5985683015280205e-05,0.03244043940029643,1.3272100259579866,0.19429182624869357,-0.49309222223710575,-0.4720709114864817,-1.2978942322298515,1.0971226188997314,-0.3251972803620048,-0.23745280504257438,0.7670203133634524,-0.633843811718998,-0.1812743609641901,0.17845502020610152,-0.1424185272307036,0.4538700178371851,-0.2657999102364498,-0.1735734448515227,-0.15619489993511446,-0.2182098133702611,-0.22943634961060214,0.5064839856122945,-0.21318258188449035,0.22467466179328377,0.4999999850988392,0.4999999850988392
naive,-5.5985683015280205e-05,0.03244043940029643,1.3272100259579866,0.19429182624869357,-0.49309222223710575,-0.4720709114864817,-1.2978942322298515,1.0971226188997314,-0.3251972803620048,-0.23745280504257438,0.7670203133634524,-0.633843811718998,-0.1812743609641901,0.17845502020610152,-0.1424185272307036,0.4538700178371851,-0.2657999102364498,-0.1735734448515227,-0.15619489993511446,-0.2182098133702611,-0.22943634961060214,0.5064839856122945,-0.21318258188449035,0.22467466179328377,0.4999999850988392,0.4999999850988392
lively,-0.00011927688078325819,0.0348539140272973,1.334156739074136,0.19021032395062032,-0.4946425704430814,-0.46886132154045224,-1.2969541057930287,1.0967005305561888,-0.29512623179536357,-0.31667076829943414,0.7132207171017838,-0.616736767710234,-0.19647761355626472,0.17330634715148313,-0.13806222752920816,0.49366051504412006,-0.2534316759916052,-0.13869259882959387,-0.16869264759236696,-0.22724401861928079,-0.19466814899888266,0.46951920778080514,-0.1687348760503062,0.2368915113893542,0.49999998509883925,0.49999998509883925
static,-4.5804590425340594e-05,0.013560317098387585,1.3297689492654325,0.18128240655310637,-0.4989568166751444,-0.4879346669903891,-1.293285016345438,1.1115022395854675,-0.2892464160686885,-0.1453198517167436,0.7923117448853897,-0.6416140811560103,-0.188970074419087,0.18082962840573757,-0.12978795391170847,0.435139829920843,-0.26543608510834693,-0.1713703421444951,-0.15824624819589944,-0.21742868088088177,-0.2164995906076318,0.4878918123006127,-0.20811545990180583,0.2264659895243704,0.4999999850988392,0.4999999850988392
naive,-4.5804590425340594e-05,0.013560317098387585,1.3297689492654325,0.18128240655310637,-0.4989568166751444,-0.4879346669903891,-1.293285016345438,1.1115022395854675,-0.2892464160686885,-0.1453198517167436,0.7923117448853897,-0.6416140811560103,-0.188970074419087,0.18082962840573757,-0.12978795391170847,0.435139829920843,-0.26543608510834693,-0.1713703421444951,-0.15824624819589944,-0.21742868088088177,-0.2164995906076318,0.4878918123006127,-0.20811545990180583,0.2264659895243704,0.4999999850988392,0.4999999850988392
lively,-9.151009989737665e-05,0.014438117997140908,1.338968333641295,0.17957910881639882,-0.5015157592053248,-0.4877615949915942,-1.2927206407526755,1.110042169196989,-0.2711026000835075,-0.22091270309536704,0.752214114374562,-0.601313609483153,-0.19714215286976894,0.1739806046224668,-0.12729445662406477,0.49410384208493846,-0.2307856834102468,-0.1498600799864767,-0.15168330058773385,-0.22140844050501746,-0.1899096750898753,0.46108309282307447,-0.15974489012881876,0.24450455695173764,0.49999998509883925,0.49999998509883925
static,-0.0004589751301529756,0.009971045441679845,1.3239308242801624,0.19080653125232536,-0.4942324493667472,-0.49554372652592843,-1.2925869714082336,1.0934840528397243,-0.28206106225614885,-0.15921976116974437,0.7972789965864362,-0.6726583906314595,-0.17084204677874038,0.18890719653325483,-0.11579787311679933,0.44265509719398105,-0.25783993866562566,-0.159737061338548,-0.17815801531762693,-0.2266149239334565,-0.210133068282679,0.48356784338247844,-0.20484916430599018,0.21343511118187355,0.4999999850988392,0.4999999850988392
naive,-0.0004589751301529756,0.009971045441679845,1.3239308242801624,0.19080653125232536,-0.4942324493667472,-0.49554372652592843,-1.2925869714082336,1.0934840528397243,-0.28206106225614885,-0.15921976116974437,0.7972789965864362,-0.6726583906314595,-0.17084204677874038,0.18890719653325483,-0.11579787311679933,0.44265509719398105,-0.25783993866562566,-0.159737061338548,-0.17815801531762693,-0.2266149239334565,-0.210133068282679,0.48356784338247844,-0.20484916430599018,0.21343511118187355,0.4999999850988392,0.4999999850988392
lively,7.873719398203886e-06,0.012270372999080233,1.3364233701243864,0.19515536149540613,-0.4939292053011749,-0.4955258759216642,-1.2902782836549744,1.1020507970777662,-0.27432108321131055,-0.23030697920875676,0.7627002052044676,-0.6139574135826728,-0.1918813780220033,0.17619374584394945,-0.11961642732618004,0.48671444752723647,-0.22568439148915329,-0.15963316353678572,-0.15864413095064583,-0.21936164688786408,-0.18735513910115215,0.46682283162960536,-0.15244338253861517,0.24398741965459822,0.49999998509883925,0.49999998509883925
static,0.009457481603062465,0.009812336851946256,1.3209135530500387,0.1995456977353158,-0.5118773726898705,-0.49955760972643604,-1.3054710597813126,1.09602245829244,-0.28759284856021666,-0.18938676949973862,0.793547073381587,-0.6856626475425516,-0.19421355399054147,0.17506243315391964,-0.12695312735086708,0.44219506010762405,-0.2661816564861827,-0.1658551574266484,-0.15601005627449652,-0.21192181190347464,-0.22012700273598668,0.47634747432083935,-0.22165429256504315,0.21813544588593792,0.4999999850988392,0.4999999850988392
naive,0.009457481603062465,0.009812336851946256,1.3209135530500387,0.1995456977353158,-0.5118773726898705,-0.49955760972643604,-1.3054710597813126,1.09602245829244,-0.28759284856021666,-0.18938676949973862,0.793547073381587,-0.6856626475425516,-0.19421355399054147,0.17506243315391964,-0.12695312735086708,0.44219506010762405,-0.2661816564861827,-0.1658551574266484,-0.15601005627449652,-0.21192181190347464,-0.22012700273598668,0.47634747432083935,-0.22165429256504315,0.21813544588593792,0.4999999850988392,0.4999999850988392
lively,2.1868734286715302e-05,0.01364748709934817,1.3240113986996636,0.20213441205353827,-0.49016851209677315,-0.4972572184613845,-1.3019936224850315,1.0923720489745976,-0.28243903025615646,-0.2515726278772373,0.7599193598962325,-0.6302263103316598,-0.21212091283854845,0.163711954464066,-0.13398192023922775,0.48747348859990486,-0.22785765128218186,-0.1590669196424916,-0.1392139018150907,-0.2250765191317577,-0.2063595552828333,0.4668308321773257,-0.14903915850176774,0.23846563109805477,0.49999998509883925,0.49999998509883925
static,0.00021515235355640573,0.01040759454785761,1.3255346028712038,0.19965822417635057,-0.48878638220510295,-0.49610435524072366,-1.289758564993955,1.0802178875458928,-0.27380851785291416,-0.2113765937734761,0.7977554179616094,-0.7251176007500997,-0.17448674168789644,0.169004255899625,-0.13185226852886991,0.4549643843880265,-0.2729563361382829,-0.1754035817095842,-0.17272624676794748,-0.20633350915788673,-0.2102758115597476,0.4771739408197027,-0.21546863410328262,0.2231232486873874,0.4999999850988392,0.4999999850988392
naive,0.00021515235355640573,0.01040759454785761,1.3255346028712038,0.19965822417635057,-0.48878638220510295,-0.49610435524072366,-1.289758564993955,1.0802178875458928,-0.27380851785291416,-0.2113765937734761,0.7977554179616094,-0.7251176007500997,-0.17448674168789644,0.169004255899625,-0.13185226852886991,0.4549643843880265,-0.2729563361382829,-0.1754035817095842,-0.17272624676794748,-0.20633350915788673,-0.2102758115597476,0.4771739408197027,-0.21546863410328262,0.2231232486873874,0.4999999850988392,0.4999999850988392
lively,-5.8230162877230525e-05,0.01186284648712307,1.3346576192763182,0.2011067213543121,-0.4913375325779905,-0.49702946743482,-1.2907009621365177,1.0878113688265716,-0.27304493942032243,-0.2583508593210305,0.7720225521196801,-0.6584711319818934,-0.19678979720548506,0.17396098959607467,-0.14059193814166376,0.4904375152113647,-0.2177419247927959,-0.14833375533677406,-0.1661289740954059,-0.21683401004003286,-0.19515568002732692,0.4751757493059726,-0.13453557224051801,0.23130667798670285,0.49999998509883925,0.49999998509883925
static,-0.0005558644303951966,0.011407462268698416,1.3268247948332381,0.2062411067916246,-0.4960066491767798,-0.4957833166398376,-1.2909460556942949,1.0726391312737218,-0.2725068262910687,-0.24379708172482462,0.7955497262264438,-0.7457421159946,-0.1689195043600278,0.184285689954129,-0.11921701778710579,0.4525445580695876,-0.26718054554949844,-0.1690520577979341,-0.16787773725786553,-0.2267543905887406,-0.2131250229415863,0.47610786040742004,-0.2125007009902002,0.21326118058816487,0.4999999850988392,0.4999999850988392
naive,-0.0005558644303951966,0.011407462268698416,1.3268247948332381,0.2062411067916246,-0.4960066491767798,-0.4957833166398376,-1.2909460556942949,1.0726391312737218,-0.2725068262910687,-0.24379708172482462,0.7955497262264438,-0.7457421159946,-0.1689195043600278,0.184285689954129,-0.11921701778710579,0.4525445580695876,-0.26718054554949844,-0.1690520577979341,-0.16787773725786553,-0.2267543905887406,-0.2131250229415863,0.47610786040742004,-0.2125007009902002,0.21326118058816487,0.4999999850988392,0.4999999850988392
lively,-0.00011036719262208278,0.011599675202166732,1.3315243224625644,0.20479098689743214,-0.4900267830005867,-0.4980477791383125,-1.2873343225278429,1.0808118616790567,-0.2699996334795991,-0.2555265233688232,0.776505970519784,-0.6817982499572569,-0.1961496017159406,0.18037028485970527,-0.14418772146637174,0.48738078802758233,-0.21942694888624048,-0.15512232134885007,-0.16811649310508045,-0.21460096588619446,-0.19762372574489057,0.47043783078438195,-0.13464363509832486,0.24440619152756304,0.49999998509883925,0.49999998509883925
static,3.2663494675977984e-05,0.010046948109918073,1.324540240385514,0.2054214053176729,-0.48738108939333724,-0.4977574716652718,-1.2889693969759077,1.0547292334643399,-0.2633447845909555,-0.2788590161857298,0.7988815369379937,-0.763244517099929,-0.1765343298720456,0.16871979483607236,-0.12106998003880345,0.4330065601943858,-0.2480318026424325,-0.17826057372416543,-0.1592818169727923,-0.20510466251720494,-0.21412386120381374,0.47595020742889005,-0.21470423288487422,0.21878747379523902,0.4999999850988392,0.4999999850988392
naive,3.2663494675977984e-05,0.010046948109918073,1.324540240385514,0.2054214053176729,-0.48738108939333724,-0.4977574716652718,-1.2889693969759077,1.0547292334643399,-0.2633447845909555,-0.2788590161857298,0.7988815369379937,-0.763244517099929,-0.1765343298720456,0.16871979483607236,-0.12106998003880345,0.4330065601943858,-0.2480318026424325,-0.17826057372416543,-0.1592818169727923,-0.20510466251720494,-0.21412386120381374,0.47595020742889005,-0.21470423288487422,0.21878747379523902,0.4999999850988392,0.4999999850988392
lively,0.00010930798189420787,0.009877891807375194,1.3246967011173865,0.2026101213183145,-0.48621560298011457,-0.4971179137608256,-1.2891902864539209,1.0699396273907882,-0.2598728268465857,-0.2378362072965147,0.7852184696134547,-0.7067340327849085,-0.19323641502062955,0.16989083182722756,-0.15236669119039892,0.4797006128096354,-0.21982452357548743,-0.161402235802562,-0.17109957247744198,-0.21287094242614513,-0.21648795704613374,0.460560462560744,-0.14603689233108688,0.2469555223000663,0.49999998509883925,0.49999998509883925
static,2.3495122131329565e-06,0.011721844324959254,1.3273285603525082,0.20342974060821611,-0.4878927563740137,-0.49541912623873746,-1.2886504181867235,1.0619659765588614,-0.25374883373994694,-0.28429350835824396,0.7806523120103755,-0.776517502814375,-0.1849728679579706,0.17832979373339927,-0.1211996564022249,0.4182671739346039,-0.2514115298301081,-0.18149697514093183,-0.14178165658152989,-0.21039010279921525,-0.21165168585114974,0.47896036806406156,-0.20676831300961013,0.21745899528796597,0.4999999850988392,0.4999999850988392
naive,2.3495122131329565e-06,0.011721844324959254,1.3273285603525082,0.20342974060821611,-0.4878927563740137,-0.49541912623873746,-1.2886504181867235,1.0619659765588614,-0.25374883373994694,-0.28429350835824396,0.7806523120103755,-0.776517502814375,-0.1849728679579706,0.17832979373339927,-0.1211996564022249,0.4182671739346039,-0.2514115298301081,-0.18149697514093183,-0.14178165658152989,-0.21039010279921525,-0.21165168585114974,0.47896036806406156,-0.20676831300961013,0.21745899528796597,0.4999999850988392,0.4999999850988392
lively,-0.0003245949788189301,0.012657698151747053,1.3254257555361642,0.19868346134218032,-0.4961944319758753,-0.4884769279936285,-1.2951497506204572,1.0695237992889932,-0.24766253873816677,-0.23676628709633704,0.7777617993490141,-0.7355064240598117,-0.18663030036742603,0.17206819677545915,-0.14500459206604857,0.4531682770581796,-0.24484191636064312,-0.16263622066189742,-0.16886342304190874,-0.2332225351461036,-0.2118164312559942,0.4559793057817628,-0.15602752639883646,0.24025161084520577,0.49999998509883925,0.49999998509883925
static,-6.129997383766423e-05,0.019213210801523405,1.3311281545715021,0.20012243231160184,-0.5126033739753135,-0.4883562631156177,-1.297093450875115,1.0775838689469996,-0.2686480082116189,-0.3108127003649155,0.7684267558897099,-0.7838519699268337,-0.17083711092381576,0.18463150321284075,-0.11190649840379274,0.4303785516564564,-0.24439193851724297,-0.17261572046718848,-0.1570835667995612,-0.21934087832280003,-0.21625522282919407,0.4866240386975479,-0.2056533260765718,0.20350376311097335,0.4999999850988392,0.4999999850988392
naive,-6.129997383766423e-05,0.019213210801523405,1.3311281545715021,0.20012243231160184,-0.5126033739753135,-0.4883562631156177,-1.297093450875115,1.0775838689469996,-0.2686480082116189,-0.3108127003649155,0.7684267558897099,-0.7838519699268337,-0.17083711092381576,0.18463150321284075,-0.11190649840379274,0.4303785516564564,-0.24439193851724297,-0.17261572046718848,-0.1570835667995612,-0.21934087832280003,-0.21625522282919407,0.4866240386975479,-0.2056533260765718,0.20350376311097335,0.4999999850988392,0.4999999850988392
lively,-0.0004583165966081836,0.01983086922372201,1.3225912916807006,0.1967178559896486,-0.49045952708954244,-0.48156857909973944,-1.3017920867876558,1.0842512266204969,-0.26200704412614956,-0.2626237644852042,0.7662428035084079,-0.7461139967173707,-0.2009971657621356,0.18206215890964705,-0.14024777269342031,0.4615502807570588,-0.24265540844027275,-0.16283825965060364,-0.15526843232154644,-0.2242342566672147,-0.2195636702971971,0.44742159567573697,-0.17185736343557542,0.24289771974725502,0.49999998509883925,0.49999998509883925
static,-8.747303621089212e-06,0.021679062307064886,1.3162516630130134,0.20917012850976194,-0.47315015116751813,-0.4889623998880741,-1.2871011835120603,1.0691955646151008,-0.27941997796175283,-0.31991818952047385,0.7607830016858637,-0.7995603736896312,-0.18271892076162685,0.17429857322549505,-0.12412510967689191,0.4346410424538561,-0.24485845769755393,-0.17874374926683484,-0.14939713753027065,-0.20718217628290012,-0.22349344940886082,0.4893434976590669,-0.20652453324684342,0.2088466227829231,0.4999999850988392,0.4999999850988392
naive,-8.747303621089212e-06,0.021679062307064886,1.3162516630130134,0.20917012850976194,-0.47315015116751813,-0.4889623998880741,-1.2871011835120603,1.0691955646151008,-0.27941997796175283,-0.31991818952047385,0.7607830016858637,-0.7995603736896312,-0.18271892076162685,0.17429857322549505,-0.12412510967689191,0.4346410424538561,-0.24485845769755393,-0.17874374926683484,-0.14939713753027065,-0.20718217628290012,-0.22349344940886082,0.4893434976590669,-0.20652453324684342,0.2088466227829231,0.4999999850988392,0.4999999850988392
lively,0.00544122675754364,0.020645951732695022,1.309223281274656,0.2089387418956337,-0.48751505361387226,-0.4853904214916637,-1.2842060599444856,1.066087872869788,-0.27177316682759195,-0.2662229665001473,0.760993759959351,-0.7661429026141456,-0.1975360992929647,0.17940436147012662,-0.1379127172489795,0.4638546328505885,-0.2530254297758784,-0.16342180501927372,-0.15842726618051645,-0.22725197509030212,-0.21182894554721907,0.4569955103196018,-0.1695728105353984,0.24607434177701937,0.49999998509883925,0.49999998509883925
static,0.00022309329236506112,0.02442416136882141,1.3112086739423807,0.20006057773546634,-0.5135250989105534,-0.490989023324921,-1.3016786406560004,1.0551746226845984,-0.29435954346588017,-0.3303661654975874,0.7526820233505618,-0.8157183779819787,-0.1849840314783902,0.1747577618962809,-0.1300170919646067,0.4404205817331305,-0.2467173396616832,-0.17636110642301817,-0.14880420833646574,-0.20691955532915926,-0.22699975666325176,0.4951069064021145,-0.207637915204878,0.20376836984076446,0.4999999850988392,0.4999999850988392
naive,0.00022309329236506112,0.02442416136882141,1.3112086739423807,0.20006057773546634,-0.5135250989105534,-0.490989023324921,-1.3016786406560004,1.0551746226845984,-0.29435954346588017,-0.3303661654975874,0.7526820233505618,-0.8157183779819787,-0.1849840314783902,0.1747577618962809,-0.1300170919646067,0.4404205817331305,-0.2467173396616832,-0.17636110642301817,-0.14880420833646574,-0.20691955532915926,-0.22699975666325176,0.4951069064021145,-0.207637915204878,0.20376836984076446,0.4999999850988392,0.4999999850988392
lively,0.009069438635776353,0.023728456831331332,1.3169856010135423,0.19781967591860306,-0.5025378744308109,-0.48755891191541295,-1.2990412932928068,1.0512073735091125,-0.28803492018030075,-0.279094467948129,0.7526625542972092,-0.786970320453698,-0.19438474532359754,0.18040842551537428,-0.15180947804132228,0.46045339788078576,-0.25456783342334355,-0.15746658116244067,-0.16299461018324224,-0.22015208128935929,-0.21989396577499887,0.45806660727941434,-0.17361264929525178,0.2497029831065288,0.49999998509883925,0.49999998509883925
static,0.0006793733169099595,0.016050225881003875,1.331699958683455,0.1898396011343787,-0.501560769375399,-0.4871143012401808,-1.2927644143724775,1.0919391001744267,-0.29233280714723875,-0.21235519073599549,0.7859861273006948,-0.7938936076586065,-0.18181342281361634,0.18609167819835995,-0.12015228363128833,0.4312615768285222,-0.24844977822763606,-0.19084014286520826,-0.15003711363974176,-0.2226265079788823,-0.2273756540945836,0.4870179888376001,-0.21287081684336964,0.2100672594034613,0.4999999850988392,0.4999999850988392
naive,0.0006793733169099595,0.016050225881003875,1.331699958683455,0.1898396011343787,-0.501560769375399,-0.4871143012401808,-1.2927644143724775,1.0919391001744267,-0.29233280714723875,-0.21235519073599549,0.7859861273006948,-0.7938936076586065,-0.18181342281361634,0.18609167819835995,-0.12015228363128833,0.4312615768285222,-0.24844977822763606,-0.19084014286520826,-0.15003711363974176,-0.2226265079788823,-0.2273756540945836,0.4870179888376001,-0.21287081684336964,0.2100672594034613,0.4999999850988392,0.4999999850988392
lively,0.00018496716379532243,0.012011765522057289,1.3215054695990085,0.19049381961770193,-0.48886574744884154,-0.4861740762969683,-1.293394651805737,1.086053092958211,-0.2808911319592024,-0.1722847327117042,0.796019231730883,-0.7684118574844974,-0.19184579759485415,0.18198860337694336,-0.15382555266847975,0.4608992202496989,-0.27830114298102704,-0.1555734316561586,-0.17683143643212706,-0.226064523084016,-0.22762909504652398,0.4830085314253701,-0.20508801996043508,0.2586536002618467,0.49999998509883925,0.49999998509883925
static,8.622290781205299e-06,0.01794129701920218,1.3198283441419474,0.19170373086351142,-0.4837556580172176,-0.48771207864212507,-1.3039485664524675,1.0864446823850118,-0.2999956451908539,-0.22174231590232585,0.7831238136602967,-0.7975583014369217,-0.18276508497147456,0.183832462607455,-0.11707620740454949,0.4449672213600723,-0.24471211398614248,-0.17981866578701025,-0.15627998744284455,-0.2160183681731291,-0.22405375254530052,0.5055638296422258,-0.20997284067322672,0.20207805109772292,0.4999999850988392,0.4999999850988392
naive,8.622290781205299e-06,0.01794129701920218,1.3198283441419474,0.19170373086351142,-0.4837556580172176,-0.48771207864212507,-1.3039485664524675,1.0864446823850118,-0.2999956451908539,-0.22174231590232585,0.7831238136602967,-0.7975583014369217,-0.18276508497147456,0.183832462607455,-0.11707620740454949,0.4449672213600723,-0.24471211398614248,-0.17981866578701025,-0.15627998744284455,-0.2160183681731291,-0.22405375254530052,0.5055638296422258,-0.20997284067322672,0.20207805109772292,0.4999999850988392,0.4999999850988392
lively,-0.0004729719257552166,0.012133454721185767,1.3101946337867412,0.2008326856460468,-0.48424350733744587,-0.4901356039433353,-1.3028026141366225,1.0767918453198726,-0.2877079936522924,-0.19313291112282605,0.7959021868283587,-0.7787920164310695,-0.1929630924954788,0.18049727112831573,-0.1367537090653044,0.4860991160356675,-0.27676708544413975,-0.15264326049446364,-0.16863964759695527,-0.22071140020389177,-0.219781963298469,0.5000852713319759,-0.2031573591361827,0.25691257904647263,0.49999998509883925,0.49999998509883925
static,-0.0008353480755129734,0.012195872231950766,1.3250578455779771,0.2078424338877848,-0.48628572824380223,-0.49479769001821755,-1.2927617625060701,1.079031791480914,-0.3092026493676793,-0.21577055208183943,0.7950931184513357,-0.7793340986252824,-0.19619615011438216,0.18579353634992085,-0.1331036364982876,0.4438945883747407,-0.24505994344540052,-0.18425064375736352,-0.13872611920674655,-0.2219127257154829,-0.2317681282121778,0.5116912015666821,-0.20862059917024323,0.20488718050517124,0.4999999850988392,0.4999999850988392
naive,-0.0008353480755129734,0.012195872231950766,1.3250578455779771,0.2078424338877848,-0.48628572824380223,-0.49479769001821755,-1.2927617625060701,1.079031791480914,-0.3092026493676793,-0.21577055208183943,0.7950931184513357,-0.7793340986252824,-0.19619615011438216,0.18579353634992085,-0.1331036364982876,0.4438945883747407,-0.24505994344540052,-0.18425064375736352,-0.13872611920674655,-0.2219127257154829,-0.2317681282121778,0.5116912015666821,-0.20862059917024323,0.20488718050517124,0.4999999850988392,0.4999999850988392
lively,-0.0003698206515366846,0.011474353975056356,1.320402543479341,0.2163394406474442,-0.47942691081477845,-0.49279293895769594,-1.2911970769291312,1.0855626800399794,-0.2918528868459683,-0.17110825969201052,0.8142904249845613,-0.7751015396928702,-0.18002524241034437,0.18164135397690495,-0.15253688373152238,0.47825507364311154,-0.2757165133233083,-0.1599124264438353,-0.1733216632831782,-0.22642125897971302,-0.24088335900708815,0.49748712479171353,-0.21638786719082256,0.2544436176360948,0.49999998509883925,0.49999998509883925
static,0.0014413010465177713,0.013491670386434338,1.3264052353363296,0.22229575317822114,-0.4916946387471508,-0.49730575223994994,-1.2868922735275519,1.0798965662572222,-0.31705592769169577,-0.22641516208830959,0.8015779723196003,-0.7677243902706259,-0.19965201277555533,0.1915981587237609,-0.13038289688540036,0.461848048975847,-0.23024419316818287,-0.18966592621718045,-0.1428831948461486,-0.2171185143615339,-0.23091576334371122,0.5180689033013217,-0.20259673077388796,0.21053943918398663,0.4999999850988392,0.4999999850988392
naive,0.0014413010465177713,0.013491670386434338,1.3264052353363296,0.22229575317822114,-0.4916946387471508,-0.49730575223994994,-1.2868922735275519,1.0798965662572222,-0.31705592769169577,-0.22641516208830959,0.8015779723196003,-0.7677243902706259,-0.19965201277555533,0.1915981587237609,-0.13038289688540036,0.461848048975847,-0.23024419316818287,-0.18966592621718045,-0.1428831948461486,-0.2171185143615339,-0.23091576334371122,0.5180689033013217,-0.20259673077388796,0.21053943918398663,0.4999999850988392,0.4999999850988392
lively,8.589900363387056e-05,0.010451011868492704,1.3174755214843294,0.22649359162810637,-0.4814890533955928,-0.4976659077180286,-1.2835624857845596,1.0753681707646074,-0.29599979225067685,-0.1758466759233134,0.8235103432835323,-0.7736631114863887,-0.17817676791031445,0.17564040588301655,-0.1613764693911072,0.4998673178735558,-0.2714034038572874,-0.1552009459059287,-0.18234309617718458,-0.23088285732966848,-0.2464746429675698,0.5160475050406309,-0.2134152315436756,0.25399452218890567,0.49999998509883925,0.49999998509883925
static,-0.0002884355784170176,0.012571016196722224,1.328595652576137,0.20216358699983566,-0.485466538475112,-0.49386096920592365,-1.2863434045257645,1.0866866788335683,-0.27926815257177245,-0.21189425791281685,0.8011508645112829,-0.7513939660656953,-0.1970015835646518,0.1921370043850111,-0.14168462072357543,0.4559102906366484,-0.23680101396902714,-0.18476044933271907,-0.1426839447054411,-0.21834443699663655,-0.22503086413956172,0.4998776425773901,-0.1939330101306146,0.21151503648967082,0.4999999850988392,0.4999999850988392
naive,-0.0002884355784170176,0.012571016196722224,1.328595652576137,0.20216358699983566,-0.485466538475112,-0.49386096920592365,-1.2863434045257645,1.0866866788335683,-0.27926815257177245,-0.21189425791281685,0.8011508645112829,-0.7513939660656953,-0.1970015835646518,0.1921370043850111,-0.14168462072357543,0.4559102906366484,-0.23680101396902714,-0.18476044933271907,-0.1426839447054411,-0.21834443699663655,-0.22503086413956172,0.4998776425773901,-0.1939330101306146,0.21151503648967082,0.4999999850988392,0.4999999850988392
lively,0.00020843672190493893,0.011018588156661856,1.3229876516360846,0.2002249670747539,-0.47586182720150944,-0.4927213221888948,-1.2870753586877095,1.0671959305417804,-0.25940567120892283,-0.21695396131963046,0.8289918839555678,-0.7551580393323465,-0.17846966673948605,0.1845809278285681,-0.15626563312660455,0.497510403556748,-0.2906617861052415,-0.15997024255021441,-0.16342139755644775,-0.23331412960339826,-0.2470819961747006,0.5370920934904744,-0.2348527583391453,0.25339719366069424,0.49999998509883925,0.49999998509883925
static,0.0005781368283530737,0.014195094325215363,1.3194913282996528,0.2096530466558371,-0.5097186778591276,-0.4946620210990923,-1.297861969323386,1.0805444743765427,-0.2846907836336541,-0.23199754878393347,0.7927361998186669,-0.7677469403318699,-0.1764799711698036,0.179788492572252,-0.144426622070049,0.46763608654232436,-0.23420676991806563,-0.1891481081358776,-0.16368057602417602,-0.22227248257568308,-0.23475583573659559,0.49667957390459105,-0.1828349326831082,0.2153202253527335,0.4999999850988392,0.4999999850988392
naive,0.0005781368283530737,0.014195094325215363,1.3194913282996528,0.2096530466558371,-0.5097186778591276,-0.4946620210990923,-1.297861969323386,1.0805444743765427,-0.2846907836336541,-0.23199754878393347,0.7927361998186669,-0.7677469403318699,-0.1764799711698036,0.179788492572252,-0.144426622070049,0.46763608654232436,-0.23420676991806563,-0.1891481081358776,-0.16368057602417602,-0.22227248257568308,-0.23475583573659559,0.49667957390459105,-0.1828349326831082,0.2153202253527335,0.4999999850988392,0.4999999850988392
lively,-1.9343922040484153e-05,0.014100616396750146,1.311582720619041,0.21186554910372257,-0.5131643595025033,-0.4924886229243044,-1.2996510893348132,1.0614753777792145,-0.26979814635652816,-0.24094015847164676,0.8198984000896019,-0.7699868688023529,-0.18997209822695796,0.19276175266288353,-0.15735600965001043,0.5154030977460439,-0.2863126327347236,-0.1615652276950841,-0.15765065906136458,-0.21909232586737573,-0.23383431854700182,0.5492447173092766,-0.22918445920941433,0.25748510962056426,0.49999998509883925,0.49999998509883925
static,8.344794949342968e-05,0.01258430756992515,1.328328197874543,0.20231934200281362,-0.4886050974916012,-0.49353395147259393,-1.2894490415538686,1.0818428247043286,-0.2644693432890095,-0.23824079855333546,0.783323442122953,-0.805234979963301,-0.19726037355737538,0.18538459817376168,-0.1400749192447795,0.44991497752766124,-0.241283347548028,-0.18107035762804197,-0.14824885373375044,-0.21800442515078214,-0.22431922116738365,0.4920045826653423,-0.18244584959013613,0.21690202363721772,0.4999999850988392,0.4999999850988392
naive,8.344794949342968e-05,0.01258430756992515,1.328328197874543,0.20231934200281362,-0.4886050974916012,-0.49353395147259393,-1.2894490415538686,1.0818428247043286,-0.2644693432890095,-0.23824079855333546,0.783323442122953,-0.805234979963301,-0.19726037355737538,0.18538459817376168,-0.1400749192447795,0.44991497752766124,-0.241283347548028,-0.18107035762804197,-0.14824885373375044,-0.21800442515078214,-0.22431922116738365,0.4920045826653423,-0.18244584959013613,0.21690202363721772,0.4999999850988392,0.4999999850988392
lively,0.0008272735250680373,0.011619627194819702,1.3172525268554702,0.20185602264707156,-0.4868428426586987,-0.49360130295014965,-1.293069427587721,1.050724937672012,-0.25653391581456164,-0.2216318428317738,0.8245532310237509,-0.793575296778874,-0.1919026509395025,0.18363049363515635,-0.16002683494822093,0.48998106693996346,-0.3186622419139799,-0.1676775401716096,-0.1812943565832596,-0.2340042357377048,-0.2617770365104276,0.553963279364049,-0.25560324911183535,0.25609983448508483,0.49999998509883925,0.49999998509883925
static,-0.00015250402510464165,0.013622609777046352,1.324670153572431,0.21748490620055927,-0.4993152482709036,-0.49854277707758854,-1.3033588653395594,1.0661545174619997,-0.2768516873330213,-0.2598526658890098,0.7739748062413279,-0.8095268997239885,-0.17687541254714334,0.18320483727633774,-0.12969764408777296,0.46366753557927703,-0.23560325374573382,-0.1808070585093722,-0.16899942937736107,-0.2194856912225705,-0.22174622600913793,0.498088911741344,-0.18173546171345945,0.21885454716624203,0.4999999850988392,0.4999999850988392
naive,-0.00015250402510464165,0.013622609777046352,1.324670153572431,0.21748490620055927,-0.4993152482709036,-0.49854277707758854,-1.3033588653395594,1.0661545174619997,-0.2768516873330213,-0.2598526658890098,0.7739748062413279,-0.8095268997239885,-0.17687541254714334,0.18320483727633774,-0.12969764408777296,0.46366753557927703,-0.23560325374573382,-0.1808070585093722,-0.16899942937736107,-0.2194856912225705,-0.22174622600913793,0.498088911741344,-0.18173546171345945,0.21885454716624203,0.4999999850988392,0.4999999850988392
lively,0.006626543393228301,0.01301051420225435,1.3188054387071477,0.21950588564244997,-0.4848669773512421,-0.49849419447555265,-1.285115458461626,1.0328279663436297,-0.27220954944131576,-0.2585157383168272,0.8158988583545888,-0.7956817629932305,-0.19112854659694395,0.18088911031935245,-0.14343293716735106,0.4899783122397381,-0.3294444840047568,-0.16894137464995757,-0.18436338836245678,-0.2366894176529066,-0.26783883694124916,0.55902703445021,-0.2746442936445457,0.25635232871957464,0.49999998509883925,0.49999998509883925
static,0.00014110145437359808,0.012999711953576543,1.3293993980791057,0.1960591013668613,-0.4871423566702709,-0.4913718104997467,-1.2875757438078639,1.0743115929731912,-0.25065143866609324,-0.27029342664801626,0.7640540019171271,-0.7988177016222066,-0.1873860789670091,0.1828615993405894,-0.13827445767975718,0.45534886793555884,-0.25332624710082513,-0.18238785232063773,-0.1476509884546669,-0.2124336037399471,-0.21830949377459616,0.48519813057656136,-0.19506441126466378,0.2243785102571944,0.4999999850988392,0.4999999850988392
naive,0.00014110145437359808,0.012999711953576543,1.3293993980791057,0.1960591013668613,-0.4871423566702709,-0.4913718104997467,-1.2875757438078639,1.0743115929731912,-0.25065143866609324,-0.27029342664801626,0.7640540019171271,-0.7988177016222066,-0.1873860789670091,0.1828615993405894,-0.13827445767975718,0.45534886793555884,-0.25332624710082513,-0.18238785232063773,-0.1476509884546669,-0.2124336037399471,-0.21830949377459616,0.48519813057656136,-0.19506441126466378,0.2243785102571944,0.4999999850988392,0.4999999850988392
lively,-0.00020160631981186593,0.009586149536783611,1.3120183106033627,0.20095906434724004,-0.48419602698346925,-0.4991584429695932,-1.2891827311723003,1.0332946711199893,-0.25509426244239475,-0.22665496430252288,0.8106888572371717,-0.7724573008736126,-0.20588976818021557,0.17784164887618886,-0.15896249116351477,0.4764183727673416,-0.3424847152170205,-0.15850420423582412,-0.2223992770676542,-0.21444853484554413,-0.29309204625553753,0.5767794320498265,-0.29893067097060877,0.25811703381637313,0.49999998509883925,0.49999998509883925
static,-0.00039540046960369124,0.019130375744060995,1.322283491412873,0.2031794751331054,-0.5073852947944599,-0.4856589144192497,-1.2944757818625652,1.0869242397418324,-0.2625387613791314,-0.2921057221397403,0.7539164103023418,-0.8054266356105001,-0.1754256762498714,0.19071938524428655,-0.1302616922657752,0.46092790014580737,-0.2512633713736536,-0.1702790366114842,-0.16025819538646724,-0.21946970181516068,-0.21767031855682034,0.49192786063958566,-0.19379684657355414,0.21189674541741546,0.4999999850988392,0.4999999850988392
naive,-0.00039540046960369124,0.019130375744060995,1.322283491412873,0.2031794751331054,-0.5073852947944599,-0.4856589144192497,-1.2944757818625652,1.0869242397418324,-0.2625387613791314,-0.2921057221397403,0.7539164103023418,-0.8054266356105001,-0.1754256762498714,0.19071938524428655,-0.1302616922657752,0.46092790014580737,-0.2512633713736536,-0.1702790366114842,-0.16025819538646724,-0.21946970181516068,-0.21767031855682034,0.49192786063958566,-0.19379684657355414,0.21189674541741546,0.4999999850988392,0.4999999850988392
lively,-0.002230748801601525,0.01820994272912261,1.3137054976995357,0.20736037621895087,-0.5123038201177584,-0.49091884335403513,-1.2988721159407053,1.051744159139196,-0.2728258239014477,-0.2581121715944809,0.7961404764895508,-0.778700868146437,-0.22036890603851753,0.18856502791119117,-0.14963297909614737,0.48897381335104395,-0.33586649970703497,-0.14214554203598115,-0.22542527226029296,-0.2249255806127647,-0.2793601887970268,0.5810182797820038,-0.2997692534192242,0.2401446953637693,0.49999998509883925,0.49999998509883925
static,-0.00011447428463609433,0.014762635894389742,1.332053500417568,0.188193673032483,-0.49180254093014464,-0.48759557680994203,-1.2907872901659223,1.0892726582614578,-0.24315050748588865,-0.25390073453139156,0.7410859685413155,-0.8167828730396208,-0.1728265653855499,0.18490616560430265,-0.12461260520579212,0.42384514293919184,-0.25764303354337675,-0.17606392702304152,-0.1511716014100035,-0.21814939539423958,-0.203666000174219,0.4670167587388106,-0.20237434534414409,0.22132654651862602,0.4999999850988392,0.4999999850988392
naive,-0.00011447428463609433,0.014762635894389742,1.332053500417568,0.188193673032483,-0.49180254093014464,-0.48759557680994203,-1.2907872901659223,1.0892726582614578,-0.24315050748588865,-0.25390073453139156,0.7410859685413155,-0.8167828730396208,-0.1728265653855499,0.18490616560430265,-0.12461260520579212,0.42384514293919184,-0.25764303354337675,-0.17606392702304152,-0.1511716014100035,-0.21814939539423958,-0.203666000174219,0.4670167587388106,-0.20237434534414409,0.22132654651862602,0.4999999850988392,0.4999999850988392
lively,-5.588325910140002e-06,0.015689656270992693,1.3255341201760966,0.1904405908366833,-0.4966313296458814,-0.48978516449725884,-1.2913252277774718,1.0667016445145907,-0.2642117341403471,-0.21816906511715017,0.7747284656422774,-0.7933733122559112,-0.21746000236708785,0.18064835018791625,-0.13696343066821076,0.47780546126777196,-0.341917114289061,-0.15572456591420755,-0.23249262098629353,-0.2205453719458209,-0.2732161011928167,0.573063063822755,-0.2829761870619558,0.23981326120856888,0.49999998509883925,0.49999998509883925
static,0.0002011624516102647,0.015201256397900204,1.3307583130454983,0.2095882564965524,-0.4954638735211627,-0.4922824359255095,-1.2912015728974222,1.0815716882631017,-0.258251673201367,-0.2528768080340285,0.746025450556157,-0.8245128547867098,-0.1671994119042797,0.17421888246376907,-0.11696715731507537,0.4181314741616748,-0.2517988068716107,-0.17033613493695227,-0.14602768169826336,-0.22196098456308663,-0.19846986740294786,0.4677900136677473,-0.1980304717663125,0.22079356348626505,0.4999999850988392,0.4999999850988392
naive,0.0002011624516102647,0.015201256397900204,1.3307583130454983,0.2095882564965524,-0.4954638735211627,-0.4922824359255095,-1.2912015728974222,1.0815716882631017,-0.258251673201367,-0.2528768080340285,0.746025450556157,-0.8245128547867098,-0.1671994119042797,0.17421888246376907,-0.11696715731507537,0.4181314741616748,-0.2517988068716107,-0.17033613493695227,-0.14602768169826336,-0.22196098456308663,-0.19846986740294786,0.4677900136677473,-0.1980304717663125,0.22079356348626505,0.4999999850988392,0.4999999850988392
lively,-9.082168979380052e-05,0.01062804460061675,1.3180825119080497,0.20369328346649124,-0.4874476070561241,-0.4996026636828864,-1.2896807317675614,1.0661172696639754,-0.27102269086658565,-0.1997037891793042,0.7810391635410978,-0.7880696279064396,-0.20911123392279243,0.1696592486302106,-0.14175805651727366,0.4864331510641273,-0.32677916605297375,-0.1627593536836739,-0.2322586436525853,-0.21270187317822498,-0.26942096331471876,0.56637942904735,-0.2712118159306298,0.24152898005358142,0.49999998509883925,0.49999998509883925
static,0.0005513934475278996,0.015665684084148007,1.3277116110765375,0.18686115158116137,-0.49611704194719114,-0.48588506580031166,-1.290006350456247,1.1001849478761738,-0.23014596144363006,-0.21940292078834872,0.7091811568880994,-0.8174200630849769,-0.1706599836384526,0.18160143538717713,-0.10540591032416331,0.3873933804752197,-0.2482587823227485,-0.16729821514126067,-0.1486029566549566,-0.21711751384412425,-0.17789981764157076,0.4330050540496789,-0.1952073542600233,0.23625931782503118,0.4999999850988392,0.4999999850988392
naive,0.0005513934475278996,0.015665684084148007,1.3277116110765375,0.18686115158116137,-0.49611704194719114,-0.48588506580031166,-1.290006350456247,1.1001849478761738,-0.23014596144363006,-0.21940292078834872,0.7091811568880994,-0.8174200630849769,-0.1706599836384526,0.18160143538717713,-0.10540591032416331,0.3873933804752197,-0.2482587823227485,-0.16729821514126067,-0.1486029566549566,-0.21711751384412425,-0.17789981764157076,0.4330050540496789,-0.1952073542600233,0.23625931782503118,0.4999999850988392,0.4999999850988392
lively,-5.211525716348562e-06,0.013589166701883898,1.3309942323011488,0.1819676795891113,-0.49242289213584717,-0.486720273159617,-1.2877693879858818,1.0975642023629977,-0.23678432543694491,-0.22533870852820165,0.7274775312907068,-0.793996955095159,-0.21526260203666456,0.18818639265580583,-0.11243522945578399,0.44302128274048563,-0.312343624743295,-0.16498806443426325,-0.20507811156225308,-0.21568907563391704,-0.2280945536086597,0.5049183780447722,-0.2592248633042157,0.2373261387850458,0.49999998509883925,0.49999998509883925
static,0.0002392205139061928,0.01545370947965018,1.3330813483711967,0.19031922873211124,-0.4963834963453069,-0.48706708813771243,-1.290435460375055,1.1013371776216077,-0.23340969051861937,-0.21684629342235556,0.713127934142154,-0.8075934684598238,-0.16557402000788593,0.18253773680906799,-0.09072683590319382,0.383968420551861,-0.23595887619594513,-0.16708172336788138,-0.15148820775305907,-0.2187137843251566,-0.17931660180608847,0.40968013124681607,-0.1986799359964409,0.22968204130622102,0.4999999850988392,0.4999999850988392
naive,0.0002392205139061928,0.01545370947965018,1.3330813483711967,0.19031922873211124,-0.4963834963453069,-0.48706708813771243,-1.290435460375055,1.1013371776216077,-0.23340969051861937,-0.21684629342235556,0.713127934142154,-0.8075934684598238,-0.16557402000788593,0.18253773680906799,-0.09072683590319382,0.383968420551861,-0.23595887619594513,-0.16708172336788138,-0.15148820775305907,-0.2187137843251566,-0.17931660180608847,0.40968013124681607,-0.1986799359964409,0.22968204130622102,0.4999999850988392,0.4999999850988392
lively,0.004979464298747679,0.013576407780767581,1.3328728934949576,0.18433519719993885,-0.49755453527740473,-0.48602610440816335,-1.2940689401891785,1.096673566980888,-0.22904073759454718,-0.25048936518558507,0.7090379100284712,-0.8152365050887737,-0.2139598443076766,0.17996987915257318,-0.09263906462365758,0.4032033883000585,-0.2907054512793709,-0.16385577694140616,-0.19836902712440302,-0.2086056430173905,-0.18844311588120788,0.45659078900164957,-0.2278141574398087,0.22062680977042698,0.49999998509883925,0.49999998509883925
static,-0.0005527017226644976,0.018147593982288202,1.3202072971406134,0.18333001984271283,-0.4776211682164105,-0.48740665687447204,-1.3030244132464934,1.0951215929277596,-0.24524352701269037,-0.24032784982771932,0.7075027665944505,-0.8131243153282904,-0.17462074361629784,0.17518928606895787,-0.09501371078873419,0.3890441325865682,-0.23790783212716674,-0.17040572497152812,-0.1461605518174543,-0.21009882027761936,-0.18029419410414854,0.4207801913781125,-0.19138754829547144,0.2314952944668386,0.4999999850988392,0.4999999850988392
naive,-0.0005527017226644976,0.018147593982288202,1.3202072971406134,0.18333001984271283,-0.4776211682164105,-0.48740665687447204,-1.3030244132464934,1.0951215929277596,-0.24524352701269037,-0.24032784982771932,0.7075027665944505,-0.8131243153282904,-0.17462074361629784,0.17518928606895787,-0.09501371078873419,0.3890441325865682,-0.23790783212716674,-0.17040572497152812,-0.1461605518174543,-0.21009882027761936,-0.18029419410414854,0.4207801913781125,-0.19138754829547144,0.2314952944668386,0.4999999850988392,0.4999999850988392
lively,-0.0017210522652382255,0.015701255997133474,1.319957963238773,0.19578665827070302,-0.48256100551647285,-0.4868580248595556,-1.305415528665824,1.0887494118045153,-0.2394511438895059,-0.27481884856410754,0.7043680640589773,-0.8237822249435137,-0.1973361909456026,0.1734325428811593,-0.1077147305555767,0.40308418598940804,-0.28922735916825887,-0.16869645832092145,-0.19773767290428262,-0.2209192426544686,-0.2048639018594824,0.4546229109309392,-0.22902094155659233,0.22424873999227496,0.49999998509883925,0.49999998509883925
static,-9.371528224631284e-05,0.014912601402233591,1.3319600015407707,0.18586830080511135,-0.4927740714722675,-0.4869252565938642,-1.2920243987286772,1.1144479327405084,-0.24658228559600595,-0.18146429895955285,0.728281349415803,-0.7964157213500479,-0.1712338012782456,0.18218426723805523,-0.1016466827387979,0.3932793164032654,-0.22933553976398388,-0.17244874216817457,-0.1500605691506366,-0.22069165550092773,-0.1852291070809181,0.41562271903206016,-0.18741779080868143,0.22804949458969598,0.4999999850988392,0.4999999850988392
naive,-9.371528224631284e-05,0.014912601402233591,1.3319600015407707,0.18586830080511135,-0.4927740714722675,-0.4869252565938642,-1.2920243987286772,1.1144479327405084,-0.24658228559600595,-0.18146429895955285,0.728281349415803,-0.7964157213500479,-0.1712338012782456,0.18218426723805523,-0.1016466827387979,0.3932793164032654,-0.22933553976398388,-0.17244874216817457,-0.1500605691506366,-0.22069165550092773,-0.1852291070809181,0.41562271903206016,-0.18741779080868143,0.22804949458969598,0.4999999850988392,0.4999999850988392
lively,-0.0031864865466011572,0.01224257802469109,1.3347071284657233,0.20134418264851867,-0.4895741068534516,-0.48710534761271457,-1.292720187416527,1.0984442650514994,-0.23994014839804814,-0.23787821114287994,0.7497649744719005,-0.8104892793467997,-0.18972681914122846,0.1748608904338706,-0.09382014313141165,0.42127769456240083,-0.2730055423802731,-0.17482712473641904,-0.1617349935701277,-0.2270263598354152,-0.18426676303156123,0.4643253364151301,-0.19966797499048122,0.22792036192567294,0.49999998509883925,0.49999998509883925
static,-7.237718834936639e-05,0.012578695149989702,1.3279837851976029,0.20007031989161608,-0.4931903246256747,-0.4938883425118627,-1.2936932774066439,1.0983943657380668,-0.251661543360558,-0.1998362627249759,0.7458788323861005,-0.8177442727432357,-0.1734522050947435,0.1837784900630546,-0.1040076097434466,0.4013224679208563,-0.22499722774687544,-0.16051196424626074,-0.1529598824885422,-0.2188059699700978,-0.18989133509021916,0.42096557766191367,-0.18517831421505324,0.21857782884114385,0.4999999850988392,0.4999999850988392
naive,-7.237718834936639e-05,0.012578695149989702,1.3279837851976029,0.20007031989161608,-0.4931903246256747,-0.4938883425118627,-1.2936932774066439,1.0983943657380668,-0.251661543360558,-0.1998362627249759,0.7458788323861005,-0.8177442727432357,-0.1734522050947435,0.1837784900630546,-0.1040076097434466,0.4013224679208563,-0.22499722774687544,-0.16051196424626074,-0.1529598824885422,-0.2188059699700978,-0.18989133509021916,0.42096557766191367,-0.18517831421505324,0.21857782884114385,0.4999999850988392,0.4999999850988392
lively,-0.004922879176870203,0.00977812599585715,1.3318701830139634,0.20827112588752716,-0.48329107959002465,-0.49127215823350306,-1.291211618319472,1.0918938458352159,-0.2441178461604648,-0.23497794695291455,0.775311870642581,-0.7910160241096965,-0.19287365641193513,0.18685022464664416,-0.10809758458423252,0.44315528895220885,-0.26095452733127855,-0.17562280478032682,-0.14791913484961108,-0.2239719074262157,-0.2018388119404034,0.4623794883062012,-0.19828227770767154,0.22806695397862314,0.49999998509883925,0.49999998509883925
static,0.0002670942499785183,0.010109590014139115,1.3270140028795439,0.2007653485698182,-0.4899237353529048,-0.49535602520496486,-1.2976378201625738,1.080482796314605,-0.2468453232677924,-0.24090509552914902,0.7589769119312608,-0.8248353830849424,-0.15370595919528202,0.18910712526918275,-0.1031912698458704,0.3959035447620891,-0.2273779963682759,-0.1627712857965859,-0.1650969924736268,-0.22285441982968734,-0.17866017964593175,0.4212044879844398,-0.1752826351166663,0.22310202948603622,0.4999999850988392,0.4999999850988392
naive,0.0002670942499785183,0.010109590014139115,1.3270140028795439,0.2007653485698182,-0.4899237353529048,-0.49535602520496486,-1.2976378201625738,1.080482796314605,-0.2468453232677924,-0.24090509552914902,0.7589769119312608,-0.8248353830849424,-0.15370595919528202,0.18910712526918275,-0.1031912698458704,0.3959035447620891,-0.2273779963682759,-0.1627712857965859,-0.1650969924736268,-0.22285441982968734,-0.17866017964593175,0.4212044879844398,-0.1752826351166663,0.22310202948603622,0.4999999850988392,0.4999999850988392
lively,0.01295617895522269,0.010505704090010521,1.333303180781309,0.2163346086138651,-0.49153150785596844,-0.49255789025648644,-1.2930500688269453,1.0925755586638328,-0.2501259605618219,-0.23760999450857265,0.7958454711020116,-0.7861107590504632,-0.1751681882596747,0.19252536681222815,-0.12339085519791805,0.45615867768740875,-0.2594456080340208,-0.19214850191075747,-0.14435166918307688,-0.2240735543407544,-0.20618562669959511,0.499891427628134,-0.19174736899456865,0.22164248818361226,0.49999998509883925,0.49999998509883925
static,-9.887452464207783e-05,0.014532479098676356,1.331947420316235,0.19864427339561969,-0.4857381048330829,-0.49019079185495107,-1.2848435906273437,1.0758686058471874,-0.24210690312813254,-0.29255560795734276,0.7473182657193417,-0.8307097041595616,-0.17013832728317085,0.1800771856620487,-0.10799292140488442,0.39503564620697723,-0.23781789298397418,-0.17421386679806822,-0.14786835567606466,-0.2200020525249117,-0.18083622825130846,0.4201412874813431,-0.17422800604251504,0.2311619633272904,0.4999999850988392,0.4999999850988392
naive,-9.887452464207783e-05,0.014532479098676356,1.331947420316235,0.19864427339561969,-0.4857381048330829,-0.49019079185495107,-1.2848435906273437,1.0758686058471874,-0.24210690312813254,-0.29255560795734276,0.7473182657193417,-0.8307097041595616,-0.17013832728317085,0.1800771856620487,-0.10799292140488442,0.39503564620697723,-0.23781789298397418,-0.17421386679806822,-0.14786835567606466,-0.2200020525249117,-0.18083622825130846,0.4201412874813431,-0.17422800604251504,0.2311619633272904,0.4999999850988392,0.4999999850988392
lively,0.0005030279444133402,0.010031323396481428,1.32903605452944,0.20822227026463316,-0.4792185613205379,-0.49652114120403545,-1.2888113953308826,1.0747748831191768,-0.25004941720108464,-0.2572037988764939,0.8170500951700048,-0.7935616623305645,-0.1737824764773733,0.19060536830866978,-0.1453132579440633,0.47462985202167346,-0.24574029498067212,-0.19957883468197585,-0.12092390774053811,-0.21581273922933195,-0.22500741902632743,0.5267583204196783,-0.21250764430357388,0.22363318293350498,0.49999998509883925,0.49999998509883925
static,-0.00011618294486860346,0.014162176031036254,1.3312358893592462,0.19023217301349296,-0.4875266865305981,-0.48896650478569254,-1.285965784661519,1.0752174282693763,-0.2324916923889063,-0.2949290379511295,0.7343176905949369,-0.8305448349837409,-0.17517323141535662,0.18035720662769864,-0.10276839118275097,0.3943441418289251,-0.23004393522242506,-0.1770516119622673,-0.15250899635306345,-0.2183201120281439,-0.17570000585062218,0.4084721193606936,-0.17434477294693407,0.22887570290695708,0.4999999850988392,0.4999999850988392
naive,-0.00011618294486860346,0.014162176031036254,1.3312358893592462,0.19023217301349296,-0.4875266865305981,-0.48896650478569254,-1.285965784661519,1.0752174282693763,-0.2324916923889063,-0.2949290379511295,0.7343176905949369,-0.8305448349837409,-0.17517323141535662,0.18035720662769864,-0.10276839118275097,0.3943441418289251,-0.23004393522242506,-0.1770516119622673,-0.15250899635306345,-0.2183201120281439,-0.17570000585062218,0.4084721193606936,-0.17434477294693407,0.22887570290695708,0.4999999850988392,0.4999999850988392
lively,4.737690916856204e-07,0.012790602860812579,1.3269966452536048,0.18891189616848023,-0.4898537533877206,-0.49042531143985524,-1.2917276760302625,1.0570474856202594,-0.24925359686766047,-0.2872168000888838,0.792779866790322,-0.8004730433418263,-0.1560923482249322,0.17780025258144866,-0.1274733730106472,0.4613348586600165,-0.25965838881039693,-0.18810955384003783,-0.1344259734401599,-0.23030201889095733,-0.23345519428617728,0.5189647063375921,-0.22464704590129347,0.2183329625730522,0.49999998509883925,0.49999998509883925
static,-0.002597344074805414,0.013885925617744516,1.3308033263161376,0.18515616569774004,-0.4996358075743038,-0.4880100706964708,-1.2919356823493429,1.0799916822793678,-0.22610827115192253,-0.278097506876134,0.7210470258293616,-0.8270818262637769,-0.1663950427193452,0.18185524198571235,-0.09937067906166719,0.37434089042767466,-0.2328548556424943,-0.1716613794461451,-0.14771252142923594,-0.20643454861973337,-0.16077318943162458,0.3981230022169076,-0.16814482944191714,0.22332601416438744,0.4999999850988392,0.4999999850988392
naive,-0.002597344074805414,0.013885925617744516,1.3308033263161376,0.18515616569774004,-0.4996358075743038,-0.4880100706964708,-1.2919356823493429,1.0799916822793678,-0.22610827115192253,-0.278097506876134,0.7210470258293616,-0.8270818262637769,-0.1663950427193452,0.18185524198571235,-0.09937067906166719,0.37434089042767466,-0.2328548556424943,-0.1716613794461451,-0.14771252142923594,-0.20643454861973337,-0.16077318943162458,0.3981230022169076,-0.16814482944191714,0.22332601416438744,0.4999999850988392,0.4999999850988392
lively,0.0155703097839943,0.01148814396673728,1.3297023027280754,0.18607039146573973,-0.49473029894710857,-0.4864387505063716,-1.295085738045674,1.0678130444366143,-0.24017352918718707,-0.2872192552922595,0.7826196176158718,-0.8122874876815044,-0.1755895851912489,0.1807779056023045,-0.11723536665944051,0.44575609129186566,-0.26173806774574637,-0.1858072705201351,-0.14173228214521513,-0.22748514833251351,-0.20363854232209347,0.5111598420534926,-0.2136581267045396,0.22440595063221655,0.49999998509883925,0.49999998509883925
static,-7.586305272098832e-05,0.01575152560164303,1.333254642523384,0.19639204668961624,-0.49955712709004296,-0.48800200350565986,-1.2919530041638942,1.077161560724128,-0.23590434045618405,-0.28587716667196816,0.725653820496018,-0.8257148229737621,-0.1575564495871407,0.18255035674547745,-0.09915527268910065,0.3676692809483914,-0.23037713828796771,-0.17398009167493073,-0.14389331398618355,-0.21442563459723024,-0.16673924545562752,0.38123421893222476,-0.1755197596338386,0.22633585604949077,0.4999999850988392,0.4999999850988392
naive,-7.586305272098832e-05,0.01575152560164303,1.333254642523384,0.19639204668961624,-0.49955712709004296,-0.48800200350565986,-1.2919530041638942,1.077161560724128,-0.23590434045618405,-0.28587716667196816,0.725653820496018,-0.8257148229737621,-0.1575564495871407,0.18255035674547745,-0.09915527268910065,0.3676692809483914,-0.23037713828796771,-0.17398009167493073,-0.14389331398618355,-0.21442563459723024,-0.16673924545562752,0.38123421893222476,-0.1755197596338386,0.22633585604949077,0.4999999850988392,0.4999999850988392
lively,0.005826415204909007,0.012716033533336535,1.3385683187974458,0.2028427348561227,-0.49417330673645693,-0.4836333919285885,-1.2940646341819741,1.0772145755210383,-0.25197336927287733,-0.31766219054968287,0.7900116687739364,-0.8199127327720246,-0.16474686565763375,0.1886130981021564,-0.11436359015802176,0.45427140126433363,-0.2538099538184011,-0.18123938897214914,-0.12454193872071688,-0.22313667154279856,-0.1989632194566859,0.5022021777997611,-0.20365523850178718,0.22612323844544427,0.49999998509883925,0.49999998509883925
static,-0.0016907645539481788,0.014777425840100266,1.3319174140838435,0.19102674905764555,-0.4984182150827022,-0.48830077200052074,-1.2912333167714989,1.0845075735679115,-0.23092875046860073,-0.2620273082066415,0.7203802762802047,-0.824085906823618,-0.1596038692842864,0.18595314520889314,-0.09618637729994464,0.3682340198957828,-0.23192304579342704,-0.16811762761618168,-0.14232472624313344,-0.20509559721255713,-0.15524759768690027,0.3911775794249828,-0.16879548808517045,0.22174241643047596,0.4999999850988392,0.4999999850988392
naive,-0.0016907645539481788,0.014777425840100266,1.3319174140838435,0.19102674905764555,-0.4984182150827022,-0.48830077200052074,-1.2912333167714989,1.0845075735679115,-0.23092875046860073,-0.2620273082066415,0.7203802762802047,-0.824085906823618,-0.1596038692842864,0.18595314520889314,-0.09618637729994464,0.3682340198957828,-0.23192304579342704,-0.16811762761618168,-0.14232472624313344,-0.20509559721255713,-0.15524759768690027,0.3911775794249828,-0.16879548808517045,0.22174241643047596,0.4999999850988392,0.4999999850988392
lively,0.026040671267347684,0.010416318909829225,1.3387595809010535,0.20755165373611745,-0.4909143382363869,-0.48691047633182605,-1.2915298140552045,1.092648570970255,-0.2573127893490839,-0.2689603727816198,0.802965450036766,-0.8126722065161329,-0.14617527541126987,0.1847822200033714,-0.10955564426566909,0.44789987664611014,-0.24255710040977532,-0.18008003959831181,-0.10908263109627876,-0.22129012276708987,-0.18151499680567854,0.4840272034968923,-0.19121175384206235,0.2229159180672955,0.49999998509883925,0.49999998509883925
static,-8.897003688677906e-05,0.014805514620389438,1.332141378663646,0.18977668965111533,-0.48947358974686395,-0.48800587172189747,-1.2881805805375157,1.0871139846643694,-0.230593090327163,-0.2688690512375072,0.7199005549084903,-0.823879955422057,-0.1525936477413364,0.18444410227287594,-0.09422982322458272,0.37251869161319523,-0.2230972555138837,-0.17405110290412226,-0.13183394871090823,-0.21673432604273302,-0.1586480156788537,0.3781243679388588,-0.1773833047818436,0.22870109044272752,0.4999999850988392,0.4999999850988392
naive,-8.897003688677906e-05,0.014805514620389438,1.332141378663646,0.18977668965111533,-0.48947358974686395,-0.48800587172189747,-1.2881805805375157,1.0871139846643694,-0.230593090327163,-0.2688690512375072,0.7199005549084903,-0.823879955422057,-0.1525936477413364,0.18444410227287594,-0.09422982322458272,0.37251869161319523,-0.2230972555138837,-0.17405110290412226,-0.13183394871090823,-0.21673432604273302,-0.1586480156788537,0.3781243679388588,-0.1773833047818436,0.22870109044272752,0.4999999850988392,0.4999999850988392
lively,-0.002626604703847836,0.013536669534621215,1.3388425234344803,0.2012303630645638,-0.4988088003455205,-0.48664149823506975,-1.2923374549599402,1.099851541509184,-0.2572403933949546,-0.2518024046655739,0.785057778210943,-0.8384379555931393,-0.14490396171189132,0.18032466008945597,-0.12374708179809553,0.42889063579826714,-0.23340913878692907,-0.17786621082132467,-0.11185482093601982,-0.21962497056948596,-0.1736483403487967,0.45374994150541814,-0.18602444747951472,0.21559575193056316,0.49999998509883925,0.49999998509883925
static,-0.00011382602335702548,0.017596688430252395,1.318988112797986,0.1882846830680651,-0.48983666915366075,-0.488309777032439,-1.3012049389843527,1.0798663554692778,-0.24273258210663345,-0.2938501459505753,0.7140267337752578,-0.8306805667687401,-0.15385151201763136,0.1767536036509523,-0.08997008184419031,0.3854664574532781,-0.22475990116404526,-0.1740726114990993,-0.12901603234033526,-0.2083178786583565,-0.1578438760112277,0.3905784653674448,-0.1732380190963405,0.22990010586076715,0.4999999850988392,0.4999999850988392
naive,-0.00011382602335702548,0.017596688430252395,1.318988112797986,0.1882846830680651,-0.48983666915366075,-0.488309777032439,-1.3012049389843527,1.0798663554692778,-0.24273258210663345,-0.2938501459505753,0.7140267337752578,-0.8306805667687401,-0.15385151201763136,0.1767536036509523,-0.08997008184419031,0.3854664574532781,-0.22475990116404526,-0.1740726114990993,-0.12901603234033526,-0.2083178786583565,-0.1578438760112277,0.3905784653674448,-0.1732380190963405,0.22990010586076715,0.4999999850988392,0.4999999850988392
lively,0.002970378663911244,0.015400165667029817,1.3243291663629972,0.1878552454510091,-0.4758038104322033,-0.4880274203147742,-1.3037005673296003,1.09342388560592,-0.2664354570801657,-0.2681364910755055,0.7782009650073377,-0.8439841115597937,-0.1486122562639456,0.18708577164638054,-0.1208085890584203,0.44593880559326055,-0.22906273221807488,-0.16514579928943182,-0.10545840449145188,-0.20705940782874582,-0.17156404997912547,0.462397875915831,-0.18363334480390567,0.2191656415757856,0.49999998509883925,0.49999998509883925
static,-0.00773783504712315,0.014462899214839451,1.3317209462207245,0.18358502772222685,-0.5034877363128377,-0.48686874244747325,-1.2937167111536771,1.0955923068651425,-0.2255143148724204,-0.2343044105899515,0.7087489052900282,-0.8274817763420735,-0.14272345856187024,0.18389199008438561,-0.09329811970233087,0.3807079148207673,-0.21808568258589262,-0.1690336051246019,-0.13054557520761578,-0.20876680372976997,-0.16166501566754532,0.3922109911775195,-0.17634754657393087,0.2254009848247408,0.4999999850988392,0.4999999850988392
naive,-0.00773783504712315,0.014462899214839451,1.3317209462207245,0.18358502772222685,-0.5034877363128377,-0.48686874244747325,-1.2937167111536771,1.0955923068651425,-0.2255143148724204,-0.2343044105899515,0.7087489052900282,-0.8274817763420735,-0.14272345856187024,0.18389199008438561,-0.09329811970233087,0.3807079148207673,-0.21808568258589262,-0.1690336051246019,-0.13054557520761578,-0.20876680372976997,-0.16166501566754532,0.3922109911775195,-0.17634754657393087,0.2254009848247408,0.4999999850988392,0.4999999850988392
lively,-5.1301255951597145e-05,0.012832817920889762,1.3303792021292025,0.17095595946593684,-0.49941276102930016,-0.49118642444436367,-1.2951841614151804,1.0920538582303798,-0.24659649718437918,-0.2532090705784674,0.710543409357518,-0.849747097656751,-0.1383833918622656,0.17710110698797485,-0.11112851131558392,0.3973531080822093,-0.22431699421645013,-0.1564752357734208,-0.1083379002065097,-0.2218129339761622,-0.1500296463671852,0.4062349425027205,-0.17679429116485293,0.23278407180574764,0.49999998509883925,0.49999998509883925
static,0.002402813057802163,0.015679084149553203,1.3170748011276077,0.18939476174447017,-0.484339051479389,-0.4887772622101424,-1.3041337378678364,1.0854842924631383,-0.23444428938462206,-0.251346572539529,0.7055790568968806,-0.8318930216790561,-0.14601560929178897,0.1787376684210508,-0.10634874797018355,0.38396519289137127,-0.2177191268967241,-0.16780326596136547,-0.12386059702722586,-0.20566447240642483,-0.17400486190108042,0.39670748633110514,-0.1775107010226806,0.22326788448483825,0.4999999850988392,0.4999999850988392
naive,0.002402813057802163,0.015679084149553203,1.3170748011276077,0.18939476174447017,-0.484339051479389,-0.4887772622101424,-1.3041337378678364,1.0854842924631383,-0.23444428938462206,-0.251346572539529,0.7055790568968806,-0.8318930216790561,-0.14601560929178897,0.1787376684210508,-0.10634874797018355,0.38396519289137127,-0.2177191268967241,-0.16780326596136547,-0.12386059702722586,-0.20566447240642483,-0.17400486190108042,0.39670748633110514,-0.1775107010226806,0.22326788448483825,0.4999999850988392,0.4999999850988392
lively,-6.38605132309646e-05,0.014781306001539008,1.316852317815198,0.1829458980413433,-0.4902264457078512,-0.4924457615641949,-1.300573577882407,1.0834981909034496,-0.2560680633937307,-0.2769651328756865,0.7047853653632551,-0.8508318666607017,-0.12403645089931595,0.1649401796605475,-0.1292759240957006,0.39819016409531643,-0.22249402987500183,-0.16188764821866514,-0.09519282804476242,-0.22515816615688142,-0.1648411228948878,0.4081182782971836,-0.1824886212385852,0.2361930247244543,0.49999998509883925,0.49999998509883925
static,1.845583932414506e-05,0.01169095862980515,1.326086829983554,0.2012134442169225,-0.4883232896516933,-0.49485392996284455,-1.2893152976395632,1.0805827386388138,-0.24259929992936796,-0.24163261544076264,0.73640058662398,-0.8175881714911886,-0.15254924436517095,0.16962939909480604,-0.12184925255795263,0.4091816789721955,-0.21659331416733485,-0.17325086806695228,-0.10725610184546276,-0.20400736996030433,-0.18479925892774643,0.42431821425297866,-0.18007203586185322,0.2225532472217159,0.4999999850988392,0.4999999850988392
naive,1.845583932414506e-05,0.01169095862980515,1.326086829983554,0.2012134442169225,-0.4883232896516933,-0.49485392996284455,-1.2893152976395632,1.0805827386388138,-0.24259929992936796,-0.24163261544076264,0.73640058662398,-0.8175881714911886,-0.15254924436517095,0.16962939909480604,-0.12184925255795263,0.4091816789721955,-0.21659331416733485,-0.17325086806695228,-0.10725610184546276,-0.20400736996030433,-0.18479925892774643,0.42431821425297866,-0.18007203586185322,0.2225532472217159,0.4999999850988392,0.4999999850988392
lively,-9.208553134933169e-05,0.013762429668278835,1.3315071508799279,0.1950188853088022,-0.4988141156997524,-0.4953371848761957,-1.2880611584502013,1.076794232279585,-0.2614699178110298,-0.2924802728587058,0.7283724976720413,-0.8214863035063675,-0.12085601768017493,0.17750327136318353,-0.12092662678430516,0.41886649606301396,-0.22019766893235648,-0.16219673883346392,-0.1000618854084522,-0.22067714609638123,-0.1575448462049624,0.4118510024795368,-0.17962449807020756,0.24049774431368554,0.49999998509883925,0.49999998509883925
static,0.00023508813847776237,0.013176839743075508,1.3215225957849364,0.213860225020981,-0.48189638900988463,-0.4974568969819237,-1.3002611358236527,1.0683220206381356,-0.25377100494381,-0.2617960599534756,0.736273785458052,-0.8182949136284238,-0.15569888294548237,0.16752231873338488,-0.130512047898355,0.40728712458710553,-0.2222368735803767,-0.17070941308810333,-0.10881960270346615,-0.20364171497610012,-0.19083994104448054,0.4386204708976564,-0.18063153259881495,0.2179436217901731,0.4999999850988392,0.4999999850988392
naive,0.00023508813847776237,0.013176839743075508,1.3215225957849364,0.213860225020981,-0.48189638900988463,-0.4974568969819237,-1.3002611358236527,1.0683220206381356,-0.25377100494381,-0.2617960599534756,0.736273785458052,-0.8182949136284238,-0.15569888294548237,0.16752231873338488,-0.130512047898355,0.40728712458710553,-0.2222368735803767,-0.17070941308810333,-0.10881960270346615,-0.20364171497610012,-0.19083994104448054,0.4386204708976564,-0.18063153259881495,0.2179436217901731,0.4999999850988392,0.4999999850988392
lively,-0.0002872485687743726,0.016569598617528783,1.320952832216467,0.21301221010783067,-0.5062694403354366,-0.4976154619372445,-1.3026474130273848,1.0623377797188078,-0.27771821243084494,-0.31549299761648164,0.7241082544139616,-0.8144281351092783,-0.13138295094966693,0.17726319175863242,-0.12476009364102719,0.4290852613760362,-0.22147085055951016,-0.16015264491741701,-0.10095152579293287,-0.2233887012476273,-0.1557812224543427,0.4236180190379351,-0.17327368912834606,0.24099158107735924,0.49999998509883925,0.49999998509883925