condition,HeadYaw,HeadPitch,LShoulderPitch,LShoulderRoll,LElbowYaw,LElbowRoll,LWristYaw,RShoulderPitch,RShoulderRoll,RElbowYaw,RElbowRoll,RWristYaw,LHipYawPitch,LHipRoll,LHipPitch,LKneePitch,LAnklePitch,LAnkleRoll,RHipYawPitch,RHipRoll,RHipPitch,RKneePitch,RAnklePitch,RAnkleRoll,LHand,RHand
static,5e-11,5e-11,1.3099999805294789,0.14999999781482581,-0.4999999924994194,-0.4999999924994194,-1.2999999805784905,1.3099999805294789,-0.1499999977148258,0.4999999925994194,0.4999999925994194,1.2999999806784905,5e-11,0.1999999970697678,5e-11,0.14999999781482581,-0.1499999977148258,-0.19999999696976778,5e-11,-0.19999999696976778,5e-11,0.14999999781482581,-0.1499999977148258,0.1999999970697678,0.4999999925994194,0.4999999925994194
naive,-0.009240397681992404,-0.014625025600853122,1.307827124864324,0.147636373225843,-0.5111544127685832,-0.497973555924898,-1.3189446271548029,1.2971302838358811,-0.15048759659033015,0.5094644985742384,0.5005201643071151,1.2967953933142156,5e-11,0.1999999970697678,5e-11,0.14999999781482581,-0.1499999977148258,-0.19999999696976778,5e-11,-0.19999999696976778,5e-11,0.14999999781482581,-0.1499999977148258,0.1999999970697678,0.5022181312943264,0.5072649685660827
lively,9.999999701976783e-11,9.999999701976783e-11,1.309999961058959,0.14999999562965177,-0.4999999849988393,-0.4999999849988393,-1.2999999611569824,1.309999961058959,-0.14999999542965176,0.49999998519883926,0.49999998519883926,1.2999999613569824,9.999999701976783e-11,0.1999999941395357,9.999999701976783e-11,0.14999999562965177,-0.14999999542965176,-0.1999999939395357,9.999999701976783e-11,-0.1999999939395357,9.999999701976783e-11,0.14999999562965177,-0.14999999542965176,0.1999999941395357,0.49999998519883926,0.49999998519883926
static,5e-11,5e-11,1.3099999805294789,0.14999999781482581,-0.4999999924994194,-0.4999999924994194,-1.2999999805784905,1.3099999805294789,-0.1499999977148258,0.4999999925994194,0.4999999925994194,1.2999999806784905,5e-11,0.1999999970697678,5e-11,0.14999999781482581,-0.1499999977148258,-0.19999999696976778,5e-11,-0.19999999696976778,5e-11,0.14999999781482581,-0.1499999977148258,0.1999999970697678,0.4999999925994194,0.4999999925994194
naive,-0.009296646869313668,-0.014606482967999697,1.3078241271886322,0.1477079053456792,-0.5112333940852941,-0.497979979765738,-1.3188258410178182,1.2971595569323342,-0.1503616964197427,0.5089337404224186,0.5006015367908656,1.2966545617119434,5e-11,0.1999999970697678,5e-11,0.14999999781482581,-0.1499999977148258,-0.19999999696976778,5e-11,-0.19999999696976778,5e-11,0.14999999781482581,-0.1499999977148258,0.1999999970697678,0.5016778183945254,0.5069388610234741
lively,9.999999701976783e-11,9.999999701976783e-11,1.309999961058959,0.14999999562965177,-0.4999999849988393,-0.4999999849988393,-1.2999999611569824,1.309999961058959,-0.14999999542965176,0.49999998519883926,0.49999998519883926,1.2999999613569824,9.999999701976783e-11,0.1999999941395357,9.999999701976783e-11,0.14999999562965177,-0.14999999542965176,-0.1999999939395357,9.999999701976783e-11,-0.1999999939395357,9.999999701976783e-11,0.14999999562965177,-0.14999999542965176,0.1999999941395357,0.49999998519883926,0.49999998519883926
static,5e-11,5e-11,1.3099999805294789,0.14999999781482581,-0.4999999924994194,-0.4999999924994194,-1.2999999805784905,1.3099999805294789,-0.1499999977148258,0.4999999925994194,0.4999999925994194,1.2999999806784905,5e-11,0.1999999970697678,5e-11,0.14999999781482581,-0.1499999977148258,-0.19999999696976778,5e-11,-0.19999999696976778,5e-11,0.14999999781482581,-0.1499999977148258,0.1999999970697678,0.4999999925994194,0.4999999925994194
naive,-0.009341463610470158,-0.014585423096203283,1.3078228281688857,0.1477681876903211,-0.5112985351337126,-0.49798578123822845,-1.3187179310196382,1.2971886033714168,-0.1502550737811561,0.5084684236282819,0.5006703748073403,1.296539887988174,5e-11,0.1999999970697678,5e-11,0.14999999781482581,-0.1499999977148258,-0.19999999696976778,5e-11,-0.19999999696976778,5e-11,0.14999999781482581,-0.1499999977148258,0.1999999970697678,0.5012184059084575,0.506656515240207
lively,9.999999701976783e-11,9.999999701976783e-11,1.309999961058959,0.14999999562965177,-0.4999999849988393,-0.4999999849988393,-1.2999999611569824,1.309999961058959,-0.14999999542965176,0.49999998519883926,0.49999998519883926,1.2999999613569824,9.999999701976783e-11,0.1999999941395357,9.999999701976783e-11,0.14999999562965177,-0.14999999542965176,-0.1999999939395357,9.999999701976783e-11,-0.1999999939395357,9.999999701976783e-11,0.14999999562965177,-0.14999999542965176,0.1999999941395357,0.49999998519883926,0.49999998519883926
static,5e-11,5e-11,1.3099999805294789,0.14999999781482581,-0.4999999924994194,-0.4999999924994194,-1.2999999805784905,1.3099999805294789,-0.1499999977148258,0.4999999925994194,0.4999999925994194,1.2999999806784905,5e-11,0.1999999970697678,5e-11,0.14999999781482581,-0.1499999977148258,-0.19999999696976778,5e-11,-0.19999999696976778,5e-11,0.14999999781482581,-0.1499999977148258,0.1999999970697678,0.4999999925994194,0.4999999925994194
naive,-0.009387308136834529,-0.01455679751186109,1.307822738089949,0.14783357411698708,-0.5113675909998756,-0.4979924852888663,-1.3185925572552448,1.297224778154869,-0.1501389210936389,0.5079449626416304,0.5007452913845925,1.2964197123755437,5e-11,0.1999999970697678,5e-11,0.14999999781482581,-0.1499999977148258,-0.19999999696976778,5e-11,-0.19999999696976778,5e-11,0.14999999781482581,-0.1499999977148258,0.1999999970697678,0.5007160761643064,0.5063423153902119
lively,9.999999701976783e-11,9.999999701976783e-11,1.309999961058959,0.14999999562965177,-0.4999999849988393,-0.4999999849988393,-1.2999999611569824,1.309999961058959,-0.14999999542965176,0.49999998519883926,0.49999998519883926,1.2999999613569824,9.999999701976783e-11,0.1999999941395357,9.999999701976783e-11,0.14999999562965177,-0.14999999542965176,-0.1999999939395357,9.999999701976783e-11,-0.1999999939395357,9.999999701976783e-11,0.14999999562965177,-0.14999999542965176,0.1999999941395357,0.49999998519883926,0.49999998519883926
static,5e-11,5e-11,1.3099999805294789,0.14999999781482581,-0.4999999924994194,-0.4999999924994194,-1.2999999805784905,1.3099999805294789,-0.1499999977148258,0.4999999925994194,0.4999999925994194,1.2999999806784905,5e-11,0.1999999970697678,5e-11,0.14999999781482581,-0.1499999977148258,-0.19999999696976778,5e-11,-0.19999999696976778,5e-11,0.14999999781482581,-0.1499999977148258,0.1999999970697678,0.4999999925994194,0.4999999925994194
naive,-0.009427664059580006,-0.014524262812754393,1.307823952266074,0.1478950022065452,-0.5114308204161736,-0.4979991834589258,-1.318466629708397,1.2972633281006036,-0.15002936005224726,0.5074353090184917,0.5008158890532644,1.2963108598842412,5e-11,0.1999999970697678,5e-11,0.14999999781482581,-0.1499999977148258,-0.19999999696976778,5e-11,-0.19999999696976778,5e-11,0.14999999781482581,-0.1499999977148258,0.1999999970697678,0.5002405286575409,0.5060394321818733
lively,9.999999701976783e-11,9.999999701976783e-11,1.309999961058959,0.14999999562965177,-0.4999999849988393,-0.4999999849988393,-1.2999999611569824,1.309999961058959,-0.14999999542965176,0.49999998519883926,0.49999998519883926,1.2999999613569824,9.999999701976783e-11,0.1999999941395357,9.999999701976783e-11,0.14999999562965177,-0.14999999542965176,-0.1999999939395357,9.999999701976783e-11,-0.1999999939395357,9.999999701976783e-11,0.14999999562965177,-0.14999999542965176,0.1999999941395357,0.49999998519883926,0.49999998519883926
static,5e-11,5e-11,1.3099999805294789,0.14999999781482581,-0.4999999924994194,-0.4999999924994194,-1.2999999805784905,1.3099999805294789,-0.1499999977148258,0.4999999925994194,0.4999999925994194,1.2999999806784905,5e-11,0.1999999970697678,5e-11,0.14999999781482581,-0.1499999977148258,-0.19999999696976778,5e-11,-0.19999999696976778,5e-11,0.14999999781482581,-0.1499999977148258,0.1999999970697678,0.4999999925994194,0.4999999925994194
naive,-0.009465580921631288,-0.01448577023015875,1.3078265007235557,0.14795691781996562,-0.5114927968450116,-0.4980063371317409,-1.3183314618872792,1.297306804416544,-0.1499185432917574,0.5069040103893455,0.5008872323970017,1.2962051826752878,5e-11,0.1999999970697678,5e-11,0.14999999781482581,-0.1499999977148258,-0.19999999696976778,5e-11,-0.19999999696976778,5e-11,0.14999999781482581,-0.1499999977148258,0.1999999970697678,0.49975787305853464,0.5057264332307293
lively,9.999999701976783e-11,9.999999701976783e-11,1.309999961058959,0.14999999562965177,-0.4999999849988393,-0.4999999849988393,-1.2999999611569824,1.309999961058959,-0.14999999542965176,0.49999998519883926,0.49999998519883926,1.2999999613569824,9.999999701976783e-11,0.1999999941395357,9.999999701976783e-11,0.14999999562965177,-0.14999999542965176,-0.1999999939395357,9.999999701976783e-11,-0.1999999939395357,9.999999701976783e-11,0.14999999562965177,-0.14999999542965176,0.1999999941395357,0.49999998519883926,0.49999998519883926
static,5e-11,5e-11,1.3099999805294789,0.14999999781482581,-0.4999999924994194,-0.4999999924994194,-1.2999999805784905,1.3099999805294789,-0.1499999977148258,0.4999999925994194,0.4999999925994194,1.2999999806784905,5e-11,0.1999999970697678,5e-11,0.14999999781482581,-0.1499999977148258,-0.19999999696976778,5e-11,-0.19999999696976778,5e-11,0.14999999781482581,-0.1499999977148258,0.1999999970697678,0.4999999925994194,0.4999999925994194
naive,-0.009500373949940676,-0.014441726589981656,1.3078303991299687,0.14801837872163406,-0.5115524258967997,-0.4980138481738098,-1.3181888413472425,1.2973546983448228,-0.14980820762256492,0.506359080748951,0.5009582050018364,1.2961043690542626,5e-11,0.1999999970697678,5e-11,0.14999999781482581,-0.1499999977148258,-0.19999999696976778,5e-11,-0.19999999696976778,5e-11,0.14999999781482581,-0.1499999977148258,0.1999999970697678,0.4992757017558407,0.5054079257341144
lively,9.999999701976783e-11,9.999999701976783e-11,1.309999961058959,0.14999999562965177,-0.4999999849988393,-0.4999999849988393,-1.2999999611569824,1.309999961058959,-0.14999999542965176,0.49999998519883926,0.49999998519883926,1.2999999613569824,9.999999701976783e-11,0.1999999941395357,9.999999701976783e-11,0.14999999562965177,-0.14999999542965176,-0.1999999939395357,9.999999701976783e-11,-0.1999999939395357,9.999999701976783e-11,0.14999999562965177,-0.14999999542965176,0.1999999941395357,0.49999998519883926,0.49999998519883926
static,5e-11,5e-11,1.3099999805294789,0.14999999781482581,-0.4999999924994194,-0.4999999924994194,-1.2999999805784905,1.3099999805294789,-0.1499999977148258,0.4999999925994194,0.4999999925994194,1.2999999806784905,5e-11,0.1999999970697678,5e-11,0.14999999781482581,-0.1499999977148258,-0.19999999696976778,5e-11,-0.19999999696976778,5e-11,0.14999999781482581,-0.1499999977148258,0.1999999970697678,0.4999999925994194,0.4999999925994194
naive,-0.009533612953181874,-0.014389231531028425,1.3078359984078483,0.14808266980059,-0.5116126096598191,-0.49802215427901503,-1.3180303404054434,1.2974100220581424,-0.14969249374644045,0.5057702952804471,0.501032574349566,1.2960033581206472,5e-11,0.1999999970697678,5e-11,0.14999999781482581,-0.1499999977148258,-0.19999999696976778,5e-11,-0.19999999696976778,5e-11,0.14999999781482581,-0.1499999977148258,0.1999999970697678,0.498768344713211,0.5050662411142126
lively,9.999999701976783e-11,9.999999701976783e-11,1.309999961058959,0.14999999562965177,-0.4999999849988393,-0.4999999849988393,-1.2999999611569824,1.309999961058959,-0.14999999542965176,0.49999998519883926,0.49999998519883926,1.2999999613569824,9.999999701976783e-11,0.1999999941395357,9.999999701976783e-11,0.14999999562965177,-0.14999999542965176,-0.1999999939395357,9.999999701976783e-11,-0.1999999939395357,9.999999701976783e-11,0.14999999562965177,-0.14999999542965176,0.1999999941395357,0.49999998519883926,0.49999998519883926
static,5e-11,5e-11,1.3099999805294789,0.14999999781482581,-0.4999999924994194,-0.4999999924994194,-1.2999999805784905,1.3099999805294789,-0.1499999977148258,0.4999999925994194,0.4999999925994194,1.2999999806784905,5e-11,0.1999999970697678,5e-11,0.14999999781482581,-0.1499999977148258,-0.19999999696976778,5e-11,-0.19999999696976778,5e-11,0.14999999781482581,-0.1499999977148258,0.1999999970697678,0.4999999925994194,0.4999999925994194
naive,-0.009560089796725532,-0.014337414065238929,1.307842268443495,0.1481392550037201,-0.5116635726063058,-0.49802985573172104,-1.3178826849857037,1.297463288391184,-0.1495904464208328,0.5052361493006352,0.5010981083636771,1.2959182894195913,5e-11,0.1999999970697678,5e-11,0.14999999781482581,-0.1499999977148258,-0.19999999696976778,5e-11,-0.19999999696976778,5e-11,0.14999999781482581,-0.1499999977148258,0.1999999970697678,0.49831951766849353,0.5047581477144251
lively,9.999999701976783e-11,9.999999701976783e-11,1.309999961058959,0.14999999562965177,-0.4999999849988393,-0.4999999849988393,-1.2999999611569824,1.309999961058959,-0.14999999542965176,0.49999998519883926,0.49999998519883926,1.2999999613569824,9.999999701976783e-11,0.1999999941395357,9.999999701976783e-11,0.14999999562965177,-0.14999999542965176,-0.1999999939395357,9.999999701976783e-11,-0.1999999939395357,9.999999701976783e-11,0.14999999562965177,-0.14999999542965176,0.1999999941395357,0.49999998519883926,0.49999998519883926
static,5e-11,5e-11,1.3099999805294789,0.14999999781482581,-0.4999999924994194,-0.4999999924994194,-1.2999999805784905,1.3099999805294789,-0.1499999977148258,0.4999999925994194,0.4999999925994194,1.2999999806784905,5e-11,0.1999999970697678,5e-11,0.14999999781482581,-0.1499999977148258,-0.19999999696976778,5e-11,-0.19999999696976778,5e-11,0.14999999781482581,-0.1499999977148258,0.1999999970697678,0.4999999925994194,0.4999999925994194
naive,-0.009585411745040302,-0.014275965466711237,1.3078504271923856,0.14819978351002502,-0.5117158363873405,-0.4980385111602956,-1.3177159836476378,1.2975251785182942,-0.14948113025196297,0.5046481921304657,0.5011682578673604,1.2958313482008084,5e-11,0.1999999970697678,5e-11,0.14999999781482581,-0.1499999977148258,-0.19999999696976778,5e-11,-0.19999999696976778,5e-11,0.14999999781482581,-0.1499999977148258,0.1999999970697678,0.49783730854497976,0.5044207630236621
lively,9.999999701976783e-11,9.999999701976783e-11,1.309999961058959,0.14999999562965177,-0.4999999849988393,-0.4999999849988393,-1.2999999611569824,1.309999961058959,-0.14999999542965176,0.49999998519883926,0.49999998519883926,1.2999999613569824,9.999999701976783e-11,0.1999999941395357,9.999999701976783e-11,0.14999999562965177,-0.14999999542965176,-0.1999999939395357,9.999999701976783e-11,-0.1999999939395357,9.999999701976783e-11,0.14999999562965177,-0.14999999542965176,0.1999999941395357,0.49999998519883926,0.49999998519883926
static,5e-11,5e-11,1.3099999805294789,0.14999999781482581,-0.4999999924994194,-0.4999999924994194,-1.2999999805784905,1.3099999805294789,-0.1499999977148258,0.4999999925994194,0.4999999925994194,1.2999999806784905,5e-11,0.1999999970697678,5e-11,0.14999999781482581,-0.1499999977148258,-0.19999999696976778,5e-11,-0.19999999696976778,5e-11,0.14999999781482581,-0.1499999977148258,0.1999999970697678,0.4999999925994194,0.4999999925994194
naive,-0.009607204586916105,-0.014209104358023368,1.3078600008897987,0.14825943436848885,-0.511764884395312,-0.49804747617298745,-1.3175425154044997,1.2975913219988635,-0.14937329462791796,0.5040519001915666,0.5012374049522587,1.2957498533896168,5e-11,0.1999999970697678,5e-11,0.14999999781482581,-0.1499999977148258,-0.19999999696976778,5e-11,-0.19999999696976778,5e-11,0.14999999781482581,-0.1499999977148258,0.1999999970697678,0.4973602328862762,0.5040801567995382
lively,9.999999701976783e-11,9.999999701976783e-11,1.309999961058959,0.14999999562965177,-0.4999999849988393,-0.4999999849988393,-1.2999999611569824,1.309999961058959,-0.14999999542965176,0.49999998519883926,0.49999998519883926,1.2999999613569824,9.999999701976783e-11,0.1999999941395357,9.999999701976783e-11,0.14999999562965177,-0.14999999542965176,-0.1999999939395357,9.999999701976783e-11,-0.1999999939395357,9.999999701976783e-11,0.14999999562965177,-0.14999999542965176,0.1999999941395357,0.49999998519883926,0.49999998519883926
static,5e-11,5e-11,1.3099999805294789,0.14999999781482581,-0.4999999924994194,-0.4999999924994194,-1.2999999805784905,1.3099999805294789,-0.1499999977148258,0.4999999925994194,0.4999999925994194,1.2999999806784905,5e-11,0.1999999970697678,5e-11,0.14999999781482581,-0.1499999977148258,-0.19999999696976778,5e-11,-0.19999999696976778,5e-11,0.14999999781482581,-0.1499999977148258,0.1999999970697678,0.4999999925994194,0.4999999925994194
naive,-0.009623707466079923,-0.014144755010534787,1.3078697642642438,0.14831204349220017,-0.5118059587600738,-0.49805575275259517,-1.3173816711740336,1.2976540604640123,-0.1492781487585551,0.503512043076173,0.5012983716762514,1.2956814995510548,5e-11,0.1999999970697678,5e-11,0.14999999781482581,-0.1499999977148258,-0.19999999696976778,5e-11,-0.19999999696976778,5e-11,0.14999999781482581,-0.1499999977148258,0.1999999970697678,0.4969381749334076,0.5037728942371641
lively,9.999999701976783e-11,9.999999701976783e-11,1.309999961058959,0.14999999562965177,-0.4999999849988393,-0.4999999849988393,-1.2999999611569824,1.309999961058959,-0.14999999542965176,0.49999998519883926,0.49999998519883926,1.2999999613569824,9.999999701976783e-11,0.1999999941395357,9.999999701976783e-11,0.14999999562965177,-0.14999999542965176,-0.1999999939395357,9.999999701976783e-11,-0.1999999939395357,9.999999701976783e-11,0.14999999562965177,-0.14999999542965176,0.1999999941395357,0.49999998519883926,0.49999998519883926
static,5e-11,5e-11,1.3099999805294789,0.14999999781482581,-0.4999999924994194,-0.4999999924994194,-1.2999999805784905,1.3099999805294789,-0.1499999977148258,0.4999999925994194,0.4999999925994194,1.2999999806784905,5e-11,0.1999999970697678,5e-11,0.14999999781482581,-0.1499999977148258,-0.19999999696976778,5e-11,-0.19999999696976778,5e-11,0.14999999781482581,-0.1499999977148258,0.1999999970697678,0.4999999925994194,0.4999999925994194
naive,-0.009638511731921227,-0.014069575924949212,1.3078817300237608,0.14836872039583504,-0.5118477424388028,-0.49806507005736633,-1.3171998301273975,1.2977264468563634,-0.1491756545023935,0.5029157092754701,0.5013640016183551,1.2956116310918833,5e-11,0.1999999970697678,5e-11,0.14999999781482581,-0.1499999977148258,-0.19999999696976778,5e-11,-0.19999999696976778,5e-11,0.14999999781482581,-0.1499999977148258,0.1999999970697678,0.4964823661304276,0.5034344703157074
lively,9.999999701976783e-11,9.999999701976783e-11,1.309999961058959,0.14999999562965177,-0.4999999849988393,-0.4999999849988393,-1.2999999611569824,1.309999961058959,-0.14999999542965176,0.49999998519883926,0.49999998519883926,1.2999999613569824,9.999999701976783e-11,0.1999999941395357,9.999999701976783e-11,0.14999999562965177,-0.14999999542965176,-0.1999999939395357,9.999999701976783e-11,-0.1999999939395357,9.999999701976783e-11,0.14999999562965177,-0.14999999542965176,0.1999999941395357,0.49999998519883926,0.49999998519883926
static,5e-11,5e-11,1.3099999805294789,0.14999999781482581,-0.4999999924994194,-0.4999999924994194,-1.2999999805784905,1.3099999805294789,-0.1499999977148258,0.4999999925994194,0.4999999925994194,1.2999999806784905,5e-11,0.1999999970697678,5e-11,0.14999999781482581,-0.1499999977148258,-0.19999999696976778,5e-11,-0.19999999696976778,5e-11,0.14999999781482581,-0.1499999977148258,0.1999999970697678,0.4999999925994194,0.4999999925994194
naive,-0.009650173946138636,-0.013987380534765302,1.3078953876005566,0.14842587234012578,-0.5118870861574245,-0.498074900892223,-1.317007110117613,1.2978046796340403,-0.14907236494731865,0.5022988037987981,0.5014300919314401,1.2955452241491123,5e-11,0.1999999970697678,5e-11,0.14999999781482581,-0.1499999977148258,-0.19999999696976778,5e-11,-0.19999999696976778,5e-11,0.14999999781482581,-0.1499999977148258,0.1999999970697678,0.49602183790079357,0.5030852032336295
lively,9.999999701976783e-11,9.999999701976783e-11,1.309999961058959,0.14999999562965177,-0.4999999849988393,-0.4999999849988393,-1.2999999611569824,1.309999961058959,-0.14999999542965176,0.49999998519883926,0.49999998519883926,1.2999999613569824,9.999999701976783e-11,0.1999999941395357,9.999999701976783e-11,0.14999999562965177,-0.14999999542965176,-0.1999999939395357,9.999999701976783e-11,-0.1999999939395357,9.999999701976783e-11,0.14999999562965177,-0.14999999542965176,0.1999999941395357,0.49999998519883926,0.49999998519883926
static,5e-11,5e-11,1.3099999805294789,0.14999999781482581,-0.4999999924994194,-0.4999999924994194,-1.2999999805784905,1.3099999805294789,-0.1499999977148258,0.4999999925994194,0.4999999925994194,1.2999999806784905,5e-11,0.1999999970697678,5e-11,0.14999999781482581,-0.1499999977148258,-0.19999999696976778,5e-11,-0.19999999696976778,5e-11,0.14999999781482581,-0.1499999977148258,0.1999999970697678,0.4999999925994194,0.4999999925994194
naive,-0.009658183183618614,-0.013901539556758352,1.3079101910792275,0.14848114236337193,-0.5119222578779717,-0.4980848393813894,-1.3168114120469312,1.2978855549924542,-0.14897259481471775,0.5016872188593138,0.5014938823023032,1.295484959972078,5e-11,0.1999999970697678,5e-11,0.14999999781482581,-0.1499999977148258,-0.19999999696976778,5e-11,-0.19999999696976778,5e-11,0.14999999781482581,-0.1499999977148258,0.1999999970697678,0.4955758974541342,0.5027395384912403
lively,9.999999701976783e-11,9.999999701976783e-11,1.309999961058959,0.14999999562965177,-0.4999999849988393,-0.4999999849988393,-1.2999999611569824,1.309999961058959,-0.14999999542965176,0.49999998519883926,0.49999998519883926,1.2999999613569824,9.999999701976783e-11,0.1999999941395357,9.999999701976783e-11,0.14999999562965177,-0.14999999542965176,-0.1999999939395357,9.999999701976783e-11,-0.1999999939395357,9.999999701976783e-11,0.14999999562965177,-0.14999999542965176,0.1999999941395357,0.49999998519883926,0.49999998519883926
static,5e-11,5e-11,1.3099999805294789,0.14999999781482581,-0.4999999924994194,-0.4999999924994194,-1.2999999805784905,1.3099999805294789,-0.1499999977148258,0.4999999925994194,0.4999999925994194,1.2999999806784905,5e-11,0.1999999970697678,5e-11,0.14999999781482581,-0.1499999977148258,-0.19999999696976778,5e-11,-0.19999999696976778,5e-11,0.14999999781482581,-0.1499999977148258,0.1999999970697678,0.4999999925994194,0.4999999925994194
naive,-0.00966284623590299,-0.013808203020370098,1.3079268213408555,0.14853697762819015,-0.5119546860902723,-0.49809532709127324,-1.31660397965834,1.2979727011189701,-0.14887198332528107,0.5010542858119658,0.5015581601435146,1.2954281260828497,5e-11,0.1999999970697678,5e-11,0.14999999781482581,-0.1499999977148258,-0.19999999696976778,5e-11,-0.19999999696976778,5e-11,0.14999999781482581,-0.1499999977148258,0.1999999970697678,0.4951251229108022,0.5023821835720478
lively,9.999999701976783e-11,9.999999701976783e-11,1.309999961058959,0.14999999562965177,-0.4999999849988393,-0.4999999849988393,-1.2999999611569824,1.309999961058959,-0.14999999542965176,0.49999998519883926,0.49999998519883926,1.2999999613569824,9.999999701976783e-11,0.1999999941395357,9.999999701976783e-11,0.14999999562965177,-0.14999999542965176,-0.1999999939395357,9.999999701976783e-11,-0.1999999939395357,9.999999701976783e-11,0.14999999562965177,-0.14999999542965176,0.1999999941395357,0.49999998519883926,0.49999998519883926
static,5e-11,5e-11,1.3099999805294789,0.14999999781482581,-0.4999999924994194,-0.4999999924994194,-1.2999999805784905,1.3099999805294789,-0.1499999977148258,0.4999999925994194,0.4999999925994194,1.2999999806784905,5e-11,0.1999999970697678,5e-11,0.14999999781482581,-0.1499999977148258,-0.19999999696976778,5e-11,-0.19999999696976778,5e-11,0.14999999781482581,-0.1499999977148258,0.1999999970697678,0.4999999925994194,0.4999999925994194
naive,-0.00966393065492808,-0.013714778576157565,1.307943949679214,0.14858911316404907,-0.5119819251150207,-0.49810554241709637,-1.3164010481172703,1.2980592387929288,-0.1487782590105278,0.5004494674699929,0.5016179893088335,1.295378822442971,5e-11,0.1999999970697678,5e-11,0.14999999781482581,-0.1499999977148258,-0.19999999696976778,5e-11,-0.19999999696976778,5e-11,0.14999999781482581,-0.1499999977148258,0.1999999970697678,0.49470425531980505,0.5020408428764022
lively,9.999999701976783e-11,9.999999701976783e-11,1.309999961058959,0.14999999562965177,-0.4999999849988393,-0.4999999849988393,-1.2999999611569824,1.309999961058959,-0.14999999542965176,0.49999998519883926,0.49999998519883926,1.2999999613569824,9.999999701976783e-11,0.1999999941395357,9.999999701976783e-11,0.14999999562965177,-0.14999999542965176,-0.1999999939395357,9.999999701976783e-11,-0.1999999939395357,9.999999701976783e-11,0.14999999562965177,-0.14999999542965176,0.1999999941395357,0.49999998519883926,0.49999998519883926
static,5e-11,5e-11,1.3099999805294789,0.14999999781482581,-0.4999999924994194,-0.4999999924994194,-1.2999999805784905,1.3099999805294789,-0.1499999977148258,0.4999999925994194,0.4999999925994194,1.2999999806784905,5e-11,0.1999999970697678,5e-11,0.14999999781482581,-0.1499999977148258,-0.19999999696976778,5e-11,-0.19999999696976778,5e-11,0.14999999781482581,-0.1499999977148258,0.1999999970697678,0.4999999925994194,0.4999999925994194
naive,-0.009661812477241077,-0.013618233111956141,1.3079620948544755,0.1486396192981384,-0.5120052908866533,-0.49811584381640367,-1.3161955379057853,1.2981480528218543,-0.14868772350886367,0.49985068565203616,0.5016757349063735,1.2953346163479282,5e-11,0.1999999970697678,5e-11,0.14999999781482581,-0.1499999977148258,-0.19999999696976778,5e-11,-0.19999999696976778,5e-11,0.14999999781482581,-0.1499999977148258,0.1999999970697678,0.4942968521018353,0.5017028471689435
lively,9.999999701976783e-11,9.999999701976783e-11,1.309999961058959,0.14999999562965177,-0.4999999849988393,-0.4999999849988393,-1.2999999611569824,1.309999961058959,-0.14999999542965176,0.49999998519883926,0.49999998519883926,1.2999999613569824,9.999999701976783e-11,0.1999999941395357,9.999999701976783e-11,0.14999999562965177,-0.14999999542965176,-0.1999999939395357,9.999999701976783e-11,-0.1999999939395357,9.999999701976783e-11,0.14999999562965177,-0.14999999542965176,0.1999999941395357,0.49999998519883926,0.49999998519883926
static,5e-11,5e-11,1.3099999805294789,0.14999999781482581,-0.4999999924994194,-0.4999999924994194,-1.2999999805784905,1.3099999805294789,-0.1499999977148258,0.4999999925994194,0.4999999925994194,1.2999999806784905,5e-11,0.1999999970697678,5e-11,0.14999999781482581,-0.1499999977148258,-0.19999999696976778,5e-11,-0.19999999696976778,5e-11,0.14999999781482581,-0.1499999977148258,0.1999999970697678,0.4999999925994194,0.4999999925994194
naive,-0.009656340387264824,-0.013514424400750487,1.3079820522950873,0.14869062122068563,-0.5120256299048537,-0.49812666846278514,-1.3159786660422352,1.298242951738702,-0.14859661803562055,0.4992330352944784,0.5017337918812959,1.295293622656196,5e-11,0.1999999970697678,5e-11,0.14999999781482581,-0.1499999977148258,-0.19999999696976778,5e-11,-0.19999999696976778,5e-11,0.14999999781482581,-0.1499999977148258,0.1999999970697678,0.4938860512818463,0.5013539408431349
lively,9.999999701976783e-11,9.999999701976783e-11,1.309999961058959,0.14999999562965177,-0.4999999849988393,-0.4999999849988393,-1.2999999611569824,1.309999961058959,-0.14999999542965176,0.49999998519883926,0.49999998519883926,1.2999999613569824,9.999999701976783e-11,0.1999999941395357,9.999999701976783e-11,0.14999999562965177,-0.14999999542965176,-0.1999999939395357,9.999999701976783e-11,-0.1999999939395357,9.999999701976783e-11,0.14999999562965177,-0.14999999542965176,0.1999999941395357,0.49999998519883926,0.49999998519883926
static,5e-11,5e-11,1.3099999805294789,0.14999999781482581,-0.4999999924994194,-0.4999999924994194,-1.2999999805784905,1.3099999805294789,-0.1499999977148258,0.4999999925994194,0.4999999925994194,1.2999999806784905,5e-11,0.1999999970697678,5e-11,0.14999999781482581,-0.1499999977148258,-0.19999999696976778,5e-11,-0.19999999696976778,5e-11,0.14999999781482581,-0.1499999977148258,0.1999999970697678,0.4999999925994194,0.4999999925994194
naive,-0.009647354997356708,-0.013404195559684437,1.3080036973224345,0.14874151627799215,-0.5120424015166118,-0.4981379123732527,-1.3157524075144218,1.298343136441499,-0.14850608738424964,0.4986035091557999,0.5017914248587877,1.2952564707240848,5e-11,0.1999999970697678,5e-11,0.14999999781482581,-0.1499999977148258,-0.19999999696976778,5e-11,-0.19999999696976778,5e-11,0.14999999781482581,-0.1499999977148258,0.1999999970697678,0.4934770298097958,0.5009978538559229
lively,9.999999701976783e-11,9.999999701976783e-11,1.309999961058959,0.14999999562965177,-0.4999999849988393,-0.4999999849988393,-1.2999999611569824,1.309999961058959,-0.14999999542965176,0.49999998519883926,0.49999998519883926,1.2999999613569824,9.999999701976783e-11,0.1999999941395357,9.999999701976783e-11,0.14999999562965177,-0.14999999542965176,-0.1999999939395357,9.999999701976783e-11,-0.1999999939395357,9.999999701976783e-11,0.14999999562965177,-0.14999999542965176,0.1999999941395357,0.49999998519883926,0.49999998519883926
static,5e-11,5e-11,1.3099999805294789,0.14999999781482581,-0.4999999924994194,-0.4999999924994194,-1.2999999805784905,1.3099999805294789,-0.1499999977148258,0.4999999925994194,0.4999999925994194,1.2999999806784905,5e-11,0.1999999970697678,5e-11,0.14999999781482581,-0.1499999977148258,-0.19999999696976778,5e-11,-0.19999999696976778,5e-11,0.14999999781482581,-0.1499999977148258,0.1999999970697678,0.4999999925994194,0.4999999925994194
naive,-0.009635377459485547,-0.013293098205491771,1.3080259383170643,0.14878983390833342,-0.5120547985552414,-0.49814901469241224,-1.3155280244350318,1.2984435832171062,-0.14842056142408422,0.49799352124267243,0.501845812665991,1.2952247739315073,5e-11,0.1999999970697678,5e-11,0.14999999781482581,-0.1499999977148258,-0.19999999696976778,5e-11,-0.19999999696976778,5e-11,0.14999999781482581,-0.1499999977148258,0.1999999970697678,0.49308988530810816,0.5006521730064576
lively,9.999999701976783e-11,9.999999701976783e-11,1.309999961058959,0.14999999562965177,-0.4999999849988393,-0.4999999849988393,-1.2999999611569824,1.309999961058959,-0.14999999542965176,0.49999998519883926,0.49999998519883926,1.2999999613569824,9.999999701976783e-11,0.1999999941395357,9.999999701976783e-11,0.14999999562965177,-0.14999999542965176,-0.1999999939395357,9.999999701976783e-11,-0.1999999939395357,9.999999701976783e-11,0.14999999562965177,-0.14999999542965176,0.1999999941395357,0.49999998519883926,0.49999998519883926
static,5e-11,5e-11,1.3099999805294789,0.14999999781482581,-0.4999999924994194,-0.4999999924994194,-1.2999999805784905,1.3099999805294789,-0.1499999977148258,0.4999999925994194,0.4999999925994194,1.2999999806784905,5e-11,0.1999999970697678,5e-11,0.14999999781482581,-0.1499999977148258,-0.19999999696976778,5e-11,-0.19999999696976778,5e-11,0.14999999781482581,-0.1499999977148258,0.1999999970697678,0.4999999925994194,0.4999999925994194
naive,-0.00961980271897746,-0.013175116553498711,1.3080499816538234,0.14883825741707776,-0.5120634906540299,-0.4981605800233853,-1.3152932649486553,1.2985497481789787,-0.14833532734266722,0.4973699624047705,0.5018999497214015,1.295196608893507,5e-11,0.1999999970697678,5e-11,0.14999999781482581,-0.1499999977148258,-0.19999999696976778,5e-11,-0.19999999696976778,5e-11,0.14999999781482581,-0.1499999977148258,0.1999999970697678,0.49270336327480474,0.5002979530006579
lively,9.999999701976783e-11,9.999999701976783e-11,1.309999961058959,0.14999999562965177,-0.4999999849988393,-0.4999999849988393,-1.2999999611569824,1.309999961058959,-0.14999999542965176,0.49999998519883926,0.49999998519883926,1.2999999613569824,9.999999701976783e-11,0.1999999941395357,9.999999701976783e-11,0.14999999562965177,-0.14999999542965176,-0.1999999939395357,9.999999701976783e-11,-0.1999999939395357,9.999999701976783e-11,0.14999999562965177,-0.14999999542965176,0.1999999941395357,0.49999998519883926,0.49999998519883926
static,5e-11,5e-11,1.3099999805294789,0.14999999781482581,-0.4999999924994194,-0.4999999924994194,-1.2999999805784905,1.3099999805294789,-0.1499999977148258,0.4999999925994194,0.4999999925994194,1.2999999806784905,5e-11,0.1999999970697678,5e-11,0.14999999781482581,-0.1499999977148258,-0.19999999696976778,5e-11,-0.19999999696976778,5e-11,0.14999999781482581,-0.1499999977148258,0.1999999970697678,0.4999999925994194,0.4999999925994194
naive,-0.009600828016070314,-0.013052522076286772,1.308075387850025,0.14888577450163967,-0.5120680814259173,-0.49817237767325695,-1.3150527265345116,1.2986595786053778,-0.1482522285006394,0.49674597431386575,0.5019526590965853,1.2951725889002863,5e-11,0.1999999970697678,5e-11,0.14999999781482581,-0.1499999977148258,-0.19999999696976778,5e-11,-0.19999999696976778,5e-11,0.14999999781482581,-0.1499999977148258,0.1999999970697678,0.49232585787355637,0.49994243662546806
lively,9.999999701976783e-11,9.999999701976783e-11,1.309999961058959,0.14999999562965177,-0.4999999849988393,-0.4999999849988393,-1.2999999611569824,1.309999961058959,-0.14999999542965176,0.49999998519883926,0.49999998519883926,1.2999999613569824,9.999999701976783e-11,0.1999999941395357,9.999999701976783e-11,0.14999999562965177,-0.14999999542965176,-0.1999999939395357,9.999999701976783e-11,-0.1999999939395357,9.999999701976783e-11,0.14999999562965177,-0.14999999542965176,0.1999999941395357,0.49999998519883926,0.49999998519883926
static,5e-11,5e-11,1.3099999805294789,0.14999999781482581,-0.4999999924994194,-0.4999999924994194,-1.2999999805784905,1.3099999805294789,-0.1499999977148258,0.4999999925994194,0.4999999925994194,1.2999999806784905,5e-11,0.1999999970697678,5e-11,0.14999999781482581,-0.1499999977148258,-0.19999999696976778,5e-11,-0.19999999696976778,5e-11,0.14999999781482581,-0.1499999977148258,0.1999999970697678,0.4999999925994194,0.4999999925994194
naive,-0.009578754426981896,-0.012927053961474512,1.3081017995721125,0.14893176674305578,-0.5120684886390428,-0.4981842428621656,-1.3148097347941883,1.2987715309524746,-0.14817238133317315,0.4961303957889892,0.5020032290361125,1.295152869573042,5e-11,0.1999999970697678,5e-11,0.14999999781482581,-0.1499999977148258,-0.19999999696976778,5e-11,-0.19999999696976778,5e-11,0.14999999781482581,-0.1499999977148258,0.1999999970697678,0.49196250969313066,0.49959048847505205
lively,9.999999701976783e-11,9.999999701976783e-11,1.309999961058959,0.14999999562965177,-0.4999999849988393,-0.4999999849988393,-1.2999999611569824,1.309999961058959,-0.14999999542965176,0.49999998519883926,0.49999998519883926,1.2999999613569824,9.999999701976783e-11,0.1999999941395357,9.999999701976783e-11,0.14999999562965177,-0.14999999542965176,-0.1999999939395357,9.999999701976783e-11,-0.1999999939395357,9.999999701976783e-11,0.14999999562965177,-0.14999999542965176,0.1999999941395357,0.49999998519883926,0.49999998519883926
static,5e-11,5e-11,1.3099999805294789,0.14999999781482581,-0.4999999924994194,-0.4999999924994194,-1.2999999805784905,1.3099999805294789,-0.1499999977148258,0.4999999925994194,0.4999999925994194,1.2999999806784905,5e-11,0.1999999970697678,5e-11,0.14999999781482581,-0.1499999977148258,-0.19999999696976778,5e-11,-0.19999999696976778,5e-11,0.14999999781482581,-0.1499999977148258,0.1999999970697678,0.4999999925994194,0.4999999925994194
naive,-0.00955388992130037,-0.01279985817481438,1.3081289665502687,0.14897594308750856,-0.5120648159402028,-0.49819607565900004,-1.314566334538567,1.2988846093996684,-0.14809630512012104,0.4955281629743214,0.5020513291609975,1.2951373145388354,5e-11,0.1999999970697678,5e-11,0.14999999781482581,-0.1499999977148258,-0.19999999696976778,5e-11,-0.19999999696976778,5e-11,0.14999999781482581,-0.1499999977148258,0.1999999970697678,0.4916157630994584,0.49924481005351246
lively,9.999999701976783e-11,9.999999701976783e-11,1.309999961058959,0.14999999562965177,-0.4999999849988393,-0.4999999849988393,-1.2999999611569824,1.309999961058959,-0.14999999542965176,0.49999998519883926,0.49999998519883926,1.2999999613569824,9.999999701976783e-11,0.1999999941395357,9.999999701976783e-11,0.14999999562965177,-0.14999999542965176,-0.1999999939395357,9.999999701976783e-11,-0.1999999939395357,9.999999701976783e-11,0.14999999562965177,-0.14999999542965176,0.1999999941395357,0.49999998519883926,0.49999998519883926
static,5e-11,5e-11,1.3099999805294789,0.14999999781482581,-0.4999999924994194,-0.4999999924994194,-1.2999999805784905,1.3099999805294789,-0.1499999977148258,0.4999999925994194,0.4999999925994194,1.2999999806784905,5e-11,0.1999999970697678,5e-11,0.14999999781482581,-0.1499999977148258,-0.19999999696976778,5e-11,-0.19999999696976778,5e-11,0.14999999781482581,-0.1499999977148258,0.1999999970697678,0.4999999925994194,0.4999999925994194
naive,-0.009525149899553938,-0.012665530396587656,1.308158054835313,0.1490201772294822,-0.512056795075495,-0.49820837674606394,-1.3143121700539695,1.299003622301977,-0.1480208189776556,0.4949141703356223,0.5020989638950837,1.2951251870701872,5e-11,0.1999999970697678,5e-11,0.14999999781482581,-0.1499999977148258,-0.19999999696976778,5e-11,-0.19999999696976778,5e-11,0.14999999781482581,-0.1499999977148258,0.1999999970697678,0.4912711690635961,0.49889080676780806
lively,9.999999701976783e-11,9.999999701976783e-11,1.309999961058959,0.14999999562965177,-0.4999999849988393,-0.4999999849988393,-1.2999999611569824,1.309999961058959,-0.14999999542965176,0.49999998519883926,0.49999998519883926,1.2999999613569824,9.999999701976783e-11,0.1999999941395357,9.999999701976783e-11,0.14999999562965177,-0.14999999542965176,-0.1999999939395357,9.999999701976783e-11,-0.1999999939395357,9.999999701976783e-11,0.14999999562965177,-0.14999999542965176,0.1999999941395357,0.49999998519883926,0.49999998519883926
static,5e-11,5e-11,1.3099999805294789,0.14999999781482581,-0.4999999924994194,-0.4999999924994194,-1.2999999805784905,1.3099999805294789,-0.1499999977148258,0.4999999925994194,0.4999999925994194,1.2999999806784905,5e-11,0.1999999970697678,5e-11,0.14999999781482581,-0.1499999977148258,-0.19999999696976778,5e-11,-0.19999999696976778,5e-11,0.14999999781482581,-0.1499999977148258,0.1999999970697678,0.4999999925994194,0.4999999925994194
naive,-0.009493739379111148,-0.012529824846926777,1.3081878296017777,0.14906257285866148,-0.5120446613143115,-0.4982206171895343,-1.3140581117532169,1.299123475659993,-0.1479492040134636,0.49431516352024224,0.5021440561030373,1.2951169285668611,5e-11,0.1999999970697678,5e-11,0.14999999781482581,-0.1499999977148258,-0.19999999696976778,5e-11,-0.19999999696976778,5e-11,0.14999999781482581,-0.1499999977148258,0.1999999970697678,0.4909437467747259,0.498543741956564
lively,9.999999701976783e-11,9.999999701976783e-11,1.309999961058959,0.14999999562965177,-0.4999999849988393,-0.4999999849988393,-1.2999999611569824,1.309999961058959,-0.14999999542965176,0.49999998519883926,0.49999998519883926,1.2999999613569824,9.999999701976783e-11,0.1999999941395357,9.999999701976783e-11,0.14999999562965177,-0.14999999542965176,-0.1999999939395357,9.999999701976783e-11,-0.1999999939395357,9.999999701976783e-11,0.14999999562965177,-0.14999999542965176,0.1999999941395357,0.49999998519883926,0.49999998519883926
static,5e-11,5e-11,1.3099999805294789,0.14999999781482581,-0.4999999924994194,-0.4999999924994194,-1.2999999805784905,1.3099999805294789,-0.1499999977148258,0.4999999925994194,0.4999999925994194,1.2999999806784905,5e-11,0.1999999970697678,5e-11,0.14999999781482581,-0.1499999977148258,-0.19999999696976778,5e-11,-0.19999999696976778,5e-11,0.14999999781482581,-0.1499999977148258,0.1999999970697678,0.4999999925994194,0.4999999925994194
naive,-0.009458861519088535,-0.012389181188669591,1.3082190743091955,0.1491042943534003,-0.5120280791019212,-0.4982331204181001,-1.3137974153219865,1.2992473265685462,-0.14787952005816576,0.49371538629476946,0.5021878217898742,1.2951121492238404,5e-11,0.1999999970697678,5e-11,0.14999999781482581,-0.1499999977148258,-0.19999999696976778,5e-11,-0.19999999696976778,5e-11,0.14999999781482581,-0.1499999977148258,0.1999999970697678,0.4906246817403674,0.4981943706074186
lively,9.999999701976783e-11,9.999999701976783e-11,1.309999961058959,0.14999999562965177,-0.4999999849988393,-0.4999999849988393,-1.2999999611569824,1.309999961058959,-0.14999999542965176,0.49999998519883926,0.49999998519883926,1.2999999613569824,9.999999701976783e-11,0.1999999941395357,9.999999701976783e-11,0.14999999562965177,-0.14999999542965176,-0.1999999939395357,9.999999701976783e-11,-0.1999999939395357,9.999999701976783e-11,0.14999999562965177,-0.14999999542965176,0.1999999941395357,0.49999998519883926,0.49999998519883926
static,5e-11,5e-11,1.3099999805294789,0.14999999781482581,-0.4999999924994194,-0.4999999924994194,-1.2999999805784905,1.3099999805294789,-0.1499999977148258,0.4999999925994194,0.4999999925994194,1.2999999806784905,5e-11,0.1999999970697678,5e-11,0.14999999781482581,-0.1499999977148258,-0.19999999696976778,5e-11,-0.19999999696976778,5e-11,0.14999999781482581,-0.1499999977148258,0.1999999970697678,0.4999999925994194,0.4999999925994194
naive,-0.009419058687368772,-0.012238481498141789,1.3082529643682392,0.14914670810158326,-0.5120060509643144,-0.4982463268214319,-1.3135207535873719,1.2993796611846278,-0.1478095903082296,0.4930949232522779,0.5022316107034047,1.2951108441817283,5e-11,0.1999999970697678,5e-11,0.14999999781482581,-0.1499999977148258,-0.19999999696976778,5e-11,-0.19999999696976778,5e-11,0.14999999781482581,-0.1499999977148258,0.1999999970697678,0.4903040150251173,0.49783077269569154
lively,9.999999701976783e-11,9.999999701976783e-11,1.309999961058959,0.14999999562965177,-0.4999999849988393,-0.4999999849988393,-1.2999999611569824,1.309999961058959,-0.14999999542965176,0.49999998519883926,0.49999998519883926,1.2999999613569824,9.999999701976783e-11,0.1999999941395357,9.999999701976783e-11,0.14999999562965177,-0.14999999542965176,-0.1999999939395357,9.999999701976783e-11,-0.1999999939395357,9.999999701976783e-11,0.14999999562965177,-0.14999999542965176,0.1999999941395357,0.49999998519883926,0.49999998519883926
static,5e-11,5e-11,1.3099999805294789,0.14999999781482581,-0.4999999924994194,-0.4999999924994194,-1.2999999805784905,1.3099999805294789,-0.1499999977148258,0.4999999925994194,0.4999999925994194,1.2999999806784905,5e-11,0.1999999970697678,5e-11,0.14999999781482581,-0.1499999977148258,-0.19999999696976778,5e-11,-0.19999999696976778,5e-11,0.14999999781482581,-0.1499999977148258,0.1999999970697678,0.4999999925994194,0.4999999925994194
naive,-0.00937967999135906,-0.012097420933031917,1.308285051819015,0.14918443464912132,-0.5119816531027948,-0.49825852211057436,-1.313264075924108,1.2995032149005152,-0.147748258798829,0.49253369301003874,0.5022698863575803,1.2951128319944871,5e-11,0.1999999970697678,5e-11,0.14999999781482581,-0.1499999977148258,-0.19999999696976778,5e-11,-0.19999999696976778,5e-11,0.14999999781482581,-0.1499999977148258,0.1999999970697678,0.49002236878809796,0.4974997528559779
lively,9.999999701976783e-11,9.999999701976783e-11,1.309999961058959,0.14999999562965177,-0.4999999849988393,-0.4999999849988393,-1.2999999611569824,1.309999961058959,-0.14999999542965176,0.49999998519883926,0.49999998519883926,1.2999999613569824,9.999999701976783e-11,0.1999999941395357,9.999999701976783e-11,0.14999999562965177,-0.14999999542965176,-0.1999999939395357,9.999999701976783e-11,-0.1999999939395357,9.999999701976783e-11,0.14999999562965177,-0.14999999542965176,0.1999999941395357,0.49999998519883926,0.49999998519883926
static,5e-11,5e-11,1.3099999805294789,0.14999999781482581,-0.4999999924994194,-0.4999999924994194,-1.2999999805784905,1.3099999805294789,-0.1499999977148258,0.4999999925994194,0.4999999925994194,1.2999999806784905,5e-11,0.1999999970697678,5e-11,0.14999999781482581,-0.1499999977148258,-0.19999999696976778,5e-11,-0.19999999696976778,5e-11,0.14999999781482581,-0.1499999977148258,0.1999999970697678,0.4999999925994194,0.4999999925994194
naive,-0.009335364833110123,-0.011946305444673788,1.3083197987245931,0.14922289596234198,-0.5119516636771864,-0.49827141988012014,-1.3129913518475889,1.2996352657697534,-0.14768668306741872,0.4919522216547859,0.5023081678133059,1.295118056513431,5e-11,0.1999999970697678,5e-11,0.14999999781482581,-0.1499999977148258,-0.19999999696976778,5e-11,-0.19999999696976778,5e-11,0.14999999781482581,-0.1499999977148258,0.1999999970697678,0.4897392034993053,0.49715440966899893
lively,9.999999701976783e-11,9.999999701976783e-11,1.309999961058959,0.14999999562965177,-0.4999999849988393,-0.4999999849988393,-1.2999999611569824,1.309999961058959,-0.14999999542965176,0.49999998519883926,0.49999998519883926,1.2999999613569824,9.999999701976783e-11,0.1999999941395357,9.999999701976783e-11,0.14999999562965177,-0.14999999542965176,-0.1999999939395357,9.999999701976783e-11,-0.1999999939395357,9.999999701976783e-11,0.14999999562965177,-0.14999999542965176,0.1999999941395357,0.49999998519883926,0.49999998519883926
static,5e-11,5e-11,1.3099999805294789,0.14999999781482581,-0.4999999924994194,-0.4999999924994194,-1.2999999805784905,1.3099999805294789,-0.1499999977148258,0.4999999925994194,0.4999999925994194,1.2999999806784905,5e-11,0.1999999970697678,5e-11,0.14999999781482581,-0.1499999977148258,-0.19999999696976778,5e-11,-0.19999999696976778,5e-11,0.14999999781482581,-0.1499999977148258,0.1999999970697678,0.4999999925994194,0.4999999925994194
naive,-0.009287606331989861,-0.011790817949172052,1.3083559344672095,0.14926051413081481,-0.5119168351696266,-0.49828452175714155,-1.312712972778635,1.2997708304026705,-0.14762750161037336,0.4913741370976216,0.5023447931331689,1.295126445628804,5e-11,0.1999999970697678,5e-11,0.14999999781482581,-0.1499999977148258,-0.19999999696976778,5e-11,-0.19999999696976778,5e-11,0.14999999781482581,-0.1499999977148258,0.1999999970697678,0.48946665367387665,0.49680838161755364
lively,9.999999701976783e-11,9.999999701976783e-11,1.309999961058959,0.14999999562965177,-0.4999999849988393,-0.4999999849988393,-1.2999999611569824,1.309999961058959,-0.14999999542965176,0.49999998519883926,0.49999998519883926,1.2999999613569824,9.999999701976783e-11,0.1999999941395357,9.999999701976783e-11,0.14999999562965177,-0.14999999542965176,-0.1999999939395357,9.999999701976783e-11,-0.1999999939395357,9.999999701976783e-11,0.14999999562965177,-0.14999999542965176,0.1999999941395357,0.49999998519883926,0.49999998519883926
static,5e-11,5e-11,1.3099999805294789,0.14999999781482581,-0.4999999924994194,-0.4999999924994194,-1.2999999805784905,1.3099999805294789,-0.1499999977148258,0.4999999925994194,0.4999999925994194,1.2999999806784905,5e-11,0.1999999970697678,5e-11,0.14999999781482581,-0.1499999977148258,-0.19999999696976778,5e-11,-0.19999999696976778,5e-11,0.14999999781482581,-0.1499999977148258,0.1999999970697678,0.4999999925994194,0.4999999925994194
naive,-0.009236303933928991,-0.011630815070114608,1.3083935081402096,0.1492973017643943,-0.5118769683333585,-0.49829783555784096,-1.3124286909935523,1.2999100339881287,-0.1475707548410564,0.49079956480731507,0.5023797235512126,1.2951379540731223,5e-11,0.1999999970697678,5e-11,0.14999999781482581,-0.1499999977148258,-0.19999999696976778,5e-11,-0.19999999696976778,5e-11,0.14999999781482581,-0.1499999977148258,0.1999999970697678,0.489204922472686,0.4964614611048666
lively,9.999999701976783e-11,9.999999701976783e-11,1.309999961058959,0.14999999562965177,-0.4999999849988393,-0.4999999849988393,-1.2999999611569824,1.309999961058959,-0.14999999542965176,0.49999998519883926,0.49999998519883926,1.2999999613569824,9.999999701976783e-11,0.1999999941395357,9.999999701976783e-11,0.14999999562965177,-0.14999999542965176,-0.1999999939395357,9.999999701976783e-11,-0.1999999939395357,9.999999701976783e-11,0.14999999562965177,-0.14999999542965176,0.1999999941395357,0.49999998519883926,0.49999998519883926
static,5e-11,5e-11,1.3099999805294789,0.14999999781482581,-0.4999999924994194,-0.4999999924994194,-1.2999999805784905,1.3099999805294789,-0.1499999977148258,0.4999999925994194,0.4999999925994194,1.2999999806784905,5e-11,0.1999999970697678,5e-11,0.14999999781482581,-0.1499999977148258,-0.19999999696976778,5e-11,-0.19999999696976778,5e-11,0.14999999781482581,-0.1499999977148258,0.1999999970697678,0.4999999925994194,0.4999999925994194
naive,-0.009183905058983062,-0.011473681047828444,1.308430776353252,0.14933166098987333,-0.5118339944198169,-0.4983107533712231,-1.312151499615732,1.3000464705284132,-0.14751889042363228,0.4902543849007373,0.5024114500001363,1.2951518195121794,5e-11,0.1999999970697678,5e-11,0.14999999781482581,-0.1499999977148258,-0.19999999696976778,5e-11,-0.19999999696976778,5e-11,0.14999999781482581,-0.1499999977148258,0.1999999970697678,0.48896534552967286,0.4961291835372521
lively,9.999999701976783e-11,9.999999701976783e-11,1.309999961058959,0.14999999562965177,-0.4999999849988393,-0.4999999849988393,-1.2999999611569824,1.309999961058959,-0.14999999542965176,0.49999998519883926,0.49999998519883926,1.2999999613569824,9.999999701976783e-11,0.1999999941395357,9.999999701976783e-11,0.14999999562965177,-0.14999999542965176,-0.1999999939395357,9.999999701976783e-11,-0.1999999939395357,9.999999701976783e-11,0.14999999562965177,-0.14999999542965176,0.1999999941395357,0.49999998519883926,0.49999998519883926
static,5e-11,5e-11,1.3099999805294789,0.14999999781482581,-0.4999999924994194,-0.4999999924994194,-1.2999999805784905,1.3099999805294789,-0.1499999977148258,0.4999999925994194,0.4999999925994194,1.2999999806784905,5e-11,0.1999999970697678,5e-11,0.14999999781482581,-0.1499999977148258,-0.19999999696976778,5e-11,-0.19999999696976778,5e-11,0.14999999781482581,-0.1499999977148258,0.1999999970697678,0.4999999925994194,0.4999999925994194
naive,-0.009127581728208602,-0.01131079181077223,1.308469780534673,0.1493655489744434,-0.5117855887709661,-0.4983239881310678,-1.3118660905639612,1.300187642272145,-0.1474689522893566,0.48970830712379076,0.5024417765060911,1.2951686165240828,5e-11,0.1999999970697678,5e-11,0.14999999781482581,-0.1499999977148258,-0.19999999696976778,5e-11,-0.19999999696976778,5e-11,0.14999999781482581,-0.1499999977148258,0.1999999970697678,0.48873429649176164,0.49579294994298223
lively,9.999999701976783e-11,9.999999701976783e-11,1.309999961058959,0.14999999562965177,-0.4999999849988393,-0.4999999849988393,-1.2999999611569824,1.309999961058959,-0.14999999542965176,0.49999998519883926,0.49999998519883926,1.2999999613569824,9.999999701976783e-11,0.1999999941395357,9.999999701976783e-11,0.14999999562965177,-0.14999999542965176,-0.1999999939395357,9.999999701976783e-11,-0.1999999939395357,9.999999701976783e-11,0.14999999562965177,-0.14999999542965176,0.1999999941395357,0.49999998519883926,0.49999998519883926
static,5e-11,5e-11,1.3099999805294789,0.14999999781482581,-0.4999999924994194,-0.4999999924994194,-1.2999999805784905,1.3099999805294789,-0.1499999977148258,0.4999999925994194,0.4999999925994194,1.2999999806784905,5e-11,0.1999999970697678,5e-11,0.14999999781482581,-0.1499999977148258,-0.19999999696976778,5e-11,-0.19999999696976778,5e-11,0.14999999781482581,-0.1499999977148258,0.1999999970697678,0.4999999925994194,0.4999999925994194
naive,-0.009068854669782758,-0.011146649365461147,1.3085094538729944,0.14939802723141538,-0.5117329636714119,-0.4983371715263377,-1.3115803428283546,1.3003296497630386,-0.14742237025105956,0.4891768523939323,0.5024698199634186,1.295187802167482,5e-11,0.1999999970697678,5e-11,0.14999999781482581,-0.1499999977148258,-0.19999999696976778,5e-11,-0.19999999696976778,5e-11,0.14999999781482581,-0.1499999977148258,0.1999999970697678,0.48851840611271835,0.49546203581189174
lively,9.999999701976783e-11,9.999999701976783e-11,1.309999961058959,0.14999999562965177,-0.4999999849988393,-0.4999999849988393,-1.2999999611569824,1.309999961058959,-0.14999999542965176,0.49999998519883926,0.49999998519883926,1.2999999613569824,9.999999701976783e-11,0.1999999941395357,9.999999701976783e-11,0.14999999562965177,-0.14999999542965176,-0.1999999939395357,9.999999701976783e-11,-0.1999999939395357,9.999999701976783e-11,0.14999999562965177,-0.14999999542965176,0.1999999941395357,0.49999998519883926,0.49999998519883926
static,5e-11,5e-11,1.3099999805294789,0.14999999781482581,-0.4999999924994194,-0.4999999924994194,-1.2999999805784905,1.3099999805294789,-0.1499999977148258,0.4999999925994194,0.4999999925994194,1.2999999806784905,5e-11,0.1999999970697678,5e-11,0.14999999781482581,-0.1499999977148258,-0.19999999696976778,5e-11,-0.19999999696976778,5e-11,0.14999999781482581,-0.1499999977148258,0.1999999970697678,0.4999999925994194,0.4999999925994194
naive,-0.009006747183929069,-0.010978547098471616,1.308550456220694,0.14942965526256288,-0.5116751812685939,-0.49835052057863544,-1.3112895053315763,1.3004748411381466,-0.1473783705015907,0.4886513840840956,0.5024960352124878,1.2952095784922177,5e-11,0.1999999970697678,5e-11,0.14999999781482581,-0.1499999977148258,-0.19999999696976778,5e-11,-0.19999999696976778,5e-11,0.14999999781482581,-0.1499999977148258,0.1999999970697678,0.4883140983380118,0.49513082452320634
lively,9.999999701976783e-11,9.999999701976783e-11,1.309999961058959,0.14999999562965177,-0.4999999849988393,-0.4999999849988393,-1.2999999611569824,1.309999961058959,-0.14999999542965176,0.49999998519883926,0.49999998519883926,1.2999999613569824,9.999999701976783e-11,0.1999999941395357,9.999999701976783e-11,0.14999999562965177,-0.14999999542965176,-0.1999999939395357,9.999999701976783e-11,-0.1999999939395357,9.999999701976783e-11,0.14999999562965177,-0.14999999542965176,0.1999999941395357,0.49999998519883926,0.49999998519883926
static,5e-11,5e-11,1.3099999805294789,0.14999999781482581,-0.4999999924994194,-0.4999999924994194,-1.2999999805784905,1.3099999805294789,-0.1499999977148258,0.4999999925994194,0.4999999925994194,1.2999999806784905,5e-11,0.1999999970697678,5e-11,0.14999999781482581,-0.1499999977148258,-0.19999999696976778,5e-11,-0.19999999696976778,5e-11,0.14999999781482581,-0.1499999977148258,0.1999999970697678,0.4999999925994194,0.4999999925994194
naive,-0.008941911364839013,-0.010808324790896561,1.3085923480684987,0.1494600948578161,-0.5116127647162222,-0.4983638873514338,-1.3109967423752187,1.30062163094682,-0.14733746396267555,0.48813796894579403,0.5025201023072736,1.2952336144883076,5e-11,0.1999999970697678,5e-11,0.14999999781482581,-0.1499999977148258,-0.19999999696976778,5e-11,-0.19999999696976778,5e-11,0.14999999781482581,-0.1499999977148258,0.1999999970697678,0.4881237566535775,0.49480285559667025
lively,9.999999701976783e-11,9.999999701976783e-11,1.309999961058959,0.14999999562965177,-0.4999999849988393,-0.4999999849988393,-1.2999999611569824,1.309999961058959,-0.14999999542965176,0.49999998519883926,0.49999998519883926,1.2999999613569824,9.999999701976783e-11,0.1999999941395357,9.999999701976783e-11,0.14999999562965177,-0.14999999542965176,-0.1999999939395357,9.999999701976783e-11,-0.1999999939395357,9.999999701976783e-11,0.14999999562965177,-0.14999999542965176,0.1999999941395357,0.49999998519883926,0.49999998519883926
static,5e-11,5e-11,1.3099999805294789,0.14999999781482581,-0.4999999924994194,-0.4999999924994194,-1.2999999805784905,1.3099999805294789,-0.1499999977148258,0.4999999925994194,0.4999999925994194,1.2999999806784905,5e-11,0.1999999970697678,5e-11,0.14999999781482581,-0.1499999977148258,-0.19999999696976778,5e-11,-0.19999999696976778,5e-11,0.14999999781482581,-0.1499999977148258,0.1999999970697678,0.4999999925994194,0.4999999925994194
naive,-0.008872448795641426,-0.010631211724259551,1.3086363228495148,0.1494901662741652,-0.5115437465808033,-0.49837764048360633,-1.3106938743171845,1.3007741309453484,-0.1472986321884752,0.4876230239657916,0.5025425956800009,1.2952605397268528,5e-11,0.1999999970697678,5e-11,0.14999999781482581,-0.1499999977148258,-0.19999999696976778,5e-11,-0.19999999696976778,5e-11,0.14999999781482581,-0.1499999977148258,0.1999999970697678,0.4879426289683113,0.4944690205816568
lively,9.999999701976783e-11,9.999999701976783e-11,1.309999961058959,0.14999999562965177,-0.4999999849988393,-0.4999999849988393,-1.2999999611569824,1.309999961058959,-0.14999999542965176,0.49999998519883926,0.49999998519883926,1.2999999613569824,9.999999701976783e-11,0.1999999941395357,9.999999701976783e-11,0.14999999562965177,-0.14999999542965176,-0.1999999939395357,9.999999701976783e-11,-0.1999999939395357,9.999999701976783e-11,0.14999999562965177,-0.14999999542965176,0.1999999941395357,0.49999998519883926,0.49999998519883926
static,5e-11,5e-11,1.3099999805294789,0.14999999781482581,-0.4999999924994194,-0.4999999924994194,-1.2999999805784905,1.3099999805294789,-0.1499999977148258,0.4999999925994194,0.4999999925994194,1.2999999806784905,5e-11,0.1999999970697678,5e-11,0.14999999781482581,-0.1499999977148258,-0.19999999696976778,5e-11,-0.19999999696976778,5e-11,0.14999999781482581,-0.1499999977148258,0.1999999970697678,0.4999999925994194,0.4999999925994194
naive,-0.008802932180435841,-0.010458796132795099,1.308679501276414,0.1495179566607973,-0.5114726485097437,-0.4983908826089331,-1.3104006490208895,1.3009223735299504,-0.1472643385453242,0.48713998128309105,0.5025620828818507,1.2952884461523748,5e-11,0.1999999970697678,5e-11,0.14999999781482581,-0.1499999977148258,-0.19999999696976778,5e-11,-0.19999999696976778,5e-11,0.14999999781482581,-0.1499999977148258,0.1999999970697678,0.48778221743078776,0.4941508373312596
lively,9.999999701976783e-11,9.999999701976783e-11,1.309999961058959,0.14999999562965177,-0.4999999849988393,-0.4999999849988393,-1.2999999611569824,1.309999961058959,-0.14999999542965176,0.49999998519883926,0.49999998519883926,1.2999999613569824,9.999999701976783e-11,0.1999999941395357,9.999999701976783e-11,0.14999999562965177,-0.14999999542965176,-0.1999999939395357,9.999999701976783e-11,-0.1999999939395357,9.999999701976783e-11,0.14999999562965177,-0.14999999542965176,0.1999999941395357,0.49999998519883926,0.49999998519883926
static,5e-11,5e-11,1.3099999805294789,0.14999999781482581,-0.4999999924994194,-0.4999999924994194,-1.2999999805784905,1.3099999805294789,-0.1499999977148258,0.4999999925994194,0.4999999925994194,1.2999999806784905,5e-11,0.1999999970697678,5e-11,0.14999999781482581,-0.1499999977148258,-0.19999999696976778,5e-11,-0.19999999696976778,5e-11,0.14999999781482581,-0.1499999977148258,0.1999999970697678,0.4999999925994194,0.4999999925994194
naive,-0.008728638619346377,-0.010279313083696848,1.3087248287071778,0.1495454124415231,-0.5113946109902917,-0.4984045192928679,-1.3100969959489837,1.3010764836400734,-0.14723217638378303,0.48665567084956185,0.5025799243595908,1.295319097614871,5e-11,0.1999999970697678,5e-11,0.14999999781482581,-0.1499999977148258,-0.19999999696976778,5e-11,-0.19999999696976778,5e-11,0.14999999781482581,-0.1499999977148258,0.1999999970697678,0.48763127578316023,0.49382628675745494
lively,9.999999701976783e-11,9.999999701976783e-11,1.309999961058959,0.14999999562965177,-0.4999999849988393,-0.4999999849988393,-1.2999999611569824,1.309999961058959,-0.14999999542965176,0.49999998519883926,0.49999998519883926,1.2999999613569824,9.999999701976783e-11,0.1999999941395357,9.999999701976783e-11,0.14999999562965177,-0.14999999542965176,-0.1999999939395357,9.999999701976783e-11,-0.1999999939395357,9.999999701976783e-11,0.14999999562965177,-0.14999999542965176,0.1999999941395357,0.49999998519883926,0.49999998519883926
static,5e-11,5e-11,1.3099999805294789,0.14999999781482581,-0.4999999924994194,-0.4999999924994194,-1.2999999805784905,1.3099999805294789,-0.1499999977148258,0.4999999925994194,0.4999999925994194,1.2999999806784905,5e-11,0.1999999970697678,5e-11,0.14999999781482581,-0.1499999977148258,-0.19999999696976778,5e-11,-0.19999999696976778,5e-11,0.14999999781482581,-0.1499999977148258,0.1999999970697678,0.4999999925994194,0.4999999925994194
naive,-0.008655947010050223,-0.010108011887897716,1.3087684433924134,0.1495702834541633,-0.5113163591068474,-0.4984173973394178,-1.3098086192428122,1.301223381422172,-0.14720472988633768,0.4862105726310994,0.5025946935384074,1.2953497256677522,5e-11,0.1999999970697678,5e-11,0.14999999781482581,-0.1499999977148258,-0.19999999696976778,5e-11,-0.19999999696976778,5e-11,0.14999999781482581,-0.1499999977148258,0.1999999970697678,0.48750194748231773,0.4935224867307912
lively,9.999999701976783e-11,9.999999701976783e-11,1.309999961058959,0.14999999562965177,-0.4999999849988393,-0.4999999849988393,-1.2999999611569824,1.309999961058959,-0.14999999542965176,0.49999998519883926,0.49999998519883926,1.2999999613569824,9.999999701976783e-11,0.1999999941395357,9.999999701976783e-11,0.14999999562965177,-0.14999999542965176,-0.1999999939395357,9.999999701976783e-11,-0.1999999939395357,9.999999701976783e-11,0.14999999562965177,-0.14999999542965176,0.1999999941395357,0.49999998519883926,0.49999998519883926
static,5e-11,5e-11,1.3099999805294789,0.14999999781482581,-0.4999999924994194,-0.4999999924994194,-1.2999999805784905,1.3099999805294789,-0.1499999977148258,0.4999999925994194,0.4999999925994194,1.2999999806784905,5e-11,0.1999999970697678,5e-11,0.14999999781482581,-0.1499999977148258,-0.19999999696976778,5e-11,-0.19999999696976778,5e-11,0.14999999781482581,-0.1499999977148258,0.1999999970697678,0.4999999925994194,0.4999999925994194
naive,-0.008574638611788041,-0.009920980950028416,1.308816450171044,0.1495960231463893,-0.5112267695573703,-0.4984313092946824,-1.309495278980372,1.301383571495057,-0.14717826831402145,0.4857432048387305,0.5026083663597566,1.295384541848664,5e-11,0.1999999970697678,5e-11,0.14999999781482581,-0.1499999977148258,-0.19999999696976778,5e-11,-0.19999999696976778,5e-11,0.14999999781482581,-0.1499999977148258,0.1999999970697678,0.4873766266282323,0.49319701766642865
lively,9.999999701976783e-11,9.999999701976783e-11,1.309999961058959,0.14999999562965177,-0.4999999849988393,-0.4999999849988393,-1.2999999611569824,1.309999961058959,-0.14999999542965176,0.49999998519883926,0.49999998519883926,1.2999999613569824,9.999999701976783e-11,0.1999999941395357,9.999999701976783e-11,0.14999999562965177,-0.14999999542965176,-0.1999999939395357,9.999999701976783e-11,-0.1999999939395357,9.999999701976783e-11,0.14999999562965177,-0.14999999542965176,0.1999999941395357,0.49999998519883926,0.49999998519883926
static,5e-11,5e-11,1.3099999805294789,0.14999999781482581,-0.4999999924994194,-0.4999999924994194,-1.2999999805784905,1.3099999805294789,-0.1499999977148258,0.4999999925994194,0.4999999925994194,1.2999999806784905,5e-11,0.1999999970697678,5e-11,0.14999999781482581,-0.1499999977148258,-0.19999999696976778,5e-11,-0.19999999696976778,5e-11,0.14999999781482581,-0.1499999977148258,0.1999999970697678,0.4999999925994194,0.4999999925994194
naive,-0.008494032096331077,-0.00973991129822831,1.3088633056995653,0.14961960035970814,-0.5111359499225434,-0.49844463356289687,-1.3091933603079444,1.3015384712303135,-0.14715603044456835,0.4853087758842822,0.5026192225656263,1.295419473643581,5e-11,0.1999999970697678,5e-11,0.14999999781482581,-0.1499999977148258,-0.19999999696976778,5e-11,-0.19999999696976778,5e-11,0.14999999781482581,-0.1499999977148258,0.1999999970697678,0.48727060413707385,0.4928877312542364
lively,9.999999701976783e-11,9.999999701976783e-11,1.309999961058959,0.14999999562965177,-0.4999999849988393,-0.4999999849988393,-1.2999999611569824,1.309999961058959,-0.14999999542965176,0.49999998519883926,0.49999998519883926,1.2999999613569824,9.999999701976783e-11,0.1999999941395357,9.999999701976783e-11,0.14999999562965177,-0.14999999542965176,-0.1999999939395357,9.999999701976783e-11,-0.1999999939395357,9.999999701976783e-11,0.14999999562965177,-0.14999999542965176,0.1999999941395357,0.49999998519883926,0.49999998519883926
static,5e-11,5e-11,1.3099999805294789,0.14999999781482581,-0.4999999924994194,-0.4999999924994194,-1.2999999805784905,1.3099999805294789,-0.1499999977148258,0.4999999925994194,0.4999999925994194,1.2999999806784905,5e-11,0.1999999970697678,5e-11,0.14999999781482581,-0.1499999977148258,-0.19999999696976778,5e-11,-0.19999999696976778,5e-11,0.14999999781482581,-0.1499999977148258,0.1999999970697678,0.4999999925994194,0.4999999925994194
naive,-0.008410618226920985,-0.009556704242604666,1.3089110882496773,0.14964217323889806,-0.5110400024295111,-0.4984579738437365,-1.3088892458629104,1.3016950248497736,-0.1471368181459485,0.48488686394042113,0.5026278749076192,1.2954559102760896,5e-11,0.1999999970697678,5e-11,0.14999999781482581,-0.1499999977148258,-0.19999999696976778,5e-11,-0.19999999696976778,5e-11,0.14999999781482581,-0.1499999977148258,0.1999999970697678,0.4871782003950353,0.49258024518540694
lively,9.999999701976783e-11,9.999999701976783e-11,1.309999961058959,0.14999999562965177,-0.4999999849988393,-0.4999999849988393,-1.2999999611569824,1.309999961058959,-0.14999999542965176,0.49999998519883926,0.49999998519883926,1.2999999613569824,9.999999701976783e-11,0.1999999941395357,9.999999701976783e-11,0.14999999562965177,-0.14999999542965176,-0.1999999939395357,9.999999701976783e-11,-0.1999999939395357,9.999999701976783e-11,0.14999999562965177,-0.14999999542965176,0.1999999941395357,0.49999998519883926,0.49999998519883926
static,5e-11,5e-11,1.3099999805294789,0.14999999781482581,-0.4999999924994194,-0.4999999924994194,-1.2999999805784905,1.3099999805294789,-0.1499999977148258,0.4999999925994194,0.4999999925994194,1.2999999806784905,5e-11,0.1999999970697678,5e-11,0.14999999781482581,-0.1499999977148258,-0.19999999696976778,5e-11,-0.19999999696976778,5e-11,0.14999999781482581,-0.1499999977148258,0.1999999970697678,0.4999999925994194,0.4999999925994194
naive,-0.008321665350326697,-0.009365628103776405,1.3089613188310323,0.14966440175801082,-0.5109356156374785,-0.4984717386017671,-1.3085734698461193,1.3018581256863846,-0.14712021141706733,0.484465330618276,0.5026344482263408,1.2954949489619307,5e-11,0.1999999970697678,5e-11,0.14999999781482581,-0.1499999977148258,-0.19999999696976778,5e-11,-0.19999999696976778,5e-11,0.14999999781482581,-0.1499999977148258,0.1999999970697678,0.48709732224044594,0.4922650268795435
lively,9.999999701976783e-11,9.999999701976783e-11,1.309999961058959,0.14999999562965177,-0.4999999849988393,-0.4999999849988393,-1.2999999611569824,1.309999961058959,-0.14999999542965176,0.49999998519883926,0.49999998519883926,1.2999999613569824,9.999999701976783e-11,0.1999999941395357,9.999999701976783e-11,0.14999999562965177,-0.14999999542965176,-0.1999999939395357,9.999999701976783e-11,-0.1999999939395357,9.999999701976783e-11,0.14999999562965177,-0.14999999542965176,0.1999999941395357,0.49999998519883926,0.49999998519883926
static,5e-11,5e-11,1.3099999805294789,0.14999999781482581,-0.4999999924994194,-0.4999999924994194,-1.2999999805784905,1.3099999805294789,-0.1499999977148258,0.4999999925994194,0.4999999925994194,1.2999999806784905,5e-11,0.1999999970697678,5e-11,0.14999999781482581,-0.1499999977148258,-0.19999999696976778,5e-11,-0.19999999696976778,5e-11,0.14999999781482581,-0.1499999977148258,0.1999999970697678,0.4999999925994194,0.4999999925994194
naive,-0.008235819767341463,-0.009185111837239199,1.3090091405543045,0.14968422178716217,-0.5108329654087576,-0.49848460572377734,-1.308276402527572,1.3020120554406798,-0.14710766346639104,0.4840840984332738,0.502638398583656,1.295532686820071,5e-11,0.1999999970697678,5e-11,0.14999999781482581,-0.1499999977148258,-0.19999999696976778,5e-11,-0.19999999696976778,5e-11,0.14999999781482581,-0.1499999977148258,0.1999999970697678,0.4870350744336927,0.49197204176936776
lively,9.999999701976783e-11,9.999999701976783e-11,1.309999961058959,0.14999999562965177,-0.4999999849988393,-0.4999999849988393,-1.2999999611569824,1.309999961058959,-0.14999999542965176,0.49999998519883926,0.49999998519883926,1.2999999613569824,9.999999701976783e-11,0.1999999941395357,9.999999701976783e-11,0.14999999562965177,-0.14999999542965176,-0.1999999939395357,9.999999701976783e-11,-0.1999999939395357,9.999999701976783e-11,0.14999999562965177,-0.14999999542965176,0.1999999941395357,0.49999998519883926,0.49999998519883926
static,5e-11,5e-11,1.3099999805294789,0.14999999781482581,-0.4999999924994194,-0.4999999924994194,-1.2999999805784905,1.3099999805294789,-0.1499999977148258,0.4999999925994194,0.4999999925994194,1.2999999806784905,5e-11,0.1999999970697678,5e-11,0.14999999781482581,-0.1499999977148258,-0.19999999696976778,5e-11,-0.19999999696976778,5e-11,0.14999999781482581,-0.1499999977148258,0.1999999970697678,0.4999999925994194,0.4999999925994194
naive,-0.008144546160328192,-0.008997066180456289,1.3090593328557323,0.14970369994574695,-0.5107218779735878,-0.4984978701467135,-1.3079681913173635,1.302172251116757,-0.14709776454981105,0.48370421999917296,0.5026402134306679,1.2955727714651786,5e-11,0.1999999970697678,5e-11,0.14999999781482581,-0.1499999977148258,-0.19999999696976778,5e-11,-0.19999999696976778,5e-11,0.14999999781482581,-0.1499999977148258,0.1999999970697678,0.48698451148087296,0.49167150104910884
lively,9.999999701976783e-11,9.999999701976783e-11,1.309999961058959,0.14999999562965177,-0.4999999849988393,-0.4999999849988393,-1.2999999611569824,1.309999961058959,-0.14999999542965176,0.49999998519883926,0.49999998519883926,1.2999999613569824,9.999999701976783e-11,0.1999999941395357,9.999999701976783e-11,0.14999999562965177,-0.14999999542965176,-0.1999999939395357,9.999999701976783e-11,-0.1999999939395357,9.999999701976783e-11,0.14999999562965177,-0.14999999542965176,0.1999999941395357,0.49999998519883926,0.49999998519883926
static,5e-11,5e-11,1.3099999805294789,0.14999999781482581,-0.4999999924994194,-0.4999999924994194,-1.2999999805784905,1.3099999805294789,-0.1499999977148258,0.4999999925994194,0.4999999925994194,1.2999999806784905,5e-11,0.1999999970697678,5e-11,0.14999999781482581,-0.1499999977148258,-0.19999999696976778,5e-11,-0.19999999696976778,5e-11,0.14999999781482581,-0.1499999977148258,0.1999999970697678,0.4999999925994194,0.4999999925994194
naive,-0.008051225183600047,-0.008808662684443386,1.3091100025118994,0.14972206720548145,-0.5106063293141052,-0.4985110188663795,-1.3076606223930967,1.3023326014861947,-0.14709102908407323,0.4833409774640238,0.5026397071870761,1.2956136158803164,5e-11,0.1999999970697678,5e-11,0.14999999781482581,-0.1499999977148258,-0.19999999696976778,5e-11,-0.19999999696976778,5e-11,0.14999999781482581,-0.1499999977148258,0.1999999970697678,0.486948145438138,0.49137486240557327
lively,9.999999701976783e-11,9.999999701976783e-11,1.309999961058959,0.14999999562965177,-0.4999999849988393,-0.4999999849988393,-1.2999999611569824,1.309999961058959,-0.14999999542965176,0.49999998519883926,0.49999998519883926,1.2999999613569824,9.999999701976783e-11,0.1999999941395357,9.999999701976783e-11,0.14999999562965177,-0.14999999542965176,-0.1999999939395357,9.999999701976783e-11,-0.1999999939395357,9.999999701976783e-11,0.14999999562965177,-0.14999999542965176,0.1999999941395357,0.49999998519883926,0.49999998519883926
static,5e-11,5e-11,1.3099999805294789,0.14999999781482581,-0.4999999924994194,-0.4999999924994194,-1.2999999805784905,1.3099999805294789,-0.1499999977148258,0.4999999925994194,0.4999999925994194,1.2999999806784905,5e-11,0.1999999970697678,5e-11,0.14999999781482581,-0.1499999977148258,-0.19999999696976778,5e-11,-0.19999999696976778,5e-11,0.14999999781482581,-0.1499999977148258,0.1999999970697678,0.4999999925994194,0.4999999925994194
naive,-0.00795787879390096,-0.00862385863115906,1.309160073255212,0.14973901116384808,-0.5104888516357867,-0.498523780744051,-1.3073600809957202,1.3024897494787144,-0.14708746062067599,0.4830012955972567,0.502636973937783,1.2956542465067566,5e-11,0.1999999970697678,5e-11,0.14999999781482581,-0.1499999977148258,-0.19999999696976778,5e-11,-0.19999999696976778,5e-11,0.14999999781482581,-0.1499999977148258,0.1999999970697678,0.4869260892631755,0.49108796858450243
lively,9.999999701976783e-11,9.999999701976783e-11,1.309999961058959,0.14999999562965177,-0.4999999849988393,-0.4999999849988393,-1.2999999611569824,1.309999961058959,-0.14999999542965176,0.49999998519883926,0.49999998519883926,1.2999999613569824,9.999999701976783e-11,0.1999999941395357,9.999999701976783e-11,0.14999999562965177,-0.14999999542965176,-0.1999999939395357,9.999999701976783e-11,-0.1999999939395357,9.999999701976783e-11,0.14999999562965177,-0.14999999542965176,0.1999999941395357,0.49999998519883926,0.49999998519883926
static,5e-11,5e-11,1.3099999805294789,0.14999999781482581,-0.4999999924994194,-0.4999999924994194,-1.2999999805784905,1.3099999805294789,-0.1499999977148258,0.4999999925994194,0.4999999925994194,1.2999999806784905,5e-11,0.1999999970697678,5e-11,0.14999999781482581,-0.1499999977148258,-0.19999999696976778,5e-11,-0.19999999696976778,5e-11,0.14999999781482581,-0.1499999977148258,0.1999999970697678,0.4999999925994194,0.4999999925994194
naive,-0.007859222494876606,-0.008432269007853405,1.3092123667075428,0.14975549944053382,-0.510362723798355,-0.49853687051826456,-1.307049667879828,1.302652529311897,-0.1470868855198617,0.4826662761402115,0.5026318218667538,1.295696863771139,5e-11,0.1999999970697678,5e-11,0.14999999781482581,-0.1499999977148258,-0.19999999696976778,5e-11,-0.19999999696976778,5e-11,0.14999999781482581,-0.1499999977148258,0.1999999970697678,0.48691718936551154,0.49079453506197335
lively,9.999999701976783e-11,9.999999701976783e-11,1.309999961058959,0.14999999562965177,-0.4999999849988393,-0.4999999849988393,-1.2999999611569824,1.309999961058959,-0.14999999542965176,0.49999998519883926,0.49999998519883926,1.2999999613569824,9.999999701976783e-11,0.1999999941395357,9.999999701976783e-11,0.14999999562965177,-0.14999999542965176,-0.1999999939395357,9.999999701976783e-11,-0.1999999939395357,9.999999701976783e-11,0.14999999562965177,-0.14999999542965176,0.1999999941395357,0.49999998519883926,0.49999998519883926
static,5e-11,5e-11,1.3099999805294789,0.14999999781482581,-0.4999999924994194,-0.4999999924994194,-1.2999999805784905,1.3099999805294789,-0.1499999977148258,0.4999999925994194,0.4999999925994194,1.2999999806784905,5e-11,0.1999999970697678,5e-11,0.14999999781482581,-0.1499999977148258,-0.19999999696976778,5e-11,-0.19999999696976778,5e-11,0.14999999781482581,-0.1499999977148258,0.1999999970697678,0.4999999925994194,0.4999999925994194
naive,-0.007757351684575848,-0.008238217920110239,1.3092657295184065,0.14977112405130835,-0.5102304565239748,-0.4985499834051053,-1.3067364363487401,1.3028172636724473,-0.14708949660404583,0.4823445090250209,0.5026242139630759,1.2957404457884276,5e-11,0.1999999970697678,5e-11,0.14999999781482581,-0.1499999977148258,-0.19999999696976778,5e-11,-0.19999999696976778,5e-11,0.14999999781482581,-0.1499999977148258,0.1999999970697678,0.48692241437720835,0.4905012139751368
lively,9.999999701976783e-11,9.999999701976783e-11,1.309999961058959,0.14999999562965177,-0.4999999849988393,-0.4999999849988393,-1.2999999611569824,1.309999961058959,-0.14999999542965176,0.49999998519883926,0.49999998519883926,1.2999999613569824,9.999999701976783e-11,0.1999999941395357,9.999999701976783e-11,0.14999999562965177,-0.14999999542965176,-0.1999999939395357,9.999999701976783e-11,-0.1999999939395357,9.999999701976783e-11,0.14999999562965177,-0.14999999542965176,0.1999999941395357,0.49999998519883926,0.49999998519883926
static,5e-11,5e-11,1.3099999805294789,0.14999999781482581,-0.4999999924994194,-0.4999999924994194,-1.2999999805784905,1.3099999805294789,-0.1499999977148258,0.4999999925994194,0.4999999925994194,1.2999999806784905,5e-11,0.1999999970697678,5e-11,0.14999999781482581,-0.1499999977148258,-0.19999999696976778,5e-11,-0.19999999696976778,5e-11,0.14999999781482581,-0.1499999977148258,0.1999999970697678,0.4999999925994194,0.4999999925994194
naive,-0.007658778849764643,-0.008053902013695612,1.3093167850347596,0.14978500050353238,-0.5101005897329773,-0.49856230385274664,-1.3064399765215602,1.3029736121251065,-0.14709491366762298,0.4820550567252543,0.5026147718361422,1.295782145080638,5e-11,0.1999999970697678,5e-11,0.14999999781482581,-0.1499999977148258,-0.19999999696976778,5e-11,-0.19999999696976778,5e-11,0.14999999781482581,-0.1499999977148258,0.1999999970697678,0.4869404346470999,0.4902259948793094
lively,9.999999701976783e-11,9.999999701976783e-11,1.309999961058959,0.14999999562965177,-0.4999999849988393,-0.4999999849988393,-1.2999999611569824,1.309999961058959,-0.14999999542965176,0.49999998519883926,0.49999998519883926,1.2999999613569824,9.999999701976783e-11,0.1999999941395357,9.999999701976783e-11,0.14999999562965177,-0.14999999542965176,-0.1999999939395357,9.999999701976783e-11,-0.1999999939395357,9.999999701976783e-11,0.14999999562965177,-0.14999999542965176,0.1999999941395357,0.49999998519883926,0.49999998519883926
static,5e-11,5e-11,1.3099999805294789,0.14999999781482581,-0.4999999924994194,-0.4999999924994194,-1.2999999805784905,1.3099999805294789,-0.1499999977148258,0.4999999925994194,0.4999999925994194,1.2999999806784905,5e-11,0.1999999970697678,5e-11,0.14999999781482581,-0.1499999977148258,-0.19999999696976778,5e-11,-0.19999999696976778,5e-11,0.14999999781482581,-0.1499999977148258,0.1999999970697678,0.4999999925994194,0.4999999925994194
naive,-0.007554953273707802,-0.007863242694824501,1.3093699766232296,0.1497984030608278,-0.5099618813104724,-0.49857491064524606,-1.3061343689536737,1.3031352228711943,-0.14710349374544066,0.4817720477345819,0.5026027404786544,1.2958255077480423,5e-11,0.1999999970697678,5e-11,0.14999999781482581,-0.1499999977148258,-0.19999999696976778,5e-11,-0.19999999696976778,5e-11,0.14999999781482581,-0.1499999977148258,0.1999999970697678,0.4869722659909951,0.48994455164798045
lively,9.999999701976783e-11,9.999999701976783e-11,1.309999961058959,0.14999999562965177,-0.4999999849988393,-0.4999999849988393,-1.2999999611569824,1.309999961058959,-0.14999999542965176,0.49999998519883926,0.49999998519883926,1.2999999613569824,9.999999701976783e-11,0.1999999941395357,9.999999701976783e-11,0.14999999562965177,-0.14999999542965176,-0.1999999939395357,9.999999701976783e-11,-0.1999999939395357,9.999999701976783e-11,0.14999999562965177,-0.14999999542965176,0.1999999941395357,0.49999998519883926,0.49999998519883926
static,5e-11,5e-11,1.3099999805294789,0.14999999781482581,-0.4999999924994194,-0.4999999924994194,-1.2999999805784905,1.3099999805294789,-0.1499999977148258,0.4999999925994194,0.4999999925994194,1.2999999806784905,5e-11,0.1999999970697678,5e-11,0.14999999781482581,-0.1499999977148258,-0.19999999696976778,5e-11,-0.19999999696976778,5e-11,0.14999999781482581,-0.1499999977148258,0.1999999970697678,0.4999999925994194,0.4999999925994194
naive,-0.007450585684628518,-0.0076750045848190404,1.309422871094079,0.1498107213910495,-0.5098205368973479,-0.498587220195273,-1.3058336686331657,1.3032946682495734,-0.14711490423692025,0.4815088541926687,0.5025886066086217,1.2958684692065585,5e-11,0.1999999970697678,5e-11,0.14999999781482581,-0.1499999977148258,-0.19999999696976778,5e-11,-0.19999999696976778,5e-11,0.14999999781482581,-0.1499999977148258,0.1999999970697678,0.48701668092258443,0.48966971884526844
lively,9.999999701976783e-11,9.999999701976783e-11,1.309999961058959,0.14999999562965177,-0.4999999849988393,-0.4999999849988393,-1.2999999611569824,1.309999961058959,-0.14999999542965176,0.49999998519883926,0.49999998519883926,1.2999999613569824,9.999999701976783e-11,0.1999999941395357,9.999999701976783e-11,0.14999999562965177,-0.14999999542965176,-0.1999999939395357,9.999999701976783e-11,-0.1999999939395357,9.999999701976783e-11,0.14999999562965177,-0.14999999542965176,0.1999999941395357,0.49999998519883926,0.49999998519883926
static,5e-11,5e-11,1.3099999805294789,0.14999999781482581,-0.4999999924994194,-0.4999999924994194,-1.2999999805784905,1.3099999805294789,-0.1499999977148258,0.4999999925994194,0.4999999925994194,1.2999999806784905,5e-11,0.1999999970697678,5e-11,0.14999999781482581,-0.1499999977148258,-0.19999999696976778,5e-11,-0.19999999696976778,5e-11,0.14999999781482581,-0.1499999977148258,0.1999999970697678,0.4999999925994194,0.4999999925994194
naive,-0.007341498516296784,-0.007481736759039771,1.309477570816901,0.14982245962478863,-0.5096708262077905,-0.4985997167269854,-1.305525968928047,1.3034582627814526,-0.14712963255173475,0.48125525812879916,0.5025717637724377,1.2959126545764736,5e-11,0.1999999970697678,5e-11,0.14999999781482581,-0.1499999977148258,-0.19999999696976778,5e-11,-0.19999999696976778,5e-11,0.14999999781482581,-0.1499999977148258,0.1999999970697678,0.48707554838994005,0.48939047666132435
lively,9.999999701976783e-11,9.999999701976783e-11,1.309999961058959,0.14999999562965177,-0.4999999849988393,-0.4999999849988393,-1.2999999611569824,1.309999961058959,-0.14999999542965176,0.49999998519883926,0.49999998519883926,1.2999999613569824,9.999999701976783e-11,0.1999999941395357,9.999999701976783e-11,0.14999999562965177,-0.14999999542965176,-0.1999999939395357,9.999999701976783e-11,-0.1999999939395357,9.999999701976783e-11,0.14999999562965177,-0.14999999542965176,0.1999999941395357,0.49999998519883926,0.49999998519883926
static,5e-11,5e-11,1.3099999805294789,0.14999999781482581,-0.4999999924994194,-0.4999999924994194,-1.2999999805784905,1.3099999805294789,-0.1499999977148258,0.4999999925994194,0.4999999925994194,1.2999999806784905,5e-11,0.1999999970697678,5e-11,0.14999999781482581,-0.1499999977148258,-0.19999999696976778,5e-11,-0.19999999696976778,5e-11,0.14999999781482581,-0.1499999977148258,0.1999999970697678,0.4999999925994194,0.4999999925994194
naive,-0.007228947530530948,-0.007285889958102987,1.3095334067923474,0.14983345091094585,-0.5095143231255921,-0.49861223300469293,-1.3052152121487777,1.303623930716491,-0.14714764798405877,0.4810153460727987,0.5025522832735179,1.295957428991098,5e-11,0.1999999970697678,5e-11,0.14999999781482581,-0.1499999977148258,-0.19999999696976778,5e-11,-0.19999999696976778,5e-11,0.14999999781482581,-0.1499999977148258,0.1999999970697678,0.48714876379880473,0.48911034446433677
lively,9.999999701976783e-11,9.999999701976783e-11,1.309999961058959,0.14999999562965177,-0.4999999849988393,-0.4999999849988393,-1.2999999611569824,1.309999961058959,-0.14999999542965176,0.49999998519883926,0.49999998519883926,1.2999999613569824,9.999999701976783e-11,0.1999999941395357,9.999999701976783e-11,0.14999999562965177,-0.14999999542965176,-0.1999999939395357,9.999999701976783e-11,-0.1999999939395357,9.999999701976783e-11,0.14999999562965177,-0.14999999542965176,0.1999999941395357,0.49999998519883926,0.49999998519883926
static,5e-11,5e-11,1.3099999805294789,0.14999999781482581,-0.4999999924994194,-0.4999999924994194,-1.2999999805784905,1.3099999805294789,-0.1499999977148258,0.4999999925994194,0.4999999925994194,1.2999999806784905,5e-11,0.1999999970697678,5e-11,0.14999999781482581,-0.1499999977148258,-0.19999999696976778,5e-11,-0.19999999696976778,5e-11,0.14999999781482581,-0.1499999977148258,0.1999999970697678,0.4999999925994194,0.4999999925994194
naive,-0.0071210885133808875,-0.007101447060458029,1.3095863670599661,0.14984300286855326,-0.5093624679470912,-0.4986238846781351,-1.3049234953297357,1.3037798560957838,-0.14716744211579705,0.48080501549405574,0.5025317100903587,1.2959995260749788,5e-11,0.1999999970697678,5e-11,0.14999999781482581,-0.1499999977148258,-0.19999999696976778,5e-11,-0.19999999696976778,5e-11,0.14999999781482581,-0.1499999977148258,0.1999999970697678,0.48723007913382793,0.4888489642032806
lively,9.999999701976783e-11,9.999999701976783e-11,1.309999961058959,0.14999999562965177,-0.4999999849988393,-0.4999999849988393,-1.2999999611569824,1.309999961058959,-0.14999999542965176,0.49999998519883926,0.49999998519883926,1.2999999613569824,9.999999701976783e-11,0.1999999941395357,9.999999701976783e-11,0.14999999562965177,-0.14999999542965176,-0.1999999939395357,9.999999701976783e-11,-0.1999999939395357,9.999999701976783e-11,0.14999999562965177,-0.14999999542965176,0.1999999941395357,0.49999998519883926,0.49999998519883926
static,5e-11,5e-11,1.3099999805294789,0.14999999781482581,-0.4999999924994194,-0.4999999924994194,-1.2999999805784905,1.3099999805294789,-0.1499999977148258,0.4999999925994194,0.4999999925994194,1.2999999806784905,5e-11,0.1999999970697678,5e-11,0.14999999781482581,-0.1499999977148258,-0.19999999696976778,5e-11,-0.19999999696976778,5e-11,0.14999999781482581,-0.1499999977148258,0.1999999970697678,0.4999999925994194,0.4999999925994194
naive,-0.007001132489989703,-0.006899879433207663,1.3096446632570293,0.14985259086598826,-0.5091914966474307,-0.4986364668243822,-1.304605724420497,1.3039501571205718,-0.14719219446637494,0.48059238826871903,0.5025067461918146,1.296045378357639,5e-11,0.1999999970697678,5e-11,0.14999999781482581,-0.1499999977148258,-0.19999999696976778,5e-11,-0.19999999696976778,5e-11,0.14999999781482581,-0.1499999977148258,0.1999999970697678,0.4873325406344181,0.4885658481875795
lively,9.999999701976783e-11,9.999999701976783e-11,1.309999961058959,0.14999999562965177,-0.4999999849988393,-0.4999999849988393,-1.2999999611569824,1.309999961058959,-0.14999999542965176,0.49999998519883926,0.49999998519883926,1.2999999613569824,9.999999701976783e-11,0.1999999941395357,9.999999701976783e-11,0.14999999562965177,-0.14999999542965176,-0.1999999939395357,9.999999701976783e-11,-0.1999999939395357,9.999999701976783e-11,0.14999999562965177,-0.14999999542965176,0.1999999941395357,0.49999998519883926,0.49999998519883926
static,5e-11,5e-11,1.3099999805294789,0.14999999781482581,-0.4999999924994194,-0.4999999924994194,-1.2999999805784905,1.3099999805294789,-0.1499999977148258,0.4999999925994194,0.4999999925994194,1.2999999806784905,5e-11,0.1999999970697678,5e-11,0.14999999781482581,-0.1499999977148258,-0.19999999696976778,5e-11,-0.19999999696976778,5e-11,0.14999999781482581,-0.1499999977148258,0.1999999970697678,0.4999999925994194,0.4999999925994194
naive,-0.006892108877321464,-0.006719804143900396,1.3096971156873727,0.14986043560611712,-0.5090342641657093,-0.49864757286730965,-1.3043227323981863,1.3041022147164327,-0.14721705388291872,0.48041758583919225,0.5024822417187623,1.2960861427505368,5e-11,0.1999999970697678,5e-11,0.14999999781482581,-0.1499999977148258,-0.19999999696976778,5e-11,-0.19999999696976778,5e-11,0.14999999781482581,-0.1499999977148258,0.1999999970697678,0.4874359979189124,0.48831501353668655
lively,9.999999701976783e-11,9.999999701976783e-11,1.309999961058959,0.14999999562965177,-0.4999999849988393,-0.4999999849988393,-1.2999999611569824,1.309999961058959,-0.14999999542965176,0.49999998519883926,0.49999998519883926,1.2999999613569824,9.999999701976783e-11,0.1999999941395357,9.999999701976783e-11,0.14999999562965177,-0.14999999542965176,-0.1999999939395357,9.999999701976783e-11,-0.1999999939395357,9.999999701976783e-11,0.14999999562965177,-0.14999999542965176,0.1999999941395357,0.49999998519883926,0.49999998519883926
static,5e-11,5e-11,1.3099999805294789,0.14999999781482581,-0.4999999924994194,-0.4999999924994194,-1.2999999805784905,1.3099999805294789,-0.1499999977148258,0.4999999925994194,0.4999999925994194,1.2999999806784905,5e-11,0.1999999970697678,5e-11,0.14999999781482581,-0.1499999977148258,-0.19999999696976778,5e-11,-0.19999999696976778,5e-11,0.14999999781482581,-0.1499999977148258,0.1999999970697678,0.4999999925994194,0.4999999925994194
naive,-0.006778537877135319,-0.006535255783398789,1.3097512378954719,0.14986779924260227,-0.5088686658418614,-0.4986588221520504,-1.304033576556512,1.304257970615831,-0.14724521196998472,0.4802532267982521,0.5024549586529665,1.296127664930583,5e-11,0.1999999970697678,5e-11,0.14999999781482581,-0.1499999977148258,-0.19999999696976778,5e-11,-0.19999999696976778,5e-11,0.14999999781482581,-0.1499999977148258,0.1999999970697678,0.4875536222085091,0.4880598713251957
lively,9.999999701976783e-11,9.999999701976783e-11,1.309999961058959,0.14999999562965177,-0.4999999849988393,-0.4999999849988393,-1.2999999611569824,1.309999961058959,-0.14999999542965176,0.49999998519883926,0.49999998519883926,1.2999999613569824,9.999999701976783e-11,0.1999999941395357,9.999999701976783e-11,0.14999999562965177,-0.14999999542965176,-0.1999999939395357,9.999999701976783e-11,-0.1999999939395357,9.999999701976783e-11,0.14999999562965177,-0.14999999542965176,0.1999999941395357,0.49999998519883926,0.49999998519883926
static,5e-11,5e-11,1.3099999805294789,0.14999999781482581,-0.4999999924994194,-0.4999999924994194,-1.2999999805784905,1.3099999805294789,-0.1499999977148258,0.4999999925994194,0.4999999925994194,1.2999999806784905,5e-11,0.1999999970697678,5e-11,0.14999999781482581,-0.1499999977148258,-0.19999999696976778,5e-11,-0.19999999696976778,5e-11,0.14999999781482581,-0.1499999977148258,0.1999999970697678,0.4999999925994194,0.4999999925994194
naive,-0.006657586797912946,-0.006341995243610913,1.3098083162069876,0.14987480919633403,-0.5086903391110077,-0.49867045749318917,-1.3037316972484714,1.3044209982225623,-0.14727760373745946,0.48009711421171825,0.5024240163254355,1.2961708083767083,5e-11,0.1999999970697678,5e-11,0.14999999781482581,-0.1499999977148258,-0.19999999696976778,5e-11,-0.19999999696976778,5e-11,0.14999999781482581,-0.1499999977148258,0.1999999970697678,0.4876893142674709,0.4877946433918927
lively,9.999999701976783e-11,9.999999701976783e-11,1.309999961058959,0.14999999562965177,-0.4999999849988393,-0.4999999849988393,-1.2999999611569824,1.309999961058959,-0.14999999542965176,0.49999998519883926,0.49999998519883926,1.2999999613569824,9.999999701976783e-11,0.1999999941395357,9.999999701976783e-11,0.14999999562965177,-0.14999999542965176,-0.1999999939395357,9.999999701976783e-11,-0.1999999939395357,9.999999701976783e-11,0.14999999562965177,-0.14999999542965176,0.1999999941395357,0.49999998519883926,0.49999998519883926
static,5e-11,5e-11,1.3099999805294789,0.14999999781482581,-0.4999999924994194,-0.4999999924994194,-1.2999999805784905,1.3099999805294789,-0.1499999977148258,0.4999999925994194,0.4999999925994194,1.2999999806784905,5e-11,0.1999999970697678,5e-11,0.14999999781482581,-0.1499999977148258,-0.19999999696976778,5e-11,-0.19999999696976778,5e-11,0.14999999781482581,-0.1499999977148258,0.1999999970697678,0.4999999925994194,0.4999999925994194
naive,-0.006537851406493932,-0.006153887535004516,1.3098642700155152,0.14988097572146158,-0.5085118669865446,-0.4986816388321242,-1.3034387686597653,1.3045796039351412,-0.14731198107518134,0.47996085556950746,0.5023915503783435,1.2962124072538501,5e-11,0.1999999970697678,5e-11,0.14999999781482581,-0.1499999977148258,-0.19999999696976778,5e-11,-0.19999999696976778,5e-11,0.14999999781482581,-0.1499999977148258,0.1999999970697678,0.48783362564068405,0.4875383004085898
lively,9.999999701976783e-11,9.999999701976783e-11,1.309999961058959,0.14999999562965177,-0.4999999849988393,-0.4999999849988393,-1.2999999611569824,1.309999961058959,-0.14999999542965176,0.49999998519883926,0.49999998519883926,1.2999999613569824,9.999999701976783e-11,0.1999999941395357,9.999999701976783e-11,0.14999999562965177,-0.14999999542965176,-0.1999999939395357,9.999999701976783e-11,-0.1999999939395357,9.999999701976783e-11,0.14999999562965177,-0.14999999542965176,0.1999999941395357,0.49999998519883926,0.49999998519883926
static,5e-11,5e-11,1.3099999805294789,0.14999999781482581,-0.4999999924994194,-0.4999999924994194,-1.2999999805784905,1.3099999805294789,-0.1499999977148258,0.4999999925994194,0.4999999925994194,1.2999999806784905,5e-11,0.1999999970697678,5e-11,0.14999999781482581,-0.1499999977148258,-0.19999999696976778,5e-11,-0.19999999696976778,5e-11,0.14999999781482581,-0.1499999977148258,0.1999999970697678,0.4999999925994194,0.4999999925994194
naive,-0.006415672319525333,-0.005965114512284141,1.3099208193739924,0.14988654609800928,-0.5083278255546676,-0.49869271579161134,-1.3031456904665257,1.304738700521866,-0.14734930427066062,0.4798396564426572,0.5023566196682057,1.2962537027999987,5e-11,0.1999999970697678,5e-11,0.14999999781482581,-0.1499999977148258,-0.19999999696976778,5e-11,-0.19999999696976778,5e-11,0.14999999781482581,-0.1499999977148258,0.1999999970697678,0.4879905335651576,0.48728274521366516
lively,9.999999701976783e-11,9.999999701976783e-11,1.309999961058959,0.14999999562965177,-0.4999999849988393,-0.4999999849988393,-1.2999999611569824,1.309999961058959,-0.14999999542965176,0.49999998519883926,0.49999998519883926,1.2999999613569824,9.999999701976783e-11,0.1999999941395357,9.999999701976783e-11,0.14999999562965177,-0.14999999542965176,-0.1999999939395357,9.999999701976783e-11,-0.1999999939395357,9.999999701976783e-11,0.14999999562965177,-0.14999999542965176,0.1999999941395357,0.49999998519883926,0.49999998519883926
static,5e-11,5e-11,1.3099999805294789,0.14999999781482581,-0.4999999924994194,-0.4999999924994194,-1.2999999805784905,1.3099999805294789,-0.1499999977148258,0.4999999925994194,0.4999999925994194,1.2999999806784905,5e-11,0.1999999970697678,5e-11,0.14999999781482581,-0.1499999977148258,-0.19999999696976778,5e-11,-0.19999999696976778,5e-11,0.14999999781482581,-0.1499999977148258,0.1999999970697678,0.4999999925994194,0.4999999925994194
naive,-0.006292534129387385,-0.00577798834285575,1.3099772722880563,0.14989149022587264,-0.5081404273823629,-0.498703552380915,-1.302856037212878,1.3048963443579267,-0.14738909421693402,0.47973486679652283,0.502319648387834,1.2962941358006637,5e-11,0.1999999970697678,5e-11,0.14999999781482581,-0.1499999977148258,-0.19999999696976778,5e-11,-0.19999999696976778,5e-11,0.14999999781482581,-0.1499999977148258,0.1999999970697678,0.4881579807550528,0.4870310044230953
lively,9.999999701976783e-11,9.999999701976783e-11,1.309999961058959,0.14999999562965177,-0.4999999849988393,-0.4999999849988393,-1.2999999611569824,1.309999961058959,-0.14999999542965176,0.49999998519883926,0.49999998519883926,1.2999999613569824,9.999999701976783e-11,0.1999999941395357,9.999999701976783e-11,0.14999999562965177,-0.14999999542965176,-0.1999999939395357,9.999999701976783e-11,-0.1999999939395357,9.999999701976783e-11,0.14999999562965177,-0.14999999542965176,0.1999999941395357,0.49999998519883926,0.49999998519883926
static,5e-11,5e-11,1.3099999805294789,0.14999999781482581,-0.4999999924994194,-0.4999999924994194,-1.2999999805784905,1.3099999805294789,-0.1499999977148258,0.4999999925994194,0.4999999925994194,1.2999999806784905,5e-11,0.1999999970697678,5e-11,0.14999999781482581,-0.1499999977148258,-0.19999999696976778,5e-11,-0.19999999696976778,5e-11,0.14999999781482581,-0.1499999977148258,0.1999999970697678,0.4999999925994194,0.4999999925994194
naive,-0.0061703802909288275,-0.005595356964024171,1.3100327540178522,0.14989579373094128,-0.5079526881464583,-0.4987139893072121,-1.3025741707191052,1.3050501433644186,-0.1474306090075429,0.47964733192557396,0.5022812914211692,1.2963330621344291,5e-11,0.1999999970697678,5e-11,0.14999999781482581,-0.1499999977148258,-0.19999999696976778,5e-11,-0.19999999696976778,5e-11,0.14999999781482581,-0.1499999977148258,0.1999999970697678,0.48833280452546557,0.48678675979366937
lively,9.999999701976783e-11,9.999999701976783e-11,1.309999961058959,0.14999999562965177,-0.4999999849988393,-0.4999999849988393,-1.2999999611569824,1.309999961058959,-0.14999999542965176,0.49999998519883926,0.49999998519883926,1.2999999613569824,9.999999701976783e-11,0.1999999941395357,9.999999701976783e-11,0.14999999562965177,-0.14999999542965176,-0.1999999939395357,9.999999701976783e-11,-0.1999999939395357,9.999999701976783e-11,0.14999999562965177,-0.14999999542965176,0.1999999941395357,0.49999998519883926,0.49999998519883926
static,5e-11,5e-11,1.3099999805294789,0.14999999781482581,-0.4999999924994194,-0.4999999924994194,-1.2999999805784905,1.3099999805294789,-0.1499999977148258,0.4999999925994194,0.4999999925994194,1.2999999806784905,5e-11,0.1999999970697678,5e-11,0.14999999781482581,-0.1499999977148258,-0.19999999696976778,5e-11,-0.19999999696976778,5e-11,0.14999999781482581,-0.1499999977148258,0.1999999970697678,0.4999999925994194,0.4999999925994194
naive,-0.0060418552228451005,-0.0054063150891166326,1.3100905876695532,0.14989974079911492,-0.5077532368889474,-0.49872464598989835,-1.3022832675202498,1.3052092849645103,-0.1474763718649295,0.4795720563996557,0.502239198236628,1.2963727438206212,5e-11,0.1999999970697678,5e-11,0.14999999781482581,-0.1499999977148258,-0.19999999696976778,5e-11,-0.19999999696976778,5e-11,0.14999999781482581,-0.1499999977148258,0.1999999970697678,0.48852559740108553,0.4865353820894407
lively,9.999999701976783e-11,9.999999701976783e-11,1.309999961058959,0.14999999562965177,-0.4999999849988393,-0.4999999849988393,-1.2999999611569824,1.309999961058959,-0.14999999542965176,0.49999998519883926,0.49999998519883926,1.2999999613569824,9.999999701976783e-11,0.1999999941395357,9.999999701976783e-11,0.14999999562965177,-0.14999999542965176,-0.1999999939395357,9.999999701976783e-11,-0.1999999939395357,9.999999701976783e-11,0.14999999562965177,-0.14999999542965176,0.1999999941395357,0.49999998519883926,0.49999998519883926
static,5e-11,5e-11,1.3099999805294789,0.14999999781482581,-0.4999999924994194,-0.4999999924994194,-1.2999999805784905,1.3099999805294789,-0.1499999977148258,0.4999999925994194,0.4999999925994194,1.2999999806784905,5e-11,0.1999999970697678,5e-11,0.14999999781482581,-0.1499999977148258,-0.19999999696976778,5e-11,-0.19999999696976778,5e-11,0.14999999781482581,-0.1499999977148258,0.1999999970697678,0.4999999925994194,0.4999999925994194
naive,-0.0059141142356784575,-0.005221486086703365,1.310147534438947,0.14990313711356112,-0.507553109522206,-0.49873491951772037,-1.3019996858558984,1.305364829500666,-0.14752386051692779,0.4795135437734295,0.50219566839043,1.296410888461582,5e-11,0.1999999970697678,5e-11,0.14999999781482581,-0.1499999977148258,-0.19999999696976778,5e-11,-0.19999999696976778,5e-11,0.14999999781482581,-0.1499999977148258,0.1999999970697678,0.488725719448404,0.4862909702369792
lively,9.999999701976783e-11,9.999999701976783e-11,1.309999961058959,0.14999999562965177,-0.4999999849988393,-0.4999999849988393,-1.2999999611569824,1.309999961058959,-0.14999999542965176,0.49999998519883926,0.49999998519883926,1.2999999613569824,9.999999701976783e-11,0.1999999941395357,9.999999701976783e-11,0.14999999562965177,-0.14999999542965176,-0.1999999939395357,9.999999701976783e-11,-0.1999999939395357,9.999999701976783e-11,0.14999999562965177,-0.14999999542965176,0.1999999941395357,0.49999998519883926,0.49999998519883926
static,5e-11,5e-11,1.3099999805294789,0.14999999781482581,-0.4999999924994194,-0.4999999924994194,-1.2999999805784905,1.3099999805294789,-0.1499999977148258,0.4999999925994194,0.4999999925994194,1.2999999806784905,5e-11,0.1999999970697678,5e-11,0.14999999781482581,-0.1499999977148258,-0.19999999696976778,5e-11,-0.19999999696976778,5e-11,0.14999999781482581,-0.1499999977148258,0.1999999970697678,0.4999999925994194,0.4999999925994194
naive,-0.005790988002903347,-0.00504612733145012,1.3102019346044282,0.14990597083106122,-0.507358480036329,-0.4987445320960321,-1.3017313986129435,1.3055123621266629,-0.14757142569881546,0.47947182647700615,0.5021521761558775,1.2964464363802748,5e-11,0.1999999970697678,5e-11,0.14999999781482581,-0.1499999977148258,-0.19999999696976778,5e-11,-0.19999999696976778,5e-11,0.14999999781482581,-0.1499999977148258,0.1999999970697678,0.4889262094579409,0.4860602914947427
lively,9.999999701976783e-11,9.999999701976783e-11,1.309999961058959,0.14999999562965177,-0.4999999849988393,-0.4999999849988393,-1.2999999611569824,1.309999961058959,-0.14999999542965176,0.49999998519883926,0.49999998519883926,1.2999999613569824,9.999999701976783e-11,0.1999999941395357,9.999999701976783e-11,0.14999999562965177,-0.14999999542965176,-0.1999999939395357,9.999999701976783e-11,-0.1999999939395357,9.999999701976783e-11,0.14999999562965177,-0.14999999542965176,0.1999999941395357,0.49999998519883926,0.49999998519883926
static,5e-11,5e-11,1.3099999805294789,0.14999999781482581,-0.4999999924994194,-0.4999999924994194,-1.2999999805784905,1.3099999805294789,-0.1499999977148258,0.4999999925994194,0.4999999925994194,1.2999999806784905,5e-11,0.1999999970697678,5e-11,0.14999999781482581,-0.1499999977148258,-0.19999999696976778,5e-11,-0.19999999696976778,5e-11,0.14999999781482581,-0.1499999977148258,0.1999999970697678,0.4999999925994194,0.4999999925994194
