condition,HeadYaw,HeadPitch,LShoulderPitch,LShoulderRoll,LElbowYaw,LElbowRoll,LWristYaw,RShoulderPitch,RShoulderRoll,RElbowYaw,RElbowRoll,RWristYaw,LHipYawPitch,LHipRoll,LHipPitch,LKneePitch,LAnklePitch,LAnkleRoll,RHipYawPitch,RHipRoll,RHipPitch,RKneePitch,RAnklePitch,RAnkleRoll,LHand,RHand
static,5e-11,5e-11,1.3099999805294789,0.14999999781482581,-0.4999999924994194,-0.4999999924994194,-1.2999999805784905,1.3099999805294789,-0.1499999977148258,0.4999999925994194,0.4999999925994194,1.2999999806784905,5e-11,0.1999999970697678,5e-11,0.14999999781482581,-0.1499999977148258,-0.19999999696976778,5e-11,-0.19999999696976778,5e-11,0.14999999781482581,-0.1499999977148258,0.1999999970697678,0.4999999925994194,0.4999999925994194
naive,0.015160915136298608,0.002031978953990571,1.3121239349413005,0.1426379433975433,-0.5004302592916334,-0.5019109564107803,-1.2903996388652355,1.304410231344018,-0.14984268939369855,0.49980909492463865,0.501477843836009,1.2724198688488968,5e-11,0.1999999970697678,5e-11,0.14999999781482581,-0.1499999977148258,-0.19999999696976778,5e-11,-0.19999999696976778,5e-11,0.14999999781482581,-0.1499999977148258,0.1999999970697678,0.45541625768924454,0.47322510882989
lively,9.999999701976783e-11,9.999999701976783e-11,1.309999961058959,0.14999999562965177,-0.4999999849988393,-0.4999999849988393,-1.2999999611569824,1.309999961058959,-0.14999999542965176,0.49999998519883926,0.49999998519883926,1.2999999613569824,9.999999701976783e-11,0.1999999941395357,9.999999701976783e-11,0.14999999562965177,-0.14999999542965176,-0.1999999939395357,9.999999701976783e-11,-0.1999999939395357,9.999999701976783e-11,0.14999999562965177,-0.14999999542965176,0.1999999941395357,0.49999998519883926,0.49999998519883926
static,5e-11,5e-11,1.3099999805294789,0.14999999781482581,-0.4999999924994194,-0.4999999924994194,-1.2999999805784905,1.3099999805294789,-0.1499999977148258,0.4999999925994194,0.4999999925994194,1.2999999806784905,5e-11,0.1999999970697678,5e-11,0.14999999781482581,-0.1499999977148258,-0.19999999696976778,5e-11,-0.19999999696976778,5e-11,0.14999999781482581,-0.1499999977148258,0.1999999970697678,0.4999999925994194,0.4999999925994194
naive,0.015246129708449565,0.002473159747981425,1.3124048303865292,0.14263203140004593,-0.5001760023524052,-0.5019586024006419,-1.2925775465306126,1.3043732044749576,-0.15001724691107537,0.5005810304358635,0.5013593163718328,1.2721657581826098,5e-11,0.1999999970697678,5e-11,0.14999999781482581,-0.1499999977148258,-0.19999999696976778,5e-11,-0.19999999696976778,5e-11,0.14999999781482581,-0.1499999977148258,0.1999999970697678,0.45521730023816237,0.47348691893660827
lively,9.999999701976783e-11,9.999999701976783e-11,1.309999961058959,0.14999999562965177,-0.4999999849988393,-0.4999999849988393,-1.2999999611569824,1.309999961058959,-0.14999999542965176,0.49999998519883926,0.49999998519883926,1.2999999613569824,9.999999701976783e-11,0.1999999941395357,9.999999701976783e-11,0.14999999562965177,-0.14999999542965176,-0.1999999939395357,9.999999701976783e-11,-0.1999999939395357,9.999999701976783e-11,0.14999999562965177,-0.14999999542965176,0.1999999941395357,0.49999998519883926,0.49999998519883926
static,5e-11,5e-11,1.3099999805294789,0.14999999781482581,-0.4999999924994194,-0.4999999924994194,-1.2999999805784905,1.3099999805294789,-0.1499999977148258,0.4999999925994194,0.4999999925994194,1.2999999806784905,5e-11,0.1999999970697678,5e-11,0.14999999781482581,-0.1499999977148258,-0.19999999696976778,5e-11,-0.19999999696976778,5e-11,0.14999999781482581,-0.1499999977148258,0.1999999970697678,0.4999999925994194,0.4999999925994194
naive,0.015327425939626733,0.002902021633717883,1.3126653659609235,0.1426259974704124,-0.49982203976839074,-0.5020055924873833,-1.2947943717889663,1.30431771181445,-0.1501813267436804,0.5013264652899395,0.5012066147947755,1.2719322805855766,5e-11,0.1999999970697678,5e-11,0.14999999781482581,-0.1499999977148258,-0.19999999696976778,5e-11,-0.19999999696976778,5e-11,0.14999999781482581,-0.1499999977148258,0.1999999970697678,0.4550892726880789,0.47374873329049194
lively,9.999999701976783e-11,9.999999701976783e-11,1.309999961058959,0.14999999562965177,-0.4999999849988393,-0.4999999849988393,-1.2999999611569824,1.309999961058959,-0.14999999542965176,0.49999998519883926,0.49999998519883926,1.2999999613569824,9.999999701976783e-11,0.1999999941395357,9.999999701976783e-11,0.14999999562965177,-0.14999999542965176,-0.1999999939395357,9.999999701976783e-11,-0.1999999939395357,9.999999701976783e-11,0.14999999562965177,-0.14999999542965176,0.1999999941395357,0.49999998519883926,0.49999998519883926
static,5e-11,5e-11,1.3099999805294789,0.14999999781482581,-0.4999999924994194,-0.4999999924994194,-1.2999999805784905,1.3099999805294789,-0.1499999977148258,0.4999999925994194,0.4999999925994194,1.2999999806784905,5e-11,0.1999999970697678,5e-11,0.14999999781482581,-0.1499999977148258,-0.19999999696976778,5e-11,-0.19999999696976778,5e-11,0.14999999781482581,-0.1499999977148258,0.1999999970697678,0.4999999925994194,0.4999999925994194
naive,0.0154017346572649,0.0033130462372999684,1.3129039645194012,0.14262041551857801,-0.49934891274777626,-0.5020521627884373,-1.2970492519960604,1.3042401030432955,-0.15033263125054108,0.5020400985003084,0.5010142358948542,1.2717149979618925,5e-11,0.1999999970697678,5e-11,0.14999999781482581,-0.1499999977148258,-0.19999999696976778,5e-11,-0.19999999696976778,5e-11,0.14999999781482581,-0.1499999977148258,0.1999999970697678,0.4550528741020783,0.47401293441233805
lively,9.999999701976783e-11,9.999999701976783e-11,1.309999961058959,0.14999999562965177,-0.4999999849988393,-0.4999999849988393,-1.2999999611569824,1.309999961058959,-0.14999999542965176,0.49999998519883926,0.49999998519883926,1.2999999613569824,9.999999701976783e-11,0.1999999941395357,9.999999701976783e-11,0.14999999562965177,-0.14999999542965176,-0.1999999939395357,9.999999701976783e-11,-0.1999999939395357,9.999999701976783e-11,0.14999999562965177,-0.14999999542965176,0.1999999941395357,0.49999998519883926,0.49999998519883926
static,5e-11,5e-11,1.3099999805294789,0.14999999781482581,-0.4999999924994194,-0.4999999924994194,-1.2999999805784905,1.3099999805294789,-0.1499999977148258,0.4999999925994194,0.4999999925994194,1.2999999806784905,5e-11,0.1999999970697678,5e-11,0.14999999781482581,-0.1499999977148258,-0.19999999696976778,5e-11,-0.19999999696976778,5e-11,0.14999999781482581,-0.1499999977148258,0.1999999970697678,0.4999999925994194,0.4999999925994194
naive,0.015461643698437444,0.0036820421226309596,1.3131051855770757,0.14261623307660148,-0.4987771598477968,-0.5020954938743815,-1.299195828268305,1.3041437036279147,-0.15046041571270857,0.5026736290933166,0.5007922029519611,1.2715220923954025,5e-11,0.1999999970697678,5e-11,0.14999999781482581,-0.1499999977148258,-0.19999999696976778,5e-11,-0.19999999696976778,5e-11,0.14999999781482581,-0.1499999977148258,0.1999999970697678,0.45512265937202206,0.4742660032302355
lively,9.999999701976783e-11,9.999999701976783e-11,1.309999961058959,0.14999999562965177,-0.4999999849988393,-0.4999999849988393,-1.2999999611569824,1.309999961058959,-0.14999999542965176,0.49999998519883926,0.49999998519883926,1.2999999613569824,9.999999701976783e-11,0.1999999941395357,9.999999701976783e-11,0.14999999562965177,-0.14999999542965176,-0.1999999939395357,9.999999701976783e-11,-0.1999999939395357,9.999999701976783e-11,0.14999999562965177,-0.14999999542965176,0.1999999941395357,0.49999998519883926,0.49999998519883926
static,5e-11,5e-11,1.3099999805294789,0.14999999781482581,-0.4999999924994194,-0.4999999924994194,-1.2999999805784905,1.3099999805294789,-0.1499999977148258,0.4999999925994194,0.4999999925994194,1.2999999806784905,5e-11,0.1999999970697678,5e-11,0.14999999781482581,-0.1499999977148258,-0.19999999696976778,5e-11,-0.19999999696976778,5e-11,0.14999999781482581,-0.1499999977148258,0.1999999970697678,0.4999999925994194,0.4999999925994194
naive,0.015507504671557202,0.004029896171538079,1.313278559491295,0.1426138693469926,-0.49807130140562617,-0.502137740234635,-1.301337135489175,1.3040227282411985,-0.15057011992461142,0.5032554833410929,0.500528183513933,1.2713386748979907,5e-11,0.1999999970697678,5e-11,0.14999999781482581,-0.1499999977148258,-0.19999999696976778,5e-11,-0.19999999696976778,5e-11,0.14999999781482581,-0.1499999977148258,0.1999999970697678,0.45531197616204966,0.4745244435997513
lively,9.999999701976783e-11,9.999999701976783e-11,1.309999961058959,0.14999999562965177,-0.4999999849988393,-0.4999999849988393,-1.2999999611569824,1.309999961058959,-0.14999999542965176,0.49999998519883926,0.49999998519883926,1.2999999613569824,9.999999701976783e-11,0.1999999941395357,9.999999701976783e-11,0.14999999562965177,-0.14999999542965176,-0.1999999939395357,9.999999701976783e-11,-0.1999999939395357,9.999999701976783e-11,0.14999999562965177,-0.14999999542965176,0.1999999941395357,0.49999998519883926,0.49999998519883926
static,5e-11,5e-11,1.3099999805294789,0.14999999781482581,-0.4999999924994194,-0.4999999924994194,-1.2999999805784905,1.3099999805294789,-0.1499999977148258,0.4999999925994194,0.4999999925994194,1.2999999806784905,5e-11,0.1999999970697678,5e-11,0.14999999781482581,-0.1499999977148258,-0.19999999696976778,5e-11,-0.19999999696976778,5e-11,0.14999999781482581,-0.1499999977148258,0.1999999970697678,0.4999999925994194,0.4999999925994194
naive,0.015534968032624458,0.0043499981079345275,1.3134182940864247,0.14261414558320196,-0.49723137707568277,-0.5021778874578161,-1.3034276070722015,1.3038774406080798,-0.15065768473262434,0.5037677560810021,0.5002241359827173,1.2711640762049174,5e-11,0.1999999970697678,5e-11,0.14999999781482581,-0.1499999977148258,-0.19999999696976778,5e-11,-0.19999999696976778,5e-11,0.14999999781482581,-0.1499999977148258,0.1999999970697678,0.4556329162734612,0.47478803320417323
lively,9.999999701976783e-11,9.999999701976783e-11,1.309999961058959,0.14999999562965177,-0.4999999849988393,-0.4999999849988393,-1.2999999611569824,1.309999961058959,-0.14999999542965176,0.49999998519883926,0.49999998519883926,1.2999999613569824,9.999999701976783e-11,0.1999999941395357,9.999999701976783e-11,0.14999999562965177,-0.14999999542965176,-0.1999999939395357,9.999999701976783e-11,-0.1999999939395357,9.999999701976783e-11,0.14999999562965177,-0.14999999542965176,0.1999999941395357,0.49999998519883926,0.49999998519883926
static,5e-11,5e-11,1.3099999805294789,0.14999999781482581,-0.4999999924994194,-0.4999999924994194,-1.2999999805784905,1.3099999805294789,-0.1499999977148258,0.4999999925994194,0.4999999925994194,1.2999999806784905,5e-11,0.1999999970697678,5e-11,0.14999999781482581,-0.1499999977148258,-0.19999999696976778,5e-11,-0.19999999696976778,5e-11,0.14999999781482581,-0.1499999977148258,0.1999999970697678,0.4999999925994194,0.4999999925994194
naive,0.015540376976080196,0.004650747728463905,1.3135248323766118,0.14261808726650874,-0.496211741199518,-0.5022168178375044,-1.3055291416593187,1.3037003363005384,-0.1507230578335256,0.5042167036237724,0.49986605508149773,1.2709887010118632,5e-11,0.1999999970697678,5e-11,0.14999999781482581,-0.1499999977148258,-0.19999999696976778,5e-11,-0.19999999696976778,5e-11,0.14999999781482581,-0.1499999977148258,0.1999999970697678,0.4561170595762374,0.4750714526790307
lively,9.999999701976783e-11,9.999999701976783e-11,1.309999961058959,0.14999999562965177,-0.4999999849988393,-0.4999999849988393,-1.2999999611569824,1.309999961058959,-0.14999999542965176,0.49999998519883926,0.49999998519883926,1.2999999613569824,9.999999701976783e-11,0.1999999941395357,9.999999701976783e-11,0.14999999562965177,-0.14999999542965176,-0.1999999939395357,9.999999701976783e-11,-0.1999999939395357,9.999999701976783e-11,0.14999999562965177,-0.14999999542965176,0.1999999941395357,0.49999998519883926,0.49999998519883926
static,5e-11,5e-11,1.3099999805294789,0.14999999781482581,-0.4999999924994194,-0.4999999924994194,-1.2999999805784905,1.3099999805294789,-0.1499999977148258,0.4999999925994194,0.4999999925994194,1.2999999806784905,5e-11,0.1999999970697678,5e-11,0.14999999781482581,-0.1499999977148258,-0.19999999696976778,5e-11,-0.19999999696976778,5e-11,0.14999999781482581,-0.1499999977148258,0.1999999970697678,0.4999999925994194,0.4999999925994194
naive,0.015518549672406587,0.00491628992757516,1.3135892542347374,0.14262670297963823,-0.4950369537227673,-0.5022523257694184,-1.3075487968213464,1.3034962371853795,-0.15076043735137967,0.5045718878007205,0.49946541454100396,1.2708160420630377,5e-11,0.1999999970697678,5e-11,0.14999999781482581,-0.1499999977148258,-0.19999999696976778,5e-11,-0.19999999696976778,5e-11,0.14999999781482581,-0.1499999977148258,0.1999999970697678,0.45676601943777395,0.47537016790382813
lively,9.999999701976783e-11,9.999999701976783e-11,1.309999961058959,0.14999999562965177,-0.4999999849988393,-0.4999999849988393,-1.2999999611569824,1.309999961058959,-0.14999999542965176,0.49999998519883926,0.49999998519883926,1.2999999613569824,9.999999701976783e-11,0.1999999941395357,9.999999701976783e-11,0.14999999562965177,-0.14999999542965176,-0.1999999939395357,9.999999701976783e-11,-0.1999999939395357,9.999999701976783e-11,0.14999999562965177,-0.14999999542965176,0.1999999941395357,0.49999998519883926,0.49999998519883926
static,5e-11,5e-11,1.3099999805294789,0.14999999781482581,-0.4999999924994194,-0.4999999924994194,-1.2999999805784905,1.3099999805294789,-0.1499999977148258,0.4999999925994194,0.4999999925994194,1.2999999806784905,5e-11,0.1999999970697678,5e-11,0.14999999781482581,-0.1499999977148258,-0.19999999696976778,5e-11,-0.19999999696976778,5e-11,0.14999999781482581,-0.1499999977148258,0.1999999970697678,0.4999999925994194,0.4999999925994194
naive,0.015475623191470885,0.005111885963971136,1.313608843145113,0.14263851752231882,-0.4939099719083289,-0.5022793653588458,-1.309200037249638,1.3033009216070357,-0.15076877170449968,0.504793516734104,0.49909127248508967,1.270668748307058,5e-11,0.1999999970697678,5e-11,0.14999999781482581,-0.1499999977148258,-0.19999999696976778,5e-11,-0.19999999696976778,5e-11,0.14999999781482581,-0.1499999977148258,0.1999999970697678,0.4574574801507667,0.47564162160772633
lively,9.999999701976783e-11,9.999999701976783e-11,1.309999961058959,0.14999999562965177,-0.4999999849988393,-0.4999999849988393,-1.2999999611569824,1.309999961058959,-0.14999999542965176,0.49999998519883926,0.49999998519883926,1.2999999613569824,9.999999701976783e-11,0.1999999941395357,9.999999701976783e-11,0.14999999562965177,-0.14999999542965176,-0.1999999939395357,9.999999701976783e-11,-0.1999999939395357,9.999999701976783e-11,0.14999999562965177,-0.14999999542965176,0.1999999941395357,0.49999998519883926,0.49999998519883926
static,5e-11,5e-11,1.3099999805294789,0.14999999781482581,-0.4999999924994194,-0.4999999924994194,-1.2999999805784905,1.3099999805294789,-0.1499999977148258,0.4999999925994194,0.4999999925994194,1.2999999806784905,5e-11,0.1999999970697678,5e-11,0.14999999781482581,-0.1499999977148258,-0.19999999696976778,5e-11,-0.19999999696976778,5e-11,0.14999999781482581,-0.1499999977148258,0.1999999970697678,0.4999999925994194,0.4999999925994194
naive,0.015399826824283707,0.005289940732176856,1.3135908520508266,0.14265708982921294,-0.49253836049223354,-0.502304990037232,-1.3109342487389615,1.3030642509840122,-0.15075152453866197,0.5049430137136095,0.49864793702597826,1.2705050539758114,5e-11,0.1999999970697678,5e-11,0.14999999781482581,-0.1499999977148258,-0.19999999696976778,5e-11,-0.19999999696976778,5e-11,0.14999999781482581,-0.1499999977148258,0.1999999970697678,0.45837072489274655,0.47596273744815315
lively,9.999999701976783e-11,9.999999701976783e-11,1.309999961058959,0.14999999562965177,-0.4999999849988393,-0.4999999849988393,-1.2999999611569824,1.309999961058959,-0.14999999542965176,0.49999998519883926,0.49999998519883926,1.2999999613569824,9.999999701976783e-11,0.1999999941395357,9.999999701976783e-11,0.14999999562965177,-0.14999999542965176,-0.1999999939395357,9.999999701976783e-11,-0.1999999939395357,9.999999701976783e-11,0.14999999562965177,-0.14999999542965176,0.1999999941395357,0.49999998519883926,0.49999998519883926
static,5e-11,5e-11,1.3099999805294789,0.14999999781482581,-0.4999999924994194,-0.4999999924994194,-1.2999999805784905,1.3099999805294789,-0.1499999977148258,0.4999999925994194,0.4999999925994194,1.2999999806784905,5e-11,0.1999999970697678,5e-11,0.14999999781482581,-0.1499999977148258,-0.19999999696976778,5e-11,-0.19999999696976778,5e-11,0.14999999781482581,-0.1499999977148258,0.1999999970697678,0.4999999925994194,0.4999999925994194
naive,0.015293691226460288,0.005422297621315797,1.313531335757941,0.1426818767159738,-0.4910585566110213,-0.5023252765266443,-1.3125531720262602,1.3028104890323473,-0.15070645468215954,0.5049863326005015,0.4981833714961709,1.2703412297510244,5e-11,0.1999999970697678,5e-11,0.14999999781482581,-0.1499999977148258,-0.19999999696976778,5e-11,-0.19999999696976778,5e-11,0.14999999781482581,-0.1499999977148258,0.1999999970697678,0.4594286708172222,0.47630641116160954
lively,9.999999701976783e-11,9.999999701976783e-11,1.309999961058959,0.14999999562965177,-0.4999999849988393,-0.4999999849988393,-1.2999999611569824,1.309999961058959,-0.14999999542965176,0.49999998519883926,0.49999998519883926,1.2999999613569824,9.999999701976783e-11,0.1999999941395357,9.999999701976783e-11,0.14999999562965177,-0.14999999542965176,-0.1999999939395357,9.999999701976783e-11,-0.1999999939395357,9.999999701976783e-11,0.14999999562965177,-0.14999999542965176,0.1999999941395357,0.49999998519883926,0.49999998519883926
static,5e-11,5e-11,1.3099999805294789,0.14999999781482581,-0.4999999924994194,-0.4999999924994194,-1.2999999805784905,1.3099999805294789,-0.1499999977148258,0.4999999925994194,0.4999999925994194,1.2999999806784905,5e-11,0.1999999970697678,5e-11,0.14999999781482581,-0.1499999977148258,-0.19999999696976778,5e-11,-0.19999999696976778,5e-11,0.14999999781482581,-0.1499999977148258,0.1999999970697678,0.4999999925994194,0.4999999925994194
naive,0.015153715850130237,0.005507088598567914,1.3134291751677856,0.14271406396832184,-0.4894506999081455,-0.5023399960820433,-1.314093086135767,1.3025368535080766,-0.1506324048108027,0.5049196912745364,0.4976940483290135,1.27017343382126,5e-11,0.1999999970697678,5e-11,0.14999999781482581,-0.1499999977148258,-0.19999999696976778,5e-11,-0.19999999696976778,5e-11,0.14999999781482581,-0.1499999977148258,0.1999999970697678,0.46065086410005,0.4766839062162232
lively,9.999999701976783e-11,9.999999701976783e-11,1.309999961058959,0.14999999562965177,-0.4999999849988393,-0.4999999849988393,-1.2999999611569824,1.309999961058959,-0.14999999542965176,0.49999998519883926,0.49999998519883926,1.2999999613569824,9.999999701976783e-11,0.1999999941395357,9.999999701976783e-11,0.14999999562965177,-0.14999999542965176,-0.1999999939395357,9.999999701976783e-11,-0.1999999939395357,9.999999701976783e-11,0.14999999562965177,-0.14999999542965176,0.1999999941395357,0.49999998519883926,0.49999998519883926
static,5e-11,5e-11,1.3099999805294789,0.14999999781482581,-0.4999999924994194,-0.4999999924994194,-1.2999999805784905,1.3099999805294789,-0.1499999977148258,0.4999999925994194,0.4999999925994194,1.2999999806784905,5e-11,0.1999999970697678,5e-11,0.14999999781482581,-0.1499999977148258,-0.19999999696976778,5e-11,-0.19999999696976778,5e-11,0.14999999781482581,-0.1499999977148258,0.1999999970697678,0.4999999925994194,0.4999999925994194
naive,0.014971559742843175,0.00553829027621027,1.3132783712511016,0.1427560140765397,-0.48766385996717115,-0.5023485373982817,-1.3156094876313833,1.3022354935393312,-0.15052462813406609,0.5047280492391302,0.49716874760585816,1.2699957158028097,5e-11,0.1999999970697678,5e-11,0.14999999781482581,-0.1499999977148258,-0.19999999696976778,5e-11,-0.19999999696976778,5e-11,0.14999999781482581,-0.1499999977148258,0.1999999970697678,0.4620874868355476,0.4771150533367084
lively,9.999999701976783e-11,9.999999701976783e-11,1.309999961058959,0.14999999562965177,-0.4999999849988393,-0.4999999849988393,-1.2999999611569824,1.309999961058959,-0.14999999542965176,0.49999998519883926,0.49999998519883926,1.2999999613569824,9.999999701976783e-11,0.1999999941395357,9.999999701976783e-11,0.14999999562965177,-0.14999999542965176,-0.1999999939395357,9.999999701976783e-11,-0.1999999939395357,9.999999701976783e-11,0.14999999562965177,-0.14999999542965176,0.1999999941395357,0.49999998519883926,0.49999998519883926
static,5e-11,5e-11,1.3099999805294789,0.14999999781482581,-0.4999999924994194,-0.4999999924994194,-1.2999999805784905,1.3099999805294789,-0.1499999977148258,0.4999999925994194,0.4999999925994194,1.2999999806784905,5e-11,0.1999999970697678,5e-11,0.14999999781482581,-0.1499999977148258,-0.19999999696976778,5e-11,-0.19999999696976778,5e-11,0.14999999781482581,-0.1499999977148258,0.1999999970697678,0.4999999925994194,0.4999999925994194
naive,0.0147742803100331,0.005511851004843429,1.313104122070528,0.14280195748439933,-0.48596079574798745,-0.5023497577872352,-1.3169119682485366,1.3019510849144567,-0.15040037267173276,0.504444335824747,0.4966862147270064,1.2698326925668686,5e-11,0.1999999970697678,5e-11,0.14999999781482581,-0.1499999977148258,-0.19999999696976778,5e-11,-0.19999999696976778,5e-11,0.14999999781482581,-0.1499999977148258,0.1999999970697678,0.46352716320463727,0.4775423817185587
lively,9.999999701976783e-11,9.999999701976783e-11,1.309999961058959,0.14999999562965177,-0.4999999849988393,-0.4999999849988393,-1.2999999611569824,1.309999961058959,-0.14999999542965176,0.49999998519883926,0.49999998519883926,1.2999999613569824,9.999999701976783e-11,0.1999999941395357,9.999999701976783e-11,0.14999999562965177,-0.14999999542965176,-0.1999999939395357,9.999999701976783e-11,-0.1999999939395357,9.999999701976783e-11,0.14999999562965177,-0.14999999542965176,0.1999999941395357,0.49999998519883926,0.49999998519883926
static,5e-11,5e-11,1.3099999805294789,0.14999999781482581,-0.4999999924994194,-0.4999999924994194,-1.2999999805784905,1.3099999805294789,-0.1499999977148258,0.4999999925994194,0.4999999925994194,1.2999999806784905,5e-11,0.1999999970697678,5e-11,0.14999999781482581,-0.1499999977148258,-0.19999999696976778,5e-11,-0.19999999696976778,5e-11,0.14999999781482581,-0.1499999977148258,0.1999999970697678,0.4999999925994194,0.4999999925994194
naive,0.014536275535027935,0.005424999295426353,1.3128866068060803,0.14285833220943672,-0.4841156053019105,-0.5023439871967493,-1.3181915637061141,1.3016461946866948,-0.1502446005949862,0.5040360611142543,0.4961837640481517,1.2696615949047898,5e-11,0.1999999970697678,5e-11,0.14999999781482581,-0.1499999977148258,-0.19999999696976778,5e-11,-0.19999999696976778,5e-11,0.14999999781482581,-0.1499999977148258,0.1999999970697678,0.46516060030081463,0.4780280410422548
lively,9.999999701976783e-11,9.999999701976783e-11,1.309999961058959,0.14999999562965177,-0.4999999849988393,-0.4999999849988393,-1.2999999611569824,1.309999961058959,-0.14999999542965176,0.49999998519883926,0.49999998519883926,1.2999999613569824,9.999999701976783e-11,0.1999999941395357,9.999999701976783e-11,0.14999999562965177,-0.14999999542965176,-0.1999999939395357,9.999999701976783e-11,-0.1999999939395357,9.999999701976783e-11,0.14999999562965177,-0.14999999542965176,0.1999999941395357,0.49999998519883926,0.49999998519883926
static,5e-11,5e-11,1.3099999805294789,0.14999999781482581,-0.4999999924994194,-0.4999999924994194,-1.2999999805784905,1.3099999805294789,-0.1499999977148258,0.4999999925994194,0.4999999925994194,1.2999999806784905,5e-11,0.1999999970697678,5e-11,0.14999999781482581,-0.1499999977148258,-0.19999999696976778,5e-11,-0.19999999696976778,5e-11,0.14999999781482581,-0.1499999977148258,0.1999999970697678,0.4999999925994194,0.4999999925994194
naive,0.014263597656902282,0.005272659831576546,1.3126330508517738,0.142924327617758,-0.48219909579250547,-0.5023305214309287,-1.3193947873604583,1.3013332762705483,-0.1500613375682225,0.5035080474261294,0.49568504551820786,1.2694890493260653,5e-11,0.1999999970697678,5e-11,0.14999999781482581,-0.1499999977148258,-0.19999999696976778,5e-11,-0.19999999696976778,5e-11,0.14999999781482581,-0.1499999977148258,0.1999999970697678,0.46693663156043114,0.4785619885905135
lively,9.999999701976783e-11,9.999999701976783e-11,1.309999961058959,0.14999999562965177,-0.4999999849988393,-0.4999999849988393,-1.2999999611569824,1.309999961058959,-0.14999999542965176,0.49999998519883926,0.49999998519883926,1.2999999613569824,9.999999701976783e-11,0.1999999941395357,9.999999701976783e-11,0.14999999562965177,-0.14999999542965176,-0.1999999939395357,9.999999701976783e-11,-0.1999999939395357,9.999999701976783e-11,0.14999999562965177,-0.14999999542965176,0.1999999941395357,0.49999998519883926,0.49999998519883926
static,5e-11,5e-11,1.3099999805294789,0.14999999781482581,-0.4999999924994194,-0.4999999924994194,-1.2999999805784905,1.3099999805294789,-0.1499999977148258,0.4999999925994194,0.4999999925994194,1.2999999806784905,5e-11,0.1999999970697678,5e-11,0.14999999781482581,-0.1499999977148258,-0.19999999696976778,5e-11,-0.19999999696976778,5e-11,0.14999999781482581,-0.1499999977148258,0.1999999970697678,0.4999999925994194,0.4999999925994194
naive,0.013937677399285395,0.005034995413962095,1.3123283660225036,0.14300526732210772,-0.48011075281779886,-0.5023073498313939,-1.3205772706110226,1.3009969186377999,-0.1498380004721269,0.5028165961152291,0.49516977654924776,1.2693064659395306,5e-11,0.1999999970697678,5e-11,0.14999999781482581,-0.1499999977148258,-0.19999999696976778,5e-11,-0.19999999696976778,5e-11,0.14999999781482581,-0.1499999977148258,0.1999999970697678,0.46896497176659535,0.47918347965806923
lively,9.999999701976783e-11,9.999999701976783e-11,1.309999961058959,0.14999999562965177,-0.4999999849988393,-0.4999999849988393,-1.2999999611569824,1.309999961058959,-0.14999999542965176,0.49999998519883926,0.49999998519883926,1.2999999613569824,9.999999701976783e-11,0.1999999941395357,9.999999701976783e-11,0.14999999562965177,-0.14999999542965176,-0.1999999939395357,9.999999701976783e-11,-0.1999999939395357,9.999999701976783e-11,0.14999999562965177,-0.14999999542965176,0.1999999941395357,0.49999998519883926,0.49999998519883926
static,5e-11,5e-11,1.3099999805294789,0.14999999781482581,-0.4999999924994194,-0.4999999924994194,-1.2999999805784905,1.3099999805294789,-0.1499999977148258,0.4999999925994194,0.4999999925994194,1.2999999806784905,5e-11,0.1999999970697678,5e-11,0.14999999781482581,-0.1499999977148258,-0.19999999696976778,5e-11,-0.19999999696976778,5e-11,0.14999999781482581,-0.1499999977148258,0.1999999970697678,0.4999999925994194,0.4999999925994194
naive,0.013623166786355454,0.0047601771776474575,1.312035379226818,0.14308554155440173,-0.4782563119464947,-0.5022793045851464,-1.3215260979903296,1.3007025578036002,-0.1496194263766202,0.5021019257400353,0.49473833327634725,1.269148940883079,5e-11,0.1999999970697678,5e-11,0.14999999781482581,-0.1499999977148258,-0.19999999696976778,5e-11,-0.19999999696976778,5e-11,0.14999999781482581,-0.1499999977148258,0.1999999970697678,0.4708505433640141,0.47977497282860854
lively,9.999999701976783e-11,9.999999701976783e-11,1.309999961058959,0.14999999562965177,-0.4999999849988393,-0.4999999849988393,-1.2999999611569824,1.309999961058959,-0.14999999542965176,0.49999998519883926,0.49999998519883926,1.2999999613569824,9.999999701976783e-11,0.1999999941395357,9.999999701976783e-11,0.14999999562965177,-0.14999999542965176,-0.1999999939395357,9.999999701976783e-11,-0.1999999939395357,9.999999701976783e-11,0.14999999562965177,-0.14999999542965176,0.1999999941395357,0.49999998519883926,0.49999998519883926
static,5e-11,5e-11,1.3099999805294789,0.14999999781482581,-0.4999999924994194,-0.4999999924994194,-1.2999999805784905,1.3099999805294789,-0.1499999977148258,0.4999999925994194,0.4999999925994194,1.2999999806784905,5e-11,0.1999999970697678,5e-11,0.14999999781482581,-0.1499999977148258,-0.19999999696976778,5e-11,-0.19999999696976778,5e-11,0.14999999781482581,-0.1499999977148258,0.1999999970697678,0.4999999925994194,0.4999999925994194
naive,0.013248604137537656,0.004384955789497191,1.311689992992816,0.1431839607479689,-0.4762122692340331,-0.5022400033357555,-1.3224707967377123,1.3003832393494126,-0.14935621061450602,0.50120219093228,0.4942933422115369,1.2689804598913395,5e-11,0.1999999970697678,5e-11,0.14999999781482581,-0.1499999977148258,-0.19999999696976778,5e-11,-0.19999999696976778,5e-11,0.14999999781482581,-0.1499999977148258,0.1999999970697678,0.4730269188242915,0.4804762229872692
lively,9.999999701976783e-11,9.999999701976783e-11,1.309999961058959,0.14999999562965177,-0.4999999849988393,-0.4999999849988393,-1.2999999611569824,1.309999961058959,-0.14999999542965176,0.49999998519883926,0.49999998519883926,1.2999999613569824,9.999999701976783e-11,0.1999999941395357,9.999999701976783e-11,0.14999999562965177,-0.14999999542965176,-0.1999999939395357,9.999999701976783e-11,-0.1999999939395357,9.999999701976783e-11,0.14999999562965177,-0.14999999542965176,0.1999999941395357,0.49999998519883926,0.49999998519883926
static,5e-11,5e-11,1.3099999805294789,0.14999999781482581,-0.4999999924994194,-0.4999999924994194,-1.2999999805784905,1.3099999805294789,-0.1499999977148258,0.4999999925994194,0.4999999925994194,1.2999999806784905,5e-11,0.1999999970697678,5e-11,0.14999999781482581,-0.1499999977148258,-0.19999999696976778,5e-11,-0.19999999696976778,5e-11,0.14999999781482581,-0.1499999977148258,0.1999999970697678,0.4999999925994194,0.4999999925994194
naive,0.012831736910367804,0.003915314722557009,1.3113120313441489,0.14329715294146902,-0.4741110758880425,-0.502189918415091,-1.3233383689719642,1.300061235861135,-0.14906027213133588,0.5001487276667106,0.49387222571897754,1.268813299017024,5e-11,0.1999999970697678,5e-11,0.14999999781482581,-0.1499999977148258,-0.19999999696976778,5e-11,-0.19999999696976778,5e-11,0.14999999781482581,-0.1499999977148258,0.1999999970697678,0.47538114921627794,0.4812588261633317
lively,9.999999701976783e-11,9.999999701976783e-11,1.309999961058959,0.14999999562965177,-0.4999999849988393,-0.4999999849988393,-1.2999999611569824,1.309999961058959,-0.14999999542965176,0.49999998519883926,0.49999998519883926,1.2999999613569824,9.999999701976783e-11,0.1999999941395357,9.999999701976783e-11,0.14999999562965177,-0.14999999542965176,-0.1999999939395357,9.999999701976783e-11,-0.1999999939395357,9.999999701976783e-11,0.14999999562965177,-0.14999999542965176,0.1999999941395357,0.49999998519883926,0.49999998519883926
static,5e-11,5e-11,1.3099999805294789,0.14999999781482581,-0.4999999924994194,-0.4999999924994194,-1.2999999805784905,1.3099999805294789,-0.1499999977148258,0.4999999925994194,0.4999999925994194,1.2999999806784905,5e-11,0.1999999970697678,5e-11,0.14999999781482581,-0.1499999977148258,-0.19999999696976778,5e-11,-0.19999999696976778,5e-11,0.14999999781482581,-0.1499999977148258,0.1999999970697678,0.4999999925994194,0.4999999925994194
naive,0.012453069743350108,0.0034472878762824323,1.3109758347382265,0.14340337841695086,-0.47233756847103814,-0.5021393809265422,-1.3239924070091673,1.299795035821285,-0.1487890769210122,0.4991501791814608,0.49354827766009535,1.2686774654870574,5e-11,0.1999999970697678,5e-11,0.14999999781482581,-0.1499999977148258,-0.19999999696976778,5e-11,-0.19999999696976778,5e-11,0.14999999781482581,-0.1499999977148258,0.1999999970697678,0.477471275368008,0.48197559683658403
lively,9.999999701976783e-11,9.999999701976783e-11,1.309999961058959,0.14999999562965177,-0.4999999849988393,-0.4999999849988393,-1.2999999611569824,1.309999961058959,-0.14999999542965176,0.49999998519883926,0.49999998519883926,1.2999999613569824,9.999999701976783e-11,0.1999999941395357,9.999999701976783e-11,0.14999999562965177,-0.14999999542965176,-0.1999999939395357,9.999999701976783e-11,-0.1999999939395357,9.999999701976783e-11,0.14999999562965177,-0.14999999542965176,0.1999999941395357,0.49999998519883926,0.49999998519883926
static,5e-11,5e-11,1.3099999805294789,0.14999999781482581,-0.4999999924994194,-0.4999999924994194,-1.2999999805784905,1.3099999805294789,-0.1499999977148258,0.4999999925994194,0.4999999925994194,1.2999999806784905,5e-11,0.1999999970697678,5e-11,0.14999999781482581,-0.1499999977148258,-0.19999999696976778,5e-11,-0.19999999696976778,5e-11,0.14999999781482581,-0.1499999977148258,0.1999999970697678,0.4999999925994194,0.4999999925994194
naive,0.012012185007745754,0.00285815015148642,1.3105941352299229,0.1435312503945278,-0.4704146279897488,-0.5020751109588559,-1.3246220651437042,1.2995131120408243,-0.14847067432035826,0.4979422363108886,0.4932332809051328,1.2685363410783503,5e-11,0.1999999970697678,5e-11,0.14999999781482581,-0.1499999977148258,-0.19999999696976778,5e-11,-0.19999999696976778,5e-11,0.14999999781482581,-0.1499999977148258,0.1999999970697678,0.4798591488740497,0.482820603430328
lively,9.999999701976783e-11,9.999999701976783e-11,1.309999961058959,0.14999999562965177,-0.4999999849988393,-0.4999999849988393,-1.2999999611569824,1.309999961058959,-0.14999999542965176,0.49999998519883926,0.49999998519883926,1.2999999613569824,9.999999701976783e-11,0.1999999941395357,9.999999701976783e-11,0.14999999562965177,-0.14999999542965176,-0.1999999939395357,9.999999701976783e-11,-0.1999999939395357,9.999999701976783e-11,0.14999999562965177,-0.14999999542965176,0.1999999941395357,0.49999998519883926,0.49999998519883926
static,5e-11,5e-11,1.3099999805294789,0.14999999781482581,-0.4999999924994194,-0.4999999924994194,-1.2999999805784905,1.3099999805294789,-0.1499999977148258,0.4999999925994194,0.4999999925994194,1.2999999806784905,5e-11,0.1999999970697678,5e-11,0.14999999781482581,-0.1499999977148258,-0.19999999696976778,5e-11,-0.19999999696976778,5e-11,0.14999999781482581,-0.1499999977148258,0.1999999970697678,0.4999999925994194,0.4999999925994194
naive,0.011561396765390803,0.0022112378939806976,1.3102157953259441,0.14366681494828795,-0.4685905074122935,-0.5020038137209252,-1.3251421615677181,1.2992533178431365,-0.14814223660784884,0.4966598291676028,0.4929736743239916,1.2684092941886567,5e-11,0.1999999970697678,5e-11,0.14999999781482581,-0.1499999977148258,-0.19999999696976778,5e-11,-0.19999999696976778,5e-11,0.14999999781482581,-0.1499999977148258,0.1999999970697678,0.4822603148778319,0.4836991010824734
lively,9.999999701976783e-11,9.999999701976783e-11,1.309999961058959,0.14999999562965177,-0.4999999849988393,-0.4999999849988393,-1.2999999611569824,1.309999961058959,-0.14999999542965176,0.49999998519883926,0.49999998519883926,1.2999999613569824,9.999999701976783e-11,0.1999999941395357,9.999999701976783e-11,0.14999999562965177,-0.14999999542965176,-0.1999999939395357,9.999999701976783e-11,-0.1999999939395357,9.999999701976783e-11,0.14999999562965177,-0.14999999542965176,0.1999999941395357,0.49999998519883926,0.49999998519883926
static,5e-11,5e-11,1.3099999805294789,0.14999999781482581,-0.4999999924994194,-0.4999999924994194,-1.2999999805784905,1.3099999805294789,-0.1499999977148258,0.4999999925994194,0.4999999925994194,1.2999999806784905,5e-11,0.1999999970697678,5e-11,0.14999999781482581,-0.1499999977148258,-0.19999999696976778,5e-11,-0.19999999696976778,5e-11,0.14999999781482581,-0.1499999977148258,0.1999999970697678,0.4999999925994194,0.4999999925994194
naive,0.011088196068771261,0.0014879071826835576,1.3098327907644094,0.14381458656625157,-0.4668172190850576,-0.5019232201064264,-1.3255725310979463,1.2990094950453404,-0.14779428878207868,0.4952640849250708,0.492763233840372,1.2682933091639785,5e-11,0.1999999970697678,5e-11,0.14999999781482581,-0.1499999977148258,-0.19999999696976778,5e-11,-0.19999999696976778,5e-11,0.14999999781482581,-0.1499999977148258,0.1999999970697678,0.48474639641901396,0.48463971373666487
lively,9.999999701976783e-11,9.999999701976783e-11,1.309999961058959,0.14999999562965177,-0.4999999849988393,-0.4999999849988393,-1.2999999611569824,1.309999961058959,-0.14999999542965176,0.49999998519883926,0.49999998519883926,1.2999999613569824,9.999999701976783e-11,0.1999999941395357,9.999999701976783e-11,0.14999999562965177,-0.14999999542965176,-0.1999999939395357,9.999999701976783e-11,-0.1999999939395357,9.999999701976783e-11,0.14999999562965177,-0.14999999542965176,0.1999999941395357,0.49999998519883926,0.49999998519883926
static,5e-11,5e-11,1.3099999805294789,0.14999999781482581,-0.4999999924994194,-0.4999999924994194,-1.2999999805784905,1.3099999805294789,-0.1499999977148258,0.4999999925994194,0.4999999925994194,1.2999999806784905,5e-11,0.1999999970697678,5e-11,0.14999999781482581,-0.1499999977148258,-0.19999999696976778,5e-11,-0.19999999696976778,5e-11,0.14999999781482581,-0.1499999977148258,0.1999999970697678,0.4999999925994194,0.4999999925994194
naive,0.010610652518834585,0.0007155733069165891,1.3094621589202604,0.14396968284138134,-0.4651651660854576,-0.5018360821968311,-1.325901076062713,1.2987920928606551,-0.14743971039468265,0.49380471967422035,0.4926106532566283,1.2681933115125719,5e-11,0.1999999970697678,5e-11,0.14999999781482581,-0.1499999977148258,-0.19999999696976778,5e-11,-0.19999999696976778,5e-11,0.14999999781482581,-0.1499999977148258,0.1999999970697678,0.4872274592710449,0.48561050382764687
lively,9.999999701976783e-11,9.999999701976783e-11,1.309999961058959,0.14999999562965177,-0.4999999849988393,-0.4999999849988393,-1.2999999611569824,1.309999961058959,-0.14999999542965176,0.49999998519883926,0.49999998519883926,1.2999999613569824,9.999999701976783e-11,0.1999999941395357,9.999999701976783e-11,0.14999999562965177,-0.14999999542965176,-0.1999999939395357,9.999999701976783e-11,-0.1999999939395357,9.999999701976783e-11,0.14999999562965177,-0.14999999542965176,0.1999999941395357,0.49999998519883926,0.49999998519883926
static,5e-11,5e-11,1.3099999805294789,0.14999999781482581,-0.4999999924994194,-0.4999999924994194,-1.2999999805784905,1.3099999805294789,-0.1499999977148258,0.4999999925994194,0.4999999925994194,1.2999999806784905,5e-11,0.1999999970697678,5e-11,0.14999999781482581,-0.1499999977148258,-0.19999999696976778,5e-11,-0.19999999696976778,5e-11,0.14999999781482581,-0.1499999977148258,0.1999999970697678,0.4999999925994194,0.4999999925994194
naive,0.010120933701847344,-0.00011741595023542573,1.3090999917626878,0.1441353370068386,-0.46360787177564466,-0.50174068623388,-1.3261382483054704,1.2985983592687738,-0.14707229487283324,0.49225470821367473,0.49251461366098886,1.2681078569892166,5e-11,0.1999999970697678,5e-11,0.14999999781482581,-0.1499999977148258,-0.19999999696976778,5e-11,-0.19999999696976778,5e-11,0.14999999781482581,-0.1499999977148258,0.1999999970697678,0.48974971720262334,0.48663086757411955
lively,9.999999701976783e-11,9.999999701976783e-11,1.309999961058959,0.14999999562965177,-0.4999999849988393,-0.4999999849988393,-1.2999999611569824,1.309999961058959,-0.14999999542965176,0.49999998519883926,0.49999998519883926,1.2999999613569824,9.999999701976783e-11,0.1999999941395357,9.999999701976783e-11,0.14999999562965177,-0.14999999542965176,-0.1999999939395357,9.999999701976783e-11,-0.1999999939395357,9.999999701976783e-11,0.14999999562965177,-0.14999999542965176,0.1999999941395357,0.49999998519883926,0.49999998519883926
static,5e-11,5e-11,1.3099999805294789,0.14999999781482581,-0.4999999924994194,-0.4999999924994194,-1.2999999805784905,1.3099999805294789,-0.1499999977148258,0.4999999925994194,0.4999999925994194,1.2999999806784905,5e-11,0.1999999970697678,5e-11,0.14999999781482581,-0.1499999977148258,-0.19999999696976778,5e-11,-0.19999999696976778,5e-11,0.14999999781482581,-0.1499999977148258,0.1999999970697678,0.4999999925994194,0.4999999925994194
naive,0.00959347293023094,-0.0010576455922896315,1.3087319107299586,0.14432177311778233,-0.4620811708614079,-0.5016309463240687,-1.3262888512531619,1.298422731024284,-0.14667195907299999,0.49052303272178965,0.492480333906691,1.268034740821164,5e-11,0.1999999970697678,5e-11,0.14999999781482581,-0.1499999977148258,-0.19999999696976778,5e-11,-0.19999999696976778,5e-11,0.14999999781482581,-0.1499999977148258,0.1999999970697678,0.4924482879261515,0.48776066258809814
lively,9.999999701976783e-11,9.999999701976783e-11,1.309999961058959,0.14999999562965177,-0.4999999849988393,-0.4999999849988393,-1.2999999611569824,1.309999961058959,-0.14999999542965176,0.49999998519883926,0.49999998519883926,1.2999999613569824,9.999999701976783e-11,0.1999999941395357,9.999999701976783e-11,0.14999999562965177,-0.14999999542965176,-0.1999999939395357,9.999999701976783e-11,-0.1999999939395357,9.999999701976783e-11,0.14999999562965177,-0.14999999542965176,0.1999999941395357,0.49999998519883926,0.49999998519883926
static,5e-11,5e-11,1.3099999805294789,0.14999999781482581,-0.4999999924994194,-0.4999999924994194,-1.2999999805784905,1.3099999805294789,-0.1499999977148258,0.4999999925994194,0.4999999925994194,1.2999999806784905,5e-11,0.1999999970697678,5e-11,0.14999999781482581,-0.1499999977148258,-0.19999999696976778,5e-11,-0.19999999696976778,5e-11,0.14999999781482581,-0.1499999977148258,0.1999999970697678,0.4999999925994194,0.4999999925994194
naive,0.009122873118756274,-0.001931457996351181,1.3084244428287104,0.1444956912938322,-0.4608494677671443,-0.5015266206880283,-1.326335433819055,1.2982955244038004,-0.1463104401104544,0.488921160670356,0.49251226055353087,1.2679859730458616,5e-11,0.1999999970697678,5e-11,0.14999999781482581,-0.1499999977148258,-0.19999999696976778,5e-11,-0.19999999696976778,5e-11,0.14999999781482581,-0.1499999977148258,0.1999999970697678,0.49484538266183997,0.4887980204772272
lively,9.999999701976783e-11,9.999999701976783e-11,1.309999961058959,0.14999999562965177,-0.4999999849988393,-0.4999999849988393,-1.2999999611569824,1.309999961058959,-0.14999999542965176,0.49999998519883926,0.49999998519883926,1.2999999613569824,9.999999701976783e-11,0.1999999941395357,9.999999701976783e-11,0.14999999562965177,-0.14999999542965176,-0.1999999939395357,9.999999701976783e-11,-0.1999999939395357,9.999999701976783e-11,0.14999999562965177,-0.14999999542965176,0.1999999941395357,0.49999998519883926,0.49999998519883926
static,5e-11,5e-11,1.3099999805294789,0.14999999781482581,-0.4999999924994194,-0.4999999924994194,-1.2999999805784905,1.3099999805294789,-0.1499999977148258,0.4999999925994194,0.4999999925994194,1.2999999806784905,5e-11,0.1999999970697678,5e-11,0.14999999781482581,-0.1499999977148258,-0.19999999696976778,5e-11,-0.19999999696976778,5e-11,0.14999999781482581,-0.1499999977148258,0.1999999970697678,0.4999999925994194,0.4999999925994194
naive,0.008603118673773606,-0.0029317681060049105,1.3081099813275796,0.14469684725075943,-0.45963296707549517,-0.5014038310703739,-1.3262920381775936,1.2981886952486292,-0.14590601688558122,0.48708583903270297,0.49261966600768803,1.2679503936754333,5e-11,0.1999999970697678,5e-11,0.14999999781482581,-0.1499999977148258,-0.19999999696976778,5e-11,-0.19999999696976778,5e-11,0.14999999781482581,-0.1499999977148258,0.1999999970697678,0.49748654880701487,0.48997878175210824
lively,9.999999701976783e-11,9.999999701976783e-11,1.309999961058959,0.14999999562965177,-0.4999999849988393,-0.4999999849988393,-1.2999999611569824,1.309999961058959,-0.14999999542965176,0.49999998519883926,0.49999998519883926,1.2999999613569824,9.999999701976783e-11,0.1999999941395357,9.999999701976783e-11,0.14999999562965177,-0.14999999542965176,-0.1999999939395357,9.999999701976783e-11,-0.1999999939395357,9.999999701976783e-11,0.14999999562965177,-0.14999999542965176,0.1999999941395357,0.49999998519883926,0.49999998519883926
static,5e-11,5e-11,1.3099999805294789,0.14999999781482581,-0.4999999924994194,-0.4999999924994194,-1.2999999805784905,1.3099999805294789,-0.1499999977148258,0.4999999925994194,0.4999999925994194,1.2999999806784905,5e-11,0.1999999970697678,5e-11,0.14999999781482581,-0.1499999977148258,-0.19999999696976778,5e-11,-0.19999999696976778,5e-11,0.14999999781482581,-0.1499999977148258,0.1999999970697678,0.4999999925994194,0.4999999925994194
naive,0.008160287306955765,-0.003810645390214134,1.3078648742750494,0.14487647385530952,-0.4587182437133118,-0.5012923360113726,-1.326175229657131,1.2981272074907773,-0.14555685643518923,0.4854634736016955,0.4927749145480739,1.2679356903928176,5e-11,0.1999999970697678,5e-11,0.14999999781482581,-0.1499999977148258,-0.19999999696976778,5e-11,-0.19999999696976778,5e-11,0.14999999781482581,-0.1499999977148258,0.1999999970697678,0.4997354184390898,0.4910163106162715
lively,9.999999701976783e-11,9.999999701976783e-11,1.309999961058959,0.14999999562965177,-0.4999999849988393,-0.4999999849988393,-1.2999999611569824,1.309999961058959,-0.14999999542965176,0.49999998519883926,0.49999998519883926,1.2999999613569824,9.999999701976783e-11,0.1999999941395357,9.999999701976783e-11,0.14999999562965177,-0.14999999542965176,-0.1999999939395357,9.999999701976783e-11,-0.1999999939395357,9.999999701976783e-11,0.14999999562965177,-0.14999999542965176,0.1999999941395357,0.49999998519883926,0.49999998519883926
static,5e-11,5e-11,1.3099999805294789,0.14999999781482581,-0.4999999924994194,-0.4999999924994194,-1.2999999805784905,1.3099999805294789,-0.1499999977148258,0.4999999925994194,0.4999999925994194,1.2999999806784905,5e-11,0.1999999970697678,5e-11,0.14999999781482581,-0.1499999977148258,-0.19999999696976778,5e-11,-0.19999999696976778,5e-11,0.14999999781482581,-0.1499999977148258,0.1999999970697678,0.4999999925994194,0.4999999925994194
naive,0.007687825775982409,-0.004772372389677126,1.3076289635425518,0.1450773866450105,-0.4578704791843529,-0.5011655326477842,-1.3259657805356873,1.2980939522983337,-0.1451793163801563,0.48366799421051776,0.4930105630741094,1.2679366741056317,5e-11,0.1999999970697678,5e-11,0.14999999781482581,-0.1499999977148258,-0.19999999696976778,5e-11,-0.19999999696976778,5e-11,0.14999999781482581,-0.1499999977148258,0.1999999970697678,0.5021370154319862,0.49215810377937397
lively,9.999999701976783e-11,9.999999701976783e-11,1.309999961058959,0.14999999562965177,-0.4999999849988393,-0.4999999849988393,-1.2999999611569824,1.309999961058959,-0.14999999542965176,0.49999998519883926,0.49999998519883926,1.2999999613569824,9.999999701976783e-11,0.1999999941395357,9.999999701976783e-11,0.14999999562965177,-0.14999999542965176,-0.1999999939395357,9.999999701976783e-11,-0.1999999939395357,9.999999701976783e-11,0.14999999562965177,-0.14999999542965176,0.1999999941395357,0.49999998519883926,0.49999998519883926
static,5e-11,5e-11,1.3099999805294789,0.14999999781482581,-0.4999999924994194,-0.4999999924994194,-1.2999999805784905,1.3099999805294789,-0.1499999977148258,0.4999999925994194,0.4999999925994194,1.2999999806784905,5e-11,0.1999999970697678,5e-11,0.14999999781482581,-0.1499999977148258,-0.19999999696976778,5e-11,-0.19999999696976778,5e-11,0.14999999781482581,-0.1499999977148258,0.1999999970697678,0.4999999925994194,0.4999999925994194
naive,0.007208547469309128,-0.005769681458053526,1.3074197247766959,0.14529212723444576,-0.4571528412701977,-0.5010273798129147,-1.325656836835233,1.298097708562897,-0.14479064613900763,0.4817719826020338,0.4933305524577472,1.2679565997019777,5e-11,0.1999999970697678,5e-11,0.14999999781482581,-0.1499999977148258,-0.19999999696976778,5e-11,-0.19999999696976778,5e-11,0.14999999781482581,-0.1499999977148258,0.1999999970697678,0.5045792869860495,0.49335652512084155
lively,9.999999701976783e-11,9.999999701976783e-11,1.309999961058959,0.14999999562965177,-0.4999999849988393,-0.4999999849988393,-1.2999999611569824,1.309999961058959,-0.14999999542965176,0.49999998519883926,0.49999998519883926,1.2999999613569824,9.999999701976783e-11,0.1999999941395357,9.999999701976783e-11,0.14999999562965177,-0.14999999542965176,-0.1999999939395357,9.999999701976783e-11,-0.1999999939395357,9.999999701976783e-11,0.14999999562965177,-0.14999999542965176,0.1999999941395357,0.49999998519883926,0.49999998519883926
static,5e-11,5e-11,1.3099999805294789,0.14999999781482581,-0.4999999924994194,-0.4999999924994194,-1.2999999805784905,1.3099999805294789,-0.1499999977148258,0.4999999925994194,0.4999999925994194,1.2999999806784905,5e-11,0.1999999970697678,5e-11,0.14999999781482581,-0.1499999977148258,-0.19999999696976778,5e-11,-0.19999999696976778,5e-11,0.14999999781482581,-0.1499999977148258,0.1999999970697678,0.4999999925994194,0.4999999925994194
naive,0.006781536940622174,-0.006672780086836353,1.3072620079209845,0.14549393049096557,-0.4566425836284744,-0.5008949002399852,-1.3252907652305546,1.2981366679081991,-0.14443921559151585,0.48001257122685154,0.4936918928555854,1.2679920980629515,5e-11,0.1999999970697678,5e-11,0.14999999781482581,-0.1499999977148258,-0.19999999696976778,5e-11,-0.19999999696976778,5e-11,0.14999999781482581,-0.1499999977148258,0.1999999970697678,0.5067633118353324,0.4944616496833437
lively,9.999999701976783e-11,9.999999701976783e-11,1.309999961058959,0.14999999562965177,-0.4999999849988393,-0.4999999849988393,-1.2999999611569824,1.309999961058959,-0.14999999542965176,0.49999998519883926,0.49999998519883926,1.2999999613569824,9.999999701976783e-11,0.1999999941395357,9.999999701976783e-11,0.14999999562965177,-0.14999999542965176,-0.1999999939395357,9.999999701976783e-11,-0.1999999939395357,9.999999701976783e-11,0.14999999562965177,-0.14999999542965176,0.1999999941395357,0.49999998519883926,0.49999998519883926
static,5e-11,5e-11,1.3099999805294789,0.14999999781482581,-0.4999999924994194,-0.4999999924994194,-1.2999999805784905,1.3099999805294789,-0.1499999977148258,0.4999999925994194,0.4999999925994194,1.2999999806784905,5e-11,0.1999999970697678,5e-11,0.14999999781482581,-0.1499999977148258,-0.19999999696976778,5e-11,-0.19999999696976778,5e-11,0.14999999781482581,-0.1499999977148258,0.1999999970697678,0.4999999925994194,0.4999999925994194
naive,0.006351857717711743,-0.00759066043886675,1.307134311982692,0.14570838025100202,-0.45626239684790754,-0.5007514608008666,-1.3248239250410636,1.2982144827681452,-0.1440804101193365,0.4781674430868416,0.49413696283647907,1.2680469931688187,5e-11,0.1999999970697678,5e-11,0.14999999781482581,-0.1499999977148258,-0.19999999696976778,5e-11,-0.19999999696976778,5e-11,0.14999999781482581,-0.1499999977148258,0.1999999970697678,0.5089713608250472,0.49561288981252605
lively,9.999999701976783e-11,9.999999701976783e-11,1.309999961058959,0.14999999562965177,-0.4999999849988393,-0.4999999849988393,-1.2999999611569824,1.309999961058959,-0.14999999542965176,0.49999998519883926,0.49999998519883926,1.2999999613569824,9.999999701976783e-11,0.1999999941395357,9.999999701976783e-11,0.14999999562965177,-0.14999999542965176,-0.1999999939395357,9.999999701976783e-11,-0.1999999939395357,9.999999701976783e-11,0.14999999562965177,-0.14999999542965176,0.1999999941395357,0.49999998519883926,0.49999998519883926
static,5e-11,5e-11,1.3099999805294789,0.14999999781482581,-0.4999999924994194,-0.4999999924994194,-1.2999999805784905,1.3099999805294789,-0.1499999977148258,0.4999999925994194,0.4999999925994194,1.2999999806784905,5e-11,0.1999999970697678,5e-11,0.14999999781482581,-0.1499999977148258,-0.19999999696976778,5e-11,-0.19999999696976778,5e-11,0.14999999781482581,-0.1499999977148258,0.1999999970697678,0.4999999925994194,0.4999999925994194
naive,0.005936902038151186,-0.00847995720682327,1.3070448160339219,0.14592797815533967,-0.45603483385166504,-0.5006020853044497,-1.324263619577814,1.2983322356590175,-0.1437287704673968,0.47630520418567496,0.4946548206280082,1.2681213640131639,5e-11,0.1999999970697678,5e-11,0.14999999781482581,-0.1499999977148258,-0.19999999696976778,5e-11,-0.19999999696976778,5e-11,0.14999999781482581,-0.1499999977148258,0.1999999970697678,0.5111159112880839,0.49676594864915896
lively,9.999999701976783e-11,9.999999701976783e-11,1.309999961058959,0.14999999562965177,-0.4999999849988393,-0.4999999849988393,-1.2999999611569824,1.309999961058959,-0.14999999542965176,0.49999998519883926,0.49999998519883926,1.2999999613569824,9.999999701976783e-11,0.1999999941395357,9.999999701976783e-11,0.14999999562965177,-0.14999999542965176,-0.1999999939395357,9.999999701976783e-11,-0.1999999939395357,9.999999701976783e-11,0.14999999562965177,-0.14999999542965176,0.1999999941395357,0.49999998519883926,0.49999998519883926
static,5e-11,5e-11,1.3099999805294789,0.14999999781482581,-0.4999999924994194,-0.4999999924994194,-1.2999999805784905,1.3099999805294789,-0.1499999977148258,0.4999999925994194,0.4999999925994194,1.2999999806784905,5e-11,0.1999999970697678,5e-11,0.14999999781482581,-0.1499999977148258,-0.19999999696976778,5e-11,-0.19999999696976778,5e-11,0.14999999781482581,-0.1499999977148258,0.1999999970697678,0.4999999925994194,0.4999999925994194
naive,0.005560915689953655,-0.009281514649766502,1.306996967560139,0.14613931522422133,-0.45596092577469777,-0.5004563767426868,-1.3236449411984503,1.2984815836054604,-0.14340574075146936,0.47454012795481837,0.49520980771841366,1.2682106257402823,5e-11,0.1999999970697678,5e-11,0.14999999781482581,-0.1499999977148258,-0.19999999696976778,5e-11,-0.19999999696976778,5e-11,0.14999999781482581,-0.1499999977148258,0.1999999970697678,0.5130710019774162,0.497849565528364
lively,9.999999701976783e-11,9.999999701976783e-11,1.309999961058959,0.14999999562965177,-0.4999999849988393,-0.4999999849988393,-1.2999999611569824,1.309999961058959,-0.14999999542965176,0.49999998519883926,0.49999998519883926,1.2999999613569824,9.999999701976783e-11,0.1999999941395357,9.999999701976783e-11,0.14999999562965177,-0.14999999542965176,-0.1999999939395357,9.999999701976783e-11,-0.1999999939395357,9.999999701976783e-11,0.14999999562965177,-0.14999999542965176,0.1999999941395357,0.49999998519883926,0.49999998519883926
static,5e-11,5e-11,1.3099999805294789,0.14999999781482581,-0.4999999924994194,-0.4999999924994194,-1.2999999805784905,1.3099999805294789,-0.1499999977148258,0.4999999925994194,0.4999999925994194,1.2999999806784905,5e-11,0.1999999970697678,5e-11,0.14999999781482581,-0.1499999977148258,-0.19999999696976778,5e-11,-0.19999999696976778,5e-11,0.14999999781482581,-0.1499999977148258,0.1999999970697678,0.4999999925994194,0.4999999925994194
naive,0.0051704957045627985,-0.010100163608489497,1.306986609769704,0.14637349243853975,-0.45603555757252057,-0.5002933024792531,-1.3228654488329854,1.2986884536293233,-0.1430660136149858,0.472616995274343,0.49588666334178094,1.2683309087477839,5e-11,0.1999999970697678,5e-11,0.14999999781482581,-0.1499999977148258,-0.19999999696976778,5e-11,-0.19999999696976778,5e-11,0.14999999781482581,-0.1499999977148258,0.1999999970697678,0.5151142138443905,0.49901833653585403
lively,9.999999701976783e-11,9.999999701976783e-11,1.309999961058959,0.14999999562965177,-0.4999999849988393,-0.4999999849988393,-1.2999999611569824,1.309999961058959,-0.14999999542965176,0.49999998519883926,0.49999998519883926,1.2999999613569824,9.999999701976783e-11,0.1999999941395357,9.999999701976783e-11,0.14999999562965177,-0.14999999542965176,-0.1999999939395357,9.999999701976783e-11,-0.1999999939395357,9.999999701976783e-11,0.14999999562965177,-0.14999999542965176,0.1999999941395357,0.49999998519883926,0.49999998519883926
static,5e-11,5e-11,1.3099999805294789,0.14999999781482581,-0.4999999924994194,-0.4999999924994194,-1.2999999805784905,1.3099999805294789,-0.1499999977148258,0.4999999925994194,0.4999999925994194,1.2999999806784905,5e-11,0.1999999970697678,5e-11,0.14999999781482581,-0.1499999977148258,-0.19999999696976778,5e-11,-0.19999999696976778,5e-11,0.14999999781482581,-0.1499999977148258,0.1999999970697678,0.4999999925994194,0.4999999925994194
naive,0.004864521143825941,-0.010723016637571527,1.3070115964598117,0.14656950346289563,-0.456217905420736,-0.5001560692938342,-1.3221333039899177,1.2988955614972337,-0.1427970428016125,0.4710353243065986,0.49650104620418334,1.268450384765387,5e-11,0.1999999970697678,5e-11,0.14999999781482581,-0.1499999977148258,-0.19999999696976778,5e-11,-0.19999999696976778,5e-11,0.14999999781482581,-0.1499999977148258,0.1999999970697678,0.5167248129905374,0.4999687467986262
lively,9.999999701976783e-11,9.999999701976783e-11,1.309999961058959,0.14999999562965177,-0.4999999849988393,-0.4999999849988393,-1.2999999611569824,1.309999961058959,-0.14999999542965176,0.49999998519883926,0.49999998519883926,1.2999999613569824,9.999999701976783e-11,0.1999999941395357,9.999999701976783e-11,0.14999999562965177,-0.14999999542965176,-0.1999999939395357,9.999999701976783e-11,-0.1999999939395357,9.999999701976783e-11,0.14999999562965177,-0.14999999542965176,0.1999999941395357,0.49999998519883926,0.49999998519883926
static,5e-11,5e-11,1.3099999805294789,0.14999999781482581,-0.4999999924994194,-0.4999999924994194,-1.2999999805784905,1.3099999805294789,-0.1499999977148258,0.4999999925994194,0.4999999925994194,1.2999999806784905,5e-11,0.1999999970697678,5e-11,0.14999999781482581,-0.1499999977148258,-0.19999999696976778,5e-11,-0.19999999696976778,5e-11,0.14999999781482581,-0.1499999977148258,0.1999999970697678,0.4999999925994194,0.4999999925994194
naive,0.004538685718400129,-0.011355679958922005,1.307076610282021,0.14679283216056455,-0.4565521946581658,-0.49999965243923955,-1.3212045420549516,1.2991703484380215,-0.14250871109496865,0.46926661046766494,0.49725179580021434,1.2686100233849165,5e-11,0.1999999970697678,5e-11,0.14999999781482581,-0.1499999977148258,-0.19999999696976778,5e-11,-0.19999999696976778,5e-11,0.14999999781482581,-0.1499999977148258,0.1999999970697678,0.5184477610590857,0.5010177655852858
lively,9.999999701976783e-11,9.999999701976783e-11,1.309999961058959,0.14999999562965177,-0.4999999849988393,-0.4999999849988393,-1.2999999611569824,1.309999961058959,-0.14999999542965176,0.49999998519883926,0.49999998519883926,1.2999999613569824,9.999999701976783e-11,0.1999999941395357,9.999999701976783e-11,0.14999999562965177,-0.14999999542965176,-0.1999999939395357,9.999999701976783e-11,-0.1999999939395357,9.999999701976783e-11,0.14999999562965177,-0.14999999542965176,0.1999999941395357,0.49999998519883926,0.49999998519883926
static,5e-11,5e-11,1.3099999805294789,0.14999999781482581,-0.4999999924994194,-0.4999999924994194,-1.2999999805784905,1.3099999805294789,-0.1499999977148258,0.4999999925994194,0.4999999925994194,1.2999999806784905,5e-11,0.1999999970697678,5e-11,0.14999999781482581,-0.1499999977148258,-0.19999999696976778,5e-11,-0.19999999696976778,5e-11,0.14999999781482581,-0.1499999977148258,0.1999999970697678,0.4999999925994194,0.4999999925994194
naive,0.004276713538054685,-0.011828854805445389,1.3071634199477615,0.14698561671252436,-0.45694443097233634,-0.49986529751739595,-1.3203152974133965,1.2994421757839334,-0.14227644318425856,0.46777068455054965,0.49794141011289667,1.2687710168711535,5e-11,0.1999999970697678,5e-11,0.14999999781482581,-0.1499999977148258,-0.19999999696976778,5e-11,-0.19999999696976778,5e-11,0.14999999781482581,-0.1499999977148258,0.1999999970697678,0.5198365724884347,0.5018914172212817
lively,9.999999701976783e-11,9.999999701976783e-11,1.309999961058959,0.14999999562965177,-0.4999999849988393,-0.4999999849988393,-1.2999999611569824,1.309999961058959,-0.14999999542965176,0.49999998519883926,0.49999998519883926,1.2999999613569824,9.999999701976783e-11,0.1999999941395357,9.999999701976783e-11,0.14999999562965177,-0.14999999542965176,-0.1999999939395357,9.999999701976783e-11,-0.1999999939395357,9.999999701976783e-11,0.14999999562965177,-0.14999999542965176,0.1999999941395357,0.49999998519883926,0.49999998519883926
static,5e-11,5e-11,1.3099999805294789,0.14999999781482581,-0.4999999924994194,-0.4999999924994194,-1.2999999805784905,1.3099999805294789,-0.1499999977148258,0.4999999925994194,0.4999999925994194,1.2999999806784905,5e-11,0.1999999970697678,5e-11,0.14999999781482581,-0.1499999977148258,-0.19999999696976778,5e-11,-0.19999999696976778,5e-11,0.14999999781482581,-0.1499999977148258,0.1999999970697678,0.4999999925994194,0.4999999925994194
naive,0.004018153918960724,-0.012248641862728643,1.307285996114531,0.147190149899882,-0.4574612473045315,-0.4997243072080255,-1.3192746073956374,1.299767647633887,-0.14204835089908954,0.46621784625724616,0.49871309071771874,1.268969696364239,5e-11,0.1999999970697678,5e-11,0.14999999781482581,-0.1499999977148258,-0.19999999696976778,5e-11,-0.19999999696976778,5e-11,0.14999999781482581,-0.1499999977148258,0.1999999970697678,0.5212062324708541,0.5027822554688797
lively,9.999999701976783e-11,9.999999701976783e-11,1.309999961058959,0.14999999562965177,-0.4999999849988393,-0.4999999849988393,-1.2999999611569824,1.309999961058959,-0.14999999542965176,0.49999998519883926,0.49999998519883926,1.2999999613569824,9.999999701976783e-11,0.1999999941395357,9.999999701976783e-11,0.14999999562965177,-0.14999999542965176,-0.1999999939395357,9.999999701976783e-11,-0.1999999939395357,9.999999701976783e-11,0.14999999562965177,-0.14999999542965176,0.1999999941395357,0.49999998519883926,0.49999998519883926
static,5e-11,5e-11,1.3099999805294789,0.14999999781482581,-0.4999999924994194,-0.4999999924994194,-1.2999999805784905,1.3099999805294789,-0.1499999977148258,0.4999999925994194,0.4999999925994194,1.2999999806784905,5e-11,0.1999999970697678,5e-11,0.14999999781482581,-0.1499999977148258,-0.19999999696976778,5e-11,-0.19999999696976778,5e-11,0.14999999781482581,-0.1499999977148258,0.1999999970697678,0.4999999925994194,0.4999999925994194
naive,0.003785313023824412,-0.01256683627252768,1.3074349910076488,0.14738941747433834,-0.4580607519867361,-0.4995894863072794,-1.3181538882032613,1.3001240886364849,-0.1418461315848264,0.46474250565043057,0.4995024503019022,1.2691966324112465,5e-11,0.1999999970697678,5e-11,0.14999999781482581,-0.1499999977148258,-0.19999999696976778,5e-11,-0.19999999696976778,5e-11,0.14999999781482581,-0.1499999977148258,0.1999999970697678,0.5224322854800892,0.5036099123440494
lively,9.999999701976783e-11,9.999999701976783e-11,1.309999961058959,0.14999999562965177,-0.4999999849988393,-0.4999999849988393,-1.2999999611569824,1.309999961058959,-0.14999999542965176,0.49999998519883926,0.49999998519883926,1.2999999613569824,9.999999701976783e-11,0.1999999941395357,9.999999701976783e-11,0.14999999562965177,-0.14999999542965176,-0.1999999939395357,9.999999701976783e-11,-0.1999999939395357,9.999999701976783e-11,0.14999999562965177,-0.14999999542965176,0.1999999941395357,0.49999998519883926,0.49999998519883926
static,5e-11,5e-11,1.3099999805294789,0.14999999781482581,-0.4999999924994194,-0.4999999924994194,-1.2999999805784905,1.3099999805294789,-0.1499999977148258,0.4999999925994194,0.4999999925994194,1.2999999806784905,5e-11,0.1999999970697678,5e-11,0.14999999781482581,-0.1499999977148258,-0.19999999696976778,5e-11,-0.19999999696976778,5e-11,0.14999999781482581,-0.1499999977148258,0.1999999970697678,0.4999999925994194,0.4999999925994194
naive,0.003581571852430957,-0.012775746937263464,1.3076028426488078,0.14757861040737835,-0.4587146238121259,-0.4994649119242142,-1.3169800434135288,1.300501679133653,-0.14167460688667075,0.4633802365356653,0.5002840460050145,1.2694499025291954,5e-11,0.1999999970697678,5e-11,0.14999999781482581,-0.1499999977148258,-0.19999999696976778,5e-11,-0.19999999696976778,5e-11,0.14999999781482581,-0.1499999977148258,0.1999999970697678,0.523490333610775,0.5043536515290338
lively,9.999999701976783e-11,9.999999701976783e-11,1.309999961058959,0.14999999562965177,-0.4999999849988393,-0.4999999849988393,-1.2999999611569824,1.309999961058959,-0.14999999542965176,0.49999998519883926,0.49999998519883926,1.2999999613569824,9.999999701976783e-11,0.1999999941395357,9.999999701976783e-11,0.14999999562965177,-0.14999999542965176,-0.1999999939395357,9.999999701976783e-11,-0.1999999939395357,9.999999701976783e-11,0.14999999562965177,-0.14999999542965176,0.1999999941395357,0.49999998519883926,0.49999998519883926
static,5e-11,5e-11,1.3099999805294789,0.14999999781482581,-0.4999999924994194,-0.4999999924994194,-1.2999999805784905,1.3099999805294789,-0.1499999977148258,0.4999999925994194,0.4999999925994194,1.2999999806784905,5e-11,0.1999999970697678,5e-11,0.14999999781482581,-0.1499999977148258,-0.19999999696976778,5e-11,-0.19999999696976778,5e-11,0.14999999781482581,-0.1499999977148258,0.1999999970697678,0.4999999925994194,0.4999999925994194
naive,0.0034006642451511566,-0.012880031044689743,1.307789038298213,0.14776143677217454,-0.45942247292562066,-0.49934894048085576,-1.315730043734719,1.3009067038978244,-0.14153039536157583,0.46210432565911036,0.501066820996043,1.2697387121327457,5e-11,0.1999999970697678,5e-11,0.14999999781482581,-0.1499999977148258,-0.19999999696976778,5e-11,-0.19999999696976778,5e-11,0.14999999781482581,-0.1499999977148258,0.1999999970697678,0.5244060170203207,0.5050272045322357
lively,9.999999701976783e-11,9.999999701976783e-11,1.309999961058959,0.14999999562965177,-0.4999999849988393,-0.4999999849988393,-1.2999999611569824,1.309999961058959,-0.14999999542965176,0.49999998519883926,0.49999998519883926,1.2999999613569824,9.999999701976783e-11,0.1999999941395357,9.999999701976783e-11,0.14999999562965177,-0.14999999542965176,-0.1999999939395357,9.999999701976783e-11,-0.1999999939395357,9.999999701976783e-11,0.14999999562965177,-0.14999999542965176,0.1999999941395357,0.49999998519883926,0.49999998519883926
static,5e-11,5e-11,1.3099999805294789,0.14999999781482581,-0.4999999924994194,-0.4999999924994194,-1.2999999805784905,1.3099999805294789,-0.1499999977148258,0.4999999925994194,0.4999999925994194,1.2999999806784905,5e-11,0.1999999970697678,5e-11,0.14999999781482581,-0.1499999977148258,-0.19999999696976778,5e-11,-0.19999999696976778,5e-11,0.14999999781482581,-0.1499999977148258,0.1999999970697678,0.4999999925994194,0.4999999925994194
naive,0.0032439256569065447,-0.012878007625306886,1.3079869665048525,0.14793440074214936,-0.4601590649872934,-0.4992445732005317,-1.31442706149813,1.301330735305318,-0.14141644859119237,0.4609394927078574,0.5018298019071683,1.2700622647921729,5e-11,0.1999999970697678,5e-11,0.14999999781482581,-0.1499999977148258,-0.19999999696976778,5e-11,-0.19999999696976778,5e-11,0.14999999781482581,-0.1499999977148258,0.1999999970697678,0.5251655420763202,0.5056164138978405
lively,9.999999701976783e-11,9.999999701976783e-11,1.309999961058959,0.14999999562965177,-0.4999999849988393,-0.4999999849988393,-1.2999999611569824,1.309999961058959,-0.14999999542965176,0.49999998519883926,0.49999998519883926,1.2999999613569824,9.999999701976783e-11,0.1999999941395357,9.999999701976783e-11,0.14999999562965177,-0.14999999542965176,-0.1999999939395357,9.999999701976783e-11,-0.1999999939395357,9.999999701976783e-11,0.14999999562965177,-0.14999999542965176,0.1999999941395357,0.49999998519883926,0.49999998519883926
static,5e-11,5e-11,1.3099999805294789,0.14999999781482581,-0.4999999924994194,-0.4999999924994194,-1.2999999805784905,1.3099999805294789,-0.1499999977148258,0.4999999925994194,0.4999999925994194,1.2999999806784905,5e-11,0.1999999970697678,5e-11,0.14999999781482581,-0.1499999977148258,-0.19999999696976778,5e-11,-0.19999999696976778,5e-11,0.14999999781482581,-0.1499999977148258,0.1999999970697678,0.4999999925994194,0.4999999925994194
naive,0.0030981154127688103,-0.01275899634265515,1.3082116389708094,0.14811121692189644,-0.4609777842192008,-0.4991449972753041,-1.3129535821758316,1.3018113581932982,-0.1413265491117466,0.4597985523933343,0.502629186638616,1.2704574711619003,5e-11,0.1999999970697678,5e-11,0.14999999781482581,-0.1499999977148258,-0.19999999696976778,5e-11,-0.19999999696976778,5e-11,0.14999999781482581,-0.1499999977148258,0.1999999970697678,0.525821012750522,0.506160926155171
lively,9.999999701976783e-11,9.999999701976783e-11,1.309999961058959,0.14999999562965177,-0.4999999849988393,-0.4999999849988393,-1.2999999611569824,1.309999961058959,-0.14999999542965176,0.49999998519883926,0.49999998519883926,1.2999999613569824,9.999999701976783e-11,0.1999999941395357,9.999999701976783e-11,0.14999999562965177,-0.14999999542965176,-0.1999999939395357,9.999999701976783e-11,-0.1999999939395357,9.999999701976783e-11,0.14999999562965177,-0.14999999542965176,0.1999999941395357,0.49999998519883926,0.49999998519883926
static,5e-11,5e-11,1.3099999805294789,0.14999999781482581,-0.4999999924994194,-0.4999999924994194,-1.2999999805784905,1.3099999805294789,-0.1499999977148258,0.4999999925994194,0.4999999925994194,1.2999999806784905,5e-11,0.1999999970697678,5e-11,0.14999999781482581,-0.1499999977148258,-0.19999999696976778,5e-11,-0.19999999696976778,5e-11,0.14999999781482581,-0.1499999977148258,0.1999999970697678,0.4999999925994194,0.4999999925994194
naive,0.002990176157451706,-0.012560640301647039,1.30841163670014,0.1482550513461581,-0.46169192081638716,-0.4990708998761634,-1.3116306106638993,1.3022432576755587,-0.14127700588137954,0.45891448803446405,0.50329097765747,1.270840109551181,5e-11,0.1999999970697678,5e-11,0.14999999781482581,-0.1499999977148258,-0.19999999696976778,5e-11,-0.19999999696976778,5e-11,0.14999999781482581,-0.1499999977148258,0.1999999970697678,0.5262510796074685,0.5065516308962905
lively,9.999999701976783e-11,9.999999701976783e-11,1.309999961058959,0.14999999562965177,-0.4999999849988393,-0.4999999849988393,-1.2999999611569824,1.309999961058959,-0.14999999542965176,0.49999998519883926,0.49999998519883926,1.2999999613569824,9.999999701976783e-11,0.1999999941395357,9.999999701976783e-11,0.14999999562965177,-0.14999999542965176,-0.1999999939395357,9.999999701976783e-11,-0.1999999939395357,9.999999701976783e-11,0.14999999562965177,-0.14999999542965176,0.1999999941395357,0.49999998519883926,0.49999998519883926
static,5e-11,5e-11,1.3099999805294789,0.14999999781482581,-0.4999999924994194,-0.4999999924994194,-1.2999999805784905,1.3099999805294789,-0.1499999977148258,0.4999999925994194,0.4999999925994194,1.2999999806784905,5e-11,0.1999999970697678,5e-11,0.14999999781482581,-0.1499999977148258,-0.19999999696976778,5e-11,-0.19999999696976778,5e-11,0.14999999781482581,-0.1499999977148258,0.1999999970697678,0.4999999925994194,0.4999999925994194
naive,0.0028869751608772156,-0.012236386709191322,1.3086391401893969,0.14840612816712692,-0.4624878958421192,-0.49900174982567946,-1.3100973521436703,1.3027438449730389,-0.14125257684097087,0.4580372150192583,0.5039933140025019,1.2713179283962763,5e-11,0.1999999970697678,5e-11,0.14999999781482581,-0.1499999977148258,-0.19999999696976778,5e-11,-0.19999999696976778,5e-11,0.14999999781482581,-0.1499999977148258,0.1999999970697678,0.5265866614656054,0.5068996871595006
lively,9.999999701976783e-11,9.999999701976783e-11,1.309999961058959,0.14999999562965177,-0.4999999849988393,-0.4999999849988393,-1.2999999611569824,1.309999961058959,-0.14999999542965176,0.49999998519883926,0.49999998519883926,1.2999999613569824,9.999999701976783e-11,0.1999999941395357,9.999999701976783e-11,0.14999999562965177,-0.14999999542965176,-0.1999999939395357,9.999999701976783e-11,-0.1999999939395357,9.999999701976783e-11,0.14999999562965177,-0.14999999542965176,0.1999999941395357,0.49999998519883926,0.49999998519883926
static,5e-11,5e-11,1.3099999805294789,0.14999999781482581,-0.4999999924994194,-0.4999999924994194,-1.2999999805784905,1.3099999805294789,-0.1499999977148258,0.4999999925994194,0.4999999925994194,1.2999999806784905,5e-11,0.1999999970697678,5e-11,0.14999999781482581,-0.1499999977148258,-0.19999999696976778,5e-11,-0.19999999696976778,5e-11,0.14999999781482581,-0.1499999977148258,0.1999999970697678,0.4999999925994194,0.4999999925994194
naive,0.002807200635801403,-0.011849479474654392,1.3088474730928878,0.14853464178145234,-0.4632017307205708,-0.4989519419834364,-1.3086539143454474,1.3032150257707307,-0.14125894333388228,0.45734110192646865,0.5045924096088628,1.2718027517602402,5e-11,0.1999999970697678,5e-11,0.14999999781482581,-0.1499999977148258,-0.19999999696976778,5e-11,-0.19999999696976778,5e-11,0.14999999781482581,-0.1499999977148258,0.1999999970697678,0.526761877065101,0.5071332395809925
lively,9.999999701976783e-11,9.999999701976783e-11,1.309999961058959,0.14999999562965177,-0.4999999849988393,-0.4999999849988393,-1.2999999611569824,1.309999961058959,-0.14999999542965176,0.49999998519883926,0.49999998519883926,1.2999999613569824,9.999999701976783e-11,0.1999999941395357,9.999999701976783e-11,0.14999999562965177,-0.14999999542965176,-0.1999999939395357,9.999999701976783e-11,-0.1999999939395357,9.999999701976783e-11,0.14999999562965177,-0.14999999542965176,0.1999999941395357,0.49999998519883926,0.49999998519883926
static,5e-11,5e-11,1.3099999805294789,0.14999999781482581,-0.4999999924994194,-0.4999999924994194,-1.2999999805784905,1.3099999805294789,-0.1499999977148258,0.4999999925994194,0.4999999925994194,1.2999999806784905,5e-11,0.1999999970697678,5e-11,0.14999999781482581,-0.1499999977148258,-0.19999999696976778,5e-11,-0.19999999696976778,5e-11,0.14999999781482581,-0.1499999977148258,0.1999999970697678,0.4999999925994194,0.4999999925994194
naive,0.0027329515964533645,-0.011325989067157068,1.3090752997458086,0.1486660069673736,-0.46396628318926836,-0.4989122160742523,-1.3070165585059337,1.3037495063210118,-0.14129759671740932,0.456688434170085,0.5052005116053213,1.2723952993908887,5e-11,0.1999999970697678,5e-11,0.14999999781482581,-0.1499999977148258,-0.19999999696976778,5e-11,-0.19999999696976778,5e-11,0.14999999781482581,-0.1499999977148258,0.1999999970697678,0.5268149011096074,0.50729619743629
lively,9.999999701976783e-11,9.999999701976783e-11,1.309999961058959,0.14999999562965177,-0.4999999849988393,-0.4999999849988393,-1.2999999611569824,1.309999961058959,-0.14999999542965176,0.49999998519883926,0.49999998519883926,1.2999999613569824,9.999999701976783e-11,0.1999999941395357,9.999999701976783e-11,0.14999999562965177,-0.14999999542965176,-0.1999999939395357,9.999999701976783e-11,-0.1999999939395357,9.999999701976783e-11,0.14999999562965177,-0.14999999542965176,0.1999999941395357,0.49999998519883926,0.49999998519883926
static,5e-11,5e-11,1.3099999805294789,0.14999999781482581,-0.4999999924994194,-0.4999999924994194,-1.2999999805784905,1.3099999805294789,-0.1499999977148258,0.4999999925994194,0.4999999925994194,1.2999999806784905,5e-11,0.1999999970697678,5e-11,0.14999999781482581,-0.1499999977148258,-0.19999999696976778,5e-11,-0.19999999696976778,5e-11,0.14999999781482581,-0.1499999977148258,0.1999999970697678,0.4999999925994194,0.4999999925994194
naive,0.0026775678797724407,-0.010783223194663684,1.3092724448362447,0.1487729766077623,-0.4646150845997994,-0.49889072766575654,-1.30553494978189,1.3042333977192098,-0.1413590807934989,0.456211422701515,0.5056863865416825,1.272971733469259,5e-11,0.1999999970697678,5e-11,0.14999999781482581,-0.1499999977148258,-0.19999999696976778,5e-11,-0.19999999696976778,5e-11,0.14999999781482581,-0.1499999977148258,0.1999999970697678,0.5267440606535775,0.5073562938415117
lively,9.999999701976783e-11,9.999999701976783e-11,1.309999961058959,0.14999999562965177,-0.4999999849988393,-0.4999999849988393,-1.2999999611569824,1.309999961058959,-0.14999999542965176,0.49999998519883926,0.49999998519883926,1.2999999613569824,9.999999701976783e-11,0.1999999941395357,9.999999701976783e-11,0.14999999562965177,-0.14999999542965176,-0.1999999939395357,9.999999701976783e-11,-0.1999999939395357,9.999999701976783e-11,0.14999999562965177,-0.14999999542965176,0.1999999941395357,0.49999998519883926,0.49999998519883926
static,5e-11,5e-11,1.3099999805294789,0.14999999781482581,-0.4999999924994194,-0.4999999924994194,-1.2999999805784905,1.3099999805294789,-0.1499999977148258,0.4999999925994194,0.4999999925994194,1.2999999806784905,5e-11,0.1999999970697678,5e-11,0.14999999781482581,-0.1499999977148258,-0.19999999696976778,5e-11,-0.19999999696976778,5e-11,0.14999999781482581,-0.1499999977148258,0.1999999970697678,0.4999999925994194,0.4999999925994194
naive,0.002628148511171284,-0.010140276403447642,1.3094719543246502,0.14887576933474406,-0.46526112286113963,-0.49888209658073934,-1.3039560833833514,1.3047497051531245,-0.14145017320334577,0.4558104109801453,0.5061378510989666,1.2736292123142157,5e-11,0.1999999970697678,5e-11,0.14999999781482581,-0.1499999977148258,-0.19999999696976778,5e-11,-0.19999999696976778,5e-11,0.14999999781482581,-0.1499999977148258,0.1999999970697678,0.5265580312266835,0.5073341828975033
lively,9.999999701976783e-11,9.999999701976783e-11,1.309999961058959,0.14999999562965177,-0.4999999849988393,-0.4999999849988393,-1.2999999611569824,1.309999961058959,-0.14999999542965176,0.49999998519883926,0.49999998519883926,1.2999999613569824,9.999999701976783e-11,0.1999999941395357,9.999999701976783e-11,0.14999999562965177,-0.14999999542965176,-0.1999999939395357,9.999999701976783e-11,-0.1999999939395357,9.999999701976783e-11,0.14999999562965177,-0.14999999542965176,0.1999999941395357,0.49999998519883926,0.49999998519883926
static,5e-11,5e-11,1.3099999805294789,0.14999999781482581,-0.4999999924994194,-0.4999999924994194,-1.2999999805784905,1.3099999805294789,-0.1499999977148258,0.4999999925994194,0.4999999925994194,1.2999999806784905,5e-11,0.1999999970697678,5e-11,0.14999999781482581,-0.1499999977148258,-0.19999999696976778,5e-11,-0.19999999696976778,5e-11,0.14999999781482581,-0.1499999977148258,0.1999999970697678,0.4999999925994194,0.4999999925994194
naive,0.002585501117091235,-0.009422209187053263,1.3096632758004616,0.14897001528969175,-0.46587342505852125,-0.4988876610935893,-1.3023442194936994,1.3052779932854663,-0.1415682717368173,0.45550378827492766,0.5065291849466729,1.274347229156788,5e-11,0.1999999970697678,5e-11,0.14999999781482581,-0.1499999977148258,-0.19999999696976778,5e-11,-0.19999999696976778,5e-11,0.14999999781482581,-0.1499999977148258,0.1999999970697678,0.5262636782773065,0.5072244199965572
lively,9.999999701976783e-11,9.999999701976783e-11,1.309999961058959,0.14999999562965177,-0.4999999849988393,-0.4999999849988393,-1.2999999611569824,1.309999961058959,-0.14999999542965176,0.49999998519883926,0.49999998519883926,1.2999999613569824,9.999999701976783e-11,0.1999999941395357,9.999999701976783e-11,0.14999999562965177,-0.14999999542965176,-0.1999999939395357,9.999999701976783e-11,-0.1999999939395357,9.999999701976783e-11,0.14999999562965177,-0.14999999542965176,0.1999999941395357,0.49999998519883926,0.49999998519883926
static,5e-11,5e-11,1.3099999805294789,0.14999999781482581,-0.4999999924994194,-0.4999999924994194,-1.2999999805784905,1.3099999805294789,-0.1499999977148258,0.4999999925994194,0.4999999925994194,1.2999999806784905,5e-11,0.1999999970697678,5e-11,0.14999999781482581,-0.1499999977148258,-0.19999999696976778,5e-11,-0.19999999696976778,5e-11,0.14999999781482581,-0.1499999977148258,0.1999999970697678,0.4999999925994194,0.4999999925994194
naive,0.0025500790316020133,-0.008681201632086664,1.3098340424079347,0.14905139500510597,-0.46641812882966943,-0.49890590475178404,-1.3007986134396754,1.3057861926237289,-0.14170326448406578,0.4552961593064669,0.5068394402902198,1.2750803516497164,5e-11,0.1999999970697678,5e-11,0.14999999781482581,-0.1499999977148258,-0.19999999696976778,5e-11,-0.19999999696976778,5e-11,0.14999999781482581,-0.1499999977148258,0.1999999970697678,0.5258946752660704,0.5070402189264289
lively,9.999999701976783e-11,9.999999701976783e-11,1.309999961058959,0.14999999562965177,-0.4999999849988393,-0.4999999849988393,-1.2999999611569824,1.309999961058959,-0.14999999542965176,0.49999998519883926,0.49999998519883926,1.2999999613569824,9.999999701976783e-11,0.1999999941395357,9.999999701976783e-11,0.14999999562965177,-0.14999999542965176,-0.1999999939395357,9.999999701976783e-11,-0.1999999939395357,9.999999701976783e-11,0.14999999562965177,-0.14999999542965176,0.1999999941395357,0.49999998519883926,0.49999998519883926
static,5e-11,5e-11,1.3099999805294789,0.14999999781482581,-0.4999999924994194,-0.4999999924994194,-1.2999999805784905,1.3099999805294789,-0.1499999977148258,0.4999999925994194,0.4999999925994194,1.2999999806784905,5e-11,0.1999999970697678,5e-11,0.14999999781482581,-0.1499999977148258,-0.19999999696976778,5e-11,-0.19999999696976778,5e-11,0.14999999781482581,-0.1499999977148258,0.1999999970697678,0.4999999925994194,0.4999999925994194
naive,0.0025152961728577908,-0.00780854267444855,1.3100074484475888,0.14913256061709304,-0.46697692609296365,-0.49893993831009376,-1.299089178672293,1.3063506407189376,-0.14187465041947214,0.455150876888637,0.5071099652874237,1.2759412223320092,5e-11,0.1999999970697678,5e-11,0.14999999781482581,-0.1499999977148258,-0.19999999696976778,5e-11,-0.19999999696976778,5e-11,0.14999999781482581,-0.1499999977148258,0.1999999970697678,0.5254027167625024,0.5067507647282237
lively,9.999999701976783e-11,9.999999701976783e-11,1.309999961058959,0.14999999562965177,-0.4999999849988393,-0.4999999849988393,-1.2999999611569824,1.309999961058959,-0.14999999542965176,0.49999998519883926,0.49999998519883926,1.2999999613569824,9.999999701976783e-11,0.1999999941395357,9.999999701976783e-11,0.14999999562965177,-0.14999999542965176,-0.1999999939395357,9.999999701976783e-11,-0.1999999939395357,9.999999701976783e-11,0.14999999562965177,-0.14999999542965176,0.1999999941395357,0.49999998519883926,0.49999998519883926
static,5e-11,5e-11,1.3099999805294789,0.14999999781482581,-0.4999999924994194,-0.4999999924994194,-1.2999999805784905,1.3099999805294789,-0.1499999977148258,0.4999999925994194,0.4999999925994194,1.2999999806784905,5e-11,0.1999999970697678,5e-11,0.14999999781482581,-0.1499999977148258,-0.19999999696976778,5e-11,-0.19999999696976778,5e-11,0.14999999781482581,-0.1499999977148258,0.1999999970697678,0.4999999925994194,0.4999999925994194
naive,0.0024883556993478485,-0.0070328751703038015,1.3101407115857473,0.14919514329516073,-0.4674189265196355,-0.49897932374579557,-1.297644534773523,1.306829899556488,-0.14203499499288086,0.4550843368585972,0.5072807714721331,1.276707785713108,5e-11,0.1999999970697678,5e-11,0.14999999781482581,-0.1499999977148258,-0.19999999696976778,5e-11,-0.19999999696976778,5e-11,0.14999999781482581,-0.1499999977148258,0.1999999970697678,0.5249315040021063,0.5064396974563572
lively,9.999999701976783e-11,9.999999701976783e-11,1.309999961058959,0.14999999562965177,-0.4999999849988393,-0.4999999849988393,-1.2999999611569824,1.309999961058959,-0.14999999542965176,0.49999998519883926,0.49999998519883926,1.2999999613569824,9.999999701976783e-11,0.1999999941395357,9.999999701976783e-11,0.14999999562965177,-0.14999999542965176,-0.1999999939395357,9.999999701976783e-11,-0.1999999939395357,9.999999701976783e-11,0.14999999562965177,-0.14999999542965176,0.1999999941395357,0.49999998519883926,0.49999998519883926
static,5e-11,5e-11,1.3099999805294789,0.14999999781482581,-0.4999999924994194,-0.4999999924994194,-1.2999999805784905,1.3099999805294789,-0.1499999977148258,0.4999999925994194,0.4999999925994194,1.2999999806784905,5e-11,0.1999999970697678,5e-11,0.14999999781482581,-0.1499999977148258,-0.19999999696976778,5e-11,-0.19999999696976778,5e-11,0.14999999781482581,-0.1499999977148258,0.1999999970697678,0.4999999925994194,0.4999999925994194
naive,0.0024606315339541934,-0.0061508143726130525,1.310272105377943,0.14925874160115757,-0.4678784384346743,-0.4990326565906657,-1.2960651684608475,1.3073562506861918,-0.14222311460036752,0.455054384163376,0.5074094819250905,1.2775828143396966,5e-11,0.1999999970697678,5e-11,0.14999999781482581,-0.1499999977148258,-0.19999999696976778,5e-11,-0.19999999696976778,5e-11,0.14999999781482581,-0.1499999977148258,0.1999999970697678,0.524374378484211,0.5060348855622097
lively,9.999999701976783e-11,9.999999701976783e-11,1.309999961058959,0.14999999562965177,-0.4999999849988393,-0.4999999849988393,-1.2999999611569824,1.309999961058959,-0.14999999542965176,0.49999998519883926,0.49999998519883926,1.2999999613569824,9.999999701976783e-11,0.1999999941395357,9.999999701976783e-11,0.14999999562965177,-0.14999999542965176,-0.1999999939395357,9.999999701976783e-11,-0.1999999939395357,9.999999701976783e-11,0.14999999562965177,-0.14999999542965176,0.1999999941395357,0.49999998519883926,0.49999998519883926
static,5e-11,5e-11,1.3099999805294789,0.14999999781482581,-0.4999999924994194,-0.4999999924994194,-1.2999999805784905,1.3099999805294789,-0.1499999977148258,0.4999999925994194,0.4999999925994194,1.2999999806784905,5e-11,0.1999999970697678,5e-11,0.14999999781482581,-0.1499999977148258,-0.19999999696976778,5e-11,-0.19999999696976778,5e-11,0.14999999781482581,-0.1499999977148258,0.1999999970697678,0.4999999925994194,0.4999999925994194
naive,0.002434519373455476,-0.005248939518752473,1.3103875707223582,0.14931847754371286,-0.4683195155297662,-0.4990950365853737,-1.294501153936749,1.307879601456281,-0.1424182284881127,0.455049284496554,0.5074810364393045,1.2784808958887388,5e-11,0.1999999970697678,5e-11,0.14999999781482581,-0.1499999977148258,-0.19999999696976778,5e-11,-0.19999999696976778,5e-11,0.14999999781482581,-0.1499999977148258,0.1999999970697678,0.523798572734725,0.5055739125983493
lively,9.999999701976783e-11,9.999999701976783e-11,1.309999961058959,0.14999999562965177,-0.4999999849988393,-0.4999999849988393,-1.2999999611569824,1.309999961058959,-0.14999999542965176,0.49999998519883926,0.49999998519883926,1.2999999613569824,9.999999701976783e-11,0.1999999941395357,9.999999701976783e-11,0.14999999562965177,-0.14999999542965176,-0.1999999939395357,9.999999701976783e-11,-0.1999999939395357,9.999999701976783e-11,0.14999999562965177,-0.14999999542965176,0.1999999941395357,0.49999998519883926,0.49999998519883926
static,5e-11,5e-11,1.3099999805294789,0.14999999781482581,-0.4999999924994194,-0.4999999924994194,-1.2999999805784905,1.3099999805294789,-0.1499999977148258,0.4999999925994194,0.4999999925994194,1.2999999806784905,5e-11,0.1999999970697678,5e-11,0.14999999781482581,-0.1499999977148258,-0.19999999696976778,5e-11,-0.19999999696976778,5e-11,0.14999999781482581,-0.1499999977148258,0.1999999970697678,0.4999999925994194,0.4999999925994194
naive,0.0024079710006111566,-0.004300785360753584,1.3104910443950533,0.1493779819293538,-0.468774502999903,-0.49916815634480555,-1.292896720437847,1.3084184054195624,-0.14262292462655862,0.4550528533713307,0.507500797251724,1.2794289845268323,5e-11,0.1999999970697678,5e-11,0.14999999781482581,-0.1499999977148258,-0.19999999696976778,5e-11,-0.19999999696976778,5e-11,0.14999999781482581,-0.1499999977148258,0.1999999970697678,0.5231997817163259,0.5050455410352548
lively,9.999999701976783e-11,9.999999701976783e-11,1.309999961058959,0.14999999562965177,-0.4999999849988393,-0.4999999849988393,-1.2999999611569824,1.309999961058959,-0.14999999542965176,0.49999998519883926,0.49999998519883926,1.2999999613569824,9.999999701976783e-11,0.1999999941395357,9.999999701976783e-11,0.14999999562965177,-0.14999999542965176,-0.1999999939395357,9.999999701976783e-11,-0.1999999939395357,9.999999701976783e-11,0.14999999562965177,-0.14999999542965176,0.1999999941395357,0.49999998519883926,0.49999998519883926
static,5e-11,5e-11,1.3099999805294789,0.14999999781482581,-0.4999999924994194,-0.4999999924994194,-1.2999999805784905,1.3099999805294789,-0.1499999977148258,0.4999999925994194,0.4999999925994194,1.2999999806784905,5e-11,0.1999999970697678,5e-11,0.14999999781482581,-0.1499999977148258,-0.19999999696976778,5e-11,-0.19999999696976778,5e-11,0.14999999781482581,-0.1499999977148258,0.1999999970697678,0.4999999925994194,0.4999999925994194
naive,0.0023752975781304755,-0.003315599986712431,1.3105784554132507,0.1494358375616163,-0.46927101261695153,-0.4992531266250213,-1.291272330186508,1.308968666207812,-0.14283533766107892,0.4550826254457978,0.5074625284248917,1.2804285700405915,5e-11,0.1999999970697678,5e-11,0.14999999781482581,-0.1499999977148258,-0.19999999696976778,5e-11,-0.19999999696976778,5e-11,0.14999999781482581,-0.1499999977148258,0.1999999970697678,0.5225724957358948,0.5044489951799502
lively,9.999999701976783e-11,9.999999701976783e-11,1.309999961058959,0.14999999562965177,-0.4999999849988393,-0.4999999849988393,-1.2999999611569824,1.309999961058959,-0.14999999542965176,0.49999998519883926,0.49999998519883926,1.2999999613569824,9.999999701976783e-11,0.1999999941395357,9.999999701976783e-11,0.14999999562965177,-0.14999999542965176,-0.1999999939395357,9.999999701976783e-11,-0.1999999939395357,9.999999701976783e-11,0.14999999562965177,-0.14999999542965176,0.1999999941395357,0.49999998519883926,0.49999998519883926
static,5e-11,5e-11,1.3099999805294789,0.14999999781482581,-0.4999999924994194,-0.4999999924994194,-1.2999999805784905,1.3099999805294789,-0.1499999977148258,0.4999999925994194,0.4999999925994194,1.2999999806784905,5e-11,0.1999999970697678,5e-11,0.14999999781482581,-0.1499999977148258,-0.19999999696976778,5e-11,-0.19999999696976778,5e-11,0.14999999781482581,-0.1499999977148258,0.1999999970697678,0.4999999925994194,0.4999999925994194
naive,0.002337812651426816,-0.0024660246837720995,1.3106361270980935,0.14948164467110658,-0.4697434259660485,-0.49933479056336955,-1.2899109343786066,1.3094367784753707,-0.14301943835775113,0.45514815212409504,0.5073793271751135,1.2813112171937004,5e-11,0.1999999970697678,5e-11,0.14999999781482581,-0.1499999977148258,-0.19999999696976778,5e-11,-0.19999999696976778,5e-11,0.14999999781482581,-0.1499999977148258,0.1999999970697678,0.5220141684104301,0.5038940378652045
lively,9.999999701976783e-11,9.999999701976783e-11,1.309999961058959,0.14999999562965177,-0.4999999849988393,-0.4999999849988393,-1.2999999611569824,1.309999961058959,-0.14999999542965176,0.49999998519883926,0.49999998519883926,1.2999999613569824,9.999999701976783e-11,0.1999999941395357,9.999999701976783e-11,0.14999999562965177,-0.14999999542965176,-0.1999999939395357,9.999999701976783e-11,-0.1999999939395357,9.999999701976783e-11,0.14999999562965177,-0.14999999542965176,0.1999999941395357,0.49999998519883926,0.49999998519883926
static,5e-11,5e-11,1.3099999805294789,0.14999999781482581,-0.4999999924994194,-0.4999999924994194,-1.2999999805784905,1.3099999805294789,-0.1499999977148258,0.4999999925994194,0.4999999925994194,1.2999999806784905,5e-11,0.1999999970697678,5e-11,0.14999999781482581,-0.1499999977148258,-0.19999999696976778,5e-11,-0.19999999696976778,5e-11,0.14999999781482581,-0.1499999977148258,0.1999999970697678,0.4999999925994194,0.4999999925994194
naive,0.0022813460058247735,-0.0015287429142963513,1.3106792315400264,0.14952696486273465,-0.4703365427744426,-0.49943506531950477,-1.2884578680480188,1.309947479837888,-0.1432249692608608,0.4552818182786052,0.5072296567943712,1.282315354576502,5e-11,0.1999999970697678,5e-11,0.14999999781482581,-0.1499999977148258,-0.19999999696976778,5e-11,-0.19999999696976778,5e-11,0.14999999781482581,-0.1499999977148258,0.1999999970697678,0.5213670278290169,0.5032364749051479
lively,9.999999701976783e-11,9.999999701976783e-11,1.309999961058959,0.14999999562965177,-0.4999999849988393,-0.4999999849988393,-1.2999999611569824,1.309999961058959,-0.14999999542965176,0.49999998519883926,0.49999998519883926,1.2999999613569824,9.999999701976783e-11,0.1999999941395357,9.999999701976783e-11,0.14999999562965177,-0.14999999542965176,-0.1999999939395357,9.999999701976783e-11,-0.1999999939395357,9.999999701976783e-11,0.14999999562965177,-0.14999999542965176,0.1999999941395357,0.49999998519883926,0.49999998519883926
static,5e-11,5e-11,1.3099999805294789,0.14999999781482581,-0.4999999924994194,-0.4999999924994194,-1.2999999805784905,1.3099999805294789,-0.1499999977148258,0.4999999925994194,0.4999999925994194,1.2999999806784905,5e-11,0.1999999970697678,5e-11,0.14999999781482581,-0.1499999977148258,-0.19999999696976778,5e-11,-0.19999999696976778,5e-11,0.14999999781482581,-0.1499999977148258,0.1999999970697678,0.4999999925994194,0.4999999925994194
naive,0.002208552161940148,-0.0006429985432772554,1.3106984695296875,0.14956396622726204,-0.470989436681938,-0.4995408707955582,-1.2871395815753575,1.3104253232417995,-0.14342311890670056,0.45548522713656175,0.5070269620324195,1.2833007696631684,5e-11,0.1999999970697678,5e-11,0.14999999781482581,-0.1499999977148258,-0.19999999696976778,5e-11,-0.19999999696976778,5e-11,0.14999999781482581,-0.1499999977148258,0.1999999970697678,0.5207140920378641,0.5025695445793893
lively,9.999999701976783e-11,9.999999701976783e-11,1.309999961058959,0.14999999562965177,-0.4999999849988393,-0.4999999849988393,-1.2999999611569824,1.309999961058959,-0.14999999542965176,0.49999998519883926,0.49999998519883926,1.2999999613569824,9.999999701976783e-11,0.1999999941395357,9.999999701976783e-11,0.14999999562965177,-0.14999999542965176,-0.1999999939395357,9.999999701976783e-11,-0.1999999939395357,9.999999701976783e-11,0.14999999562965177,-0.14999999542965176,0.1999999941395357,0.49999998519883926,0.49999998519883926
static,5e-11,5e-11,1.3099999805294789,0.14999999781482581,-0.4999999924994194,-0.4999999924994194,-1.2999999805784905,1.3099999805294789,-0.1499999977148258,0.4999999925994194,0.4999999925994194,1.2999999806784905,5e-11,0.1999999970697678,5e-11,0.14999999781482581,-0.1499999977148258,-0.19999999696976778,5e-11,-0.19999999696976778,5e-11,0.14999999781482581,-0.1499999977148258,0.1999999970697678,0.4999999925994194,0.4999999925994194
naive,0.0021110395628020145,0.00024663645260752064,1.3106945667149033,0.1495945273034752,-0.4717613571859872,-0.4996594068708549,-1.285878734165573,1.3109010615989956,-0.14362792098461571,0.4557851965284103,0.5067558614535008,1.2843335807651846,5e-11,0.1999999970697678,5e-11,0.14999999781482581,-0.1499999977148258,-0.19999999696976778,5e-11,-0.19999999696976778,5e-11,0.14999999781482581,-0.1499999977148258,0.1999999970697678,0.5200057449222143,0.5018529922686393
lively,9.999999701976783e-11,9.999999701976783e-11,1.309999961058959,0.14999999562965177,-0.4999999849988393,-0.4999999849988393,-1.2999999611569824,1.309999961058959,-0.14999999542965176,0.49999998519883926,0.49999998519883926,1.2999999613569824,9.999999701976783e-11,0.1999999941395357,9.999999701976783e-11,0.14999999562965177,-0.14999999542965176,-0.1999999939395357,9.999999701976783e-11,-0.1999999939395357,9.999999701976783e-11,0.14999999562965177,-0.14999999542965176,0.1999999941395357,0.49999998519883926,0.49999998519883926
static,5e-11,5e-11,1.3099999805294789,0.14999999781482581,-0.4999999924994194,-0.4999999924994194,-1.2999999805784905,1.3099999805294789,-0.1499999977148258,0.4999999925994194,0.4999999925994194,1.2999999806784905,5e-11,0.1999999970697678,5e-11,0.14999999781482581,-0.1499999977148258,-0.19999999696976778,5e-11,-0.19999999696976778,5e-11,0.14999999781482581,-0.1499999977148258,0.1999999970697678,0.4999999925994194,0.4999999925994194
naive,0.0019923565694607514,0.0010766645050467938,1.3106673463380074,0.14961610637330924,-0.47261588053957637,-0.49978267848076663,-1.284769868850851,1.3113412465754206,-0.14382641646859134,0.4561732195679691,0.5064327231348955,1.28534329192743,5e-11,0.1999999970697678,5e-11,0.14999999781482581,-0.1499999977148258,-0.19999999696976778,5e-11,-0.19999999696976778,5e-11,0.14999999781482581,-0.1499999977148258,0.1999999970697678,0.5192851094748999,0.501139983725617
lively,9.999999701976783e-11,9.999999701976783e-11,1.309999961058959,0.14999999562965177,-0.4999999849988393,-0.4999999849988393,-1.2999999611569824,1.309999961058959,-0.14999999542965176,0.49999998519883926,0.49999998519883926,1.2999999613569824,9.999999701976783e-11,0.1999999941395357,9.999999701976783e-11,0.14999999562965177,-0.14999999542965176,-0.1999999939395357,9.999999701976783e-11,-0.1999999939395357,9.999999701976783e-11,0.14999999562965177,-0.14999999542965176,0.1999999941395357,0.49999998519883926,0.49999998519883926
static,5e-11,5e-11,1.3099999805294789,0.14999999781482581,-0.4999999924994194,-0.4999999924994194,-1.2999999805784905,1.3099999805294789,-0.1499999977148258,0.4999999925994194,0.4999999925994194,1.2999999806784905,5e-11,0.1999999970697678,5e-11,0.14999999781482581,-0.1499999977148258,-0.19999999696976778,5e-11,-0.19999999696976778,5e-11,0.14999999781482581,-0.1499999977148258,0.1999999970697678,0.4999999925994194,0.4999999925994194
naive,0.0018464083412679905,0.0018756981029377446,1.310616455218867,0.14962944419008517,-0.4735961611725076,-0.499914745530769,-1.2837754863194804,1.3117614606033403,-0.14402688277486184,0.4566705706741331,0.5060462567755635,1.2863649753427193,5e-11,0.1999999970697678,5e-11,0.14999999781482581,-0.1499999977148258,-0.19999999696976778,5e-11,-0.19999999696976778,5e-11,0.14999999781482581,-0.1499999977148258,0.1999999970697678,0.5185232143969677,0.5004105802440441
lively,9.999999701976783e-11,9.999999701976783e-11,1.309999961058959,0.14999999562965177,-0.4999999849988393,-0.4999999849988393,-1.2999999611569824,1.309999961058959,-0.14999999542965176,0.49999998519883926,0.49999998519883926,1.2999999613569824,9.999999701976783e-11,0.1999999941395357,9.999999701976783e-11,0.14999999562965177,-0.14999999542965176,-0.1999999939395357,9.999999701976783e-11,-0.1999999939395357,9.999999701976783e-11,0.14999999562965177,-0.14999999542965176,0.1999999941395357,0.49999998519883926,0.49999998519883926
static,5e-11,5e-11,1.3099999805294789,0.14999999781482581,-0.4999999924994194,-0.4999999924994194,-1.2999999805784905,1.3099999805294789,-0.1499999977148258,0.4999999925994194,0.4999999925994194,1.2999999806784905,5e-11,0.1999999970697678,5e-11,0.14999999781482581,-0.1499999977148258,-0.19999999696976778,5e-11,-0.19999999696976778,5e-11,0.14999999781482581,-0.1499999977148258,0.1999999970697678,0.4999999925994194,0.4999999925994194
naive,0.0016683773163687881,0.0026463159639009987,1.310540346192329,0.14963403798282193,-0.47473143161312603,-0.5000568000908201,-1.2828975387677493,1.3121629147195504,-0.14423225104695242,0.4572965248413838,0.5055889699725776,1.2874052876227535,5e-11,0.1999999970697678,5e-11,0.14999999781482581,-0.1499999977148258,-0.19999999696976778,5e-11,-0.19999999696976778,5e-11,0.14999999781482581,-0.1499999977148258,0.1999999970697678,0.5177086010366175,0.4996643748761294
lively,9.999999701976783e-11,9.999999701976783e-11,1.309999961058959,0.14999999562965177,-0.4999999849988393,-0.4999999849988393,-1.2999999611569824,1.309999961058959,-0.14999999542965176,0.49999998519883926,0.49999998519883926,1.2999999613569824,9.999999701976783e-11,0.1999999941395357,9.999999701976783e-11,0.14999999562965177,-0.14999999542965176,-0.1999999939395357,9.999999701976783e-11,-0.1999999939395357,9.999999701976783e-11,0.14999999562965177,-0.14999999542965176,0.1999999941395357,0.49999998519883926,0.49999998519883926
static,5e-11,5e-11,1.3099999805294789,0.14999999781482581,-0.4999999924994194,-0.4999999924994194,-1.2999999805784905,1.3099999805294789,-0.1499999977148258,0.4999999925994194,0.4999999925994194,1.2999999806784905,5e-11,0.1999999970697678,5e-11,0.14999999781482581,-0.1499999977148258,-0.19999999696976778,5e-11,-0.19999999696976778,5e-11,0.14999999781482581,-0.1499999977148258,0.1999999970697678,0.4999999925994194,0.4999999925994194
naive,0.0014535496189807546,0.0033840152648075494,1.3104371452298023,0.14962907479124557,-0.47604970043310946,-0.5002091528104269,-1.2821471990742108,1.3125427559225629,-0.14444434833543307,0.4580714670721509,0.5050541595077391,1.288462663537322,5e-11,0.1999999970697678,5e-11,0.14999999781482581,-0.1499999977148258,-0.19999999696976778,5e-11,-0.19999999696976778,5e-11,0.14999999781482581,-0.1499999977148258,0.1999999970697678,0.5168341038905827,0.4989075340956607
lively,9.999999701976783e-11,9.999999701976783e-11,1.309999961058959,0.14999999562965177,-0.4999999849988393,-0.4999999849988393,-1.2999999611569824,1.309999961058959,-0.14999999542965176,0.49999998519883926,0.49999998519883926,1.2999999613569824,9.999999701976783e-11,0.1999999941395357,9.999999701976783e-11,0.14999999562965177,-0.14999999542965176,-0.1999999939395357,9.999999701976783e-11,-0.1999999939395357,9.999999701976783e-11,0.14999999562965177,-0.14999999542965176,0.1999999941395357,0.49999998519883926,0.49999998519883926
static,5e-11,5e-11,1.3099999805294789,0.14999999781482581,-0.4999999924994194,-0.4999999924994194,-1.2999999805784905,1.3099999805294789,-0.1499999977148258,0.4999999925994194,0.4999999925994194,1.2999999806784905,5e-11,0.1999999970697678,5e-11,0.14999999781482581,-0.1499999977148258,-0.19999999696976778,5e-11,-0.19999999696976778,5e-11,0.14999999781482581,-0.1499999977148258,0.1999999970697678,0.4999999925994194,0.4999999925994194
