condition,HeadYaw,HeadPitch,LShoulderPitch,LShoulderRoll,LElbowYaw,LElbowRoll,LWristYaw,RShoulderPitch,RShoulderRoll,RElbowYaw,RElbowRoll,RWristYaw,LHipYawPitch,LHipRoll,LHipPitch,LKneePitch,LAnklePitch,LAnkleRoll,RHipYawPitch,RHipRoll,RHipPitch,RKneePitch,RAnklePitch,RAnkleRoll,LHand,RHand
static,5e-11,5e-11,1.3099999805294789,0.14999999781482581,-0.4999999924994194,-0.4999999924994194,-1.2999999805784905,1.3099999805294789,-0.1499999977148258,0.4999999925994194,0.4999999925994194,1.2999999806784905,5e-11,0.1999999970697678,5e-11,0.14999999781482581,-0.1499999977148258,-0.19999999696976778,5e-11,-0.19999999696976778,5e-11,0.14999999781482581,-0.1499999977148258,0.1999999970697678,0.4999999925994194,0.4999999925994194
naive,-0.009139826626783176,-0.005435755055801699,1.3101938860835096,0.15102366505262768,-0.5192709470659297,-0.4973327839383839,-1.3222025771650043,1.3128960181945812,-0.16007525771844164,0.4818293228101563,0.49669067425525626,1.3223093237575867,5e-11,0.1999999970697678,5e-11,0.14999999781482581,-0.1499999977148258,-0.19999999696976778,5e-11,-0.19999999696976778,5e-11,0.14999999781482581,-0.1499999977148258,0.1999999970697678,0.5171446459803102,0.5394558315207394
lively,9.999999701976783e-11,9.999999701976783e-11,1.309999961058959,0.14999999562965177,-0.4999999849988393,-0.4999999849988393,-1.2999999611569824,1.309999961058959,-0.14999999542965176,0.49999998519883926,0.49999998519883926,1.2999999613569824,9.999999701976783e-11,0.1999999941395357,9.999999701976783e-11,0.14999999562965177,-0.14999999542965176,-0.1999999939395357,9.999999701976783e-11,-0.1999999939395357,9.999999701976783e-11,0.14999999562965177,-0.14999999542965176,0.1999999941395357,0.49999998519883926,0.49999998519883926
static,5e-11,5e-11,1.3099999805294789,0.14999999781482581,-0.4999999924994194,-0.4999999924994194,-1.2999999805784905,1.3099999805294789,-0.1499999977148258,0.4999999925994194,0.4999999925994194,1.2999999806784905,5e-11,0.1999999970697678,5e-11,0.14999999781482581,-0.1499999977148258,-0.19999999696976778,5e-11,-0.19999999696976778,5e-11,0.14999999781482581,-0.1499999977148258,0.1999999970697678,0.4999999925994194,0.4999999925994194
naive,-0.00916794485826786,-0.005651562651533592,1.3100608945893109,0.15089574925195762,-0.5198938857533385,-0.4973362389252297,-1.3223054984972051,1.3128851918920872,-0.15998853159988563,0.48178086032397655,0.4966802125308887,1.3222238927857282,5e-11,0.1999999970697678,5e-11,0.14999999781482581,-0.1499999977148258,-0.19999999696976778,5e-11,-0.19999999696976778,5e-11,0.14999999781482581,-0.1499999977148258,0.1999999970697678,0.5165659890350152,0.5391527457962174
lively,9.999999701976783e-11,9.999999701976783e-11,1.309999961058959,0.14999999562965177,-0.4999999849988393,-0.4999999849988393,-1.2999999611569824,1.309999961058959,-0.14999999542965176,0.49999998519883926,0.49999998519883926,1.2999999613569824,9.999999701976783e-11,0.1999999941395357,9.999999701976783e-11,0.14999999562965177,-0.14999999542965176,-0.1999999939395357,9.999999701976783e-11,-0.1999999939395357,9.999999701976783e-11,0.14999999562965177,-0.14999999542965176,0.1999999941395357,0.49999998519883926,0.49999998519883926
static,5e-11,5e-11,1.3099999805294789,0.14999999781482581,-0.4999999924994194,-0.4999999924994194,-1.2999999805784905,1.3099999805294789,-0.1499999977148258,0.4999999925994194,0.4999999925994194,1.2999999806784905,5e-11,0.1999999970697678,5e-11,0.14999999781482581,-0.1499999977148258,-0.19999999696976778,5e-11,-0.19999999696976778,5e-11,0.14999999781482581,-0.1499999977148258,0.1999999970697678,0.4999999925994194,0.4999999925994194
naive,-0.009192555534610377,-0.005833718441926479,1.309946682899472,0.1507873694017729,-0.5204152120260517,-0.4973395422541254,-1.322397646136078,1.312875262398815,-0.15991367590016264,0.4817327233530369,0.49667346491004977,1.3221400528335099,5e-11,0.1999999970697678,5e-11,0.14999999781482581,-0.1499999977148258,-0.19999999696976778,5e-11,-0.19999999696976778,5e-11,0.14999999781482581,-0.1499999977148258,0.1999999970697678,0.5160742228370621,0.5388871398230157
lively,9.999999701976783e-11,9.999999701976783e-11,1.309999961058959,0.14999999562965177,-0.4999999849988393,-0.4999999849988393,-1.2999999611569824,1.309999961058959,-0.14999999542965176,0.49999998519883926,0.49999998519883926,1.2999999613569824,9.999999701976783e-11,0.1999999941395357,9.999999701976783e-11,0.14999999562965177,-0.14999999542965176,-0.1999999939395357,9.999999701976783e-11,-0.1999999939395357,9.999999701976783e-11,0.14999999562965177,-0.14999999542965176,0.1999999941395357,0.49999998519883926,0.49999998519883926
static,5e-11,5e-11,1.3099999805294789,0.14999999781482581,-0.4999999924994194,-0.4999999924994194,-1.2999999805784905,1.3099999805294789,-0.1499999977148258,0.4999999925994194,0.4999999925994194,1.2999999806784905,5e-11,0.1999999970697678,5e-11,0.14999999781482581,-0.1499999977148258,-0.19999999696976778,5e-11,-0.19999999696976778,5e-11,0.14999999781482581,-0.1499999977148258,0.1999999970697678,0.4999999925994194,0.4999999925994194
naive,-0.00922289145622386,-0.00605333329113709,1.3098066260989347,0.15065620621876183,-0.5210379110203709,-0.4973439953179708,-1.322515372002236,1.3128622433392114,-0.15982140213079138,0.48166568316965,0.49666788480339596,1.322024401805914,5e-11,0.1999999970697678,5e-11,0.14999999781482581,-0.1499999977148258,-0.19999999696976778,5e-11,-0.19999999696976778,5e-11,0.14999999781482581,-0.1499999977148258,0.1999999970697678,0.5154774262512645,0.5385550463623096
lively,9.999999701976783e-11,9.999999701976783e-11,1.309999961058959,0.14999999562965177,-0.4999999849988393,-0.4999999849988393,-1.2999999611569824,1.309999961058959,-0.14999999542965176,0.49999998519883926,0.49999998519883926,1.2999999613569824,9.999999701976783e-11,0.1999999941395357,9.999999701976783e-11,0.14999999562965177,-0.14999999542965176,-0.1999999939395357,9.999999701976783e-11,-0.1999999939395357,9.999999701976783e-11,0.14999999562965177,-0.14999999542965176,0.1999999941395357,0.49999998519883926,0.49999998519883926
static,5e-11,5e-11,1.3099999805294789,0.14999999781482581,-0.4999999924994194,-0.4999999924994194,-1.2999999805784905,1.3099999805294789,-0.1499999977148258,0.4999999925994194,0.4999999925994194,1.2999999806784905,5e-11,0.1999999970697678,5e-11,0.14999999781482581,-0.1499999977148258,-0.19999999696976778,5e-11,-0.19999999696976778,5e-11,0.14999999781482581,-0.1499999977148258,0.1999999970697678,0.4999999925994194,0.4999999925994194
naive,-0.009250744982881792,-0.00625312052514076,1.3096769987010934,0.15053642012959215,-0.5215984538992973,-0.49734849306719897,-1.3226289673876301,1.3128493224319842,-0.15973552339080935,0.4815959440646069,0.4966652597719873,1.321905058255297,5e-11,0.1999999970697678,5e-11,0.14999999781482581,-0.1499999977148258,-0.19999999696976778,5e-11,-0.19999999696976778,5e-11,0.14999999781482581,-0.1499999977148258,0.1999999970697678,0.5149309743802497,0.5382416911773671
lively,9.999999701976783e-11,9.999999701976783e-11,1.309999961058959,0.14999999562965177,-0.4999999849988393,-0.4999999849988393,-1.2999999611569824,1.309999961058959,-0.14999999542965176,0.49999998519883926,0.49999998519883926,1.2999999613569824,9.999999701976783e-11,0.1999999941395357,9.999999701976783e-11,0.14999999562965177,-0.14999999542965176,-0.1999999939395357,9.999999701976783e-11,-0.1999999939395357,9.999999701976783e-11,0.14999999562965177,-0.14999999542965176,0.1999999941395357,0.49999998519883926,0.49999998519883926
static,5e-11,5e-11,1.3099999805294789,0.14999999781482581,-0.4999999924994194,-0.4999999924994194,-1.2999999805784905,1.3099999805294789,-0.1499999977148258,0.4999999925994194,0.4999999925994194,1.2999999806784905,5e-11,0.1999999970697678,5e-11,0.14999999781482581,-0.1499999977148258,-0.19999999696976778,5e-11,-0.19999999696976778,5e-11,0.14999999781482581,-0.1499999977148258,0.1999999970697678,0.4999999925994194,0.4999999925994194
naive,-0.009277618383155982,-0.006446673929543993,1.3095494225996216,0.15041994948652512,-0.5221357437744008,-0.4973532570559015,-1.3227451296842734,1.3128357438590226,-0.15965054576385762,0.481520222569033,0.49666496991194553,1.3217762868094,5e-11,0.1999999970697678,5e-11,0.14999999781482581,-0.1499999977148258,-0.19999999696976778,5e-11,-0.19999999696976778,5e-11,0.14999999781482581,-0.1499999977148258,0.1999999970697678,0.5143984997249024,0.537927885631243
lively,9.999999701976783e-11,9.999999701976783e-11,1.309999961058959,0.14999999562965177,-0.4999999849988393,-0.4999999849988393,-1.2999999611569824,1.309999961058959,-0.14999999542965176,0.49999998519883926,0.49999998519883926,1.2999999613569824,9.999999701976783e-11,0.1999999941395357,9.999999701976783e-11,0.14999999562965177,-0.14999999542965176,-0.1999999939395357,9.999999701976783e-11,-0.1999999939395357,9.999999701976783e-11,0.14999999562965177,-0.14999999542965176,0.1999999941395357,0.49999998519883926,0.49999998519883926
static,5e-11,5e-11,1.3099999805294789,0.14999999781482581,-0.4999999924994194,-0.4999999924994194,-1.2999999805784905,1.3099999805294789,-0.1499999977148258,0.4999999925994194,0.4999999925994194,1.2999999806784905,5e-11,0.1999999970697678,5e-11,0.14999999781482581,-0.1499999977148258,-0.19999999696976778,5e-11,-0.19999999696976778,5e-11,0.14999999781482581,-0.1499999977148258,0.1999999970697678,0.4999999925994194,0.4999999925994194
naive,-0.009303448315279687,-0.006635736351865749,1.3094229322403128,0.15030578445124038,-0.5226547134813287,-0.49735829803522774,-1.3228645989175274,1.3128213936928876,-0.15956583167644636,0.4814383055837717,0.4966668577439538,1.3216377022821841,5e-11,0.1999999970697678,5e-11,0.14999999781482581,-0.1499999977148258,-0.19999999696976778,5e-11,-0.19999999696976778,5e-11,0.14999999781482581,-0.1499999977148258,0.1999999970697678,0.5138756109459365,0.53761162692536
lively,9.999999701976783e-11,9.999999701976783e-11,1.309999961058959,0.14999999562965177,-0.4999999849988393,-0.4999999849988393,-1.2999999611569824,1.309999961058959,-0.14999999542965176,0.49999998519883926,0.49999998519883926,1.2999999613569824,9.999999701976783e-11,0.1999999941395357,9.999999701976783e-11,0.14999999562965177,-0.14999999542965176,-0.1999999939395357,9.999999701976783e-11,-0.1999999939395357,9.999999701976783e-11,0.14999999562965177,-0.14999999542965176,0.1999999941395357,0.49999998519883926,0.49999998519883926
static,5e-11,5e-11,1.3099999805294789,0.14999999781482581,-0.4999999924994194,-0.4999999924994194,-1.2999999805784905,1.3099999805294789,-0.1499999977148258,0.4999999925994194,0.4999999925994194,1.2999999806784905,5e-11,0.1999999970697678,5e-11,0.14999999781482581,-0.1499999977148258,-0.19999999696976778,5e-11,-0.19999999696976778,5e-11,0.14999999781482581,-0.1499999977148258,0.1999999970697678,0.4999999925994194,0.4999999925994194
naive,-0.009331202846650925,-0.006845168100253547,1.3092806723659622,0.15017886123542296,-0.5232223875873823,-0.49736433147842124,-1.3230041171945777,1.3128041442892888,-0.15946999057844413,0.4813381290954998,0.49667149308352204,1.3214690196424992,5e-11,0.1999999970697678,5e-11,0.14999999781482581,-0.1499999977148258,-0.19999999696976778,5e-11,-0.19999999696976778,5e-11,0.14999999781482581,-0.1499999977148258,0.1999999970697678,0.5132933571889128,0.5372500125456398
lively,9.999999701976783e-11,9.999999701976783e-11,1.309999961058959,0.14999999562965177,-0.4999999849988393,-0.4999999849988393,-1.2999999611569824,1.309999961058959,-0.14999999542965176,0.49999998519883926,0.49999998519883926,1.2999999613569824,9.999999701976783e-11,0.1999999941395357,9.999999701976783e-11,0.14999999562965177,-0.14999999542965176,-0.1999999939395357,9.999999701976783e-11,-0.1999999939395357,9.999999701976783e-11,0.14999999562965177,-0.14999999542965176,0.1999999941395357,0.49999998519883926,0.49999998519883926
static,5e-11,5e-11,1.3099999805294789,0.14999999781482581,-0.4999999924994194,-0.4999999924994194,-1.2999999805784905,1.3099999805294789,-0.1499999977148258,0.4999999925994194,0.4999999925994194,1.2999999806784905,5e-11,0.1999999970697678,5e-11,0.14999999781482581,-0.1499999977148258,-0.19999999696976778,5e-11,-0.19999999696976778,5e-11,0.14999999781482581,-0.1499999977148258,0.1999999970697678,0.4999999925994194,0.4999999925994194
naive,-0.009354009148932087,-0.0070250466644269155,1.3091567070733001,0.15006946325803752,-0.5237035067647765,-0.4973698931351501,-1.3231301916459686,1.3127881057141866,-0.15938596765406776,0.481243939919672,0.4966776464819155,1.3213110526141147,5e-11,0.1999999970697678,5e-11,0.14999999781482581,-0.1499999977148258,-0.19999999696976778,5e-11,-0.19999999696976778,5e-11,0.14999999781482581,-0.1499999977148258,0.1999999970697678,0.512790864713797,0.5369298946264874
lively,9.999999701976783e-11,9.999999701976783e-11,1.309999961058959,0.14999999562965177,-0.4999999849988393,-0.4999999849988393,-1.2999999611569824,1.309999961058959,-0.14999999542965176,0.49999998519883926,0.49999998519883926,1.2999999613569824,9.999999701976783e-11,0.1999999941395357,9.999999701976783e-11,0.14999999562965177,-0.14999999542965176,-0.1999999939395357,9.999999701976783e-11,-0.1999999939395357,9.999999701976783e-11,0.14999999562965177,-0.14999999542965176,0.1999999941395357,0.49999998519883926,0.49999998519883926
static,5e-11,5e-11,1.3099999805294789,0.14999999781482581,-0.4999999924994194,-0.4999999924994194,-1.2999999805784905,1.3099999805294789,-0.1499999977148258,0.4999999925994194,0.4999999925994194,1.2999999806784905,5e-11,0.1999999970697678,5e-11,0.14999999781482581,-0.1499999977148258,-0.19999999696976778,5e-11,-0.19999999696976778,5e-11,0.14999999781482581,-0.1499999977148258,0.1999999970697678,0.4999999925994194,0.4999999925994194
naive,-0.009377679795708263,-0.007223193592695855,1.3090182675901765,0.14994854237501185,-0.5242261137990902,-0.49737642924335945,-1.323276007896329,1.312769027090194,-0.1592915519827874,0.4811311935501378,0.4966867953571462,1.3211226144311834,5e-11,0.1999999970697678,5e-11,0.14999999781482581,-0.1499999977148258,-0.19999999696976778,5e-11,-0.19999999696976778,5e-11,0.14999999781482581,-0.1499999977148258,0.1999999970697678,0.5122349382673498,0.5365669815723934
lively,9.999999701976783e-11,9.999999701976783e-11,1.309999961058959,0.14999999562965177,-0.4999999849988393,-0.4999999849988393,-1.2999999611569824,1.309999961058959,-0.14999999542965176,0.49999998519883926,0.49999998519883926,1.2999999613569824,9.999999701976783e-11,0.1999999941395357,9.999999701976783e-11,0.14999999562965177,-0.14999999542965176,-0.1999999939395357,9.999999701976783e-11,-0.1999999939395357,9.999999701976783e-11,0.14999999562965177,-0.14999999542965176,0.1999999941395357,0.49999998519883926,0.49999998519883926
static,5e-11,5e-11,1.3099999805294789,0.14999999781482581,-0.4999999924994194,-0.4999999924994194,-1.2999999805784905,1.3099999805294789,-0.1499999977148258,0.4999999925994194,0.4999999925994194,1.2999999806784905,5e-11,0.1999999970697678,5e-11,0.14999999781482581,-0.1499999977148258,-0.19999999696976778,5e-11,-0.19999999696976778,5e-11,0.14999999781482581,-0.1499999977148258,0.1999999970697678,0.4999999925994194,0.4999999925994194
naive,-0.009398584153142963,-0.007413016881043848,1.3088838093159574,0.1498322930315426,-0.5247190332754974,-0.49738309780592743,-1.323422786956151,1.3127492567404577,-0.1591992360350775,0.48101405768139766,0.4966979413140616,1.3209274548875845,5e-11,0.1999999970697678,5e-11,0.14999999781482581,-0.1499999977148258,-0.19999999696976778,5e-11,-0.19999999696976778,5e-11,0.14999999781482581,-0.1499999977148258,0.1999999970697678,0.5117001673131609,0.5362090952965354
lively,9.999999701976783e-11,9.999999701976783e-11,1.309999961058959,0.14999999562965177,-0.4999999849988393,-0.4999999849988393,-1.2999999611569824,1.309999961058959,-0.14999999542965176,0.49999998519883926,0.49999998519883926,1.2999999613569824,9.999999701976783e-11,0.1999999941395357,9.999999701976783e-11,0.14999999562965177,-0.14999999542965176,-0.1999999939395357,9.999999701976783e-11,-0.1999999939395357,9.999999701976783e-11,0.14999999562965177,-0.14999999542965176,0.1999999941395357,0.49999998519883926,0.49999998519883926
static,5e-11,5e-11,1.3099999805294789,0.14999999781482581,-0.4999999924994194,-0.4999999924994194,-1.2999999805784905,1.3099999805294789,-0.1499999977148258,0.4999999925994194,0.4999999925994194,1.2999999806784905,5e-11,0.1999999970697678,5e-11,0.14999999781482581,-0.1499999977148258,-0.19999999696976778,5e-11,-0.19999999696976778,5e-11,0.14999999781482581,-0.1499999977148258,0.1999999970697678,0.4999999925994194,0.4999999925994194
naive,-0.009417625486869988,-0.00760527579133728,1.3087458157005143,0.1497141417050804,-0.5252100275290325,-0.49739026325844876,-1.3235788139267461,1.3127276263583472,-0.15910382954908656,0.48088599671946597,0.49671166431416064,1.3207146847095683,5e-11,0.1999999970697678,5e-11,0.14999999781482581,-0.1499999977148258,-0.19999999696976778,5e-11,-0.19999999696976778,5e-11,0.14999999781482581,-0.1499999977148258,0.1999999970697678,0.5111565212146381,0.535836288216927
lively,9.999999701976783e-11,9.999999701976783e-11,1.309999961058959,0.14999999562965177,-0.4999999849988393,-0.4999999849988393,-1.2999999611569824,1.309999961058959,-0.14999999542965176,0.49999998519883926,0.49999998519883926,1.2999999613569824,9.999999701976783e-11,0.1999999941395357,9.999999701976783e-11,0.14999999562965177,-0.14999999542965176,-0.1999999939395357,9.999999701976783e-11,-0.1999999939395357,9.999999701976783e-11,0.14999999562965177,-0.14999999542965176,0.1999999941395357,0.49999998519883926,0.49999998519883926
static,5e-11,5e-11,1.3099999805294789,0.14999999781482581,-0.4999999924994194,-0.4999999924994194,-1.2999999805784905,1.3099999805294789,-0.1499999977148258,0.4999999925994194,0.4999999925994194,1.2999999806784905,5e-11,0.1999999970697678,5e-11,0.14999999781482581,-0.1499999977148258,-0.19999999696976778,5e-11,-0.19999999696976778,5e-11,0.14999999781482581,-0.1499999977148258,0.1999999970697678,0.4999999925994194,0.4999999925994194
naive,-0.00943335365583423,-0.00778756347086468,1.3086133139648906,0.14960173082465072,-0.525667371345054,-0.49739744523526697,-1.3237338838634027,1.3127055093006847,-0.1590115526105926,0.48075550114513255,0.49672699716868846,1.3204984004593425,5e-11,0.1999999970697678,5e-11,0.14999999781482581,-0.1499999977148258,-0.19999999696976778,5e-11,-0.19999999696976778,5e-11,0.14999999781482581,-0.1499999977148258,0.1999999970697678,0.5106393629547168,0.5354730621099993
lively,9.999999701976783e-11,9.999999701976783e-11,1.309999961058959,0.14999999562965177,-0.4999999849988393,-0.4999999849988393,-1.2999999611569824,1.309999961058959,-0.14999999542965176,0.49999998519883926,0.49999998519883926,1.2999999613569824,9.999999701976783e-11,0.1999999941395357,9.999999701976783e-11,0.14999999562965177,-0.14999999542965176,-0.1999999939395357,9.999999701976783e-11,-0.1999999939395357,9.999999701976783e-11,0.14999999562965177,-0.14999999542965176,0.1999999941395357,0.49999998519883926,0.49999998519883926
static,5e-11,5e-11,1.3099999805294789,0.14999999781482581,-0.4999999924994194,-0.4999999924994194,-1.2999999805784905,1.3099999805294789,-0.1499999977148258,0.4999999925994194,0.4999999925994194,1.2999999806784905,5e-11,0.1999999970697678,5e-11,0.14999999781482581,-0.1499999977148258,-0.19999999696976778,5e-11,-0.19999999696976778,5e-11,0.14999999781482581,-0.1499999977148258,0.1999999970697678,0.4999999925994194,0.4999999925994194
naive,-0.009446721871212245,-0.007973825845295894,1.3084762678677713,0.14948647297489673,-0.526125888943669,-0.49740518101005404,-1.323899823632027,1.3126811670179803,-0.15891538268508393,0.48061268628801995,0.4967450657323382,1.3202622125570869,5e-11,0.1999999970697678,5e-11,0.14999999781482581,-0.1499999977148258,-0.19999999696976778,5e-11,-0.19999999696976778,5e-11,0.14999999781482581,-0.1499999977148258,0.1999999970697678,0.5101093917233744,0.5350919321675794
lively,9.999999701976783e-11,9.999999701976783e-11,1.309999961058959,0.14999999562965177,-0.4999999849988393,-0.4999999849988393,-1.2999999611569824,1.309999961058959,-0.14999999542965176,0.49999998519883926,0.49999998519883926,1.2999999613569824,9.999999701976783e-11,0.1999999941395357,9.999999701976783e-11,0.14999999562965177,-0.14999999542965176,-0.1999999939395357,9.999999701976783e-11,-0.1999999939395357,9.999999701976783e-11,0.14999999562965177,-0.14999999542965176,0.1999999941395357,0.49999998519883926,0.49999998519883926
static,5e-11,5e-11,1.3099999805294789,0.14999999781482581,-0.4999999924994194,-0.4999999924994194,-1.2999999805784905,1.3099999805294789,-0.1499999977148258,0.4999999925994194,0.4999999925994194,1.2999999806784905,5e-11,0.1999999970697678,5e-11,0.14999999781482581,-0.1499999977148258,-0.19999999696976778,5e-11,-0.19999999696976778,5e-11,0.14999999781482581,-0.1499999977148258,0.1999999970697678,0.4999999925994194,0.4999999925994194
naive,-0.009456994053084217,-0.008160567445306901,1.308337209454468,0.1493705082883388,-0.526576037220642,-0.4974133479575447,-1.3240741339765614,1.3126548550026234,-0.15881699702678,0.4804595040781118,0.4967656932600585,1.320009383753694,5e-11,0.1999999970697678,5e-11,0.14999999781482581,-0.1499999977148258,-0.19999999696976778,5e-11,-0.19999999696976778,5e-11,0.14999999781482581,-0.1499999977148258,0.1999999970697678,0.5095766913905662,0.5346994793961198
lively,9.999999701976783e-11,9.999999701976783e-11,1.309999961058959,0.14999999562965177,-0.4999999849988393,-0.4999999849988393,-1.2999999611569824,1.309999961058959,-0.14999999542965176,0.49999998519883926,0.49999998519883926,1.2999999613569824,9.999999701976783e-11,0.1999999941395357,9.999999701976783e-11,0.14999999562965177,-0.14999999542965176,-0.1999999939395357,9.999999701976783e-11,-0.1999999939395357,9.999999701976783e-11,0.14999999562965177,-0.14999999542965176,0.1999999941395357,0.49999998519883926,0.49999998519883926
static,5e-11,5e-11,1.3099999805294789,0.14999999781482581,-0.4999999924994194,-0.4999999924994194,-1.2999999805784905,1.3099999805294789,-0.1499999977148258,0.4999999925994194,0.4999999925994194,1.2999999806784905,5e-11,0.1999999970697678,5e-11,0.14999999781482581,-0.1499999977148258,-0.19999999696976778,5e-11,-0.19999999696976778,5e-11,0.14999999781482581,-0.1499999977148258,0.1999999970697678,0.4999999925994194,0.4999999925994194
naive,-0.009463309562547678,-0.008332168350457346,1.3082079786592309,0.14926357425404568,-0.5269806708469637,-0.49742122416867424,-1.3242416504105339,1.3126288612303874,-0.15872479189969155,0.4803095463240833,0.496786939948164,1.3197623030288501,5e-11,0.1999999970697678,5e-11,0.14999999781482581,-0.1499999977148258,-0.19999999696976778,5e-11,-0.19999999696976778,5e-11,0.14999999781482581,-0.1499999977148258,0.1999999970697678,0.5090861558923326,0.5343295064866947
lively,9.999999701976783e-11,9.999999701976783e-11,1.309999961058959,0.14999999562965177,-0.4999999849988393,-0.4999999849988393,-1.2999999611569824,1.309999961058959,-0.14999999542965176,0.49999998519883926,0.49999998519883926,1.2999999613569824,9.999999701976783e-11,0.1999999941395357,9.999999701976783e-11,0.14999999562965177,-0.14999999542965176,-0.1999999939395357,9.999999701976783e-11,-0.1999999939395357,9.999999701976783e-11,0.14999999562965177,-0.14999999542965176,0.1999999941395357,0.49999998519883926,0.49999998519883926
static,5e-11,5e-11,1.3099999805294789,0.14999999781482581,-0.4999999924994194,-0.4999999924994194,-1.2999999805784905,1.3099999805294789,-0.1499999977148258,0.4999999925994194,0.4999999925994194,1.2999999806784905,5e-11,0.1999999970697678,5e-11,0.14999999781482581,-0.1499999977148258,-0.19999999696976778,5e-11,-0.19999999696976778,5e-11,0.14999999781482581,-0.1499999977148258,0.1999999970697678,0.4999999925994194,0.4999999925994194
naive,-0.009466294958504476,-0.008506916450699559,1.3080749723490086,0.1491543022796908,-0.5273832298761749,-0.497429619804082,-1.3244198063976875,1.31260046470291,-0.1586290640024178,0.48014739558254416,0.4968109113542914,1.3194955348857254,5e-11,0.1999999970697678,5e-11,0.14999999781482581,-0.1499999977148258,-0.19999999696976778,5e-11,-0.19999999696976778,5e-11,0.14999999781482581,-0.1499999977148258,0.1999999970697678,0.5085858021948799,0.5339433184504419
lively,9.999999701976783e-11,9.999999701976783e-11,1.309999961058959,0.14999999562965177,-0.4999999849988393,-0.4999999849988393,-1.2999999611569824,1.309999961058959,-0.14999999542965176,0.49999998519883926,0.49999998519883926,1.2999999613569824,9.999999701976783e-11,0.1999999941395357,9.999999701976783e-11,0.14999999562965177,-0.14999999542965176,-0.1999999939395357,9.999999701976783e-11,-0.1999999939395357,9.999999701976783e-11,0.14999999562965177,-0.14999999542965176,0.1999999941395357,0.49999998519883926,0.49999998519883926
static,5e-11,5e-11,1.3099999805294789,0.14999999781482581,-0.4999999924994194,-0.4999999924994194,-1.2999999805784905,1.3099999805294789,-0.1499999977148258,0.4999999925994194,0.4999999925994194,1.2999999806784905,5e-11,0.1999999970697678,5e-11,0.14999999781482581,-0.1499999977148258,-0.19999999696976778,5e-11,-0.19999999696976778,5e-11,0.14999999781482581,-0.1499999977148258,0.1999999970697678,0.4999999925994194,0.4999999925994194
naive,-0.009465346819681985,-0.00868523663296396,1.3079378055869242,0.14904239007432277,-0.5277834466065929,-0.49743858833465854,-1.3246098632309244,1.3125693261708569,-0.15852939910374148,0.4799716605962713,0.4968378927690395,1.3192068201883935,5e-11,0.1999999970697678,5e-11,0.14999999781482581,-0.1499999977148258,-0.19999999696976778,5e-11,-0.19999999696976778,5e-11,0.14999999781482581,-0.1499999977148258,0.1999999970697678,0.5080745697351703,0.5335391482441793
lively,9.999999701976783e-11,9.999999701976783e-11,1.309999961058959,0.14999999562965177,-0.4999999849988393,-0.4999999849988393,-1.2999999611569824,1.309999961058959,-0.14999999542965176,0.49999998519883926,0.49999998519883926,1.2999999613569824,9.999999701976783e-11,0.1999999941395357,9.999999701976783e-11,0.14999999562965177,-0.14999999542965176,-0.1999999939395357,9.999999701976783e-11,-0.1999999939395357,9.999999701976783e-11,0.14999999562965177,-0.14999999542965176,0.1999999941395357,0.49999998519883926,0.49999998519883926
static,5e-11,5e-11,1.3099999805294789,0.14999999781482581,-0.4999999924994194,-0.4999999924994194,-1.2999999805784905,1.3099999805294789,-0.1499999977148258,0.4999999925994194,0.4999999925994194,1.2999999806784905,5e-11,0.1999999970697678,5e-11,0.14999999781482581,-0.1499999977148258,-0.19999999696976778,5e-11,-0.19999999696976778,5e-11,0.14999999781482581,-0.1499999977148258,0.1999999970697678,0.4999999925994194,0.4999999925994194
naive,-0.009460895964962298,-0.0088401069592343,1.3078175127095115,0.14894484753677795,-0.5281217642007585,-0.49744671664889095,-1.3247820333366582,1.3125403724720923,-0.15844115099372663,0.4798102268978457,0.4968634721265589,1.3189419131698716,5e-11,0.1999999970697678,5e-11,0.14999999781482581,-0.1499999977148258,-0.19999999696976778,5e-11,-0.19999999696976778,5e-11,0.14999999781482581,-0.1499999977148258,0.1999999970697678,0.5076302081368363,0.5331796013564781
lively,9.999999701976783e-11,9.999999701976783e-11,1.309999961058959,0.14999999562965177,-0.4999999849988393,-0.4999999849988393,-1.2999999611569824,1.309999961058959,-0.14999999542965176,0.49999998519883926,0.49999998519883926,1.2999999613569824,9.999999701976783e-11,0.1999999941395357,9.999999701976783e-11,0.14999999562965177,-0.14999999542965176,-0.1999999939395357,9.999999701976783e-11,-0.1999999939395357,9.999999701976783e-11,0.14999999562965177,-0.14999999542965176,0.1999999941395357,0.49999998519883926,0.49999998519883926
static,5e-11,5e-11,1.3099999805294789,0.14999999781482581,-0.4999999924994194,-0.4999999924994194,-1.2999999805784905,1.3099999805294789,-0.1499999977148258,0.4999999925994194,0.4999999925994194,1.2999999806784905,5e-11,0.1999999970697678,5e-11,0.14999999781482581,-0.1499999977148258,-0.19999999696976778,5e-11,-0.19999999696976778,5e-11,0.14999999781482581,-0.1499999977148258,0.1999999970697678,0.4999999925994194,0.4999999925994194
naive,-0.009451228155124369,-0.009017261222849243,1.3076786066374884,0.14883285588211417,-0.528497427668683,-0.4974564148167522,-1.3249875021077258,1.3125048999303435,-0.15833819367248886,0.4796150278214786,0.49689528255299564,1.3186219327775086,5e-11,0.1999999970697678,5e-11,0.14999999781482581,-0.1499999977148258,-0.19999999696976778,5e-11,-0.19999999696976778,5e-11,0.14999999781482581,-0.1499999977148258,0.1999999970697678,0.5071217249821178,0.5327582726979817
lively,9.999999701976783e-11,9.999999701976783e-11,1.309999961058959,0.14999999562965177,-0.4999999849988393,-0.4999999849988393,-1.2999999611569824,1.309999961058959,-0.14999999542965176,0.49999998519883926,0.49999998519883926,1.2999999613569824,9.999999701976783e-11,0.1999999941395357,9.999999701976783e-11,0.14999999562965177,-0.14999999542965176,-0.1999999939395357,9.999999701976783e-11,-0.1999999939395357,9.999999701976783e-11,0.14999999562965177,-0.14999999542965176,0.1999999941395357,0.49999998519883926,0.49999998519883926
static,5e-11,5e-11,1.3099999805294789,0.14999999781482581,-0.4999999924994194,-0.4999999924994194,-1.2999999805784905,1.3099999805294789,-0.1499999977148258,0.4999999925994194,0.4999999925994194,1.2999999806784905,5e-11,0.1999999970697678,5e-11,0.14999999781482581,-0.1499999977148258,-0.19999999696976778,5e-11,-0.19999999696976778,5e-11,0.14999999781482581,-0.1499999977148258,0.1999999970697678,0.4999999925994194,0.4999999925994194
naive,-0.009438389340764188,-0.00917196142884787,1.3075561881437507,0.14873467885241645,-0.528814879699783,-0.4974652463073629,-1.3251747604627253,1.3124717071976106,-0.15824644944848312,0.4794349108899769,0.49692538415070514,1.3183269489308147,5e-11,0.1999999970697678,5e-11,0.14999999781482581,-0.1499999977148258,-0.19999999696976778,5e-11,-0.19999999696976778,5e-11,0.14999999781482581,-0.1499999977148258,0.1999999970697678,0.5066777317680318,0.5323812589624107
lively,9.999999701976783e-11,9.999999701976783e-11,1.309999961058959,0.14999999562965177,-0.4999999849988393,-0.4999999849988393,-1.2999999611569824,1.309999961058959,-0.14999999542965176,0.49999998519883926,0.49999998519883926,1.2999999613569824,9.999999701976783e-11,0.1999999941395357,9.999999701976783e-11,0.14999999562965177,-0.14999999542965176,-0.1999999939395357,9.999999701976783e-11,-0.1999999939395357,9.999999701976783e-11,0.14999999562965177,-0.14999999542965176,0.1999999941395357,0.49999998519883926,0.49999998519883926
static,5e-11,5e-11,1.3099999805294789,0.14999999781482581,-0.4999999924994194,-0.4999999924994194,-1.2999999805784905,1.3099999805294789,-0.1499999977148258,0.4999999925994194,0.4999999925994194,1.2999999806784905,5e-11,0.1999999970697678,5e-11,0.14999999781482581,-0.1499999977148258,-0.19999999696976778,5e-11,-0.19999999696976778,5e-11,0.14999999781482581,-0.1499999977148258,0.1999999970697678,0.4999999925994194,0.4999999925994194
naive,-0.009419100661283169,-0.009341676423459929,1.3074207123356774,0.14862653955756142,-0.5291509185422174,-0.49747534067985416,-1.3253890741396017,1.3124327147877772,-0.15814372829331558,0.4792263795024743,0.49696101901808526,1.3179857005451034,5e-11,0.1999999970697678,5e-11,0.14999999781482581,-0.1499999977148258,-0.19999999696976778,5e-11,-0.19999999696976778,5e-11,0.14999999781482581,-0.1499999977148258,0.1999999970697678,0.5061909273004347,0.5319574983961526
lively,9.999999701976783e-11,9.999999701976783e-11,1.309999961058959,0.14999999562965177,-0.4999999849988393,-0.4999999849988393,-1.2999999611569824,1.309999961058959,-0.14999999542965176,0.49999998519883926,0.49999998519883926,1.2999999613569824,9.999999701976783e-11,0.1999999941395357,9.999999701976783e-11,0.14999999562965177,-0.14999999542965176,-0.1999999939395357,9.999999701976783e-11,-0.1999999939395357,9.999999701976783e-11,0.14999999562965177,-0.14999999542965176,0.1999999941395357,0.49999998519883926,0.49999998519883926
static,5e-11,5e-11,1.3099999805294789,0.14999999781482581,-0.4999999924994194,-0.4999999924994194,-1.2999999805784905,1.3099999805294789,-0.1499999977148258,0.4999999925994194,0.4999999925994194,1.2999999806784905,5e-11,0.1999999970697678,5e-11,0.14999999781482581,-0.1499999977148258,-0.19999999696976778,5e-11,-0.19999999696976778,5e-11,0.14999999781482581,-0.1499999977148258,0.1999999970697678,0.4999999925994194,0.4999999925994194
naive,-0.009396843836581709,-0.009493078721105195,1.3072988391134825,0.14852966102984896,-0.5294390978619993,-0.4974847205452347,-1.325588551843743,1.3123954645844662,-0.15805016385539006,0.47903015826700435,0.49699522889248454,1.3176648129869668,5e-11,0.1999999970697678,5e-11,0.14999999781482581,-0.1499999977148258,-0.19999999696976778,5e-11,-0.19999999696976778,5e-11,0.14999999781482581,-0.1499999977148258,0.1999999970697678,0.5057571224708345,0.5315701084284189
lively,9.999999701976783e-11,9.999999701976783e-11,1.309999961058959,0.14999999562965177,-0.4999999849988393,-0.4999999849988393,-1.2999999611569824,1.309999961058959,-0.14999999542965176,0.49999998519883926,0.49999998519883926,1.2999999613569824,9.999999701976783e-11,0.1999999941395357,9.999999701976783e-11,0.14999999562965177,-0.14999999542965176,-0.1999999939395357,9.999999701976783e-11,-0.1999999939395357,9.999999701976783e-11,0.14999999562965177,-0.14999999542965176,0.1999999941395357,0.49999998519883926,0.49999998519883926
static,5e-11,5e-11,1.3099999805294789,0.14999999781482581,-0.4999999924994194,-0.4999999924994194,-1.2999999805784905,1.3099999805294789,-0.1499999977148258,0.4999999925994194,0.4999999925994194,1.2999999806784905,5e-11,0.1999999970697678,5e-11,0.14999999781482581,-0.1499999977148258,-0.19999999696976778,5e-11,-0.19999999696976778,5e-11,0.14999999781482581,-0.1499999977148258,0.1999999970697678,0.4999999925994194,0.4999999925994194
naive,-0.009367697603542313,-0.00965272026801365,1.307169321855754,0.1484270626194594,-0.5297301857174492,-0.49749501329774126,-1.3258078670304603,1.3123534502439818,-0.15794942433249917,0.47881222397440476,0.497033904821479,1.3173086130434715,5e-11,0.1999999970697678,5e-11,0.14999999781482581,-0.1499999977148258,-0.19999999696976778,5e-11,-0.19999999696976778,5e-11,0.14999999781482581,-0.1499999977148258,0.1999999970697678,0.5053004436394437,0.5311516189823033
lively,9.999999701976783e-11,9.999999701976783e-11,1.309999961058959,0.14999999562965177,-0.4999999849988393,-0.4999999849988393,-1.2999999611569824,1.309999961058959,-0.14999999542965176,0.49999998519883926,0.49999998519883926,1.2999999613569824,9.999999701976783e-11,0.1999999941395357,9.999999701976783e-11,0.14999999562965177,-0.14999999542965176,-0.1999999939395357,9.999999701976783e-11,-0.1999999939395357,9.999999701976783e-11,0.14999999562965177,-0.14999999542965176,0.1999999941395357,0.49999998519883926,0.49999998519883926
static,5e-11,5e-11,1.3099999805294789,0.14999999781482581,-0.4999999924994194,-0.4999999924994194,-1.2999999805784905,1.3099999805294789,-0.1499999977148258,0.4999999925994194,0.4999999925994194,1.2999999806784905,5e-11,0.1999999970697678,5e-11,0.14999999781482581,-0.1499999977148258,-0.19999999696976778,5e-11,-0.19999999696976778,5e-11,0.14999999781482581,-0.1499999977148258,0.1999999970697678,0.4999999925994194,0.4999999925994194
naive,-0.009336934786726283,-0.009792481466358601,1.307055103557307,0.1483368344684903,-0.5299734374923736,-0.49750438157477506,-1.3260078958760801,1.3123141664255658,-0.15785937096835878,0.47861157454019626,0.49707007786618135,1.3169808025342533,5e-11,0.1999999970697678,5e-11,0.14999999781482581,-0.1499999977148258,-0.19999999696976778,5e-11,-0.19999999696976778,5e-11,0.14999999781482581,-0.1499999977148258,0.1999999970697678,0.5049014752761783,0.5307763865403894
lively,9.999999701976783e-11,9.999999701976783e-11,1.309999961058959,0.14999999562965177,-0.4999999849988393,-0.4999999849988393,-1.2999999611569824,1.309999961058959,-0.14999999542965176,0.49999998519883926,0.49999998519883926,1.2999999613569824,9.999999701976783e-11,0.1999999941395357,9.999999701976783e-11,0.14999999562965177,-0.14999999542965176,-0.1999999939395357,9.999999701976783e-11,-0.1999999939395357,9.999999701976783e-11,0.14999999562965177,-0.14999999542965176,0.1999999941395357,0.49999998519883926,0.49999998519883926
static,5e-11,5e-11,1.3099999805294789,0.14999999781482581,-0.4999999924994194,-0.4999999924994194,-1.2999999805784905,1.3099999805294789,-0.1499999977148258,0.4999999925994194,0.4999999925994194,1.2999999806784905,5e-11,0.1999999970697678,5e-11,0.14999999781482581,-0.1499999977148258,-0.19999999696976778,5e-11,-0.19999999696976778,5e-11,0.14999999781482581,-0.1499999977148258,0.1999999970697678,0.4999999925994194,0.4999999925994194
naive,-0.009295965209659984,-0.009949443461573655,1.306925932002328,0.1482350085477651,-0.5302326955286527,-0.49751532440975477,-1.326242055172747,1.3122670136759702,-0.15775602951600756,0.47837454367279686,0.49711342923572377,1.3165936818312987,5e-11,0.1999999970697678,5e-11,0.14999999781482581,-0.1499999977148258,-0.19999999696976778,5e-11,-0.19999999696976778,5e-11,0.14999999781482581,-0.1499999977148258,0.1999999970697678,0.5044546076322249,0.5303445578992745
lively,9.999999701976783e-11,9.999999701976783e-11,1.309999961058959,0.14999999562965177,-0.4999999849988393,-0.4999999849988393,-1.2999999611569824,1.309999961058959,-0.14999999542965176,0.49999998519883926,0.49999998519883926,1.2999999613569824,9.999999701976783e-11,0.1999999941395357,9.999999701976783e-11,0.14999999562965177,-0.14999999542965176,-0.1999999939395357,9.999999701976783e-11,-0.1999999939395357,9.999999701976783e-11,0.14999999562965177,-0.14999999542965176,0.1999999941395357,0.49999998519883926,0.49999998519883926
static,5e-11,5e-11,1.3099999805294789,0.14999999781482581,-0.4999999924994194,-0.4999999924994194,-1.2999999805784905,1.3099999805294789,-0.1499999977148258,0.4999999925994194,0.4999999925994194,1.2999999806784905,5e-11,0.1999999970697678,5e-11,0.14999999781482581,-0.1499999977148258,-0.19999999696976778,5e-11,-0.19999999696976778,5e-11,0.14999999781482581,-0.1499999977148258,0.1999999970697678,0.4999999925994194,0.4999999925994194
naive,-0.009255187709458776,-0.010083158193090316,1.3068151687700746,0.1481478155403326,-0.5304410053063889,-0.49752502033297,-1.3264499853616338,1.312224089843457,-0.15766603224739248,0.47816222894115296,0.49715277129988616,1.3162470051597464,5e-11,0.1999999970697678,5e-11,0.14999999781482581,-0.1499999977148258,-0.19999999696976778,5e-11,-0.19999999696976778,5e-11,0.14999999781482581,-0.1499999977148258,0.1999999970697678,0.5040751693184836,0.5299675001682083
lively,9.999999701976783e-11,9.999999701976783e-11,1.309999961058959,0.14999999562965177,-0.4999999849988393,-0.4999999849988393,-1.2999999611569824,1.309999961058959,-0.14999999542965176,0.49999998519883926,0.49999998519883926,1.2999999613569824,9.999999701976783e-11,0.1999999941395357,9.999999701976783e-11,0.14999999562965177,-0.14999999542965176,-0.1999999939395357,9.999999701976783e-11,-0.1999999939395357,9.999999701976783e-11,0.14999999562965177,-0.14999999542965176,0.1999999941395357,0.49999998519883926,0.49999998519883926
static,5e-11,5e-11,1.3099999805294789,0.14999999781482581,-0.4999999924994194,-0.4999999924994194,-1.2999999805784905,1.3099999805294789,-0.1499999977148258,0.4999999925994194,0.4999999925994194,1.2999999806784905,5e-11,0.1999999970697678,5e-11,0.14999999781482581,-0.1499999977148258,-0.19999999696976778,5e-11,-0.19999999696976778,5e-11,0.14999999781482581,-0.1499999977148258,0.1999999970697678,0.4999999925994194,0.4999999925994194
naive,-0.009202231446844985,-0.010233477592715092,1.306689887452054,0.14804925109808278,-0.5306602232371832,-0.49753635998980034,-1.3266936776449083,1.3121725227069752,-0.15756254458480565,0.47791131048144947,0.49719982239042987,1.3158373451344518,5e-11,0.1999999970697678,5e-11,0.14999999781482581,-0.1499999977148258,-0.19999999696976778,5e-11,-0.19999999696976778,5e-11,0.14999999781482581,-0.1499999977148258,0.1999999970697678,0.5036502744724006,0.5295328721899292
lively,9.999999701976783e-11,9.999999701976783e-11,1.309999961058959,0.14999999562965177,-0.4999999849988393,-0.4999999849988393,-1.2999999611569824,1.309999961058959,-0.14999999542965176,0.49999998519883926,0.49999998519883926,1.2999999613569824,9.999999701976783e-11,0.1999999941395357,9.999999701976783e-11,0.14999999562965177,-0.14999999542965176,-0.1999999939395357,9.999999701976783e-11,-0.1999999939395357,9.999999701976783e-11,0.14999999562965177,-0.14999999542965176,0.1999999941395357,0.49999998519883926,0.49999998519883926
static,5e-11,5e-11,1.3099999805294789,0.14999999781482581,-0.4999999924994194,-0.4999999924994194,-1.2999999805784905,1.3099999805294789,-0.1499999977148258,0.4999999925994194,0.4999999925994194,1.2999999806784905,5e-11,0.1999999970697678,5e-11,0.14999999781482581,-0.1499999977148258,-0.19999999696976778,5e-11,-0.19999999696976778,5e-11,0.14999999781482581,-0.1499999977148258,0.1999999970697678,0.4999999925994194,0.4999999925994194
naive,-0.009147921297867838,-0.010367745547110452,1.306577329774475,0.14796067271124003,-0.5308415078930352,-0.49754691143654556,-1.3269208821590337,1.3121232170144057,-0.15746787805744408,0.47767542630643495,0.49724454676904156,1.3154522403781783,5e-11,0.1999999970697678,5e-11,0.14999999781482581,-0.1499999977148258,-0.19999999696976778,5e-11,-0.19999999696976778,5e-11,0.14999999781482581,-0.1499999977148258,0.1999999970697678,0.5032725179862688,0.5291343859345929
lively,9.999999701976783e-11,9.999999701976783e-11,1.309999961058959,0.14999999562965177,-0.4999999849988393,-0.4999999849988393,-1.2999999611569824,1.309999961058959,-0.14999999542965176,0.49999998519883926,0.49999998519883926,1.2999999613569824,9.999999701976783e-11,0.1999999941395357,9.999999701976783e-11,0.14999999562965177,-0.14999999542965176,-0.1999999939395357,9.999999701976783e-11,-0.1999999939395357,9.999999701976783e-11,0.14999999562965177,-0.14999999542965176,0.1999999941395357,0.49999998519883926,0.49999998519883926
static,5e-11,5e-11,1.3099999805294789,0.14999999781482581,-0.4999999924994194,-0.4999999924994194,-1.2999999805784905,1.3099999805294789,-0.1499999977148258,0.4999999925994194,0.4999999925994194,1.2999999806784905,5e-11,0.1999999970697678,5e-11,0.14999999781482581,-0.1499999977148258,-0.19999999696976778,5e-11,-0.19999999696976778,5e-11,0.14999999781482581,-0.1499999977148258,0.1999999970697678,0.4999999925994194,0.4999999925994194
naive,-0.009086259006698008,-0.010502102984819447,1.3064641099098395,0.14787146645211663,-0.5310079654273097,-0.49755790177909626,-1.3271579346774007,1.3120705078436792,-0.15737086744522216,0.47742739556362196,0.49729203482622303,1.3150472756849165,5e-11,0.1999999970697678,5e-11,0.14999999781482581,-0.1499999977148258,-0.19999999696976778,5e-11,-0.19999999696976778,5e-11,0.14999999781482581,-0.1499999977148258,0.1999999970697678,0.5028964733755944,0.528725212461386
lively,9.999999701976783e-11,9.999999701976783e-11,1.309999961058959,0.14999999562965177,-0.4999999849988393,-0.4999999849988393,-1.2999999611569824,1.309999961058959,-0.14999999542965176,0.49999998519883926,0.49999998519883926,1.2999999613569824,9.999999701976783e-11,0.1999999941395357,9.999999701976783e-11,0.14999999562965177,-0.14999999542965176,-0.1999999939395357,9.999999701976783e-11,-0.1999999939395357,9.999999701976783e-11,0.14999999562965177,-0.14999999542965176,0.1999999941395357,0.49999998519883926,0.49999998519883926
static,5e-11,5e-11,1.3099999805294789,0.14999999781482581,-0.4999999924994194,-0.4999999924994194,-1.2999999805784905,1.3099999805294789,-0.1499999977148258,0.4999999925994194,0.4999999925994194,1.2999999806784905,5e-11,0.1999999970697678,5e-11,0.14999999781482581,-0.1499999977148258,-0.19999999696976778,5e-11,-0.19999999696976778,5e-11,0.14999999781482581,-0.1499999977148258,0.1999999970697678,0.4999999925994194,0.4999999925994194
naive,-0.009020678787775209,-0.010628862054324431,1.3063567844188284,0.14778672126907091,-0.5311500754954857,-0.49756870028393935,-1.3273911632889284,1.3120173816220015,-0.1572770733145224,0.47718150892526723,0.49733953135754294,1.3146457470076358,5e-11,0.1999999970697678,5e-11,0.14999999781482581,-0.1499999977148258,-0.19999999696976778,5e-11,-0.19999999696976778,5e-11,0.14999999781482581,-0.1499999977148258,0.1999999970697678,0.5025437845534598,0.5283288855386319
lively,9.999999701976783e-11,9.999999701976783e-11,1.309999961058959,0.14999999562965177,-0.4999999849988393,-0.4999999849988393,-1.2999999611569824,1.309999961058959,-0.14999999542965176,0.49999998519883926,0.49999998519883926,1.2999999613569824,9.999999701976783e-11,0.1999999941395357,9.999999701976783e-11,0.14999999562965177,-0.14999999542965176,-0.1999999939395357,9.999999701976783e-11,-0.1999999939395357,9.999999701976783e-11,0.14999999562965177,-0.14999999542965176,0.1999999941395357,0.49999998519883926,0.49999998519883926
static,5e-11,5e-11,1.3099999805294789,0.14999999781482581,-0.4999999924994194,-0.4999999924994194,-1.2999999805784905,1.3099999805294789,-0.1499999977148258,0.4999999925994194,0.4999999925994194,1.2999999806784905,5e-11,0.1999999970697678,5e-11,0.14999999781482581,-0.1499999977148258,-0.19999999696976778,5e-11,-0.19999999696976778,5e-11,0.14999999781482581,-0.1499999977148258,0.1999999970697678,0.4999999925994194,0.4999999925994194
naive,-0.008947419119021291,-0.010755163743361398,1.3062493861175253,0.14770164471818797,-0.5312759151541396,-0.4975799127674766,-1.3276335624999545,1.311960826464529,-0.15718122488200065,0.47692404720110143,0.49738966342651275,1.3142252127579537,5e-11,0.1999999970697678,5e-11,0.14999999781482581,-0.1499999977148258,-0.19999999696976778,5e-11,-0.19999999696976778,5e-11,0.14999999781482581,-0.1499999977148258,0.1999999970697678,0.5021946835185326,0.5279232139380603
lively,9.999999701976783e-11,9.999999701976783e-11,1.309999961058959,0.14999999562965177,-0.4999999849988393,-0.4999999849988393,-1.2999999611569824,1.309999961058959,-0.14999999542965176,0.49999998519883926,0.49999998519883926,1.2999999613569824,9.999999701976783e-11,0.1999999941395357,9.999999701976783e-11,0.14999999562965177,-0.14999999542965176,-0.1999999939395357,9.999999701976783e-11,-0.1999999939395357,9.999999701976783e-11,0.14999999562965177,-0.14999999542965176,0.1999999941395357,0.49999998519883926,0.49999998519883926
static,5e-11,5e-11,1.3099999805294789,0.14999999781482581,-0.4999999924994194,-0.4999999924994194,-1.2999999805784905,1.3099999805294789,-0.1499999977148258,0.4999999925994194,0.4999999925994194,1.2999999806784905,5e-11,0.1999999970697678,5e-11,0.14999999781482581,-0.1499999977148258,-0.19999999696976778,5e-11,-0.19999999696976778,5e-11,0.14999999781482581,-0.1499999977148258,0.1999999970697678,0.4999999925994194,0.4999999925994194
naive,-0.008872560397129949,-0.010870966235367175,1.3061505413574788,0.1476230085731681,-0.5313761755682606,-0.49759062851929814,-1.3278653298623615,1.311905465890796,-0.15709104762504045,0.4766760951904206,0.49743829119313776,1.3138200756871652,5e-11,0.1999999970697678,5e-11,0.14999999781482581,-0.1499999977148258,-0.19999999696976778,5e-11,-0.19999999696976778,5e-11,0.14999999781482581,-0.1499999977148258,0.1999999970697678,0.5018769205478132,0.5275409956014365
lively,9.999999701976783e-11,9.999999701976783e-11,1.309999961058959,0.14999999562965177,-0.4999999849988393,-0.4999999849988393,-1.2999999611569824,1.309999961058959,-0.14999999542965176,0.49999998519883926,0.49999998519883926,1.2999999613569824,9.999999701976783e-11,0.1999999941395357,9.999999701976783e-11,0.14999999562965177,-0.14999999542965176,-0.1999999939395357,9.999999701976783e-11,-0.1999999939395357,9.999999701976783e-11,0.14999999562965177,-0.14999999542965176,0.1999999941395357,0.49999998519883926,0.49999998519883926
static,5e-11,5e-11,1.3099999805294789,0.14999999781482581,-0.4999999924994194,-0.4999999924994194,-1.2999999805784905,1.3099999805294789,-0.1499999977148258,0.4999999925994194,0.4999999925994194,1.2999999806784905,5e-11,0.1999999970697678,5e-11,0.14999999781482581,-0.1499999977148258,-0.19999999696976778,5e-11,-0.19999999696976778,5e-11,0.14999999781482581,-0.1499999977148258,0.1999999970697678,0.4999999925994194,0.4999999925994194
naive,-0.00878248695089209,-0.010996066214545568,1.3060433928263284,0.14753728250327652,-0.5314666126295177,-0.4976027217136129,-1.3281268646696451,1.3118414720546898,-0.1569909066916639,0.4763942232452667,0.49749393878505804,1.313359323302054,5e-11,0.1999999970697678,5e-11,0.14999999781482581,-0.1499999977148258,-0.19999999696976778,5e-11,-0.19999999696976778,5e-11,0.14999999781482581,-0.1499999977148258,0.1999999970697678,0.5015364768794104,0.5271159907025689
lively,9.999999701976783e-11,9.999999701976783e-11,1.309999961058959,0.14999999562965177,-0.4999999849988393,-0.4999999849988393,-1.2999999611569824,1.309999961058959,-0.14999999542965176,0.49999998519883926,0.49999998519883926,1.2999999613569824,9.999999701976783e-11,0.1999999941395357,9.999999701976783e-11,0.14999999562965177,-0.14999999542965176,-0.1999999939395357,9.999999701976783e-11,-0.1999999939395357,9.999999701976783e-11,0.14999999562965177,-0.14999999542965176,0.1999999941395357,0.49999998519883926,0.49999998519883926
static,5e-11,5e-11,1.3099999805294789,0.14999999781482581,-0.4999999924994194,-0.4999999924994194,-1.2999999805784905,1.3099999805294789,-0.1499999977148258,0.4999999925994194,0.4999999925994194,1.2999999806784905,5e-11,0.1999999970697678,5e-11,0.14999999781482581,-0.1499999977148258,-0.19999999696976778,5e-11,-0.19999999696976778,5e-11,0.14999999781482581,-0.1499999977148258,0.1999999970697678,0.4999999925994194,0.4999999925994194
naive,-0.00869597314565141,-0.011104281410016903,1.3059504286085104,0.14746238122117183,-0.5315283495520664,-0.49761366341677743,-1.328363323025344,1.3117822101876675,-0.15690175550856872,0.4761374954438179,0.4975449247467847,1.312939458254282,5e-11,0.1999999970697678,5e-11,0.14999999781482581,-0.1499999977148258,-0.19999999696976778,5e-11,-0.19999999696976778,5e-11,0.14999999781482581,-0.1499999977148258,0.1999999970697678,0.501244662976075,0.5267371946169074
lively,9.999999701976783e-11,9.999999701976783e-11,1.309999961058959,0.14999999562965177,-0.4999999849988393,-0.4999999849988393,-1.2999999611569824,1.309999961058959,-0.14999999542965176,0.49999998519883926,0.49999998519883926,1.2999999613569824,9.999999701976783e-11,0.1999999941395357,9.999999701976783e-11,0.14999999562965177,-0.14999999542965176,-0.1999999939395357,9.999999701976783e-11,-0.1999999939395357,9.999999701976783e-11,0.14999999562965177,-0.14999999542965176,0.1999999941395357,0.49999998519883926,0.49999998519883926
static,5e-11,5e-11,1.3099999805294789,0.14999999781482581,-0.4999999924994194,-0.4999999924994194,-1.2999999805784905,1.3099999805294789,-0.1499999977148258,0.4999999925994194,0.4999999925994194,1.2999999806784905,5e-11,0.1999999970697678,5e-11,0.14999999781482581,-0.1499999977148258,-0.19999999696976778,5e-11,-0.19999999696976778,5e-11,0.14999999781482581,-0.1499999977148258,0.1999999970697678,0.4999999925994194,0.4999999925994194
naive,-0.008598447499146832,-0.011214735673394788,1.305855307109761,0.14738510528567733,-0.5315738892190252,-0.4976253460686473,-1.328615435348271,1.311717539335375,-0.15680806275544715,0.47586179693228536,0.49759995978835786,1.3124883096791096,5e-11,0.1999999970697678,5e-11,0.14999999781482581,-0.1499999977148258,-0.19999999696976778,5e-11,-0.19999999696976778,5e-11,0.14999999781482581,-0.1499999977148258,0.1999999970697678,0.5009497021530739,0.5263387241428262
lively,9.999999701976783e-11,9.999999701976783e-11,1.309999961058959,0.14999999562965177,-0.4999999849988393,-0.4999999849988393,-1.2999999611569824,1.309999961058959,-0.14999999542965176,0.49999998519883926,0.49999998519883926,1.2999999613569824,9.999999701976783e-11,0.1999999941395357,9.999999701976783e-11,0.14999999562965177,-0.14999999542965176,-0.1999999939395357,9.999999701976783e-11,-0.1999999939395357,9.999999701976783e-11,0.14999999562965177,-0.14999999542965176,0.1999999941395357,0.49999998519883926,0.49999998519883926
static,5e-11,5e-11,1.3099999805294789,0.14999999781482581,-0.4999999924994194,-0.4999999924994194,-1.2999999805784905,1.3099999805294789,-0.1499999977148258,0.4999999925994194,0.4999999925994194,1.2999999806784905,5e-11,0.1999999970697678,5e-11,0.14999999781482581,-0.1499999977148258,-0.19999999696976778,5e-11,-0.19999999696976778,5e-11,0.14999999781482581,-0.1499999977148258,0.1999999970697678,0.4999999925994194,0.4999999925994194
naive,-0.008497997209306305,-0.01131782303037275,1.305766347111842,0.1473121132394907,-0.5315987334255035,-0.49763677592509015,-1.3288615481438306,1.3116529095494929,-0.1567178685532289,0.47559067574245356,0.4976543292618293,1.3120443629787435,5e-11,0.1999999970697678,5e-11,0.14999999781482581,-0.1499999977148258,-0.19999999696976778,5e-11,-0.19999999696976778,5e-11,0.14999999781482581,-0.1499999977148258,0.1999999970697678,0.5006773695158311,0.5259548230680702
lively,9.999999701976783e-11,9.999999701976783e-11,1.309999961058959,0.14999999562965177,-0.4999999849988393,-0.4999999849988393,-1.2999999611569824,1.309999961058959,-0.14999999542965176,0.49999998519883926,0.49999998519883926,1.2999999613569824,9.999999701976783e-11,0.1999999941395357,9.999999701976783e-11,0.14999999562965177,-0.14999999542965176,-0.1999999939395357,9.999999701976783e-11,-0.1999999939395357,9.999999701976783e-11,0.14999999562965177,-0.14999999542965176,0.1999999941395357,0.49999998519883926,0.49999998519883926
static,5e-11,5e-11,1.3099999805294789,0.14999999781482581,-0.4999999924994194,-0.4999999924994194,-1.2999999805784905,1.3099999805294789,-0.1499999977148258,0.4999999925994194,0.4999999925994194,1.2999999806784905,5e-11,0.1999999970697678,5e-11,0.14999999781482581,-0.1499999977148258,-0.19999999696976778,5e-11,-0.19999999696976778,5e-11,0.14999999781482581,-0.1499999977148258,0.1999999970697678,0.4999999925994194,0.4999999925994194
naive,-0.008388468531007366,-0.011419837946157406,1.3056781676537972,0.14723891313889867,-0.5316045934717563,-0.49764865377786954,-1.3291165221832686,1.311584368698938,-0.15662565994148708,0.4753076911638988,0.49771130093901583,1.3115806563530705,5e-11,0.1999999970697678,5e-11,0.14999999781482581,-0.1499999977148258,-0.19999999696976778,5e-11,-0.19999999696976778,5e-11,0.14999999781482581,-0.1499999977148258,0.1999999970697678,0.5004110134752093,0.525562091102797
lively,9.999999701976783e-11,9.999999701976783e-11,1.309999961058959,0.14999999562965177,-0.4999999849988393,-0.4999999849988393,-1.2999999611569824,1.309999961058959,-0.14999999542965176,0.49999998519883926,0.49999998519883926,1.2999999613569824,9.999999701976783e-11,0.1999999941395357,9.999999701976783e-11,0.14999999562965177,-0.14999999542965176,-0.1999999939395357,9.999999701976783e-11,-0.1999999939395357,9.999999701976783e-11,0.14999999562965177,-0.14999999542965176,0.1999999941395357,0.49999998519883926,0.49999998519883926
static,5e-11,5e-11,1.3099999805294789,0.14999999781482581,-0.4999999924994194,-0.4999999924994194,-1.2999999805784905,1.3099999805294789,-0.1499999977148258,0.4999999925994194,0.4999999925994194,1.2999999806784905,5e-11,0.1999999970697678,5e-11,0.14999999781482581,-0.1499999977148258,-0.19999999696976778,5e-11,-0.19999999696976778,5e-11,0.14999999781482581,-0.1499999977148258,0.1999999970697678,0.4999999925994194,0.4999999925994194
naive,-0.008282921977010136,-0.011509401077272649,1.3056006585845406,0.14717372032509848,-0.531592579578762,-0.4976596099274141,-1.3293508058885948,1.3115199464698475,-0.15654196455660072,0.47504574667680316,0.49776420827662127,1.3111510941150035,5e-11,0.1999999970697678,5e-11,0.14999999781482581,-0.1499999977148258,-0.19999999696976778,5e-11,-0.19999999696976778,5e-11,0.14999999781482581,-0.1499999977148258,0.1999999970697678,0.500180044466838,0.5252054445211621
lively,9.999999701976783e-11,9.999999701976783e-11,1.309999961058959,0.14999999562965177,-0.4999999849988393,-0.4999999849988393,-1.2999999611569824,1.309999961058959,-0.14999999542965176,0.49999998519883926,0.49999998519883926,1.2999999613569824,9.999999701976783e-11,0.1999999941395357,9.999999701976783e-11,0.14999999562965177,-0.14999999542965176,-0.1999999939395357,9.999999701976783e-11,-0.1999999939395357,9.999999701976783e-11,0.14999999562965177,-0.14999999542965176,0.1999999941395357,0.49999998519883926,0.49999998519883926
static,5e-11,5e-11,1.3099999805294789,0.14999999781482581,-0.4999999924994194,-0.4999999924994194,-1.2999999805784905,1.3099999805294789,-0.1499999977148258,0.4999999925994194,0.4999999925994194,1.2999999806784905,5e-11,0.1999999970697678,5e-11,0.14999999781482581,-0.1499999977148258,-0.19999999696976778,5e-11,-0.19999999696976778,5e-11,0.14999999781482581,-0.1499999977148258,0.1999999970697678,0.4999999925994194,0.4999999925994194
naive,-0.008154718112650991,-0.011608312208113146,1.3055149869122364,0.14710053048142893,-0.5315582951430088,-0.4976723691707934,-1.329622292356359,1.3114435346044482,-0.15644612114983583,0.474739834292811,0.4978261635602829,1.3106490003401268,5e-11,0.1999999970697678,5e-11,0.14999999781482581,-0.1499999977148258,-0.19999999696976778,5e-11,-0.19999999696976778,5e-11,0.14999999781482581,-0.1499999977148258,0.1999999970697678,0.4999284572400684,0.5247968877348431
lively,9.999999701976783e-11,9.999999701976783e-11,1.309999961058959,0.14999999562965177,-0.4999999849988393,-0.4999999849988393,-1.2999999611569824,1.309999961058959,-0.14999999542965176,0.49999998519883926,0.49999998519883926,1.2999999613569824,9.999999701976783e-11,0.1999999941395357,9.999999701976783e-11,0.14999999562965177,-0.14999999542965176,-0.1999999939395357,9.999999701976783e-11,-0.1999999939395357,9.999999701976783e-11,0.14999999562965177,-0.14999999542965176,0.1999999941395357,0.49999998519883926,0.49999998519883926
static,5e-11,5e-11,1.3099999805294789,0.14999999781482581,-0.4999999924994194,-0.4999999924994194,-1.2999999805784905,1.3099999805294789,-0.1499999977148258,0.4999999925994194,0.4999999925994194,1.2999999806784905,5e-11,0.1999999970697678,5e-11,0.14999999781482581,-0.1499999977148258,-0.19999999696976778,5e-11,-0.19999999696976778,5e-11,0.14999999781482581,-0.1499999977148258,0.1999999970697678,0.4999999925994194,0.4999999925994194
naive,-0.008033362998241627,-0.011693308578314033,1.3054413302014536,0.1470364487309143,-0.531508885130385,-0.4976839727103055,-1.3298676768686586,1.3113728127807525,-0.15636046403759646,0.47446106860804316,0.49788274049703624,1.3101910337704488,5e-11,0.1999999970697678,5e-11,0.14999999781482581,-0.1499999977148258,-0.19999999696976778,5e-11,-0.19999999696976778,5e-11,0.14999999781482581,-0.1499999977148258,0.1999999970697678,0.4997155211412078,0.5244316766610058
lively,9.999999701976783e-11,9.999999701976783e-11,1.309999961058959,0.14999999562965177,-0.4999999849988393,-0.4999999849988393,-1.2999999611569824,1.309999961058959,-0.14999999542965176,0.49999998519883926,0.49999998519883926,1.2999999613569824,9.999999701976783e-11,0.1999999941395357,9.999999701976783e-11,0.14999999562965177,-0.14999999542965176,-0.1999999939395357,9.999999701976783e-11,-0.1999999939395357,9.999999701976783e-11,0.14999999562965177,-0.14999999542965176,0.1999999941395357,0.49999998519883926,0.49999998519883926
static,5e-11,5e-11,1.3099999805294789,0.14999999781482581,-0.4999999924994194,-0.4999999924994194,-1.2999999805784905,1.3099999805294789,-0.1499999977148258,0.4999999925994194,0.4999999925994194,1.2999999806784905,5e-11,0.1999999970697678,5e-11,0.14999999781482581,-0.1499999977148258,-0.19999999696976778,5e-11,-0.19999999696976778,5e-11,0.14999999781482581,-0.1499999977148258,0.1999999970697678,0.4999999925994194,0.4999999925994194
naive,-0.007898913765152128,-0.011778976990080266,1.3053670764811416,0.14697052166724076,-0.5314377228098747,-0.49769636884838764,-1.3301279510044568,1.3112960436948273,-0.1562705273502779,0.47416294071508597,0.4979433331181488,1.3097007808891612,5e-11,0.1999999970697678,5e-11,0.14999999781482581,-0.1499999977148258,-0.19999999696976778,5e-11,-0.19999999696976778,5e-11,0.14999999781482581,-0.1499999977148258,0.1999999970697678,0.4995043050215425,0.5240481949175125
lively,9.999999701976783e-11,9.999999701976783e-11,1.309999961058959,0.14999999562965177,-0.4999999849988393,-0.4999999849988393,-1.2999999611569824,1.309999961058959,-0.14999999542965176,0.49999998519883926,0.49999998519883926,1.2999999613569824,9.999999701976783e-11,0.1999999941395357,9.999999701976783e-11,0.14999999562965177,-0.14999999542965176,-0.1999999939395357,9.999999701976783e-11,-0.1999999939395357,9.999999701976783e-11,0.14999999562965177,-0.14999999542965176,0.1999999941395357,0.49999998519883926,0.49999998519883926
static,5e-11,5e-11,1.3099999805294789,0.14999999781482581,-0.4999999924994194,-0.4999999924994194,-1.2999999805784905,1.3099999805294789,-0.1499999977148258,0.4999999925994194,0.4999999925994194,1.2999999806784905,5e-11,0.1999999970697678,5e-11,0.14999999781482581,-0.1499999977148258,-0.19999999696976778,5e-11,-0.19999999696976778,5e-11,0.14999999781482581,-0.1499999977148258,0.1999999970697678,0.4999999925994194,0.4999999925994194
naive,-0.007762706755995513,-0.011857782528742696,1.3052987757466554,0.14690844268611872,-0.5313504857181629,-0.497708503756978,-1.3303805938909166,1.311219757920155,-0.1561840443592841,0.47387103655752105,0.498002705831427,1.3092202605041803,5e-11,0.1999999970697678,5e-11,0.14999999781482581,-0.1499999977148258,-0.19999999696976778,5e-11,-0.19999999696976778,5e-11,0.14999999781482581,-0.1499999977148258,0.1999999970697678,0.4993133710931111,0.5236794723041244
lively,9.999999701976783e-11,9.999999701976783e-11,1.309999961058959,0.14999999562965177,-0.4999999849988393,-0.4999999849988393,-1.2999999611569824,1.309999961058959,-0.14999999542965176,0.49999998519883926,0.49999998519883926,1.2999999613569824,9.999999701976783e-11,0.1999999941395357,9.999999701976783e-11,0.14999999562965177,-0.14999999542965176,-0.1999999939395357,9.999999701976783e-11,-0.1999999939395357,9.999999701976783e-11,0.14999999562965177,-0.14999999542965176,0.1999999941395357,0.49999998519883926,0.49999998519883926
static,5e-11,5e-11,1.3099999805294789,0.14999999781482581,-0.4999999924994194,-0.4999999924994194,-1.2999999805784905,1.3099999805294789,-0.1499999977148258,0.4999999925994194,0.4999999925994194,1.2999999806784905,5e-11,0.1999999970697678,5e-11,0.14999999781482581,-0.1499999977148258,-0.19999999696976778,5e-11,-0.19999999696976778,5e-11,0.14999999781482581,-0.1499999977148258,0.1999999970697678,0.4999999925994194,0.4999999925994194
naive,-0.007614261367420802,-0.011935620925250925,1.3052313291934456,0.14684547332716746,-0.5312404599341267,-0.497721312861699,-1.3306446598384332,1.3111381155995148,-0.15609441483409986,0.47356314615556805,0.49806533288308813,1.3087128629927784,5e-11,0.1999999970697678,5e-11,0.14999999781482581,-0.1499999977148258,-0.19999999696976778,5e-11,-0.19999999696976778,5e-11,0.14999999781482581,-0.1499999977148258,0.1999999970697678,0.4991283130053832,0.5232974268103339
lively,9.999999701976783e-11,9.999999701976783e-11,1.309999961058959,0.14999999562965177,-0.4999999849988393,-0.4999999849988393,-1.2999999611569824,1.309999961058959,-0.14999999542965176,0.49999998519883926,0.49999998519883926,1.2999999613569824,9.999999701976783e-11,0.1999999941395357,9.999999701976783e-11,0.14999999562965177,-0.14999999542965176,-0.1999999939395357,9.999999701976783e-11,-0.1999999939395357,9.999999701976783e-11,0.14999999562965177,-0.14999999542965176,0.1999999941395357,0.49999998519883926,0.49999998519883926
static,5e-11,5e-11,1.3099999805294789,0.14999999781482581,-0.4999999924994194,-0.4999999924994194,-1.2999999805784905,1.3099999805294789,-0.1499999977148258,0.4999999925994194,0.4999999925994194,1.2999999806784905,5e-11,0.1999999970697678,5e-11,0.14999999781482581,-0.1499999977148258,-0.19999999696976778,5e-11,-0.19999999696976778,5e-11,0.14999999781482581,-0.1499999977148258,0.1999999970697678,0.4999999925994194,0.4999999925994194
naive,-0.007472117794931059,-0.012003172058222822,1.3051728138138963,0.1467891860649765,-0.53112243104651,-0.4977332277182036,-1.3308876035186386,1.311061237247702,-0.15601255653296128,0.4732772244972975,0.49812345084548865,1.3082411388618778,5e-11,0.1999999970697678,5e-11,0.14999999781482581,-0.1499999977148258,-0.19999999696976778,5e-11,-0.19999999696976778,5e-11,0.14999999781482581,-0.1499999977148258,0.1999999970697678,0.4989708857099752,0.5229486367277066
lively,9.999999701976783e-11,9.999999701976783e-11,1.309999961058959,0.14999999562965177,-0.4999999849988393,-0.4999999849988393,-1.2999999611569824,1.309999961058959,-0.14999999542965176,0.49999998519883926,0.49999998519883926,1.2999999613569824,9.999999701976783e-11,0.1999999941395357,9.999999701976783e-11,0.14999999562965177,-0.14999999542965176,-0.1999999939395357,9.999999701976783e-11,-0.1999999939395357,9.999999701976783e-11,0.14999999562965177,-0.14999999542965176,0.1999999941395357,0.49999998519883926,0.49999998519883926
static,5e-11,5e-11,1.3099999805294789,0.14999999781482581,-0.4999999924994194,-0.4999999924994194,-1.2999999805784905,1.3099999805294789,-0.1499999977148258,0.4999999925994194,0.4999999925994194,1.2999999806784905,5e-11,0.1999999970697678,5e-11,0.14999999781482581,-0.1499999977148258,-0.19999999696976778,5e-11,-0.19999999696976778,5e-11,0.14999999781482581,-0.1499999977148258,0.1999999970697678,0.4999999925994194,0.4999999925994194
naive,-0.007326817142855203,-0.012065906576877807,1.3051184823702262,0.146735216932175,-0.5309906028955496,-0.4977451014642495,-1.3311268664871727,1.3109838239105887,-0.1559324184709078,0.47299299773695086,0.49818114395886615,1.307771687443955,5e-11,0.1999999970697678,5e-11,0.14999999781482581,-0.1499999977148258,-0.19999999696976778,5e-11,-0.19999999696976778,5e-11,0.14999999781482581,-0.1499999977148258,0.1999999970697678,0.49882762882528997,0.5226073452215154
lively,9.999999701976783e-11,9.999999701976783e-11,1.309999961058959,0.14999999562965177,-0.4999999849988393,-0.4999999849988393,-1.2999999611569824,1.309999961058959,-0.14999999542965176,0.49999998519883926,0.49999998519883926,1.2999999613569824,9.999999701976783e-11,0.1999999941395357,9.999999701976783e-11,0.14999999562965177,-0.14999999542965176,-0.1999999939395357,9.999999701976783e-11,-0.1999999939395357,9.999999701976783e-11,0.14999999562965177,-0.14999999542965176,0.1999999941395357,0.49999998519883926,0.49999998519883926
static,5e-11,5e-11,1.3099999805294789,0.14999999781482581,-0.4999999924994194,-0.4999999924994194,-1.2999999805784905,1.3099999805294789,-0.1499999977148258,0.4999999925994194,0.4999999925994194,1.2999999806784905,5e-11,0.1999999970697678,5e-11,0.14999999781482581,-0.1499999977148258,-0.19999999696976778,5e-11,-0.19999999696976778,5e-11,0.14999999781482581,-0.1499999977148258,0.1999999970697678,0.4999999925994194,0.4999999925994194
naive,-0.007159237743373582,-0.012131127859409997,1.3050619949159892,0.14667692854036046,-0.5308263038758128,-0.49775846483182634,-1.3313924489944102,1.3108958625588563,-0.1558439205750197,0.4726742437021814,0.4982456983841417,1.3072445743238315,5e-11,0.1999999970697678,5e-11,0.14999999781482581,-0.1499999977148258,-0.19999999696976778,5e-11,-0.19999999696976778,5e-11,0.14999999781482581,-0.1499999977148258,0.1999999970697678,0.49868205297927015,0.5222307043395635
lively,9.999999701976783e-11,9.999999701976783e-11,1.309999961058959,0.14999999562965177,-0.4999999849988393,-0.4999999849988393,-1.2999999611569824,1.309999961058959,-0.14999999542965176,0.49999998519883926,0.49999998519883926,1.2999999613569824,9.999999701976783e-11,0.1999999941395357,9.999999701976783e-11,0.14999999562965177,-0.14999999542965176,-0.1999999939395357,9.999999701976783e-11,-0.1999999939395357,9.999999701976783e-11,0.14999999562965177,-0.14999999542965176,0.1999999941395357,0.49999998519883926,0.49999998519883926
static,5e-11,5e-11,1.3099999805294789,0.14999999781482581,-0.4999999924994194,-0.4999999924994194,-1.2999999805784905,1.3099999805294789,-0.1499999977148258,0.4999999925994194,0.4999999925994194,1.2999999806784905,5e-11,0.1999999970697678,5e-11,0.14999999781482581,-0.1499999977148258,-0.19999999696976778,5e-11,-0.19999999696976778,5e-11,0.14999999781482581,-0.1499999977148258,0.1999999970697678,0.4999999925994194,0.4999999925994194
naive,-0.006992647627826325,-0.01218912616047115,1.30501173388537,0.14662269687166807,-0.5306516040047573,-0.49777144840786464,-1.3316464168014561,1.3108096849652318,-0.15575963272874943,0.47236599727864165,0.49830792032527105,1.3067341868419033,5e-11,0.1999999970697678,5e-11,0.14999999781482581,-0.1499999977148258,-0.19999999696976778,5e-11,-0.19999999696976778,5e-11,0.14999999781482581,-0.1499999977148258,0.1999999970697678,0.4985558299962075,0.5218722822099559
lively,9.999999701976783e-11,9.999999701976783e-11,1.309999961058959,0.14999999562965177,-0.4999999849988393,-0.4999999849988393,-1.2999999611569824,1.309999961058959,-0.14999999542965176,0.49999998519883926,0.49999998519883926,1.2999999613569824,9.999999701976783e-11,0.1999999941395357,9.999999701976783e-11,0.14999999562965177,-0.14999999542965176,-0.1999999939395357,9.999999701976783e-11,-0.1999999939395357,9.999999701976783e-11,0.14999999562965177,-0.14999999542965176,0.1999999941395357,0.49999998519883926,0.49999998519883926
static,5e-11,5e-11,1.3099999805294789,0.14999999781482581,-0.4999999924994194,-0.4999999924994194,-1.2999999805784905,1.3099999805294789,-0.1499999977148258,0.4999999925994194,0.4999999925994194,1.2999999806784905,5e-11,0.1999999970697678,5e-11,0.14999999781482581,-0.1499999977148258,-0.19999999696976778,5e-11,-0.19999999696976778,5e-11,0.14999999781482581,-0.1499999977148258,0.1999999970697678,0.4999999925994194,0.4999999925994194
naive,-0.0068299925121194415,-0.012239783271429484,1.3049677715190868,0.14657291131835887,-0.530471471728586,-0.49778387830554127,-1.3318855253940025,1.3107266448803043,-0.15568047654835845,0.4720724916944768,0.4983669253771346,1.3062476059593366,5e-11,0.1999999970697678,5e-11,0.14999999781482581,-0.1499999977148258,-0.19999999696976778,5e-11,-0.19999999696976778,5e-11,0.14999999781482581,-0.1499999977148258,0.1999999970697678,0.4984483872575925,0.5215360009567378
lively,9.999999701976783e-11,9.999999701976783e-11,1.309999961058959,0.14999999562965177,-0.4999999849988393,-0.4999999849988393,-1.2999999611569824,1.309999961058959,-0.14999999542965176,0.49999998519883926,0.49999998519883926,1.2999999613569824,9.999999701976783e-11,0.1999999941395357,9.999999701976783e-11,0.14999999562965177,-0.14999999542965176,-0.1999999939395357,9.999999701976783e-11,-0.1999999939395357,9.999999701976783e-11,0.14999999562965177,-0.14999999542965176,0.1999999941395357,0.49999998519883926,0.49999998519883926
static,5e-11,5e-11,1.3099999805294789,0.14999999781482581,-0.4999999924994194,-0.4999999924994194,-1.2999999805784905,1.3099999805294789,-0.1499999977148258,0.4999999925994194,0.4999999925994194,1.2999999806784905,5e-11,0.1999999970697678,5e-11,0.14999999781482581,-0.1499999977148258,-0.19999999696976778,5e-11,-0.19999999696976778,5e-11,0.14999999781482581,-0.1499999977148258,0.1999999970697678,0.4999999925994194,0.4999999925994194
naive,-0.006649330903329698,-0.012289729564318907,1.3049243026503814,0.14652087451007836,-0.5302617044043595,-0.49779744160228584,-1.3321416473142942,1.3106355754917287,-0.1555957843271773,0.4717542830187588,0.4984305667179191,1.3057194062403488,5e-11,0.1999999970697678,5e-11,0.14999999781482581,-0.1499999977148258,-0.19999999696976778,5e-11,-0.19999999696976778,5e-11,0.14999999781482581,-0.1499999977148258,0.1999999970697678,0.4983453455328774,0.5211765989325892
lively,9.999999701976783e-11,9.999999701976783e-11,1.309999961058959,0.14999999562965177,-0.4999999849988393,-0.4999999849988393,-1.2999999611569824,1.309999961058959,-0.14999999542965176,0.49999998519883926,0.49999998519883926,1.2999999613569824,9.999999701976783e-11,0.1999999941395357,9.999999701976783e-11,0.14999999562965177,-0.14999999542965176,-0.1999999939395357,9.999999701976783e-11,-0.1999999939395357,9.999999701976783e-11,0.14999999562965177,-0.14999999542965176,0.1999999941395357,0.49999998519883926,0.49999998519883926
static,5e-11,5e-11,1.3099999805294789,0.14999999781482581,-0.4999999924994194,-0.4999999924994194,-1.2999999805784905,1.3099999805294789,-0.1499999977148258,0.4999999925994194,0.4999999925994194,1.2999999806784905,5e-11,0.1999999970697678,5e-11,0.14999999781482581,-0.1499999977148258,-0.19999999696976778,5e-11,-0.19999999696976778,5e-11,0.14999999781482581,-0.1499999977148258,0.1999999970697678,0.4999999925994194,0.4999999925994194
naive,-0.006473045891651246,-0.012332570555493819,1.3048868301110896,0.14647305053218024,-0.5300483940266703,-0.49781046913476446,-1.3323826789029483,1.3105477955193114,-0.15551605263924304,0.471450927000385,0.4984908538702031,1.3052152123582217,5e-11,0.1999999970697678,5e-11,0.14999999781482581,-0.1499999977148258,-0.19999999696976778,5e-11,-0.19999999696976778,5e-11,0.14999999781482581,-0.1499999977148258,0.1999999970697678,0.49825956133920535,0.5208386785185858
lively,9.999999701976783e-11,9.999999701976783e-11,1.309999961058959,0.14999999562965177,-0.4999999849988393,-0.4999999849988393,-1.2999999611569824,1.309999961058959,-0.14999999542965176,0.49999998519883926,0.49999998519883926,1.2999999613569824,9.999999701976783e-11,0.1999999941395357,9.999999701976783e-11,0.14999999562965177,-0.14999999542965176,-0.1999999939395357,9.999999701976783e-11,-0.1999999939395357,9.999999701976783e-11,0.14999999562965177,-0.14999999542965176,0.1999999941395357,0.49999998519883926,0.49999998519883926
static,5e-11,5e-11,1.3099999805294789,0.14999999781482581,-0.4999999924994194,-0.4999999924994194,-1.2999999805784905,1.3099999805294789,-0.1499999977148258,0.4999999925994194,0.4999999925994194,1.2999999806784905,5e-11,0.1999999970697678,5e-11,0.14999999781482581,-0.1499999977148258,-0.19999999696976778,5e-11,-0.19999999696976778,5e-11,0.14999999781482581,-0.1499999977148258,0.1999999970697678,0.4999999925994194,0.4999999925994194
naive,-0.006288757600462637,-0.012371604464393745,1.3048524093371452,0.1464258395515317,-0.5298174390277418,-0.4978239064566347,-1.332625933828725,1.3104570853672253,-0.15543542562680135,0.4711406136717147,0.49855206456317547,1.3046988097087013,5e-11,0.1999999970697678,5e-11,0.14999999781482581,-0.1499999977148258,-0.19999999696976778,5e-11,-0.19999999696976778,5e-11,0.14999999781482581,-0.1499999977148258,0.1999999970697678,0.49818378910281896,0.5204974446266611
lively,9.999999701976783e-11,9.999999701976783e-11,1.309999961058959,0.14999999562965177,-0.4999999849988393,-0.4999999849988393,-1.2999999611569824,1.309999961058959,-0.14999999542965176,0.49999998519883926,0.49999998519883926,1.2999999613569824,9.999999701976783e-11,0.1999999941395357,9.999999701976783e-11,0.14999999562965177,-0.14999999542965176,-0.1999999939395357,9.999999701976783e-11,-0.1999999939395357,9.999999701976783e-11,0.14999999562965177,-0.14999999542965176,0.1999999941395357,0.49999998519883926,0.49999998519883926
static,5e-11,5e-11,1.3099999805294789,0.14999999781482581,-0.4999999924994194,-0.4999999924994194,-1.2999999805784905,1.3099999805294789,-0.1499999977148258,0.4999999925994194,0.4999999925994194,1.2999999806784905,5e-11,0.1999999970697678,5e-11,0.14999999781482581,-0.1499999977148258,-0.19999999696976778,5e-11,-0.19999999696976778,5e-11,0.14999999781482581,-0.1499999977148258,0.1999999970697678,0.4999999925994194,0.4999999925994194
naive,-0.006096181691739755,-0.012406553542709121,1.3048211810185442,0.1463792274653688,-0.5295685010860939,-0.4978377861413114,-1.3328712410653794,1.3103633652592017,-0.15535381050651684,0.4708230784788556,0.49861414046144864,1.3041697217536572,5e-11,0.1999999970697678,5e-11,0.14999999781482581,-0.1499999977148258,-0.19999999696976778,5e-11,-0.19999999696976778,5e-11,0.14999999781482581,-0.1499999977148258,0.1999999970697678,0.498118169763141,0.5201525737933514
lively,9.999999701976783e-11,9.999999701976783e-11,1.309999961058959,0.14999999562965177,-0.4999999849988393,-0.4999999849988393,-1.2999999611569824,1.309999961058959,-0.14999999542965176,0.49999998519883926,0.49999998519883926,1.2999999613569824,9.999999701976783e-11,0.1999999941395357,9.999999701976783e-11,0.14999999562965177,-0.14999999542965176,-0.1999999939395357,9.999999701976783e-11,-0.1999999939395357,9.999999701976783e-11,0.14999999562965177,-0.14999999542965176,0.1999999941395357,0.49999998519883926,0.49999998519883926
static,5e-11,5e-11,1.3099999805294789,0.14999999781482581,-0.4999999924994194,-0.4999999924994194,-1.2999999805784905,1.3099999805294789,-0.1499999977148258,0.4999999925994194,0.4999999925994194,1.2999999806784905,5e-11,0.1999999970697678,5e-11,0.14999999781482581,-0.1499999977148258,-0.19999999696976778,5e-11,-0.19999999696976778,5e-11,0.14999999781482581,-0.1499999977148258,0.1999999970697678,0.4999999925994194,0.4999999925994194
naive,-0.005906833891684959,-0.012435475258288354,1.304794799153169,0.14633582849973523,-0.5293171517885826,-0.4978513047795009,-1.3331041398999057,1.310272211538459,-0.15527588832724007,0.4705169332137921,0.4986733731961118,1.3036589909854206,5e-11,0.1999999970697678,5e-11,0.14999999781482581,-0.1499999977148258,-0.19999999696976778,5e-11,-0.19999999696976778,5e-11,0.14999999781482581,-0.1499999977148258,0.1999999970697678,0.49806570877338885,0.5198238727400232
lively,9.999999701976783e-11,9.999999701976783e-11,1.309999961058959,0.14999999562965177,-0.4999999849988393,-0.4999999849988393,-1.2999999611569824,1.309999961058959,-0.14999999542965176,0.49999998519883926,0.49999998519883926,1.2999999613569824,9.999999701976783e-11,0.1999999941395357,9.999999701976783e-11,0.14999999562965177,-0.14999999542965176,-0.1999999939395357,9.999999701976783e-11,-0.1999999939395357,9.999999701976783e-11,0.14999999562965177,-0.14999999542965176,0.1999999941395357,0.49999998519883926,0.49999998519883926
static,5e-11,5e-11,1.3099999805294789,0.14999999781482581,-0.4999999924994194,-0.4999999924994194,-1.2999999805784905,1.3099999805294789,-0.1499999977148258,0.4999999925994194,0.4999999925994194,1.2999999806784905,5e-11,0.1999999970697678,5e-11,0.14999999781482581,-0.1499999977148258,-0.19999999696976778,5e-11,-0.19999999696976778,5e-11,0.14999999781482581,-0.1499999977148258,0.1999999970697678,0.4999999925994194,0.4999999925994194
naive,-0.005724802290769549,-0.012458488083784346,1.30477315012856,0.14629615241782443,-0.5290701604217608,-0.49786420859487,-1.3333207366902813,1.3101854557978123,-0.1552028990410725,0.47022775664797617,0.4987286918794858,1.303176025199932,5e-11,0.1999999970697678,5e-11,0.14999999781482581,-0.1499999977148258,-0.19999999696976778,5e-11,-0.19999999696976778,5e-11,0.14999999781482581,-0.1499999977148258,0.1999999970697678,0.49802535081224686,0.5195165279326877
lively,9.999999701976783e-11,9.999999701976783e-11,1.309999961058959,0.14999999562965177,-0.4999999849988393,-0.4999999849988393,-1.2999999611569824,1.309999961058959,-0.14999999542965176,0.49999998519883926,0.49999998519883926,1.2999999613569824,9.999999701976783e-11,0.1999999941395357,9.999999701976783e-11,0.14999999562965177,-0.14999999542965176,-0.1999999939395357,9.999999701976783e-11,-0.1999999939395357,9.999999701976783e-11,0.14999999562965177,-0.14999999542965176,0.1999999941395357,0.49999998519883926,0.49999998519883926
static,5e-11,5e-11,1.3099999805294789,0.14999999781482581,-0.4999999924994194,-0.4999999924994194,-1.2999999805784905,1.3099999805294789,-0.1499999977148258,0.4999999925994194,0.4999999925994194,1.2999999806784905,5e-11,0.1999999970697678,5e-11,0.14999999781482581,-0.1499999977148258,-0.19999999696976778,5e-11,-0.19999999696976778,5e-11,0.14999999781482581,-0.1499999977148258,0.1999999970697678,0.4999999925994194,0.4999999925994194
naive,-0.005510441419479116,-0.012479887469688287,1.3047519467156048,0.14625174250172127,-0.5287735047257731,-0.49787932012233194,-1.3335671345678066,1.3100843345065245,-0.1551190689850317,0.4698930559382127,0.498791854228306,1.3026164020252942,5e-11,0.1999999970697678,5e-11,0.14999999781482581,-0.1499999977148258,-0.19999999696976778,5e-11,-0.19999999696976778,5e-11,0.14999999781482581,-0.1499999977148258,0.1999999970697678,0.4979890995167728,0.5191642414232127
lively,9.999999701976783e-11,9.999999701976783e-11,1.309999961058959,0.14999999562965177,-0.4999999849988393,-0.4999999849988393,-1.2999999611569824,1.309999961058959,-0.14999999542965176,0.49999998519883926,0.49999998519883926,1.2999999613569824,9.999999701976783e-11,0.1999999941395357,9.999999701976783e-11,0.14999999562965177,-0.14999999542965176,-0.1999999939395357,9.999999701976783e-11,-0.1999999939395357,9.999999701976783e-11,0.14999999562965177,-0.14999999542965176,0.1999999941395357,0.49999998519883926,0.49999998519883926
static,5e-11,5e-11,1.3099999805294789,0.14999999781482581,-0.4999999924994194,-0.4999999924994194,-1.2999999805784905,1.3099999805294789,-0.1499999977148258,0.4999999925994194,0.4999999925994194,1.2999999806784905,5e-11,0.1999999970697678,5e-11,0.14999999781482581,-0.1499999977148258,-0.19999999696976778,5e-11,-0.19999999696976778,5e-11,0.14999999781482581,-0.1499999977148258,0.1999999970697678,0.4999999925994194,0.4999999925994194
naive,-0.005318813937286184,-0.0124940446492597,1.304736611760965,0.14621395039579244,-0.5285037694442085,-0.4978927790634545,-1.3337798786020052,1.3099948476617491,-0.15504582794378752,0.46959867177043857,0.4988465489749106,1.3021236666067466,5e-11,0.1999999970697678,5e-11,0.14999999781482581,-0.1499999977148258,-0.19999999696976778,5e-11,-0.19999999696976778,5e-11,0.14999999781482581,-0.1499999977148258,0.1999999970697678,0.4979658657496808,0.5188571202432641
lively,9.999999701976783e-11,9.999999701976783e-11,1.309999961058959,0.14999999562965177,-0.4999999849988393,-0.4999999849988393,-1.2999999611569824,1.309999961058959,-0.14999999542965176,0.49999998519883926,0.49999998519883926,1.2999999613569824,9.999999701976783e-11,0.1999999941395357,9.999999701976783e-11,0.14999999562965177,-0.14999999542965176,-0.1999999939395357,9.999999701976783e-11,-0.1999999939395357,9.999999701976783e-11,0.14999999562965177,-0.14999999542965176,0.1999999941395357,0.49999998519883926,0.49999998519883926
static,5e-11,5e-11,1.3099999805294789,0.14999999781482581,-0.4999999924994194,-0.4999999924994194,-1.2999999805784905,1.3099999805294789,-0.1499999977148258,0.4999999925994194,0.4999999925994194,1.2999999806784905,5e-11,0.1999999970697678,5e-11,0.14999999781482581,-0.1499999977148258,-0.19999999696976778,5e-11,-0.19999999696976778,5e-11,0.14999999781482581,-0.1499999977148258,0.1999999970697678,0.4999999925994194,0.4999999925994194
naive,-0.005102131554582431,-0.012504642627259976,1.304723056383185,0.14617316408457573,-0.5281944349291027,-0.497907970387914,-1.3340123174037137,1.3098946534536458,-0.15496467426837843,0.46927070518841846,0.49890642267481805,1.3015741976264665,5e-11,0.1999999970697678,5e-11,0.14999999781482581,-0.1499999977148258,-0.19999999696976778,5e-11,-0.19999999696976778,5e-11,0.14999999781482581,-0.1499999977148258,0.1999999970697678,0.4979487761013962,0.5185175932356638
lively,9.999999701976783e-11,9.999999701976783e-11,1.309999961058959,0.14999999562965177,-0.4999999849988393,-0.4999999849988393,-1.2999999611569824,1.309999961058959,-0.14999999542965176,0.49999998519883926,0.49999998519883926,1.2999999613569824,9.999999701976783e-11,0.1999999941395357,9.999999701976783e-11,0.14999999562965177,-0.14999999542965176,-0.1999999939395357,9.999999701976783e-11,-0.1999999939395357,9.999999701976783e-11,0.14999999562965177,-0.14999999542965176,0.1999999941395357,0.49999998519883926,0.49999998519883926
static,5e-11,5e-11,1.3099999805294789,0.14999999781482581,-0.4999999924994194,-0.4999999924994194,-1.2999999805784905,1.3099999805294789,-0.1499999977148258,0.4999999925994194,0.4999999925994194,1.2999999806784905,5e-11,0.1999999970697678,5e-11,0.14999999781482581,-0.1499999977148258,-0.19999999696976778,5e-11,-0.19999999696976778,5e-11,0.14999999781482581,-0.1499999977148258,0.1999999970697678,0.4999999925994194,0.4999999925994194
naive,-0.004892848253360037,-0.01250962566111439,1.304713478625689,0.14613553522113173,-0.5278920629403726,-0.49792264275568554,-1.3342290171626288,1.309798848086091,-0.15488772121938454,0.4689583540881324,0.498962292152115,1.3010504334293194,5e-11,0.1999999970697678,5e-11,0.14999999781482581,-0.1499999977148258,-0.19999999696976778,5e-11,-0.19999999696976778,5e-11,0.14999999781482581,-0.1499999977148258,0.1999999970697678,0.4979403778878022,0.5181964365406183
lively,9.999999701976783e-11,9.999999701976783e-11,1.309999961058959,0.14999999562965177,-0.4999999849988393,-0.4999999849988393,-1.2999999611569824,1.309999961058959,-0.14999999542965176,0.49999998519883926,0.49999998519883926,1.2999999613569824,9.999999701976783e-11,0.1999999941395357,9.999999701976783e-11,0.14999999562965177,-0.14999999542965176,-0.1999999939395357,9.999999701976783e-11,-0.1999999939395357,9.999999701976783e-11,0.14999999562965177,-0.14999999542965176,0.1999999941395357,0.49999998519883926,0.49999998519883926
static,5e-11,5e-11,1.3099999805294789,0.14999999781482581,-0.4999999924994194,-0.4999999924994194,-1.2999999805784905,1.3099999805294789,-0.1499999977148258,0.4999999925994194,0.4999999925994194,1.2999999806784905,5e-11,0.1999999970697678,5e-11,0.14999999781482581,-0.1499999977148258,-0.19999999696976778,5e-11,-0.19999999696976778,5e-11,0.14999999781482581,-0.1499999977148258,0.1999999970697678,0.4999999925994194,0.4999999925994194
naive,-0.004677253443790124,-0.012509530058101178,1.3047069345174869,0.14609839672549887,-0.5275776174183152,-0.497937784508973,-1.3344445944556595,1.3097011209567613,-0.1548096707322945,0.46864059699869137,0.4990178500993408,1.3005172104744471,5e-11,0.1999999970697678,5e-11,0.14999999781482581,-0.1499999977148258,-0.19999999696976778,5e-11,-0.19999999696976778,5e-11,0.14999999781482581,-0.1499999977148258,0.1999999970697678,0.497938936077193,0.5178715377027641
lively,9.999999701976783e-11,9.999999701976783e-11,1.309999961058959,0.14999999562965177,-0.4999999849988393,-0.4999999849988393,-1.2999999611569824,1.309999961058959,-0.14999999542965176,0.49999998519883926,0.49999998519883926,1.2999999613569824,9.999999701976783e-11,0.1999999941395357,9.999999701976783e-11,0.14999999562965177,-0.14999999542965176,-0.1999999939395357,9.999999701976783e-11,-0.1999999939395357,9.999999701976783e-11,0.14999999562965177,-0.14999999542965176,0.1999999941395357,0.49999998519883926,0.49999998519883926
static,5e-11,5e-11,1.3099999805294789,0.14999999781482581,-0.4999999924994194,-0.4999999924994194,-1.2999999805784905,1.3099999805294789,-0.1499999977148258,0.4999999925994194,0.4999999925994194,1.2999999806784905,5e-11,0.1999999970697678,5e-11,0.14999999781482581,-0.1499999977148258,-0.19999999696976778,5e-11,-0.19999999696976778,5e-11,0.14999999781482581,-0.1499999977148258,0.1999999970697678,0.4999999925994194,0.4999999925994194
naive,-0.0044646713394685626,-0.012504368094269476,1.3047035230737132,0.14606322554238663,-0.5272653176307497,-0.497952766387237,-1.3346498621526732,1.3096057029791572,-0.15473369904774245,0.4683307817140335,0.49907065308273935,1.2999970064898414,5e-11,0.1999999970697678,5e-11,0.14999999781482581,-0.1499999977148258,-0.19999999696976778,5e-11,-0.19999999696976778,5e-11,0.14999999781482581,-0.1499999977148258,0.1999999970697678,0.4979436473781839,0.5175561398312176
lively,9.999999701976783e-11,9.999999701976783e-11,1.309999961058959,0.14999999562965177,-0.4999999849988393,-0.4999999849988393,-1.2999999611569824,1.309999961058959,-0.14999999542965176,0.49999998519883926,0.49999998519883926,1.2999999613569824,9.999999701976783e-11,0.1999999941395357,9.999999701976783e-11,0.14999999562965177,-0.14999999542965176,-0.1999999939395357,9.999999701976783e-11,-0.1999999939395357,9.999999701976783e-11,0.14999999562965177,-0.14999999542965176,0.1999999941395357,0.49999998519883926,0.49999998519883926
static,5e-11,5e-11,1.3099999805294789,0.14999999781482581,-0.4999999924994194,-0.4999999924994194,-1.2999999805784905,1.3099999805294789,-0.1499999977148258,0.4999999925994194,0.4999999925994194,1.2999999806784905,5e-11,0.1999999970697678,5e-11,0.14999999781482581,-0.1499999977148258,-0.19999999696976778,5e-11,-0.19999999696976778,5e-11,0.14999999781482581,-0.1499999977148258,0.1999999970697678,0.4999999925994194,0.4999999925994194
naive,-0.00424275251816176,-0.0124937123322017,1.3047029247718498,0.14602788146322895,-0.52693762266473,-0.4979684863854031,-1.3348567126084014,1.3095070829591262,-0.1546552041647766,0.4680105680158475,0.4991236725841585,1.2994591173707644,5e-11,0.1999999970697678,5e-11,0.14999999781482581,-0.1499999977148258,-0.19999999696976778,5e-11,-0.19999999696976778,5e-11,0.14999999781482581,-0.1499999977148258,0.1999999970697678,0.49795401433553194,0.5172311756633377
lively,9.999999701976783e-11,9.999999701976783e-11,1.309999961058959,0.14999999562965177,-0.4999999849988393,-0.4999999849988393,-1.2999999611569824,1.309999961058959,-0.14999999542965176,0.49999998519883926,0.49999998519883926,1.2999999613569824,9.999999701976783e-11,0.1999999941395357,9.999999701976783e-11,0.14999999562965177,-0.14999999542965176,-0.1999999939395357,9.999999701976783e-11,-0.1999999939395357,9.999999701976783e-11,0.14999999562965177,-0.14999999542965176,0.1999999941395357,0.49999998519883926,0.49999998519883926
static,5e-11,5e-11,1.3099999805294789,0.14999999781482581,-0.4999999924994194,-0.4999999924994194,-1.2999999805784905,1.3099999805294789,-0.1499999977148258,0.4999999925994194,0.4999999925994194,1.2999999806784905,5e-11,0.1999999970697678,5e-11,0.14999999781482581,-0.1499999977148258,-0.19999999696976778,5e-11,-0.19999999696976778,5e-11,0.14999999781482581,-0.1499999977148258,0.1999999970697678,0.4999999925994194,0.4999999925994194
naive,-0.0040392066955981425,-0.012479261339647486,1.3047048675259925,0.14599657817935552,-0.5266360513744119,-0.4979829897278942,-1.3350399082873718,1.3094174852299323,-0.15458377400574053,0.4677193583761224,0.4991703959378547,1.298969907287035,5e-11,0.1999999970697678,5e-11,0.14999999781482581,-0.1499999977148258,-0.19999999696976778,5e-11,-0.19999999696976778,5e-11,0.14999999781482581,-0.1499999977148258,0.1999999970697678,0.49796766845932566,0.5169361546977108
lively,9.999999701976783e-11,9.999999701976783e-11,1.309999961058959,0.14999999562965177,-0.4999999849988393,-0.4999999849988393,-1.2999999611569824,1.309999961058959,-0.14999999542965176,0.49999998519883926,0.49999998519883926,1.2999999613569824,9.999999701976783e-11,0.1999999941395357,9.999999701976783e-11,0.14999999562965177,-0.14999999542965176,-0.1999999939395357,9.999999701976783e-11,-0.1999999939395357,9.999999701976783e-11,0.14999999562965177,-0.14999999542965176,0.1999999941395357,0.49999998519883926,0.49999998519883926
static,5e-11,5e-11,1.3099999805294789,0.14999999781482581,-0.4999999924994194,-0.4999999924994194,-1.2999999805784905,1.3099999805294789,-0.1499999977148258,0.4999999925994194,0.4999999925994194,1.2999999806784905,5e-11,0.1999999970697678,5e-11,0.14999999781482581,-0.1499999977148258,-0.19999999696976778,5e-11,-0.19999999696976778,5e-11,0.14999999781482581,-0.1499999977148258,0.1999999970697678,0.4999999925994194,0.4999999925994194
naive,-0.0038002539517296287,-0.012456601472237176,1.3047101918897104,0.1459611170480492,-0.5262810022298471,-0.4980000937364493,-1.3352467371438592,1.3093131901762896,-0.15450056932484996,0.46738022248858724,0.4992228736275477,1.298400704410908,5e-11,0.1999999970697678,5e-11,0.14999999781482581,-0.1499999977148258,-0.19999999696976778,5e-11,-0.19999999696976778,5e-11,0.14999999781482581,-0.1499999977148258,0.1999999970697678,0.49798847069157803,0.5165925675974111
lively,9.999999701976783e-11,9.999999701976783e-11,1.309999961058959,0.14999999562965177,-0.4999999849988393,-0.4999999849988393,-1.2999999611569824,1.309999961058959,-0.14999999542965176,0.49999998519883926,0.49999998519883926,1.2999999613569824,9.999999701976783e-11,0.1999999941395357,9.999999701976783e-11,0.14999999562965177,-0.14999999542965176,-0.1999999939395357,9.999999701976783e-11,-0.1999999939395357,9.999999701976783e-11,0.14999999562965177,-0.14999999542965176,0.1999999941395357,0.49999998519883926,0.49999998519883926
static,5e-11,5e-11,1.3099999805294789,0.14999999781482581,-0.4999999924994194,-0.4999999924994194,-1.2999999805784905,1.3099999805294789,-0.1499999977148258,0.4999999925994194,0.4999999925994194,1.2999999806784905,5e-11,0.1999999970697678,5e-11,0.14999999781482581,-0.1499999977148258,-0.19999999696976778,5e-11,-0.19999999696976778,5e-11,0.14999999781482581,-0.1499999977148258,0.1999999970697678,0.4999999925994194,0.4999999925994194
naive,-0.003585535024313102,-0.01243100342014863,1.3047178179267844,0.1459303923315548,-0.5259611257851159,-0.4980155051537938,-1.3354246989491139,1.309220136317659,-0.15442639887430434,0.4670777656018361,0.4992678018379414,1.2978941138870816,5e-11,0.1999999970697678,5e-11,0.14999999781482581,-0.1499999977148258,-0.19999999696976778,5e-11,-0.19999999696976778,5e-11,0.14999999781482581,-0.1499999977148258,0.1999999970697678,0.49801143856219693,0.5162855722553283
lively,9.999999701976783e-11,9.999999701976783e-11,1.309999961058959,0.14999999562965177,-0.4999999849988393,-0.4999999849988393,-1.2999999611569824,1.309999961058959,-0.14999999542965176,0.49999998519883926,0.49999998519883926,1.2999999613569824,9.999999701976783e-11,0.1999999941395357,9.999999701976783e-11,0.14999999562965177,-0.14999999542965176,-0.1999999939395357,9.999999701976783e-11,-0.1999999939395357,9.999999701976783e-11,0.14999999562965177,-0.14999999542965176,0.1999999941395357,0.49999998519883926,0.49999998519883926
static,5e-11,5e-11,1.3099999805294789,0.14999999781482581,-0.4999999924994194,-0.4999999924994194,-1.2999999805784905,1.3099999805294789,-0.1499999977148258,0.4999999925994194,0.4999999925994194,1.2999999806784905,5e-11,0.1999999970697678,5e-11,0.14999999781482581,-0.1499999977148258,-0.19999999696976778,5e-11,-0.19999999696976778,5e-11,0.14999999781482581,-0.1499999977148258,0.1999999970697678,0.4999999925994194,0.4999999925994194
naive,-0.003343514194903147,-0.012396227451237482,1.3047296723001025,0.14589700721531956,-0.5255997605776901,-0.4980328924263206,-1.33561600129688,1.3091158382030208,-0.15434346628191065,0.46673919534713776,0.4993158733668781,1.2973288759917272,5e-11,0.1999999970697678,5e-11,0.14999999781482581,-0.1499999977148258,-0.19999999696976778,5e-11,-0.19999999696976778,5e-11,0.14999999781482581,-0.1499999977148258,0.1999999970697678,0.49804204823297465,0.5159406715858623
lively,9.999999701976783e-11,9.999999701976783e-11,1.309999961058959,0.14999999562965177,-0.4999999849988393,-0.4999999849988393,-1.2999999611569824,1.309999961058959,-0.14999999542965176,0.49999998519883926,0.49999998519883926,1.2999999613569824,9.999999701976783e-11,0.1999999941395357,9.999999701976783e-11,0.14999999562965177,-0.14999999542965176,-0.1999999939395357,9.999999701976783e-11,-0.1999999939395357,9.999999701976783e-11,0.14999999562965177,-0.14999999542965176,0.1999999941395357,0.49999998519883926,0.49999998519883926
static,5e-11,5e-11,1.3099999805294789,0.14999999781482581,-0.4999999924994194,-0.4999999924994194,-1.2999999805784905,1.3099999805294789,-0.1499999977148258,0.4999999925994194,0.4999999925994194,1.2999999806784905,5e-11,0.1999999970697678,5e-11,0.14999999781482581,-0.1499999977148258,-0.19999999696976778,5e-11,-0.19999999696976778,5e-11,0.14999999781482581,-0.1499999977148258,0.1999999970697678,0.4999999925994194,0.4999999925994194
naive,-0.003122008253563166,-0.012358919761600248,1.304743571464387,0.14586757373607842,-0.5252683894098502,-0.49804879506868466,-1.3357821884187986,1.309020793598482,-0.15426817603447698,0.46643129890405816,0.4993574502430967,1.296817109422549,5e-11,0.1999999970697678,5e-11,0.14999999781482581,-0.1499999977148258,-0.19999999696976778,5e-11,-0.19999999696976778,5e-11,0.14999999781482581,-0.1499999977148258,0.1999999970697678,0.4980743341574833,0.5156253625311874
lively,9.999999701976783e-11,9.999999701976783e-11,1.309999961058959,0.14999999562965177,-0.4999999849988393,-0.4999999849988393,-1.2999999611569824,1.309999961058959,-0.14999999542965176,0.49999998519883926,0.49999998519883926,1.2999999613569824,9.999999701976783e-11,0.1999999941395357,9.999999701976783e-11,0.14999999562965177,-0.14999999542965176,-0.1999999939395357,9.999999701976783e-11,-0.1999999939395357,9.999999701976783e-11,0.14999999562965177,-0.14999999542965176,0.1999999941395357,0.49999998519883926,0.49999998519883926
static,5e-11,5e-11,1.3099999805294789,0.14999999781482581,-0.4999999924994194,-0.4999999924994194,-1.2999999805784905,1.3099999805294789,-0.1499999977148258,0.4999999925994194,0.4999999925994194,1.2999999806784905,5e-11,0.1999999970697678,5e-11,0.14999999781482581,-0.1499999977148258,-0.19999999696976778,5e-11,-0.19999999696976778,5e-11,0.14999999781482581,-0.1499999977148258,0.1999999970697678,0.4999999925994194,0.4999999925994194
naive,-0.0028879238859752065,-0.012313833330800543,1.3047614433701291,0.14583760091138648,-0.5249176662853168,-0.4980655650126887,-1.3359483032930162,1.3089206544468586,-0.1541892360437899,0.46610777339703713,0.49939884370681825,1.2962822828528744,5e-11,0.1999999970697678,5e-11,0.14999999781482581,-0.1499999977148258,-0.19999999696976778,5e-11,-0.19999999696976778,5e-11,0.14999999781482581,-0.1499999977148258,0.1999999970697678,0.4981127788580625,0.5152918512780156
lively,9.999999701976783e-11,9.999999701976783e-11,1.309999961058959,0.14999999562965177,-0.4999999849988393,-0.4999999849988393,-1.2999999611569824,1.309999961058959,-0.14999999542965176,0.49999998519883926,0.49999998519883926,1.2999999613569824,9.999999701976783e-11,0.1999999941395357,9.999999701976783e-11,0.14999999562965177,-0.14999999542965176,-0.1999999939395357,9.999999701976783e-11,-0.1999999939395357,9.999999701976783e-11,0.14999999562965177,-0.14999999542965176,0.1999999941395357,0.49999998519883926,0.49999998519883926
static,5e-11,5e-11,1.3099999805294789,0.14999999781482581,-0.4999999924994194,-0.4999999924994194,-1.2999999805784905,1.3099999805294789,-0.1499999977148258,0.4999999925994194,0.4999999925994194,1.2999999806784905,5e-11,0.1999999970697678,5e-11,0.14999999781482581,-0.1499999977148258,-0.19999999696976778,5e-11,-0.19999999696976778,5e-11,0.14999999781482581,-0.1499999977148258,0.1999999970697678,0.4999999925994194,0.4999999925994194
naive,-0.002672422266263897,-0.012267214659465736,1.3047807965136402,0.1458110123655788,-0.5245944119048789,-0.4980809519891037,-1.336092383966514,1.3088286416235404,-0.1541171200177278,0.4658114619839691,0.49943461786812293,1.2957955576133864,5e-11,0.1999999970697678,5e-11,0.14999999781482581,-0.1499999977148258,-0.19999999696976778,5e-11,-0.19999999696976778,5e-11,0.14999999781482581,-0.1499999977148258,0.1999999970697678,0.4981520087955673,0.5149840224856665
lively,9.999999701976783e-11,9.999999701976783e-11,1.309999961058959,0.14999999562965177,-0.4999999849988393,-0.4999999849988393,-1.2999999611569824,1.309999961058959,-0.14999999542965176,0.49999998519883926,0.49999998519883926,1.2999999613569824,9.999999701976783e-11,0.1999999941395357,9.999999701976783e-11,0.14999999562965177,-0.14999999542965176,-0.1999999939395357,9.999999701976783e-11,-0.1999999939395357,9.999999701976783e-11,0.14999999562965177,-0.14999999542965176,0.1999999941395357,0.49999998519883926,0.49999998519883926
static,5e-11,5e-11,1.3099999805294789,0.14999999781482581,-0.4999999924994194,-0.4999999924994194,-1.2999999805784905,1.3099999805294789,-0.1499999977148258,0.4999999925994194,0.4999999925994194,1.2999999806784905,5e-11,0.1999999970697678,5e-11,0.14999999781482581,-0.1499999977148258,-0.19999999696976778,5e-11,-0.19999999696976778,5e-11,0.14999999781482581,-0.1499999977148258,0.1999999970697678,0.4999999925994194,0.4999999925994194
