condition,HeadYaw,HeadPitch,LShoulderPitch,LShoulderRoll,LElbowYaw,LElbowRoll,LWristYaw,RShoulderPitch,RShoulderRoll,RElbowYaw,RElbowRoll,RWristYaw,LHipYawPitch,LHipRoll,LHipPitch,LKneePitch,LAnklePitch,LAnkleRoll,RHipYawPitch,RHipRoll,RHipPitch,RKneePitch,RAnklePitch,RAnkleRoll,LHand,RHand
static,5e-11,5e-11,1.3099999805294789,0.14999999781482581,-0.4999999924994194,-0.4999999924994194,-1.2999999805784905,1.3099999805294789,-0.1499999977148258,0.4999999925994194,0.4999999925994194,1.2999999806784905,5e-11,0.1999999970697678,5e-11,0.14999999781482581,-0.1499999977148258,-0.19999999696976778,5e-11,-0.19999999696976778,5e-11,0.14999999781482581,-0.1499999977148258,0.1999999970697678,0.4999999925994194,0.4999999925994194
naive,0.004578760358835166,-0.005722135420224645,1.3185473091283033,0.14844009927763302,-0.48535343224811683,-0.49897093016578864,-1.3039032375094,1.3092970587146648,-0.1460674450232367,0.5052372600697955,0.50456893753907,1.3381452794354363,5e-11,0.1999999970697678,5e-11,0.14999999781482581,-0.1499999977148258,-0.19999999696976778,5e-11,-0.19999999696976778,5e-11,0.14999999781482581,-0.1499999977148258,0.1999999970697678,0.500170433816906,0.5296148130808193
lively,9.999999701976783e-11,9.999999701976783e-11,1.309999961058959,0.14999999562965177,-0.4999999849988393,-0.4999999849988393,-1.2999999611569824,1.309999961058959,-0.14999999542965176,0.49999998519883926,0.49999998519883926,1.2999999613569824,9.999999701976783e-11,0.1999999941395357,9.999999701976783e-11,0.14999999562965177,-0.14999999542965176,-0.1999999939395357,9.999999701976783e-11,-0.1999999939395357,9.999999701976783e-11,0.14999999562965177,-0.14999999542965176,0.1999999941395357,0.49999998519883926,0.49999998519883926
static,5e-11,5e-11,1.3099999805294789,0.14999999781482581,-0.4999999924994194,-0.4999999924994194,-1.2999999805784905,1.3099999805294789,-0.1499999977148258,0.4999999925994194,0.4999999925994194,1.2999999806784905,5e-11,0.1999999970697678,5e-11,0.14999999781482581,-0.1499999977148258,-0.19999999696976778,5e-11,-0.19999999696976778,5e-11,0.14999999781482581,-0.1499999977148258,0.1999999970697678,0.4999999925994194,0.4999999925994194
naive,0.004758537281522542,-0.005555914349150759,1.3185262048853088,0.14815440510041172,-0.48384910492664684,-0.49894956512318733,-1.3046911751905526,1.3092889295408905,-0.14641524229175595,0.5048896407033567,0.5045497427726554,1.3381600326405398,5e-11,0.1999999970697678,5e-11,0.14999999781482581,-0.1499999977148258,-0.19999999696976778,5e-11,-0.19999999696976778,5e-11,0.14999999781482581,-0.1499999977148258,0.1999999970697678,0.500748995285296,0.5296188483016844
lively,9.999999701976783e-11,9.999999701976783e-11,1.309999961058959,0.14999999562965177,-0.4999999849988393,-0.4999999849988393,-1.2999999611569824,1.309999961058959,-0.14999999542965176,0.49999998519883926,0.49999998519883926,1.2999999613569824,9.999999701976783e-11,0.1999999941395357,9.999999701976783e-11,0.14999999562965177,-0.14999999542965176,-0.1999999939395357,9.999999701976783e-11,-0.1999999939395357,9.999999701976783e-11,0.14999999562965177,-0.14999999542965176,0.1999999941395357,0.49999998519883926,0.49999998519883926
static,5e-11,5e-11,1.3099999805294789,0.14999999781482581,-0.4999999924994194,-0.4999999924994194,-1.2999999805784905,1.3099999805294789,-0.1499999977148258,0.4999999925994194,0.4999999925994194,1.2999999806784905,5e-11,0.1999999970697678,5e-11,0.14999999781482581,-0.1499999977148258,-0.19999999696976778,5e-11,-0.19999999696976778,5e-11,0.14999999781482581,-0.1499999977148258,0.1999999970697678,0.4999999925994194,0.4999999925994194
naive,0.004998021744031267,-0.005350308960512502,1.3184807755591683,0.1478450926118624,-0.48212310475483217,-0.4989261905211736,-1.3054377324830648,1.309258163273978,-0.14686585082203743,0.5044076420298449,0.5044968822593308,1.338122318321387,5e-11,0.1999999970697678,5e-11,0.14999999781482581,-0.1499999977148258,-0.19999999696976778,5e-11,-0.19999999696976778,5e-11,0.14999999781482581,-0.1499999977148258,0.1999999970697678,0.501396680601289,0.5296168947282567
lively,9.999999701976783e-11,9.999999701976783e-11,1.309999961058959,0.14999999562965177,-0.4999999849988393,-0.4999999849988393,-1.2999999611569824,1.309999961058959,-0.14999999542965176,0.49999998519883926,0.49999998519883926,1.2999999613569824,9.999999701976783e-11,0.1999999941395357,9.999999701976783e-11,0.14999999562965177,-0.14999999542965176,-0.1999999939395357,9.999999701976783e-11,-0.1999999939395357,9.999999701976783e-11,0.14999999562965177,-0.14999999542965176,0.1999999941395357,0.49999998519883926,0.49999998519883926
static,5e-11,5e-11,1.3099999805294789,0.14999999781482581,-0.4999999924994194,-0.4999999924994194,-1.2999999805784905,1.3099999805294789,-0.1499999977148258,0.4999999925994194,0.4999999925994194,1.2999999806784905,5e-11,0.1999999970697678,5e-11,0.14999999781482581,-0.1499999977148258,-0.19999999696976778,5e-11,-0.19999999696976778,5e-11,0.14999999781482581,-0.1499999977148258,0.1999999970697678,0.4999999925994194,0.4999999925994194
naive,0.005241977840475557,-0.005153316412401448,1.318421215762625,0.14758332606457306,-0.48057063605882155,-0.4989062063299704,-1.305973360739849,1.309214021330202,-0.14731634619054101,0.5038965826353674,0.5044225679191602,1.3380310121818753,5e-11,0.1999999970697678,5e-11,0.14999999781482581,-0.1499999977148258,-0.19999999696976778,5e-11,-0.19999999696976778,5e-11,0.14999999781482581,-0.1499999977148258,0.1999999970697678,0.50197224841506,0.5296067311905986
lively,9.999999701976783e-11,9.999999701976783e-11,1.309999961058959,0.14999999562965177,-0.4999999849988393,-0.4999999849988393,-1.2999999611569824,1.309999961058959,-0.14999999542965176,0.49999998519883926,0.49999998519883926,1.2999999613569824,9.999999701976783e-11,0.1999999941395357,9.999999701976783e-11,0.14999999562965177,-0.14999999542965176,-0.1999999939395357,9.999999701976783e-11,-0.1999999939395357,9.999999701976783e-11,0.14999999562965177,-0.14999999542965176,0.1999999941395357,0.49999998519883926,0.49999998519883926
static,5e-11,5e-11,1.3099999805294789,0.14999999781482581,-0.4999999924994194,-0.4999999924994194,-1.2999999805784905,1.3099999805294789,-0.1499999977148258,0.4999999925994194,0.4999999925994194,1.2999999806784905,5e-11,0.1999999970697678,5e-11,0.14999999781482581,-0.1499999977148258,-0.19999999696976778,5e-11,-0.19999999696976778,5e-11,0.14999999781482581,-0.1499999977148258,0.1999999970697678,0.4999999925994194,0.4999999925994194
naive,0.005527813293563645,-0.004934116941805783,1.318339162528326,0.14732394986579742,-0.47893209808855397,-0.4988862172807602,-1.306403831806534,1.3091530413585228,-0.14783755946840066,0.5032742100248625,0.5043172706499737,1.3378662410047775,5e-11,0.1999999970697678,5e-11,0.14999999781482581,-0.1499999977148258,-0.19999999696976778,5e-11,-0.19999999696976778,5e-11,0.14999999781482581,-0.1499999977148258,0.1999999970697678,0.5025802668177147,0.5295848122301123
lively,9.999999701976783e-11,9.999999701976783e-11,1.309999961058959,0.14999999562965177,-0.4999999849988393,-0.4999999849988393,-1.2999999611569824,1.309999961058959,-0.14999999542965176,0.49999998519883926,0.49999998519883926,1.2999999613569824,9.999999701976783e-11,0.1999999941395357,9.999999701976783e-11,0.14999999562965177,-0.14999999542965176,-0.1999999939395357,9.999999701976783e-11,-0.1999999939395357,9.999999701976783e-11,0.14999999562965177,-0.14999999542965176,0.1999999941395357,0.49999998519883926,0.49999998519883926
static,5e-11,5e-11,1.3099999805294789,0.14999999781482581,-0.4999999924994194,-0.4999999924994194,-1.2999999805784905,1.3099999805294789,-0.1499999977148258,0.4999999925994194,0.4999999925994194,1.2999999806784905,5e-11,0.1999999970697678,5e-11,0.14999999781482581,-0.1499999977148258,-0.19999999696976778,5e-11,-0.19999999696976778,5e-11,0.14999999781482581,-0.1499999977148258,0.1999999970697678,0.4999999925994194,0.4999999925994194
naive,0.005865265048363508,-0.0046878953905368035,1.3182288968265121,0.14706659084401505,-0.4771815126713105,-0.49886619676243094,-1.3067120515006276,1.3090738044866843,-0.14844705783435708,0.5025089945927849,0.5041740662243164,1.3375989937021662,5e-11,0.1999999970697678,5e-11,0.14999999781482581,-0.1499999977148258,-0.19999999696976778,5e-11,-0.19999999696976778,5e-11,0.14999999781482581,-0.1499999977148258,0.1999999970697678,0.5032394294686343,0.5295455267452014
lively,9.999999701976783e-11,9.999999701976783e-11,1.309999961058959,0.14999999562965177,-0.4999999849988393,-0.4999999849988393,-1.2999999611569824,1.309999961058959,-0.14999999542965176,0.49999998519883926,0.49999998519883926,1.2999999613569824,9.999999701976783e-11,0.1999999941395357,9.999999701976783e-11,0.14999999562965177,-0.14999999542965176,-0.1999999939395357,9.999999701976783e-11,-0.1999999939395357,9.999999701976783e-11,0.14999999562965177,-0.14999999542965176,0.1999999941395357,0.49999998519883926,0.49999998519883926
static,5e-11,5e-11,1.3099999805294789,0.14999999781482581,-0.4999999924994194,-0.4999999924994194,-1.2999999805784905,1.3099999805294789,-0.1499999977148258,0.4999999925994194,0.4999999925994194,1.2999999806784905,5e-11,0.1999999970697678,5e-11,0.14999999781482581,-0.1499999977148258,-0.19999999696976778,5e-11,-0.19999999696976778,5e-11,0.14999999781482581,-0.1499999977148258,0.1999999970697678,0.4999999925994194,0.4999999925994194
naive,0.006172231444991969,-0.004473652767435152,1.3181178974742727,0.1468688199642094,-0.4757239602373125,-0.49885068678267747,-1.3068469838526975,1.308998107489086,-0.14899788061351274,0.5017858654839095,0.5040296729156925,1.3372909818947938,5e-11,0.1999999970697678,5e-11,0.14999999781482581,-0.1499999977148258,-0.19999999696976778,5e-11,-0.19999999696976778,5e-11,0.14999999781482581,-0.1499999977148258,0.1999999970697678,0.5038033823898727,0.5294974652897128
lively,9.999999701976783e-11,9.999999701976783e-11,1.309999961058959,0.14999999562965177,-0.4999999849988393,-0.4999999849988393,-1.2999999611569824,1.309999961058959,-0.14999999542965176,0.49999998519883926,0.49999998519883926,1.2999999613569824,9.999999701976783e-11,0.1999999941395357,9.999999701976783e-11,0.14999999562965177,-0.14999999542965176,-0.1999999939395357,9.999999701976783e-11,-0.1999999939395357,9.999999701976783e-11,0.14999999562965177,-0.14999999542965176,0.1999999941395357,0.49999998519883926,0.49999998519883926
static,5e-11,5e-11,1.3099999805294789,0.14999999781482581,-0.4999999924994194,-0.4999999924994194,-1.2999999805784905,1.3099999805294789,-0.1499999977148258,0.4999999925994194,0.4999999925994194,1.2999999806784905,5e-11,0.1999999970697678,5e-11,0.14999999781482581,-0.1499999977148258,-0.19999999696976778,5e-11,-0.19999999696976778,5e-11,0.14999999781482581,-0.1499999977148258,0.1999999970697678,0.4999999925994194,0.4999999925994194
naive,0.006529748838639505,-0.004234216799538199,1.3179769794726484,0.14667481915559727,-0.4741593702619159,-0.4988353749425157,-1.3068627734629532,1.3089081233792768,-0.1496364839913978,0.5009126093002706,0.5038472851613894,1.3368555089167091,5e-11,0.1999999970697678,5e-11,0.14999999781482581,-0.1499999977148258,-0.19999999696976778,5e-11,-0.19999999696976778,5e-11,0.14999999781482581,-0.1499999977148258,0.1999999970697678,0.5044329942751589,0.5294268172375822
lively,9.999999701976783e-11,9.999999701976783e-11,1.309999961058959,0.14999999562965177,-0.4999999849988393,-0.4999999849988393,-1.2999999611569824,1.309999961058959,-0.14999999542965176,0.49999998519883926,0.49999998519883926,1.2999999613569824,9.999999701976783e-11,0.1999999941395357,9.999999701976783e-11,0.14999999562965177,-0.14999999542965176,-0.1999999939395357,9.999999701976783e-11,-0.1999999939395357,9.999999701976783e-11,0.14999999562965177,-0.14999999542965176,0.1999999941395357,0.49999998519883926,0.49999998519883926
static,5e-11,5e-11,1.3099999805294789,0.14999999781482581,-0.4999999924994194,-0.4999999924994194,-1.2999999805784905,1.3099999805294789,-0.1499999977148258,0.4999999925994194,0.4999999925994194,1.2999999806784905,5e-11,0.1999999970697678,5e-11,0.14999999781482581,-0.1499999977148258,-0.19999999696976778,5e-11,-0.19999999696976778,5e-11,0.14999999781482581,-0.1499999977148258,0.1999999970697678,0.4999999925994194,0.4999999925994194
naive,0.006888635941562365,-0.004003677180107761,1.3178234172381236,0.14651454587741883,-0.4727132143771434,-0.49882267125902935,-1.306748947289032,1.3088176734513488,-0.15027535171908796,0.5000034343549449,0.5036506093378186,1.3363340874374932,5e-11,0.1999999970697678,5e-11,0.14999999781482581,-0.1499999977148258,-0.19999999696976778,5e-11,-0.19999999696976778,5e-11,0.14999999781482581,-0.1499999977148258,0.1999999970697678,0.5050471422054658,0.5293399218977167
lively,9.999999701976783e-11,9.999999701976783e-11,1.309999961058959,0.14999999562965177,-0.4999999849988393,-0.4999999849988393,-1.2999999611569824,1.309999961058959,-0.14999999542965176,0.49999998519883926,0.49999998519883926,1.2999999613569824,9.999999701976783e-11,0.1999999941395357,9.999999701976783e-11,0.14999999562965177,-0.14999999542965176,-0.1999999939395357,9.999999701976783e-11,-0.1999999939395357,9.999999701976783e-11,0.14999999562965177,-0.14999999542965176,0.1999999941395357,0.49999998519883926,0.49999998519883926
static,5e-11,5e-11,1.3099999805294789,0.14999999781482581,-0.4999999924994194,-0.4999999924994194,-1.2999999805784905,1.3099999805294789,-0.1499999977148258,0.4999999925994194,0.4999999925994194,1.2999999806784905,5e-11,0.1999999970697678,5e-11,0.14999999781482581,-0.1499999977148258,-0.19999999696976778,5e-11,-0.19999999696976778,5e-11,0.14999999781482581,-0.1499999977148258,0.1999999970697678,0.4999999925994194,0.4999999925994194
naive,0.007252054688619628,-0.003779498292857265,1.317655466627786,0.14638432212754637,-0.47136295737468886,-0.49881235019602754,-1.3065177969407769,1.3087274181850261,-0.15092078977508375,0.49905019284774715,0.5034386857704373,1.335716434003038,5e-11,0.1999999970697678,5e-11,0.14999999781482581,-0.1499999977148258,-0.19999999696976778,5e-11,-0.19999999696976778,5e-11,0.14999999781482581,-0.1499999977148258,0.1999999970697678,0.5056598974859157,0.5292352658548286
lively,9.999999701976783e-11,9.999999701976783e-11,1.309999961058959,0.14999999562965177,-0.4999999849988393,-0.4999999849988393,-1.2999999611569824,1.309999961058959,-0.14999999542965176,0.49999998519883926,0.49999998519883926,1.2999999613569824,9.999999701976783e-11,0.1999999941395357,9.999999701976783e-11,0.14999999562965177,-0.14999999542965176,-0.1999999939395357,9.999999701976783e-11,-0.1999999939395357,9.999999701976783e-11,0.14999999562965177,-0.14999999542965176,0.1999999941395357,0.49999998519883926,0.49999998519883926
static,5e-11,5e-11,1.3099999805294789,0.14999999781482581,-0.4999999924994194,-0.4999999924994194,-1.2999999805784905,1.3099999805294789,-0.1499999977148258,0.4999999925994194,0.4999999925994194,1.2999999806784905,5e-11,0.1999999970697678,5e-11,0.14999999781482581,-0.1499999977148258,-0.19999999696976778,5e-11,-0.19999999696976778,5e-11,0.14999999781482581,-0.1499999977148258,0.1999999970697678,0.4999999925994194,0.4999999925994194
naive,0.007634760557886007,-0.0035530160448547614,1.317464359391727,0.14628028133380722,-0.47005720207046875,-0.49880417757481077,-1.3061602292012133,1.3086351197564268,-0.15159947071862379,0.4980111883071276,0.5032021911396338,1.33496182522342,5e-11,0.1999999970697678,5e-11,0.14999999781482581,-0.1499999977148258,-0.19999999696976778,5e-11,-0.19999999696976778,5e-11,0.14999999781482581,-0.1499999977148258,0.1999999970697678,0.5063031770511296,0.5291062141167808
lively,9.999999701976783e-11,9.999999701976783e-11,1.309999961058959,0.14999999562965177,-0.4999999849988393,-0.4999999849988393,-1.2999999611569824,1.309999961058959,-0.14999999542965176,0.49999998519883926,0.49999998519883926,1.2999999613569824,9.999999701976783e-11,0.1999999941395357,9.999999701976783e-11,0.14999999562965177,-0.14999999542965176,-0.1999999939395357,9.999999701976783e-11,-0.1999999939395357,9.999999701976783e-11,0.14999999562965177,-0.14999999542965176,0.1999999941395357,0.49999998519883926,0.49999998519883926
static,5e-11,5e-11,1.3099999805294789,0.14999999781482581,-0.4999999924994194,-0.4999999924994194,-1.2999999805784905,1.3099999805294789,-0.1499999977148258,0.4999999925994194,0.4999999925994194,1.2999999806784905,5e-11,0.1999999970697678,5e-11,0.14999999781482581,-0.1499999977148258,-0.19999999696976778,5e-11,-0.19999999696976778,5e-11,0.14999999781482581,-0.1499999977148258,0.1999999970697678,0.4999999925994194,0.4999999925994194
naive,0.008023452738533603,-0.0033327802078739394,1.3172538936347433,0.14620885658279767,-0.46884954708015264,-0.49879875099863247,-1.305685091532594,1.3085454984304006,-0.152288297095359,0.49691881620241574,0.5029480182394945,1.334075525438776,5e-11,0.1999999970697678,5e-11,0.14999999781482581,-0.1499999977148258,-0.19999999696976778,5e-11,-0.19999999696976778,5e-11,0.14999999781482581,-0.1499999977148258,0.1999999970697678,0.5069618185325543,0.5289541843863776
lively,9.999999701976783e-11,9.999999701976783e-11,1.309999961058959,0.14999999562965177,-0.4999999849988393,-0.4999999849988393,-1.2999999611569824,1.309999961058959,-0.14999999542965176,0.49999998519883926,0.49999998519883926,1.2999999613569824,9.999999701976783e-11,0.1999999941395357,9.999999701976783e-11,0.14999999562965177,-0.14999999542965176,-0.1999999939395357,9.999999701976783e-11,-0.1999999939395357,9.999999701976783e-11,0.14999999562965177,-0.14999999542965176,0.1999999941395357,0.49999998519883926,0.49999998519883926
static,5e-11,5e-11,1.3099999805294789,0.14999999781482581,-0.4999999924994194,-0.4999999924994194,-1.2999999805784905,1.3099999805294789,-0.1499999977148258,0.4999999925994194,0.4999999925994194,1.2999999806784905,5e-11,0.1999999970697678,5e-11,0.14999999781482581,-0.1499999977148258,-0.19999999696976778,5e-11,-0.19999999696976778,5e-11,0.14999999781482581,-0.1499999977148258,0.1999999970697678,0.4999999925994194,0.4999999925994194
naive,0.008369402311249928,-0.0031449990404024087,1.317050870279139,0.14617498059383854,-0.46787606519181024,-0.49879649110617913,-1.3051705602523052,1.308470228055331,-0.15290150216821072,0.49591450112049223,0.5027094745484117,1.3331726952308702,5e-11,0.1999999970697678,5e-11,0.14999999781482581,-0.1499999977148258,-0.19999999696976778,5e-11,-0.19999999696976778,5e-11,0.14999999781482581,-0.1499999977148258,0.1999999970697678,0.5075583798342487,0.5287996650970382
lively,9.999999701976783e-11,9.999999701976783e-11,1.309999961058959,0.14999999562965177,-0.4999999849988393,-0.4999999849988393,-1.2999999611569824,1.309999961058959,-0.14999999542965176,0.49999998519883926,0.49999998519883926,1.2999999613569824,9.999999701976783e-11,0.1999999941395357,9.999999701976783e-11,0.14999999562965177,-0.14999999542965176,-0.1999999939395357,9.999999701976783e-11,-0.1999999939395357,9.999999701976783e-11,0.14999999562965177,-0.14999999542965176,0.1999999941395357,0.49999998519883926,0.49999998519883926
static,5e-11,5e-11,1.3099999805294789,0.14999999781482581,-0.4999999924994194,-0.4999999924994194,-1.2999999805784905,1.3099999805294789,-0.1499999977148258,0.4999999925994194,0.4999999925994194,1.2999999806784905,5e-11,0.1999999970697678,5e-11,0.14999999781482581,-0.1499999977148258,-0.19999999696976778,5e-11,-0.19999999696976778,5e-11,0.14999999781482581,-0.1499999977148258,0.1999999970697678,0.4999999925994194,0.4999999925994194
naive,0.008754808340596198,-0.002945004712480356,1.3168042549643444,0.1461722811545017,-0.4669095219794643,-0.49879710532084404,-1.3044958903217692,1.308392579247355,-0.1535855058198574,0.49475877544532093,0.5024289082645739,1.3320209432965502,5e-11,0.1999999970697678,5e-11,0.14999999781482581,-0.1499999977148258,-0.19999999696976778,5e-11,-0.19999999696976778,5e-11,0.14999999781482581,-0.1499999977148258,0.1999999970697678,0.5082413543067117,0.5286039009103667
lively,9.999999701976783e-11,9.999999701976783e-11,1.309999961058959,0.14999999562965177,-0.4999999849988393,-0.4999999849988393,-1.2999999611569824,1.309999961058959,-0.14999999542965176,0.49999998519883926,0.49999998519883926,1.2999999613569824,9.999999701976783e-11,0.1999999941395357,9.999999701976783e-11,0.14999999562965177,-0.14999999542965176,-0.1999999939395357,9.999999701976783e-11,-0.1999999939395357,9.999999701976783e-11,0.14999999562965177,-0.14999999542965176,0.1999999941395357,0.49999998519883926,0.49999998519883926
static,5e-11,5e-11,1.3099999805294789,0.14999999781482581,-0.4999999924994194,-0.4999999924994194,-1.2999999805784905,1.3099999805294789,-0.1499999977148258,0.4999999925994194,0.4999999925994194,1.2999999806784905,5e-11,0.1999999970697678,5e-11,0.14999999781482581,-0.1499999977148258,-0.19999999696976778,5e-11,-0.19999999696976778,5e-11,0.14999999781482581,-0.1499999977148258,0.1999999970697678,0.4999999925994194,0.4999999925994194
naive,0.009073252152037295,-0.002787244634684727,1.3165809193431401,0.14620075972404756,-0.4662129084415165,-0.49880044421652614,-1.3038550851912316,1.3083344269994819,-0.15415211425333322,0.4937729150415059,0.502183833234011,1.3309323379148388,5e-11,0.1999999970697678,5e-11,0.14999999781482581,-0.1499999977148258,-0.19999999696976778,5e-11,-0.19999999696976778,5e-11,0.14999999781482581,-0.1499999977148258,0.1999999970697678,0.5088262638778088,0.5284208407742075
lively,9.999999701976783e-11,9.999999701976783e-11,1.309999961058959,0.14999999562965177,-0.4999999849988393,-0.4999999849988393,-1.2999999611569824,1.309999961058959,-0.14999999542965176,0.49999998519883926,0.49999998519883926,1.2999999613569824,9.999999701976783e-11,0.1999999941395357,9.999999701976783e-11,0.14999999562965177,-0.14999999542965176,-0.1999999939395357,9.999999701976783e-11,-0.1999999939395357,9.999999701976783e-11,0.14999999562965177,-0.14999999542965176,0.1999999941395357,0.49999998519883926,0.49999998519883926
static,5e-11,5e-11,1.3099999805294789,0.14999999781482581,-0.4999999924994194,-0.4999999924994194,-1.2999999805784905,1.3099999805294789,-0.1499999977148258,0.4999999925994194,0.4999999925994194,1.2999999806784905,5e-11,0.1999999970697678,5e-11,0.14999999781482581,-0.1499999977148258,-0.19999999696976778,5e-11,-0.19999999696976778,5e-11,0.14999999781482581,-0.1499999977148258,0.1999999970697678,0.4999999925994194,0.4999999925994194
naive,0.009404507165588336,-0.002630558949395009,1.3163250977444667,0.14626430079068845,-0.4655993773937016,-0.49880714466439674,-1.3031025264145932,1.3082810191977423,-0.1547440217467402,0.4927152568205693,0.5019139175148881,1.3296392015612912,5e-11,0.1999999970697678,5e-11,0.14999999781482581,-0.1499999977148258,-0.19999999696976778,5e-11,-0.19999999696976778,5e-11,0.14999999781482581,-0.1499999977148258,0.1999999970697678,0.5094617803724241,0.5282064003113877
lively,9.999999701976783e-11,9.999999701976783e-11,1.309999961058959,0.14999999562965177,-0.4999999849988393,-0.4999999849988393,-1.2999999611569824,1.309999961058959,-0.14999999542965176,0.49999998519883926,0.49999998519883926,1.2999999613569824,9.999999701976783e-11,0.1999999941395357,9.999999701976783e-11,0.14999999562965177,-0.14999999542965176,-0.1999999939395357,9.999999701976783e-11,-0.1999999939395357,9.999999701976783e-11,0.14999999562965177,-0.14999999542965176,0.1999999941395357,0.49999998519883926,0.49999998519883926
static,5e-11,5e-11,1.3099999805294789,0.14999999781482581,-0.4999999924994194,-0.4999999924994194,-1.2999999805784905,1.3099999805294789,-0.1499999977148258,0.4999999925994194,0.4999999925994194,1.2999999806784905,5e-11,0.1999999970697678,5e-11,0.14999999781482581,-0.1499999977148258,-0.19999999696976778,5e-11,-0.19999999696976778,5e-11,0.14999999781482581,-0.1499999977148258,0.1999999970697678,0.4999999925994194,0.4999999925994194
naive,0.00970546404666647,-0.0024950262629419503,1.3160659145752884,0.1463578891875148,-0.4651578533702223,-0.4988167466470535,-1.3023337728868702,1.3082402514585634,-0.15528549196768066,0.49172274428277063,0.5016524647661021,1.328285519235572,5e-11,0.1999999970697678,5e-11,0.14999999781482581,-0.1499999977148258,-0.19999999696976778,5e-11,-0.19999999696976778,5e-11,0.14999999781482581,-0.1499999977148258,0.1999999970697678,0.5100714400877259,0.5279858531214718
lively,9.999999701976783e-11,9.999999701976783e-11,1.309999961058959,0.14999999562965177,-0.4999999849988393,-0.4999999849988393,-1.2999999611569824,1.309999961058959,-0.14999999542965176,0.49999998519883926,0.49999998519883926,1.2999999613569824,9.999999701976783e-11,0.1999999941395357,9.999999701976783e-11,0.14999999562965177,-0.14999999542965176,-0.1999999939395357,9.999999701976783e-11,-0.1999999939395357,9.999999701976783e-11,0.14999999562965177,-0.14999999542965176,0.1999999941395357,0.49999998519883926,0.49999998519883926
static,5e-11,5e-11,1.3099999805294789,0.14999999781482581,-0.4999999924994194,-0.4999999924994194,-1.2999999805784905,1.3099999805294789,-0.1499999977148258,0.4999999925994194,0.4999999925994194,1.2999999806784905,5e-11,0.1999999970697678,5e-11,0.14999999781482581,-0.1499999977148258,-0.19999999696976778,5e-11,-0.19999999696976778,5e-11,0.14999999781482581,-0.1499999977148258,0.1999999970697678,0.4999999925994194,0.4999999925994194
naive,0.009989135518453643,-0.002373475881452873,1.3157900746714644,0.14648557206096194,-0.46486749552350354,-0.49882977887548013,-1.301521672110034,1.3082104753461066,-0.155801263106091,0.49075527990516615,0.5013877015850133,1.3268036541371677,5e-11,0.1999999970697678,5e-11,0.14999999781482581,-0.1499999977148258,-0.19999999696976778,5e-11,-0.19999999696976778,5e-11,0.14999999781482581,-0.1499999977148258,0.1999999970697678,0.5106849105533432,0.5277494173298757
lively,9.999999701976783e-11,9.999999701976783e-11,1.309999961058959,0.14999999562965177,-0.4999999849988393,-0.4999999849988393,-1.2999999611569824,1.309999961058959,-0.14999999542965176,0.49999998519883926,0.49999998519883926,1.2999999613569824,9.999999701976783e-11,0.1999999941395357,9.999999701976783e-11,0.14999999562965177,-0.14999999542965176,-0.1999999939395357,9.999999701976783e-11,-0.1999999939395357,9.999999701976783e-11,0.14999999562965177,-0.14999999542965176,0.1999999941395357,0.49999998519883926,0.49999998519883926
static,5e-11,5e-11,1.3099999805294789,0.14999999781482581,-0.4999999924994194,-0.4999999924994194,-1.2999999805784905,1.3099999805294789,-0.1499999977148258,0.4999999925994194,0.4999999925994194,1.2999999806784905,5e-11,0.1999999970697678,5e-11,0.14999999781482581,-0.1499999977148258,-0.19999999696976778,5e-11,-0.19999999696976778,5e-11,0.14999999781482581,-0.1499999977148258,0.1999999970697678,0.4999999925994194,0.4999999925994194
naive,0.010253514099540317,-0.002265782109269257,1.3154935891158415,0.14665095401029424,-0.46474270167912907,-0.49884673292357407,-1.3006684116743665,1.3081928387362713,-0.15629001020316005,0.48981932406278395,0.5011188278704741,1.3251709310207296,5e-11,0.1999999970697678,5e-11,0.14999999781482581,-0.1499999977148258,-0.19999999696976778,5e-11,-0.19999999696976778,5e-11,0.14999999781482581,-0.1499999977148258,0.1999999970697678,0.5113053157240451,0.5274953304337301
lively,9.999999701976783e-11,9.999999701976783e-11,1.309999961058959,0.14999999562965177,-0.4999999849988393,-0.4999999849988393,-1.2999999611569824,1.309999961058959,-0.14999999542965176,0.49999998519883926,0.49999998519883926,1.2999999613569824,9.999999701976783e-11,0.1999999941395357,9.999999701976783e-11,0.14999999562965177,-0.14999999542965176,-0.1999999939395357,9.999999701976783e-11,-0.1999999939395357,9.999999701976783e-11,0.14999999562965177,-0.14999999542965176,0.1999999941395357,0.49999998519883926,0.49999998519883926
static,5e-11,5e-11,1.3099999805294789,0.14999999781482581,-0.4999999924994194,-0.4999999924994194,-1.2999999805784905,1.3099999805294789,-0.1499999977148258,0.4999999925994194,0.4999999925994194,1.2999999806784905,5e-11,0.1999999970697678,5e-11,0.14999999781482581,-0.1499999977148258,-0.19999999696976778,5e-11,-0.19999999696976778,5e-11,0.14999999781482581,-0.1499999977148258,0.1999999970697678,0.4999999925994194,0.4999999925994194
naive,0.010463612920641215,-0.0021840275446948147,1.3152168278145733,0.14682835504847153,-0.46478617453009,-0.49886508910960425,-1.2999001917644983,1.3081886619125132,-0.15668814152677984,0.48904442727720393,0.5008826605847385,1.3236157184250135,5e-11,0.1999999970697678,5e-11,0.14999999781482581,-0.1499999977148258,-0.19999999696976778,5e-11,-0.19999999696976778,5e-11,0.14999999781482581,-0.1499999977148258,0.1999999970697678,0.5118487892319231,0.5272598599122705
lively,9.999999701976783e-11,9.999999701976783e-11,1.309999961058959,0.14999999562965177,-0.4999999849988393,-0.4999999849988393,-1.2999999611569824,1.309999961058959,-0.14999999542965176,0.49999998519883926,0.49999998519883926,1.2999999613569824,9.999999701976783e-11,0.1999999941395357,9.999999701976783e-11,0.14999999562965177,-0.14999999542965176,-0.1999999939395357,9.999999701976783e-11,-0.1999999939395357,9.999999701976783e-11,0.14999999562965177,-0.14999999542965176,0.1999999941395357,0.49999998519883926,0.49999998519883926
static,5e-11,5e-11,1.3099999805294789,0.14999999781482581,-0.4999999924994194,-0.4999999924994194,-1.2999999805784905,1.3099999805294789,-0.1499999977148258,0.4999999925994194,0.4999999925994194,1.2999999806784905,5e-11,0.1999999970697678,5e-11,0.14999999781482581,-0.1499999977148258,-0.19999999696976778,5e-11,-0.19999999696976778,5e-11,0.14999999781482581,-0.1499999977148258,0.1999999970697678,0.4999999925994194,0.4999999925994194
naive,0.010651347932852323,-0.002113504374838339,1.3149186935802113,0.14704123813155376,-0.4649916473868613,-0.4988873899409427,-1.299112403107423,1.308196244701171,-0.1570574429255532,0.4883180815634433,0.5006443695843099,1.3219128790657177,5e-11,0.1999999970697678,5e-11,0.14999999781482581,-0.1499999977148258,-0.19999999696976778,5e-11,-0.19999999696976778,5e-11,0.14999999781482581,-0.1499999977148258,0.1999999970697678,0.5123959001066277,0.5270096550643301
lively,9.999999701976783e-11,9.999999701976783e-11,1.309999961058959,0.14999999562965177,-0.4999999849988393,-0.4999999849988393,-1.2999999611569824,1.309999961058959,-0.14999999542965176,0.49999998519883926,0.49999998519883926,1.2999999613569824,9.999999701976783e-11,0.1999999941395357,9.999999701976783e-11,0.14999999562965177,-0.14999999542965176,-0.1999999939395357,9.999999701976783e-11,-0.1999999939395357,9.999999701976783e-11,0.14999999562965177,-0.14999999542965176,0.1999999941395357,0.49999998519883926,0.49999998519883926
static,5e-11,5e-11,1.3099999805294789,0.14999999781482581,-0.4999999924994194,-0.4999999924994194,-1.2999999805784905,1.3099999805294789,-0.1499999977148258,0.4999999925994194,0.4999999925994194,1.2999999806784905,5e-11,0.1999999970697678,5e-11,0.14999999781482581,-0.1499999977148258,-0.19999999696976778,5e-11,-0.19999999696976778,5e-11,0.14999999781482581,-0.1499999977148258,0.1999999970697678,0.4999999925994194,0.4999999925994194
naive,0.010812599098184002,-0.0020537807781934887,1.3145908482426079,0.14729813034686476,-0.46539254027745736,-0.49891472612588134,-1.2983030362401546,1.3082176647761175,-0.15739578949928285,0.48765099533546485,0.5004017175975287,1.3200140052716058,5e-11,0.1999999970697678,5e-11,0.14999999781482581,-0.1499999977148258,-0.19999999696976778,5e-11,-0.19999999696976778,5e-11,0.14999999781482581,-0.1499999977148258,0.1999999970697678,0.5129512855971899,0.5267403723676105
lively,9.999999701976783e-11,9.999999701976783e-11,1.309999961058959,0.14999999562965177,-0.4999999849988393,-0.4999999849988393,-1.2999999611569824,1.309999961058959,-0.14999999542965176,0.49999998519883926,0.49999998519883926,1.2999999613569824,9.999999701976783e-11,0.1999999941395357,9.999999701976783e-11,0.14999999562965177,-0.14999999542965176,-0.1999999939395357,9.999999701976783e-11,-0.1999999939395357,9.999999701976783e-11,0.14999999562965177,-0.14999999542965176,0.1999999941395357,0.49999998519883926,0.49999998519883926
static,5e-11,5e-11,1.3099999805294789,0.14999999781482581,-0.4999999924994194,-0.4999999924994194,-1.2999999805784905,1.3099999805294789,-0.1499999977148258,0.4999999925994194,0.4999999925994194,1.2999999806784905,5e-11,0.1999999970697678,5e-11,0.14999999781482581,-0.1499999977148258,-0.19999999696976778,5e-11,-0.19999999696976778,5e-11,0.14999999781482581,-0.1499999977148258,0.1999999970697678,0.4999999925994194,0.4999999925994194
naive,0.010915276517680601,-0.0020143082725323984,1.314304827290373,0.14753926533370101,-0.46588069666516035,-0.4989408266135548,-1.297651138866123,1.3082464164116219,-0.15763582543757762,0.4871830514232572,0.5002066624760455,1.3183398322393773,5e-11,0.1999999970697678,5e-11,0.14999999781482581,-0.1499999977148258,-0.19999999696976778,5e-11,-0.19999999696976778,5e-11,0.14999999781482581,-0.1499999977148258,0.1999999970697678,0.5133955465412632,0.5265117255263312
lively,9.999999701976783e-11,9.999999701976783e-11,1.309999961058959,0.14999999562965177,-0.4999999849988393,-0.4999999849988393,-1.2999999611569824,1.309999961058959,-0.14999999542965176,0.49999998519883926,0.49999998519883926,1.2999999613569824,9.999999701976783e-11,0.1999999941395357,9.999999701976783e-11,0.14999999562965177,-0.14999999542965176,-0.1999999939395357,9.999999701976783e-11,-0.1999999939395357,9.999999701976783e-11,0.14999999562965177,-0.14999999542965176,0.1999999941395357,0.49999998519883926,0.49999998519883926
static,5e-11,5e-11,1.3099999805294789,0.14999999781482581,-0.4999999924994194,-0.4999999924994194,-1.2999999805784905,1.3099999805294789,-0.1499999977148258,0.4999999925994194,0.4999999925994194,1.2999999806784905,5e-11,0.1999999970697678,5e-11,0.14999999781482581,-0.1499999977148258,-0.19999999696976778,5e-11,-0.19999999696976778,5e-11,0.14999999781482581,-0.1499999977148258,0.1999999970697678,0.4999999925994194,0.4999999925994194
naive,0.010991279782537272,-0.0019797884109726068,1.3139685132225498,0.14784035841107163,-0.46660746397390956,-0.4989740394057327,-1.2969552554697763,1.3082909026308507,-0.15785556560421585,0.48677029727096205,0.49999719618375227,1.3163556536736287,5e-11,0.1999999970697678,5e-11,0.14999999781482581,-0.1499999977148258,-0.19999999696976778,5e-11,-0.19999999696976778,5e-11,0.14999999781482581,-0.1499999977148258,0.1999999970697678,0.5138686542673678,0.5262517264402484
lively,9.999999701976783e-11,9.999999701976783e-11,1.309999961058959,0.14999999562965177,-0.4999999849988393,-0.4999999849988393,-1.2999999611569824,1.309999961058959,-0.14999999542965176,0.49999998519883926,0.49999998519883926,1.2999999613569824,9.999999701976783e-11,0.1999999941395357,9.999999701976783e-11,0.14999999562965177,-0.14999999542965176,-0.1999999939395357,9.999999701976783e-11,-0.1999999939395357,9.999999701976783e-11,0.14999999562965177,-0.14999999542965176,0.1999999941395357,0.49999998519883926,0.49999998519883926
static,5e-11,5e-11,1.3099999805294789,0.14999999781482581,-0.4999999924994194,-0.4999999924994194,-1.2999999805784905,1.3099999805294789,-0.1499999977148258,0.4999999925994194,0.4999999925994194,1.2999999806784905,5e-11,0.1999999970697678,5e-11,0.14999999781482581,-0.1499999977148258,-0.19999999696976778,5e-11,-0.19999999696976778,5e-11,0.14999999781482581,-0.1499999977148258,0.1999999970697678,0.4999999925994194,0.4999999925994194
naive,0.011018606962683138,-0.0019570164877334255,1.313667455612608,0.14812380886504517,-0.4673885261398878,-0.49900596351968984,-1.2964025041550453,1.3083394176150012,-0.1579976383173878,0.4865280097817429,0.499827957903078,1.3145690836457122,5e-11,0.1999999970697678,5e-11,0.14999999781482581,-0.1499999977148258,-0.19999999696976778,5e-11,-0.19999999696976778,5e-11,0.14999999781482581,-0.1499999977148258,0.1999999970697678,0.5142455557067291,0.5260281090472139
lively,9.999999701976783e-11,9.999999701976783e-11,1.309999961058959,0.14999999562965177,-0.4999999849988393,-0.4999999849988393,-1.2999999611569824,1.309999961058959,-0.14999999542965176,0.49999998519883926,0.49999998519883926,1.2999999613569824,9.999999701976783e-11,0.1999999941395357,9.999999701976783e-11,0.14999999562965177,-0.14999999542965176,-0.1999999939395357,9.999999701976783e-11,-0.1999999939395357,9.999999701976783e-11,0.14999999562965177,-0.14999999542965176,0.1999999941395357,0.49999998519883926,0.49999998519883926
static,5e-11,5e-11,1.3099999805294789,0.14999999781482581,-0.4999999924994194,-0.4999999924994194,-1.2999999805784905,1.3099999805294789,-0.1499999977148258,0.4999999925994194,0.4999999925994194,1.2999999806784905,5e-11,0.1999999970697678,5e-11,0.14999999781482581,-0.1499999977148258,-0.19999999696976778,5e-11,-0.19999999696976778,5e-11,0.14999999781482581,-0.1499999977148258,0.1999999970697678,0.4999999925994194,0.4999999925994194
naive,0.011006690616575075,-0.0019387920780204663,1.3133578767096865,0.1484270004461197,-0.46831165624573556,-0.49904085153566663,-1.295908826744208,1.3083968249527915,-0.15809242886401043,0.48640518222806095,0.4996719699620461,1.3127249139032606,5e-11,0.1999999970697678,5e-11,0.14999999781482581,-0.1499999977148258,-0.19999999696976778,5e-11,-0.19999999696976778,5e-11,0.14999999781482581,-0.1499999977148258,0.1999999970697678,0.5145854850556953,0.5258079969506553
lively,9.999999701976783e-11,9.999999701976783e-11,1.309999961058959,0.14999999562965177,-0.4999999849988393,-0.4999999849988393,-1.2999999611569824,1.309999961058959,-0.14999999542965176,0.49999998519883926,0.49999998519883926,1.2999999613569824,9.999999701976783e-11,0.1999999941395357,9.999999701976783e-11,0.14999999562965177,-0.14999999542965176,-0.1999999939395357,9.999999701976783e-11,-0.1999999939395357,9.999999701976783e-11,0.14999999562965177,-0.14999999542965176,0.1999999941395357,0.49999998519883926,0.49999998519883926
static,5e-11,5e-11,1.3099999805294789,0.14999999781482581,-0.4999999924994194,-0.4999999924994194,-1.2999999805784905,1.3099999805294789,-0.1499999977148258,0.4999999925994194,0.4999999925994194,1.2999999806784905,5e-11,0.1999999970697678,5e-11,0.14999999781482581,-0.1499999977148258,-0.19999999696976778,5e-11,-0.19999999696976778,5e-11,0.14999999781482581,-0.1499999977148258,0.1999999970697678,0.4999999925994194,0.4999999925994194
naive,0.01095192367523024,-0.001922560079731711,1.3130393270875882,0.14874947390436455,-0.469380595358055,-0.49907884749152903,-1.2954858738991428,1.3084628342756395,-0.15813809547584828,0.4864133857810248,0.4995306122241282,1.3108223098203315,5e-11,0.1999999970697678,5e-11,0.14999999781482581,-0.1499999977148258,-0.19999999696976778,5e-11,-0.19999999696976778,5e-11,0.14999999781482581,-0.1499999977148258,0.1999999970697678,0.5148827443513992,0.5255926163506964
lively,9.999999701976783e-11,9.999999701976783e-11,1.309999961058959,0.14999999562965177,-0.4999999849988393,-0.4999999849988393,-1.2999999611569824,1.309999961058959,-0.14999999542965176,0.49999998519883926,0.49999998519883926,1.2999999613569824,9.999999701976783e-11,0.1999999941395357,9.999999701976783e-11,0.14999999562965177,-0.14999999542965176,-0.1999999939395357,9.999999701976783e-11,-0.1999999939395357,9.999999701976783e-11,0.14999999562965177,-0.14999999542965176,0.1999999941395357,0.49999998519883926,0.49999998519883926
static,5e-11,5e-11,1.3099999805294789,0.14999999781482581,-0.4999999924994194,-0.4999999924994194,-1.2999999805784905,1.3099999805294789,-0.1499999977148258,0.4999999925994194,0.4999999925994194,1.2999999806784905,5e-11,0.1999999970697678,5e-11,0.14999999781482581,-0.1499999977148258,-0.19999999696976778,5e-11,-0.19999999696976778,5e-11,0.14999999781482581,-0.1499999977148258,0.1999999970697678,0.4999999925994194,0.4999999925994194
naive,0.0108516216610315,-0.0019053995408518647,1.3127154984468643,0.14908631087863036,-0.47058354651568063,-0.4991195847676974,-1.295150893372831,1.308536133036542,-0.15813299810052706,0.48656245093811956,0.49940690611580413,1.3088846231124094,5e-11,0.1999999970697678,5e-11,0.14999999781482581,-0.1499999977148258,-0.19999999696976778,5e-11,-0.19999999696976778,5e-11,0.14999999781482581,-0.1499999977148258,0.1999999970697678,0.5151277507655522,0.525385770849614
lively,9.999999701976783e-11,9.999999701976783e-11,1.309999961058959,0.14999999562965177,-0.4999999849988393,-0.4999999849988393,-1.2999999611569824,1.309999961058959,-0.14999999542965176,0.49999998519883926,0.49999998519883926,1.2999999613569824,9.999999701976783e-11,0.1999999941395357,9.999999701976783e-11,0.14999999562965177,-0.14999999542965176,-0.1999999939395357,9.999999701976783e-11,-0.1999999939395357,9.999999701976783e-11,0.14999999562965177,-0.14999999542965176,0.1999999941395357,0.49999998519883926,0.49999998519883926
static,5e-11,5e-11,1.3099999805294789,0.14999999781482581,-0.4999999924994194,-0.4999999924994194,-1.2999999805784905,1.3099999805294789,-0.1499999977148258,0.4999999925994194,0.4999999925994194,1.2999999806784905,5e-11,0.1999999970697678,5e-11,0.14999999781482581,-0.1499999977148258,-0.19999999696976778,5e-11,-0.19999999696976778,5e-11,0.14999999781482581,-0.1499999977148258,0.1999999970697678,0.4999999925994194,0.4999999925994194
naive,0.010711675889789999,-0.001884930321894448,1.3124034520767431,0.14941778462487157,-0.4718473398563906,-0.4991608083742902,-1.294925361370258,1.308611757201804,-0.15808106449617162,0.4868409677109603,0.499306889803906,1.3070145646417233,5e-11,0.1999999970697678,5e-11,0.14999999781482581,-0.1499999977148258,-0.19999999696976778,5e-11,-0.19999999696976778,5e-11,0.14999999781482581,-0.1499999977148258,0.1999999970697678,0.5153064492860582,0.525198347683495
lively,9.999999701976783e-11,9.999999701976783e-11,1.309999961058959,0.14999999562965177,-0.4999999849988393,-0.4999999849988393,-1.2999999611569824,1.309999961058959,-0.14999999542965176,0.49999998519883926,0.49999998519883926,1.2999999613569824,9.999999701976783e-11,0.1999999941395357,9.999999701976783e-11,0.14999999562965177,-0.14999999542965176,-0.1999999939395357,9.999999701976783e-11,-0.1999999939395357,9.999999701976783e-11,0.14999999562965177,-0.14999999542965176,0.1999999941395357,0.49999998519883926,0.49999998519883926
static,5e-11,5e-11,1.3099999805294789,0.14999999781482581,-0.4999999924994194,-0.4999999924994194,-1.2999999805784905,1.3099999805294789,-0.1499999977148258,0.4999999925994194,0.4999999925994194,1.2999999806784905,5e-11,0.1999999970697678,5e-11,0.14999999781482581,-0.1499999977148258,-0.19999999696976778,5e-11,-0.19999999696976778,5e-11,0.14999999781482581,-0.1499999977148258,0.1999999970697678,0.4999999925994194,0.4999999925994194
naive,0.010528845952912393,-0.0018572589412462084,1.3120924148914304,0.14975332740785496,-0.4732038758490355,-0.49920379775420753,-1.2948024960618152,1.3086911855052465,-0.1579852458925212,0.48725083071873426,0.4992260985997638,1.305147195137275,5e-11,0.1999999970697678,5e-11,0.14999999781482581,-0.1499999977148258,-0.19999999696976778,5e-11,-0.19999999696976778,5e-11,0.14999999781482581,-0.1499999977148258,0.1999999970697678,0.5154252841445608,0.5250232987145196
lively,9.999999701976783e-11,9.999999701976783e-11,1.309999961058959,0.14999999562965177,-0.4999999849988393,-0.4999999849988393,-1.2999999611569824,1.309999961058959,-0.14999999542965176,0.49999998519883926,0.49999998519883926,1.2999999613569824,9.999999701976783e-11,0.1999999941395357,9.999999701976783e-11,0.14999999562965177,-0.14999999542965176,-0.1999999939395357,9.999999701976783e-11,-0.1999999939395357,9.999999701976783e-11,0.14999999562965177,-0.14999999542965176,0.1999999941395357,0.49999998519883926,0.49999998519883926
static,5e-11,5e-11,1.3099999805294789,0.14999999781482581,-0.4999999924994194,-0.4999999924994194,-1.2999999805784905,1.3099999805294789,-0.1499999977148258,0.4999999925994194,0.4999999925994194,1.2999999806784905,5e-11,0.1999999970697678,5e-11,0.14999999781482581,-0.1499999977148258,-0.19999999696976778,5e-11,-0.19999999696976778,5e-11,0.14999999781482581,-0.1499999977148258,0.1999999970697678,0.4999999925994194,0.4999999925994194
naive,0.010301409700965445,-0.0018186673706615867,1.3117815123509753,0.15009232205698864,-0.4746519091352275,-0.4992486615525383,-1.2947889014961405,1.3087738477550155,-0.1578471687086049,0.4877928501165977,0.4991644194341464,1.303277413467938,5e-11,0.1999999970697678,5e-11,0.14999999781482581,-0.1499999977148258,-0.19999999696976778,5e-11,-0.19999999696976778,5e-11,0.14999999781482581,-0.1499999977148258,0.1999999970697678,0.5154811696480726,0.524860014944454
lively,9.999999701976783e-11,9.999999701976783e-11,1.309999961058959,0.14999999562965177,-0.4999999849988393,-0.4999999849988393,-1.2999999611569824,1.309999961058959,-0.14999999542965176,0.49999998519883926,0.49999998519883926,1.2999999613569824,9.999999701976783e-11,0.1999999941395357,9.999999701976783e-11,0.14999999562965177,-0.14999999542965176,-0.1999999939395357,9.999999701976783e-11,-0.1999999939395357,9.999999701976783e-11,0.14999999562965177,-0.14999999542965176,0.1999999941395357,0.49999998519883926,0.49999998519883926
static,5e-11,5e-11,1.3099999805294789,0.14999999781482581,-0.4999999924994194,-0.4999999924994194,-1.2999999805784905,1.3099999805294789,-0.1499999977148258,0.4999999925994194,0.4999999925994194,1.2999999806784905,5e-11,0.1999999970697678,5e-11,0.14999999781482581,-0.1499999977148258,-0.19999999696976778,5e-11,-0.19999999696976778,5e-11,0.14999999781482581,-0.1499999977148258,0.1999999970697678,0.4999999925994194,0.4999999925994194
naive,0.010017092184146441,-0.0017629047247128386,1.3114599444360284,0.1504451026472448,-0.47624246973118795,-0.4992970801098303,-1.2948986689109314,1.308862009718818,-0.1576613932558576,0.48849291263345174,0.4991210037135606,1.3013411345250068,5e-11,0.1999999970697678,5e-11,0.14999999781482581,-0.1499999977148258,-0.19999999696976778,5e-11,-0.19999999696976778,5e-11,0.14999999781482581,-0.1499999977148258,0.1999999970697678,0.5154680505586038,0.5247031180907086
lively,9.999999701976783e-11,9.999999701976783e-11,1.309999961058959,0.14999999562965177,-0.4999999849988393,-0.4999999849988393,-1.2999999611569824,1.309999961058959,-0.14999999542965176,0.49999998519883926,0.49999998519883926,1.2999999613569824,9.999999701976783e-11,0.1999999941395357,9.999999701976783e-11,0.14999999562965177,-0.14999999542965176,-0.1999999939395357,9.999999701976783e-11,-0.1999999939395357,9.999999701976783e-11,0.14999999562965177,-0.14999999542965176,0.1999999941395357,0.49999998519883926,0.49999998519883926
static,5e-11,5e-11,1.3099999805294789,0.14999999781482581,-0.4999999924994194,-0.4999999924994194,-1.2999999805784905,1.3099999805294789,-0.1499999977148258,0.4999999925994194,0.4999999925994194,1.2999999806784905,5e-11,0.1999999970697678,5e-11,0.14999999781482581,-0.1499999977148258,-0.19999999696976778,5e-11,-0.19999999696976778,5e-11,0.14999999781482581,-0.1499999977148258,0.1999999970697678,0.4999999925994194,0.4999999925994194
naive,0.00973151253182437,-0.0016984451559993706,1.3111842923891004,0.15074796246306815,-0.4776786044801557,-0.4993402594816115,-1.295100970509915,1.3089391614071064,-0.1574683646055329,0.4892059162327579,0.4991006070855039,1.2996804326960905,5e-11,0.1999999970697678,5e-11,0.14999999781482581,-0.1499999977148258,-0.19999999696976778,5e-11,-0.19999999696976778,5e-11,0.14999999781482581,-0.1499999977148258,0.1999999970697678,0.5153949072039563,0.5245778787852199
lively,9.999999701976783e-11,9.999999701976783e-11,1.309999961058959,0.14999999562965177,-0.4999999849988393,-0.4999999849988393,-1.2999999611569824,1.309999961058959,-0.14999999542965176,0.49999998519883926,0.49999998519883926,1.2999999613569824,9.999999701976783e-11,0.1999999941395357,9.999999701976783e-11,0.14999999562965177,-0.14999999542965176,-0.1999999939395357,9.999999701976783e-11,-0.1999999939395357,9.999999701976783e-11,0.14999999562965177,-0.14999999542965176,0.1999999941395357,0.49999998519883926,0.49999998519883926
static,5e-11,5e-11,1.3099999805294789,0.14999999781482581,-0.4999999924994194,-0.4999999924994194,-1.2999999805784905,1.3099999805294789,-0.1499999977148258,0.4999999925994194,0.4999999925994194,1.2999999806784905,5e-11,0.1999999970697678,5e-11,0.14999999781482581,-0.1499999977148258,-0.19999999696976778,5e-11,-0.19999999696976778,5e-11,0.14999999781482581,-0.1499999977148258,0.1999999970697678,0.4999999925994194,0.4999999925994194
naive,0.00935770073957713,-0.001601772141724769,1.310871638332617,0.15109045897547901,-0.4793867796709449,-0.4993911866701143,-1.295461719127176,1.3090278018189592,-0.15721253962618326,0.4901404946754668,0.49909673938421334,1.297797250104693,5e-11,0.1999999970697678,5e-11,0.14999999781482581,-0.1499999977148258,-0.19999999696976778,5e-11,-0.19999999696976778,5e-11,0.14999999781482581,-0.1499999977148258,0.1999999970697678,0.5152365891110079,0.5244453595576857
lively,9.999999701976783e-11,9.999999701976783e-11,1.309999961058959,0.14999999562965177,-0.4999999849988393,-0.4999999849988393,-1.2999999611569824,1.309999961058959,-0.14999999542965176,0.49999998519883926,0.49999998519883926,1.2999999613569824,9.999999701976783e-11,0.1999999941395357,9.999999701976783e-11,0.14999999562965177,-0.14999999542965176,-0.1999999939395357,9.999999701976783e-11,-0.1999999939395357,9.999999701976783e-11,0.14999999562965177,-0.14999999542965176,0.1999999941395357,0.49999998519883926,0.49999998519883926
static,5e-11,5e-11,1.3099999805294789,0.14999999781482581,-0.4999999924994194,-0.4999999924994194,-1.2999999805784905,1.3099999805294789,-0.1499999977148258,0.4999999925994194,0.4999999925994194,1.2999999806784905,5e-11,0.1999999970697678,5e-11,0.14999999781482581,-0.1499999977148258,-0.19999999696976778,5e-11,-0.19999999696976778,5e-11,0.14999999781482581,-0.1499999977148258,0.1999999970697678,0.4999999925994194,0.4999999925994194
naive,0.008988228314162107,-0.001493239489929327,1.3106011506225632,0.15138456614914897,-0.4809317127200206,-0.49943701718742256,-1.2958963647694557,1.3091049380130324,-0.15696003397517963,0.4910563262805956,0.4991104089712408,1.296170033276591,5e-11,0.1999999970697678,5e-11,0.14999999781482581,-0.1499999977148258,-0.19999999696976778,5e-11,-0.19999999696976778,5e-11,0.14999999781482581,-0.1499999977148258,0.1999999970697678,0.5150287373639493,0.5243379375923694
lively,9.999999701976783e-11,9.999999701976783e-11,1.309999961058959,0.14999999562965177,-0.4999999849988393,-0.4999999849988393,-1.2999999611569824,1.309999961058959,-0.14999999542965176,0.49999998519883926,0.49999998519883926,1.2999999613569824,9.999999701976783e-11,0.1999999941395357,9.999999701976783e-11,0.14999999562965177,-0.14999999542965176,-0.1999999939395357,9.999999701976783e-11,-0.1999999939395357,9.999999701976783e-11,0.14999999562965177,-0.14999999542965176,0.1999999941395357,0.49999998519883926,0.49999998519883926
static,5e-11,5e-11,1.3099999805294789,0.14999999781482581,-0.4999999924994194,-0.4999999924994194,-1.2999999805784905,1.3099999805294789,-0.1499999977148258,0.4999999925994194,0.4999999925994194,1.2999999806784905,5e-11,0.1999999970697678,5e-11,0.14999999781482581,-0.1499999977148258,-0.19999999696976778,5e-11,-0.19999999696976778,5e-11,0.14999999781482581,-0.1499999977148258,0.1999999970697678,0.4999999925994194,0.4999999925994194
naive,0.008601291638439954,-0.0013665529901534166,1.3103486318372077,0.15165609971145985,-0.4824302096706415,-0.4994813982768141,-1.2964144006584193,1.309176868764459,-0.15669833520587084,0.492000076109878,0.4991379229571315,1.2946543829743156,5e-11,0.1999999970697678,5e-11,0.14999999781482581,-0.1499999977148258,-0.19999999696976778,5e-11,-0.19999999696976778,5e-11,0.14999999781482581,-0.1499999977148258,0.1999999970697678,0.5147689300175141,0.5242426517743862
lively,9.999999701976783e-11,9.999999701976783e-11,1.309999961058959,0.14999999562965177,-0.4999999849988393,-0.4999999849988393,-1.2999999611569824,1.309999961058959,-0.14999999542965176,0.49999998519883926,0.49999998519883926,1.2999999613569824,9.999999701976783e-11,0.1999999941395357,9.999999701976783e-11,0.14999999562965177,-0.14999999542965176,-0.1999999939395357,9.999999701976783e-11,-0.1999999939395357,9.999999701976783e-11,0.14999999562965177,-0.14999999542965176,0.1999999941395357,0.49999998519883926,0.49999998519883926
static,5e-11,5e-11,1.3099999805294789,0.14999999781482581,-0.4999999924994194,-0.4999999924994194,-1.2999999805784905,1.3099999805294789,-0.1499999977148258,0.4999999925994194,0.4999999925994194,1.2999999806784905,5e-11,0.1999999970697678,5e-11,0.14999999781482581,-0.1499999977148258,-0.19999999696976778,5e-11,-0.19999999696976778,5e-11,0.14999999781482581,-0.1499999977148258,0.1999999970697678,0.4999999925994194,0.4999999925994194
naive,0.008143766115677688,-0.0012006214314605591,1.3100816931041486,0.1519386050431096,-0.48407410836740555,-0.49953014119530853,-1.297091410603227,1.3092522827530042,-0.15639429770188212,0.4930889234771573,0.4991831220785139,1.2930583167742917,5e-11,0.1999999970697678,5e-11,0.14999999781482581,-0.1499999977148258,-0.19999999696976778,5e-11,-0.19999999696976778,5e-11,0.14999999781482581,-0.1499999977148258,0.1999999970697678,0.5144171047797262,0.5241457740738312
lively,9.999999701976783e-11,9.999999701976783e-11,1.309999961058959,0.14999999562965177,-0.4999999849988393,-0.4999999849988393,-1.2999999611569824,1.309999961058959,-0.14999999542965176,0.49999998519883926,0.49999998519883926,1.2999999613569824,9.999999701976783e-11,0.1999999941395357,9.999999701976783e-11,0.14999999562965177,-0.14999999542965176,-0.1999999939395357,9.999999701976783e-11,-0.1999999939395357,9.999999701976783e-11,0.14999999562965177,-0.14999999542965176,0.1999999941395357,0.49999998519883926,0.49999998519883926
static,5e-11,5e-11,1.3099999805294789,0.14999999781482581,-0.4999999924994194,-0.4999999924994194,-1.2999999805784905,1.3099999805294789,-0.1499999977148258,0.4999999925994194,0.4999999925994194,1.2999999806784905,5e-11,0.1999999970697678,5e-11,0.14999999781482581,-0.1499999977148258,-0.19999999696976778,5e-11,-0.19999999696976778,5e-11,0.14999999781482581,-0.1499999977148258,0.1999999970697678,0.4999999925994194,0.4999999925994194
naive,0.007678892972338937,-0.0010152930290389815,1.3098385826201666,0.1521904928518685,-0.4856263153401112,-0.49957634300253817,-1.2978356551173937,1.3093198053644506,-0.15609253627685638,0.49415904730951954,0.49923935106559947,1.2916132463872185,5e-11,0.1999999970697678,5e-11,0.14999999781482581,-0.1499999977148258,-0.19999999696976778,5e-11,-0.19999999696976778,5e-11,0.14999999781482581,-0.1499999977148258,0.1999999970697678,0.5140186349107633,0.5240594329882655
lively,9.999999701976783e-11,9.999999701976783e-11,1.309999961058959,0.14999999562965177,-0.4999999849988393,-0.4999999849988393,-1.2999999611569824,1.309999961058959,-0.14999999542965176,0.49999998519883926,0.49999998519883926,1.2999999613569824,9.999999701976783e-11,0.1999999941395357,9.999999701976783e-11,0.14999999562965177,-0.14999999542965176,-0.1999999939395357,9.999999701976783e-11,-0.1999999939395357,9.999999701976783e-11,0.14999999562965177,-0.14999999542965176,0.1999999941395357,0.49999998519883926,0.49999998519883926
static,5e-11,5e-11,1.3099999805294789,0.14999999781482581,-0.4999999924994194,-0.4999999924994194,-1.2999999805784905,1.3099999805294789,-0.1499999977148258,0.4999999925994194,0.4999999925994194,1.2999999806784905,5e-11,0.1999999970697678,5e-11,0.14999999781482581,-0.1499999977148258,-0.19999999696976778,5e-11,-0.19999999696976778,5e-11,0.14999999781482581,-0.1499999977148258,0.1999999970697678,0.4999999925994194,0.4999999925994194
naive,0.007196207618184826,-0.0008062940355735625,1.3096106567351327,0.15242064455389015,-0.4871313989685025,-0.49962142029541506,-1.2986558852669325,1.3093813935905572,-0.15578755661189148,0.49522591675897265,0.4993057591577376,1.2902693913074186,5e-11,0.1999999970697678,5e-11,0.14999999781482581,-0.1499999977148258,-0.19999999696976778,5e-11,-0.19999999696976778,5e-11,0.14999999781482581,-0.1499999977148258,0.1999999970697678,0.5135676879678428,0.523978484736327
lively,9.999999701976783e-11,9.999999701976783e-11,1.309999961058959,0.14999999562965177,-0.4999999849988393,-0.4999999849988393,-1.2999999611569824,1.309999961058959,-0.14999999542965176,0.49999998519883926,0.49999998519883926,1.2999999613569824,9.999999701976783e-11,0.1999999941395357,9.999999701976783e-11,0.14999999562965177,-0.14999999542965176,-0.1999999939395357,9.999999701976783e-11,-0.1999999939395357,9.999999701976783e-11,0.14999999562965177,-0.14999999542965176,0.1999999941395357,0.49999998519883926,0.49999998519883926
static,5e-11,5e-11,1.3099999805294789,0.14999999781482581,-0.4999999924994194,-0.4999999924994194,-1.2999999805784905,1.3099999805294789,-0.1499999977148258,0.4999999925994194,0.4999999925994194,1.2999999806784905,5e-11,0.1999999970697678,5e-11,0.14999999781482581,-0.1499999977148258,-0.19999999696976778,5e-11,-0.19999999696976778,5e-11,0.14999999781482581,-0.1499999977148258,0.1999999970697678,0.4999999925994194,0.4999999925994194
naive,0.00669755048292969,-0.0005740396525220063,1.3093970841927438,0.1526297421088652,-0.4885880282509839,-0.4996654094087803,-1.2995434033338542,1.3094367066944508,-0.15548179203230522,0.496276365503767,0.49938060360805536,1.2890239269556634,5e-11,0.1999999970697678,5e-11,0.14999999781482581,-0.1499999977148258,-0.19999999696976778,5e-11,-0.19999999696976778,5e-11,0.14999999781482581,-0.1499999977148258,0.1999999970697678,0.5130668221696266,0.5239010451984071
lively,9.999999701976783e-11,9.999999701976783e-11,1.309999961058959,0.14999999562965177,-0.4999999849988393,-0.4999999849988393,-1.2999999611569824,1.309999961058959,-0.14999999542965176,0.49999998519883926,0.49999998519883926,1.2999999613569824,9.999999701976783e-11,0.1999999941395357,9.999999701976783e-11,0.14999999562965177,-0.14999999542965176,-0.1999999939395357,9.999999701976783e-11,-0.1999999939395357,9.999999701976783e-11,0.14999999562965177,-0.14999999542965176,0.1999999941395357,0.49999998519883926,0.49999998519883926
static,5e-11,5e-11,1.3099999805294789,0.14999999781482581,-0.4999999924994194,-0.4999999924994194,-1.2999999805784905,1.3099999805294789,-0.1499999977148258,0.4999999925994194,0.4999999925994194,1.2999999806784905,5e-11,0.1999999970697678,5e-11,0.14999999781482581,-0.1499999977148258,-0.19999999696976778,5e-11,-0.19999999696976778,5e-11,0.14999999781482581,-0.1499999977148258,0.1999999970697678,0.4999999925994194,0.4999999925994194
naive,0.006152362186911643,-0.0003028593002873963,1.3091850804656016,0.15282963050909862,-0.4900814602887677,-0.499710984790625,-1.3005498167903327,1.3094880201319765,-0.15515849985577562,0.497360951195452,0.4994675309801402,1.2878061261616545,5e-11,0.1999999970697678,5e-11,0.14999999781482581,-0.1499999977148258,-0.19999999696976778,5e-11,-0.19999999696976778,5e-11,0.14999999781482581,-0.1499999977148258,0.1999999970697678,0.5124824699159328,0.5238210452723884
lively,9.999999701976783e-11,9.999999701976783e-11,1.309999961058959,0.14999999562965177,-0.4999999849988393,-0.4999999849988393,-1.2999999611569824,1.309999961058959,-0.14999999542965176,0.49999998519883926,0.49999998519883926,1.2999999613569824,9.999999701976783e-11,0.1999999941395357,9.999999701976783e-11,0.14999999562965177,-0.14999999542965176,-0.1999999939395357,9.999999701976783e-11,-0.1999999939395357,9.999999701976783e-11,0.14999999562965177,-0.14999999542965176,0.1999999941395357,0.49999998519883926,0.49999998519883926
static,5e-11,5e-11,1.3099999805294789,0.14999999781482581,-0.4999999924994194,-0.4999999924994194,-1.2999999805784905,1.3099999805294789,-0.1499999977148258,0.4999999925994194,0.4999999925994194,1.2999999806784905,5e-11,0.1999999970697678,5e-11,0.14999999781482581,-0.1499999977148258,-0.19999999696976778,5e-11,-0.19999999696976778,5e-11,0.14999999781482581,-0.1499999977148258,0.1999999970697678,0.4999999925994194,0.4999999925994194
naive,0.0056225461955624915,-2.3986545438325277e-05,1.3089973492973073,0.15299899298436329,-0.49144650222719993,-0.4997531504939452,-1.3015545874517118,1.3095288222994568,-0.15485535073294107,0.49834826312375413,0.49955538192883,1.2867490160046355,5e-11,0.1999999970697678,5e-11,0.14999999781482581,-0.1499999977148258,-0.19999999696976778,5e-11,-0.19999999696976778,5e-11,0.14999999781482581,-0.1499999977148258,0.1999999970697678,0.5118803803270243,0.5237464306127835
lively,9.999999701976783e-11,9.999999701976783e-11,1.309999961058959,0.14999999562965177,-0.4999999849988393,-0.4999999849988393,-1.2999999611569824,1.309999961058959,-0.14999999542965176,0.49999998519883926,0.49999998519883926,1.2999999613569824,9.999999701976783e-11,0.1999999941395357,9.999999701976783e-11,0.14999999562965177,-0.14999999542965176,-0.1999999939395357,9.999999701976783e-11,-0.1999999939395357,9.999999701976783e-11,0.14999999562965177,-0.14999999542965176,0.1999999941395357,0.49999998519883926,0.49999998519883926
static,5e-11,5e-11,1.3099999805294789,0.14999999781482581,-0.4999999924994194,-0.4999999924994194,-1.2999999805784905,1.3099999805294789,-0.1499999977148258,0.4999999925994194,0.4999999925994194,1.2999999806784905,5e-11,0.1999999970697678,5e-11,0.14999999781482581,-0.1499999977148258,-0.19999999696976778,5e-11,-0.19999999696976778,5e-11,0.14999999781482581,-0.1499999977148258,0.1999999970697678,0.4999999925994194,0.4999999925994194
naive,0.005067229987029382,0.0002822000710382282,1.3088170038127085,0.15315377701019117,-0.49279838225689715,-0.4997954616073885,-1.3026266457486528,1.3095616657498697,-0.15454917780888797,0.4993104647002353,0.4996495137907193,1.2857590956209897,5e-11,0.1999999970697678,5e-11,0.14999999781482581,-0.1499999977148258,-0.19999999696976778,5e-11,-0.19999999696976778,5e-11,0.14999999781482581,-0.1499999977148258,0.1999999970697678,0.5112146482775896,0.5236708867250836
lively,9.999999701976783e-11,9.999999701976783e-11,1.309999961058959,0.14999999562965177,-0.4999999849988393,-0.4999999849988393,-1.2999999611569824,1.309999961058959,-0.14999999542965176,0.49999998519883926,0.49999998519883926,1.2999999613569824,9.999999701976783e-11,0.1999999941395357,9.999999701976783e-11,0.14999999562965177,-0.14999999542965176,-0.1999999939395357,9.999999701976783e-11,-0.1999999939395357,9.999999701976783e-11,0.14999999562965177,-0.14999999542965176,0.1999999941395357,0.49999998519883926,0.49999998519883926
static,5e-11,5e-11,1.3099999805294789,0.14999999781482581,-0.4999999924994194,-0.4999999924994194,-1.2999999805784905,1.3099999805294789,-0.1499999977148258,0.4999999925994194,0.4999999925994194,1.2999999806784905,5e-11,0.1999999970697678,5e-11,0.14999999781482581,-0.1499999977148258,-0.19999999696976778,5e-11,-0.19999999696976778,5e-11,0.14999999781482581,-0.1499999977148258,0.1999999970697678,0.4999999925994194,0.4999999925994194
naive,0.004461155571364302,0.0006293623078580489,1.308636218865195,0.15330010965740487,-0.49419520665081035,-0.4998398295056377,-1.3038079174041244,1.3095849437614002,-0.15422831945038865,0.5002743541744259,0.4997531413839982,1.2848004718355646,5e-11,0.1999999970697678,5e-11,0.14999999781482581,-0.1499999977148258,-0.19999999696976778,5e-11,-0.19999999696976778,5e-11,0.14999999781482581,-0.1499999977148258,0.1999999970697678,0.5104480621804273,0.5235920376817073
lively,9.999999701976783e-11,9.999999701976783e-11,1.309999961058959,0.14999999562965177,-0.4999999849988393,-0.4999999849988393,-1.2999999611569824,1.309999961058959,-0.14999999542965176,0.49999998519883926,0.49999998519883926,1.2999999613569824,9.999999701976783e-11,0.1999999941395357,9.999999701976783e-11,0.14999999562965177,-0.14999999542965176,-0.1999999939395357,9.999999701976783e-11,-0.1999999939395357,9.999999701976783e-11,0.14999999562965177,-0.14999999542965176,0.1999999941395357,0.49999998519883926,0.49999998519883926
static,5e-11,5e-11,1.3099999805294789,0.14999999781482581,-0.4999999924994194,-0.4999999924994194,-1.2999999805784905,1.3099999805294789,-0.1499999977148258,0.4999999925994194,0.4999999925994194,1.2999999806784905,5e-11,0.1999999970697678,5e-11,0.14999999781482581,-0.1499999977148258,-0.19999999696976778,5e-11,-0.19999999696976778,5e-11,0.14999999781482581,-0.1499999977148258,0.1999999970697678,0.4999999925994194,0.4999999925994194
naive,0.003928608789817787,0.0009423484860792125,1.3084886357214702,0.15341251478162182,-0.49536494251816193,-0.49987757188831794,-1.3048460098561483,1.3095931947495243,-0.15395747779159286,0.5010468043880394,0.49984387610957587,1.284050332027744,5e-11,0.1999999970697678,5e-11,0.14999999781482581,-0.1499999977148258,-0.19999999696976778,5e-11,-0.19999999696976778,5e-11,0.14999999781482581,-0.1499999977148258,0.1999999970697678,0.5097394127420217,0.5235274455221515
lively,9.999999701976783e-11,9.999999701976783e-11,1.309999961058959,0.14999999562965177,-0.4999999849988393,-0.4999999849988393,-1.2999999611569824,1.309999961058959,-0.14999999542965176,0.49999998519883926,0.49999998519883926,1.2999999613569824,9.999999701976783e-11,0.1999999941395357,9.999999701976783e-11,0.14999999562965177,-0.14999999542965176,-0.1999999939395357,9.999999701976783e-11,-0.1999999939395357,9.999999701976783e-11,0.14999999562965177,-0.14999999542965176,0.1999999941395357,0.49999998519883926,0.49999998519883926
static,5e-11,5e-11,1.3099999805294789,0.14999999781482581,-0.4999999924994194,-0.4999999924994194,-1.2999999805784905,1.3099999805294789,-0.1499999977148258,0.4999999925994194,0.4999999925994194,1.2999999806784905,5e-11,0.1999999970697678,5e-11,0.14999999781482581,-0.1499999977148258,-0.19999999696976778,5e-11,-0.19999999696976778,5e-11,0.14999999781482581,-0.1499999977148258,0.1999999970697678,0.4999999925994194,0.4999999925994194
naive,0.0033048943561352,0.0013135872158636594,1.3083260100430512,0.15352910187718777,-0.49667929421607354,-0.49992068687605073,-1.3060494665459754,1.3095858572579897,-0.15364965705980296,0.5018642357900707,0.49994863008463414,1.2832660491740087,5e-11,0.1999999970697678,5e-11,0.14999999781482581,-0.1499999977148258,-0.19999999696976778,5e-11,-0.19999999696976778,5e-11,0.14999999781482581,-0.1499999977148258,0.1999999970697678,0.5088656966818454,0.5234610623031304
lively,9.999999701976783e-11,9.999999701976783e-11,1.309999961058959,0.14999999562965177,-0.4999999849988393,-0.4999999849988393,-1.2999999611569824,1.309999961058959,-0.14999999542965176,0.49999998519883926,0.49999998519883926,1.2999999613569824,9.999999701976783e-11,0.1999999941395357,9.999999701976783e-11,0.14999999562965177,-0.14999999542965176,-0.1999999939395357,9.999999701976783e-11,-0.1999999939395357,9.999999701976783e-11,0.14999999562965177,-0.14999999542965176,0.1999999941395357,0.49999998519883926,0.49999998519883926
static,5e-11,5e-11,1.3099999805294789,0.14999999781482581,-0.4999999924994194,-0.4999999924994194,-1.2999999805784905,1.3099999805294789,-0.1499999977148258,0.4999999925994194,0.4999999925994194,1.2999999806784905,5e-11,0.1999999970697678,5e-11,0.14999999781482581,-0.1499999977148258,-0.19999999696976778,5e-11,-0.19999999696976778,5e-11,0.14999999781482581,-0.1499999977148258,0.1999999970697678,0.4999999925994194,0.4999999925994194
naive,0.002775986280786428,0.001627756643304932,1.3081940151965963,0.1536188684073194,-0.49775850644513947,-0.49995665665164923,-1.3070484677440661,1.3095625292166624,-0.15339151660440611,0.5024863517253632,0.500035419301056,1.2826677528306067,5e-11,0.1999999970697678,5e-11,0.14999999781482581,-0.1499999977148258,-0.19999999696976778,5e-11,-0.19999999696976778,5e-11,0.14999999781482581,-0.1499999977148258,0.1999999970697678,0.5080851357625008,0.5234172048899423
lively,9.999999701976783e-11,9.999999701976783e-11,1.309999961058959,0.14999999562965177,-0.4999999849988393,-0.4999999849988393,-1.2999999611569824,1.309999961058959,-0.14999999542965176,0.49999998519883926,0.49999998519883926,1.2999999613569824,9.999999701976783e-11,0.1999999941395357,9.999999701976783e-11,0.14999999562965177,-0.14999999542965176,-0.1999999939395357,9.999999701976783e-11,-0.1999999939395357,9.999999701976783e-11,0.14999999562965177,-0.14999999542965176,0.1999999941395357,0.49999998519883926,0.49999998519883926
static,5e-11,5e-11,1.3099999805294789,0.14999999781482581,-0.4999999924994194,-0.4999999924994194,-1.2999999805784905,1.3099999805294789,-0.1499999977148258,0.4999999925994194,0.4999999925994194,1.2999999806784905,5e-11,0.1999999970697678,5e-11,0.14999999781482581,-0.1499999977148258,-0.19999999696976778,5e-11,-0.19999999696976778,5e-11,0.14999999781482581,-0.1499999977148258,0.1999999970697678,0.4999999925994194,0.4999999925994194
naive,0.002178348226141568,0.0019757894966873648,1.3080479356843169,0.15371489672412775,-0.49895440225956633,-0.4999970546576941,-1.3081392674800685,1.3095131874078985,-0.15309743127844544,0.5031162300219634,0.5001305320762738,1.2820493100944115,5e-11,0.1999999970697678,5e-11,0.14999999781482581,-0.1499999977148258,-0.19999999696976778,5e-11,-0.19999999696976778,5e-11,0.14999999781482581,-0.1499999977148258,0.1999999970697678,0.5071551118122776,0.5233888807126508
lively,9.999999701976783e-11,9.999999701976783e-11,1.309999961058959,0.14999999562965177,-0.4999999849988393,-0.4999999849988393,-1.2999999611569824,1.309999961058959,-0.14999999542965176,0.49999998519883926,0.49999998519883926,1.2999999613569824,9.999999701976783e-11,0.1999999941395357,9.999999701976783e-11,0.14999999562965177,-0.14999999542965176,-0.1999999939395357,9.999999701976783e-11,-0.1999999939395357,9.999999701976783e-11,0.14999999562965177,-0.14999999542965176,0.1999999941395357,0.49999998519883926,0.49999998519883926
static,5e-11,5e-11,1.3099999805294789,0.14999999781482581,-0.4999999924994194,-0.4999999924994194,-1.2999999805784905,1.3099999805294789,-0.1499999977148258,0.4999999925994194,0.4999999925994194,1.2999999806784905,5e-11,0.1999999970697678,5e-11,0.14999999781482581,-0.1499999977148258,-0.19999999696976778,5e-11,-0.19999999696976778,5e-11,0.14999999781482581,-0.1499999977148258,0.1999999970697678,0.4999999925994194,0.4999999925994194
naive,0.001615605980944518,0.0022914413828215847,1.3079104084819304,0.15380422191138093,-0.500072718010542,-0.5000350250565223,-1.309119946067641,1.3094394987797882,-0.15281322597744698,0.5036487528459251,0.5002170572457252,1.2815132709308235,5e-11,0.1999999970697678,5e-11,0.14999999781482581,-0.1499999977148258,-0.19999999696976778,5e-11,-0.19999999696976778,5e-11,0.14999999781482581,-0.1499999977148258,0.1999999970697678,0.5062295631562496,0.5233915623349804
lively,9.999999701976783e-11,9.999999701976783e-11,1.309999961058959,0.14999999562965177,-0.4999999849988393,-0.4999999849988393,-1.2999999611569824,1.309999961058959,-0.14999999542965176,0.49999998519883926,0.49999998519883926,1.2999999613569824,9.999999701976783e-11,0.1999999941395357,9.999999701976783e-11,0.14999999562965177,-0.14999999542965176,-0.1999999939395357,9.999999701976783e-11,-0.1999999939395357,9.999999701976783e-11,0.14999999562965177,-0.14999999542965176,0.1999999941395357,0.49999998519883926,0.49999998519883926
static,5e-11,5e-11,1.3099999805294789,0.14999999781482581,-0.4999999924994194,-0.4999999924994194,-1.2999999805784905,1.3099999805294789,-0.1499999977148258,0.4999999925994194,0.4999999925994194,1.2999999806784905,5e-11,0.1999999970697678,5e-11,0.14999999781482581,-0.1499999977148258,-0.19999999696976778,5e-11,-0.19999999696976778,5e-11,0.14999999781482581,-0.1499999977148258,0.1999999970697678,0.4999999925994194,0.4999999925994194
naive,0.0010275815799401526,0.002609222247330393,1.3077663295753064,0.15389784423979141,-0.5012425859912129,-0.5000738378857401,-1.3101065325606636,1.3093278777270858,-0.1525045481779912,0.5041648182714022,0.5003056348620786,1.2810208245090344,5e-11,0.1999999970697678,5e-11,0.14999999781482581,-0.1499999977148258,-0.19999999696976778,5e-11,-0.19999999696976778,5e-11,0.14999999781482581,-0.1499999977148258,0.1999999970697678,0.5052135198806067,0.5234328863664757
lively,9.999999701976783e-11,9.999999701976783e-11,1.309999961058959,0.14999999562965177,-0.4999999849988393,-0.4999999849988393,-1.2999999611569824,1.309999961058959,-0.14999999542965176,0.49999998519883926,0.49999998519883926,1.2999999613569824,9.999999701976783e-11,0.1999999941395357,9.999999701976783e-11,0.14999999562965177,-0.14999999542965176,-0.1999999939395357,9.999999701976783e-11,-0.1999999939395357,9.999999701976783e-11,0.14999999562965177,-0.14999999542965176,0.1999999941395357,0.49999998519883926,0.49999998519883926
static,5e-11,5e-11,1.3099999805294789,0.14999999781482581,-0.4999999924994194,-0.4999999924994194,-1.2999999805784905,1.3099999805294789,-0.1499999977148258,0.4999999925994194,0.4999999925994194,1.2999999806784905,5e-11,0.1999999970697678,5e-11,0.14999999781482581,-0.1499999977148258,-0.19999999696976778,5e-11,-0.19999999696976778,5e-11,0.14999999781482581,-0.1499999977148258,0.1999999970697678,0.4999999925994194,0.4999999925994194
naive,0.00044902044871740124,0.0029120825612228133,1.3076246182541027,0.1539907014205679,-0.5024013729406986,-0.50011026585389,-1.3110493083061794,1.3091768292785773,-0.15218578135008864,0.504653483950817,0.5003927763742047,1.2806311517211129,5e-11,0.1999999970697678,5e-11,0.14999999781482581,-0.1499999977148258,-0.19999999696976778,5e-11,-0.19999999696976778,5e-11,0.14999999781482581,-0.1499999977148258,0.1999999970697678,0.5041673361545325,0.5235196934976001
lively,9.999999701976783e-11,9.999999701976783e-11,1.309999961058959,0.14999999562965177,-0.4999999849988393,-0.4999999849988393,-1.2999999611569824,1.309999961058959,-0.14999999542965176,0.49999998519883926,0.49999998519883926,1.2999999613569824,9.999999701976783e-11,0.1999999941395357,9.999999701976783e-11,0.14999999562965177,-0.14999999542965176,-0.1999999939395357,9.999999701976783e-11,-0.1999999939395357,9.999999701976783e-11,0.14999999562965177,-0.14999999542965176,0.1999999941395357,0.49999998519883926,0.49999998519883926
static,5e-11,5e-11,1.3099999805294789,0.14999999781482581,-0.4999999924994194,-0.4999999924994194,-1.2999999805784905,1.3099999805294789,-0.1499999977148258,0.4999999925994194,0.4999999925994194,1.2999999806784905,5e-11,0.1999999970697678,5e-11,0.14999999781482581,-0.1499999977148258,-0.19999999696976778,5e-11,-0.19999999696976778,5e-11,0.14999999781482581,-0.1499999977148258,0.1999999970697678,0.4999999925994194,0.4999999925994194
naive,-8.927234243646836e-05,0.003187298966347551,1.307493276844041,0.15407804625305324,-0.5034916303981944,-0.5001418807217537,-1.3119057642650007,1.3089930658901994,-0.15187304109667304,0.5051071923271063,0.5004757002703653,1.2803789778371024,5e-11,0.1999999970697678,5e-11,0.14999999781482581,-0.1499999977148258,-0.19999999696976778,5e-11,-0.19999999696976778,5e-11,0.14999999781482581,-0.1499999977148258,0.1999999970697678,0.503152593591317,0.5236491508291571
lively,9.999999701976783e-11,9.999999701976783e-11,1.309999961058959,0.14999999562965177,-0.4999999849988393,-0.4999999849988393,-1.2999999611569824,1.309999961058959,-0.14999999542965176,0.49999998519883926,0.49999998519883926,1.2999999613569824,9.999999701976783e-11,0.1999999941395357,9.999999701976783e-11,0.14999999562965177,-0.14999999542965176,-0.1999999939395357,9.999999701976783e-11,-0.1999999939395357,9.999999701976783e-11,0.14999999562965177,-0.14999999542965176,0.1999999941395357,0.49999998519883926,0.49999998519883926
static,5e-11,5e-11,1.3099999805294789,0.14999999781482581,-0.4999999924994194,-0.4999999924994194,-1.2999999805784905,1.3099999805294789,-0.1499999977148258,0.4999999925994194,0.4999999925994194,1.2999999806784905,5e-11,0.1999999970697678,5e-11,0.14999999781482581,-0.1499999977148258,-0.19999999696976778,5e-11,-0.19999999696976778,5e-11,0.14999999781482581,-0.1499999977148258,0.1999999970697678,0.4999999925994194,0.4999999925994194
naive,-0.0006023033049271572,0.0034459396786382535,1.3073690741320703,0.15416236830439875,-0.5045460707739267,-0.500169371771345,-1.3127030858943707,1.3087724871742301,-0.15155813789826852,0.5055513638851851,0.5005583353611394,1.2802635792074233,5e-11,0.1999999970697678,5e-11,0.14999999781482581,-0.1499999977148258,-0.19999999696976778,5e-11,-0.19999999696976778,5e-11,0.14999999781482581,-0.1499999977148258,0.1999999970697678,0.5021466933865242,0.5238240082425677
lively,9.999999701976783e-11,9.999999701976783e-11,1.309999961058959,0.14999999562965177,-0.4999999849988393,-0.4999999849988393,-1.2999999611569824,1.309999961058959,-0.14999999542965176,0.49999998519883926,0.49999998519883926,1.2999999613569824,9.999999701976783e-11,0.1999999941395357,9.999999701976783e-11,0.14999999562965177,-0.14999999542965176,-0.1999999939395357,9.999999701976783e-11,-0.1999999939395357,9.999999701976783e-11,0.14999999562965177,-0.14999999542965176,0.1999999941395357,0.49999998519883926,0.49999998519883926
static,5e-11,5e-11,1.3099999805294789,0.14999999781482581,-0.4999999924994194,-0.4999999924994194,-1.2999999805784905,1.3099999805294789,-0.1499999977148258,0.4999999925994194,0.4999999925994194,1.2999999806784905,5e-11,0.1999999970697678,5e-11,0.14999999781482581,-0.1499999977148258,-0.19999999696976778,5e-11,-0.19999999696976778,5e-11,0.14999999781482581,-0.1499999977148258,0.1999999970697678,0.4999999925994194,0.4999999925994194
naive,-0.0011303458916098268,0.0037112829829116455,1.3072429337222247,0.15425046154464642,-0.5056518232529678,-0.5001943394012899,-1.3134995943147998,1.3084907550449147,-0.15121439251250138,0.5060327494746157,0.5006495406449802,1.2803043166544075,5e-11,0.1999999970697678,5e-11,0.14999999781482581,-0.1499999977148258,-0.19999999696976778,5e-11,-0.19999999696976778,5e-11,0.14999999781482581,-0.1499999977148258,0.1999999970697678,0.5010683023882015,0.5240662614618654
lively,9.999999701976783e-11,9.999999701976783e-11,1.309999961058959,0.14999999562965177,-0.4999999849988393,-0.4999999849988393,-1.2999999611569824,1.309999961058959,-0.14999999542965176,0.49999998519883926,0.49999998519883926,1.2999999613569824,9.999999701976783e-11,0.1999999941395357,9.999999701976783e-11,0.14999999562965177,-0.14999999542965176,-0.1999999939395357,9.999999701976783e-11,-0.1999999939395357,9.999999701976783e-11,0.14999999562965177,-0.14999999542965176,0.1999999941395357,0.49999998519883926,0.49999998519883926
static,5e-11,5e-11,1.3099999805294789,0.14999999781482581,-0.4999999924994194,-0.4999999924994194,-1.2999999805784905,1.3099999805294789,-0.1499999977148258,0.4999999925994194,0.4999999925994194,1.2999999806784905,5e-11,0.1999999970697678,5e-11,0.14999999781482581,-0.1499999977148258,-0.19999999696976778,5e-11,-0.19999999696976778,5e-11,0.14999999781482581,-0.1499999977148258,0.1999999970697678,0.4999999925994194,0.4999999925994194
naive,-0.0015911634292054516,0.003945268260980114,1.3071350555158583,0.15432857752777715,-0.5066382738481813,-0.5002127742788882,-1.3141663168924935,1.3081906425748413,-0.15089590453622712,0.5064832366729012,0.5007368888344788,1.2805060132805928,5e-11,0.1999999970697678,5e-11,0.14999999781482581,-0.1499999977148258,-0.19999999696976778,5e-11,-0.19999999696976778,5e-11,0.14999999781482581,-0.1499999977148258,0.1999999970697678,0.5000867522695956,0.5243396849716024
lively,9.999999701976783e-11,9.999999701976783e-11,1.309999961058959,0.14999999562965177,-0.4999999849988393,-0.4999999849988393,-1.2999999611569824,1.309999961058959,-0.14999999542965176,0.49999998519883926,0.49999998519883926,1.2999999613569824,9.999999701976783e-11,0.1999999941395357,9.999999701976783e-11,0.14999999562965177,-0.14999999542965176,-0.1999999939395357,9.999999701976783e-11,-0.1999999939395357,9.999999701976783e-11,0.14999999562965177,-0.14999999542965176,0.1999999941395357,0.49999998519883926,0.49999998519883926
static,5e-11,5e-11,1.3099999805294789,0.14999999781482581,-0.4999999924994194,-0.4999999924994194,-1.2999999805784905,1.3099999805294789,-0.1499999977148258,0.4999999925994194,0.4999999925994194,1.2999999806784905,5e-11,0.1999999970697678,5e-11,0.14999999781482581,-0.1499999977148258,-0.19999999696976778,5e-11,-0.19999999696976778,5e-11,0.14999999781482581,-0.1499999977148258,0.1999999970697678,0.4999999925994194,0.4999999925994194
naive,-0.0020639684743463567,0.00419214594256653,1.307027650923626,0.15441006137475438,-0.5076767350496988,-0.500227706176273,-1.3148084507575157,1.3078181241372273,-0.15054858962383444,0.5069863297651017,0.5008376434390096,1.2809196827794334,5e-11,0.1999999970697678,5e-11,0.14999999781482581,-0.1499999977148258,-0.19999999696976778,5e-11,-0.19999999696976778,5e-11,0.14999999781482581,-0.1499999977148258,0.1999999970697678,0.4990332045688789,0.5246942613808369
lively,9.999999701976783e-11,9.999999701976783e-11,1.309999961058959,0.14999999562965177,-0.4999999849988393,-0.4999999849988393,-1.2999999611569824,1.309999961058959,-0.14999999542965176,0.49999998519883926,0.49999998519883926,1.2999999613569824,9.999999701976783e-11,0.1999999941395357,9.999999701976783e-11,0.14999999562965177,-0.14999999542965176,-0.1999999939395357,9.999999701976783e-11,-0.1999999939395357,9.999999701976783e-11,0.14999999562965177,-0.14999999542965176,0.1999999941395357,0.49999998519883926,0.49999998519883926
static,5e-11,5e-11,1.3099999805294789,0.14999999781482581,-0.4999999924994194,-0.4999999924994194,-1.2999999805784905,1.3099999805294789,-0.1499999977148258,0.4999999925994194,0.4999999925994194,1.2999999806784905,5e-11,0.1999999970697678,5e-11,0.14999999781482581,-0.1499999977148258,-0.19999999696976778,5e-11,-0.19999999696976778,5e-11,0.14999999781482581,-0.1499999977148258,0.1999999970697678,0.4999999925994194,0.4999999925994194
naive,-0.002450009101776517,0.004403682601886175,1.306943671527859,0.15447766855540837,-0.5085497523014761,-0.5002362010824055,-1.3152841896281997,1.307453065125463,-0.15024720809302655,0.5074379099717137,0.5009320355013963,1.2814598348608475,5e-11,0.1999999970697678,5e-11,0.14999999781482581,-0.1499999977148258,-0.19999999696976778,5e-11,-0.19999999696976778,5e-11,0.14999999781482581,-0.1499999977148258,0.1999999970697678,0.49813009004635267,0.525053628563994
lively,9.999999701976783e-11,9.999999701976783e-11,1.309999961058959,0.14999999562965177,-0.4999999849988393,-0.4999999849988393,-1.2999999611569824,1.309999961058959,-0.14999999542965176,0.49999998519883926,0.49999998519883926,1.2999999613569824,9.999999701976783e-11,0.1999999941395357,9.999999701976783e-11,0.14999999562965177,-0.14999999542965176,-0.1999999939395357,9.999999701976783e-11,-0.1999999939395357,9.999999701976783e-11,0.14999999562965177,-0.14999999542965176,0.1999999941395357,0.49999998519883926,0.49999998519883926
static,5e-11,5e-11,1.3099999805294789,0.14999999781482581,-0.4999999924994194,-0.4999999924994194,-1.2999999805784905,1.3099999805294789,-0.1499999977148258,0.4999999925994194,0.4999999925994194,1.2999999806784905,5e-11,0.1999999970697678,5e-11,0.14999999781482581,-0.1499999977148258,-0.19999999696976778,5e-11,-0.19999999696976778,5e-11,0.14999999781482581,-0.1499999977148258,0.1999999970697678,0.4999999925994194,0.4999999925994194
naive,-0.002821149668870198,0.00462204646996311,1.3068679908834133,0.15454359484672248,-0.5094168301888679,-0.5002403803249393,-1.3156767469064792,1.3070347736784003,-0.1499396673461185,0.5079181062528272,0.5010379016589838,1.2822106896003218,5e-11,0.1999999970697678,5e-11,0.14999999781482581,-0.1499999977148258,-0.19999999696976778,5e-11,-0.19999999696976778,5e-11,0.14999999781482581,-0.1499999977148258,0.1999999970697678,0.4972149237769409,0.525476254857419
lively,9.999999701976783e-11,9.999999701976783e-11,1.309999961058959,0.14999999562965177,-0.4999999849988393,-0.4999999849988393,-1.2999999611569824,1.309999961058959,-0.14999999542965176,0.49999998519883926,0.49999998519883926,1.2999999613569824,9.999999701976783e-11,0.1999999941395357,9.999999701976783e-11,0.14999999562965177,-0.14999999542965176,-0.1999999939395357,9.999999701976783e-11,-0.1999999939395357,9.999999701976783e-11,0.14999999562965177,-0.14999999542965176,0.1999999941395357,0.49999998519883926,0.49999998519883926
static,5e-11,5e-11,1.3099999805294789,0.14999999781482581,-0.4999999924994194,-0.4999999924994194,-1.2999999805784905,1.3099999805294789,-0.1499999977148258,0.4999999925994194,0.4999999925994194,1.2999999806784905,5e-11,0.1999999970697678,5e-11,0.14999999781482581,-0.1499999977148258,-0.19999999696976778,5e-11,-0.19999999696976778,5e-11,0.14999999781482581,-0.1499999977148258,0.1999999970697678,0.4999999925994194,0.4999999925994194
naive,-0.003173989352862158,0.0048533058018719235,1.3068039194033276,0.1546070370211527,-0.5102753807990066,-0.5002395420655256,-1.3159547209039222,1.3065533189409262,-0.14962757724759204,0.5084316757892335,0.5011593602262597,1.283221799666949,5e-11,0.1999999970697678,5e-11,0.14999999781482581,-0.1499999977148258,-0.19999999696976778,5e-11,-0.19999999696976778,5e-11,0.14999999781482581,-0.1499999977148258,0.1999999970697678,0.4962866729819891,0.5259736836368144
lively,9.999999701976783e-11,9.999999701976783e-11,1.309999961058959,0.14999999562965177,-0.4999999849988393,-0.4999999849988393,-1.2999999611569824,1.309999961058959,-0.14999999542965176,0.49999998519883926,0.49999998519883926,1.2999999613569824,9.999999701976783e-11,0.1999999941395357,9.999999701976783e-11,0.14999999562965177,-0.14999999542965176,-0.1999999939395357,9.999999701976783e-11,-0.1999999939395357,9.999999701976783e-11,0.14999999562965177,-0.14999999542965176,0.1999999941395357,0.49999998519883926,0.49999998519883926
static,5e-11,5e-11,1.3099999805294789,0.14999999781482581,-0.4999999924994194,-0.4999999924994194,-1.2999999805784905,1.3099999805294789,-0.1499999977148258,0.4999999925994194,0.4999999925994194,1.2999999806784905,5e-11,0.1999999970697678,5e-11,0.14999999781482581,-0.1499999977148258,-0.19999999696976778,5e-11,-0.19999999696976778,5e-11,0.14999999781482581,-0.1499999977148258,0.1999999970697678,0.4999999925994194,0.4999999925994194
naive,-0.003439134755460167,0.0050533245318857695,1.3067645409014559,0.1546550195061635,-0.5109519761292324,-0.5002345834823037,-1.3160616209712792,1.3061134783391086,-0.14937689772124937,0.508869668917027,0.5012717099262642,1.284266203100612,5e-11,0.1999999970697678,5e-11,0.14999999781482581,-0.1499999977148258,-0.19999999696976778,5e-11,-0.19999999696976778,5e-11,0.14999999781482581,-0.1499999977148258,0.1999999970697678,0.49553480011835466,0.5264360326337928
lively,9.999999701976783e-11,9.999999701976783e-11,1.309999961058959,0.14999999562965177,-0.4999999849988393,-0.4999999849988393,-1.2999999611569824,1.309999961058959,-0.14999999542965176,0.49999998519883926,0.49999998519883926,1.2999999613569824,9.999999701976783e-11,0.1999999941395357,9.999999701976783e-11,0.14999999562965177,-0.14999999542965176,-0.1999999939395357,9.999999701976783e-11,-0.1999999939395357,9.999999701976783e-11,0.14999999562965177,-0.14999999542965176,0.1999999941395357,0.49999998519883926,0.49999998519883926
static,5e-11,5e-11,1.3099999805294789,0.14999999781482581,-0.4999999924994194,-0.4999999924994194,-1.2999999805784905,1.3099999805294789,-0.1499999977148258,0.4999999925994194,0.4999999925994194,1.2999999806784905,5e-11,0.1999999970697678,5e-11,0.14999999781482581,-0.1499999977148258,-0.19999999696976778,5e-11,-0.19999999696976778,5e-11,0.14999999781482581,-0.1499999977148258,0.1999999970697678,0.4999999925994194,0.4999999925994194
naive,-0.0036784188139558044,0.0052668402514405264,1.3067407158634778,0.15469817885266118,-0.511598377403394,-0.5002252714726046,-1.316025380352455,1.3056260675526332,-0.1491343139332623,0.5093234955606829,0.5013992823575146,1.2855465586314816,5e-11,0.1999999970697678,5e-11,0.14999999781482581,-0.1499999977148258,-0.19999999696976778,5e-11,-0.19999999696976778,5e-11,0.14999999781482581,-0.1499999977148258,0.1999999970697678,0.49479288506544833,0.5269550728437917
lively,9.999999701976783e-11,9.999999701976783e-11,1.309999961058959,0.14999999562965177,-0.4999999849988393,-0.4999999849988393,-1.2999999611569824,1.309999961058959,-0.14999999542965176,0.49999998519883926,0.49999998519883926,1.2999999613569824,9.999999701976783e-11,0.1999999941395357,9.999999701976783e-11,0.14999999562965177,-0.14999999542965176,-0.1999999939395357,9.999999701976783e-11,-0.1999999939395357,9.999999701976783e-11,0.14999999562965177,-0.14999999542965176,0.1999999941395357,0.49999998519883926,0.49999998519883926
static,5e-11,5e-11,1.3099999805294789,0.14999999781482581,-0.4999999924994194,-0.4999999924994194,-1.2999999805784905,1.3099999805294789,-0.1499999977148258,0.4999999925994194,0.4999999925994194,1.2999999806784905,5e-11,0.1999999970697678,5e-11,0.14999999781482581,-0.1499999977148258,-0.19999999696976778,5e-11,-0.19999999696976778,5e-11,0.14999999781482581,-0.1499999977148258,0.1999999970697678,0.4999999925994194,0.4999999925994194
naive,-0.003870987130348187,0.0054801540913743335,1.306737179396728,0.15473214390095597,-0.5121606316378257,-0.5002121955250943,-1.3158223167234282,1.3051256142754124,-0.14892198202885643,0.5097564304549123,0.5015350231611875,1.2869889294078776,5e-11,0.1999999970697678,5e-11,0.14999999781482581,-0.1499999977148258,-0.19999999696976778,5e-11,-0.19999999696976778,5e-11,0.14999999781482581,-0.1499999977148258,0.1999999970697678,0.49411937332847244,0.5274932824901647
lively,9.999999701976783e-11,9.999999701976783e-11,1.309999961058959,0.14999999562965177,-0.4999999849988393,-0.4999999849988393,-1.2999999611569824,1.309999961058959,-0.14999999542965176,0.49999998519883926,0.49999998519883926,1.2999999613569824,9.999999701976783e-11,0.1999999941395357,9.999999701976783e-11,0.14999999562965177,-0.14999999542965176,-0.1999999939395357,9.999999701976783e-11,-0.1999999939395357,9.999999701976783e-11,0.14999999562965177,-0.14999999542965176,0.1999999941395357,0.49999998519883926,0.49999998519883926
static,5e-11,5e-11,1.3099999805294789,0.14999999781482581,-0.4999999924994194,-0.4999999924994194,-1.2999999805784905,1.3099999805294789,-0.1499999977148258,0.4999999925994194,0.4999999925994194,1.2999999806784905,5e-11,0.1999999970697678,5e-11,0.14999999781482581,-0.1499999977148258,-0.19999999696976778,5e-11,-0.19999999696976778,5e-11,0.14999999781482581,-0.1499999977148258,0.1999999970697678,0.4999999925994194,0.4999999925994194
naive,-0.004016719278047195,0.005694710513397483,1.3067555263445958,0.15475618521623788,-0.5126370481854168,-0.5001956533804158,-1.3154382813358922,1.304613552958792,-0.14874274113174665,0.5101647045910611,0.5016803242720698,1.2885962975996308,5e-11,0.1999999970697678,5e-11,0.14999999781482581,-0.1499999977148258,-0.19999999696976778,5e-11,-0.19999999696976778,5e-11,0.14999999781482581,-0.1499999977148258,0.1999999970697678,0.49351451521417755,0.528047361324573
lively,9.999999701976783e-11,9.999999701976783e-11,1.309999961058959,0.14999999562965177,-0.4999999849988393,-0.4999999849988393,-1.2999999611569824,1.309999961058959,-0.14999999542965176,0.49999998519883926,0.49999998519883926,1.2999999613569824,9.999999701976783e-11,0.1999999941395357,9.999999701976783e-11,0.14999999562965177,-0.14999999542965176,-0.1999999939395357,9.999999701976783e-11,-0.1999999939395357,9.999999701976783e-11,0.14999999562965177,-0.14999999542965176,0.1999999941395357,0.49999998519883926,0.49999998519883926
static,5e-11,5e-11,1.3099999805294789,0.14999999781482581,-0.4999999924994194,-0.4999999924994194,-1.2999999805784905,1.3099999805294789,-0.1499999977148258,0.4999999925994194,0.4999999925994194,1.2999999806784905,5e-11,0.1999999970697678,5e-11,0.14999999781482581,-0.1499999977148258,-0.19999999696976778,5e-11,-0.19999999696976778,5e-11,0.14999999781482581,-0.1499999977148258,0.1999999970697678,0.4999999925994194,0.4999999925994194
naive,-0.004116635303560157,0.005919092347422296,1.3067998378331274,0.15476941011085577,-0.5130346361260153,-0.5001751853372186,-1.314831237305202,1.3040738281566369,-0.14859629565636395,0.5105553980291969,0.5018421646630006,1.2904369306067927,5e-11,0.1999999970697678,5e-11,0.14999999781482581,-0.1499999977148258,-0.19999999696976778,5e-11,-0.19999999696976778,5e-11,0.14999999781482581,-0.1499999977148258,0.1999999970697678,0.4929637689922166,0.5286324572131939
lively,9.999999701976783e-11,9.999999701976783e-11,1.309999961058959,0.14999999562965177,-0.4999999849988393,-0.4999999849988393,-1.2999999611569824,1.309999961058959,-0.14999999542965176,0.49999998519883926,0.49999998519883926,1.2999999613569824,9.999999701976783e-11,0.1999999941395357,9.999999701976783e-11,0.14999999562965177,-0.14999999542965176,-0.1999999939395357,9.999999701976783e-11,-0.1999999939395357,9.999999701976783e-11,0.14999999562965177,-0.14999999542965176,0.1999999941395357,0.49999998519883926,0.49999998519883926
static,5e-11,5e-11,1.3099999805294789,0.14999999781482581,-0.4999999924994194,-0.4999999924994194,-1.2999999805784905,1.3099999805294789,-0.1499999977148258,0.4999999925994194,0.4999999925994194,1.2999999806784905,5e-11,0.1999999970697678,5e-11,0.14999999781482581,-0.1499999977148258,-0.19999999696976778,5e-11,-0.19999999696976778,5e-11,0.14999999781482581,-0.1499999977148258,0.1999999970697678,0.4999999925994194,0.4999999925994194
naive,-0.0041589101601282276,0.006113525306761295,1.3068604249319598,0.15477004379812487,-0.513291759934398,-0.500155212089266,-1.314124701084689,1.3036065564818975,-0.14850655949988079,0.5108581877075927,0.5019910190191116,1.2921579937614958,5e-11,0.1999999970697678,5e-11,0.14999999781482581,-0.1499999977148258,-0.19999999696976778,5e-11,-0.19999999696976778,5e-11,0.14999999781482581,-0.1499999977148258,0.1999999970697678,0.49255699743336073,0.5291373821461806
lively,9.999999701976783e-11,9.999999701976783e-11,1.309999961058959,0.14999999562965177,-0.4999999849988393,-0.4999999849988393,-1.2999999611569824,1.309999961058959,-0.14999999542965176,0.49999998519883926,0.49999998519883926,1.2999999613569824,9.999999701976783e-11,0.1999999941395357,9.999999701976783e-11,0.14999999562965177,-0.14999999542965176,-0.1999999939395357,9.999999701976783e-11,-0.1999999939395357,9.999999701976783e-11,0.14999999562965177,-0.14999999542965176,0.1999999941395357,0.49999998519883926,0.49999998519883926
static,5e-11,5e-11,1.3099999805294789,0.14999999781482581,-0.4999999924994194,-0.4999999924994194,-1.2999999805784905,1.3099999805294789,-0.1499999977148258,0.4999999925994194,0.4999999925994194,1.2999999806784905,5e-11,0.1999999970697678,5e-11,0.14999999781482581,-0.1499999977148258,-0.19999999696976778,5e-11,-0.19999999696976778,5e-11,0.14999999781482581,-0.1499999977148258,0.1999999970697678,0.4999999925994194,0.4999999925994194
naive,-0.004157712201257228,0.00631894532229134,1.3069484526392476,0.15475863172165968,-0.5134705457226924,-0.5001322385598591,-1.313184125477689,1.303117014441987,-0.14845253188228563,0.5111360980600999,0.5021575164985922,1.2940988881613569,5e-11,0.1999999970697678,5e-11,0.14999999781482581,-0.1499999977148258,-0.19999999696976778,5e-11,-0.19999999696976778,5e-11,0.14999999781482581,-0.1499999977148258,0.1999999970697678,0.49220105164780764,0.5296615513635059
lively,9.999999701976783e-11,9.999999701976783e-11,1.309999961058959,0.14999999562965177,-0.4999999849988393,-0.4999999849988393,-1.2999999611569824,1.309999961058959,-0.14999999542965176,0.49999998519883926,0.49999998519883926,1.2999999613569824,9.999999701976783e-11,0.1999999941395357,9.999999701976783e-11,0.14999999562965177,-0.14999999542965176,-0.1999999939395357,9.999999701976783e-11,-0.1999999939395357,9.999999701976783e-11,0.14999999562965177,-0.14999999542965176,0.1999999941395357,0.49999998519883926,0.49999998519883926
static,5e-11,5e-11,1.3099999805294789,0.14999999781482581,-0.4999999924994194,-0.4999999924994194,-1.2999999805784905,1.3099999805294789,-0.1499999977148258,0.4999999925994194,0.4999999925994194,1.2999999806784905,5e-11,0.1999999970697678,5e-11,0.14999999781482581,-0.1499999977148258,-0.19999999696976778,5e-11,-0.19999999696976778,5e-11,0.14999999781482581,-0.1499999977148258,0.1999999970697678,0.4999999925994194,0.4999999925994194
naive,-0.004105263148750443,0.006531022447240265,1.3070673471766938,0.1547322860266626,-0.5135489020344626,-0.5001069186675742,-1.3119884016226309,1.3026199002994707,-0.14844444292074688,0.511371064731213,0.5023401053293112,1.2962317822143041,5e-11,0.1999999970697678,5e-11,0.14999999781482581,-0.1499999977148258,-0.19999999696976778,5e-11,-0.19999999696976778,5e-11,0.14999999781482581,-0.1499999977148258,0.1999999970697678,0.4919162423098131,0.5301842378576347
lively,9.999999701976783e-11,9.999999701976783e-11,1.309999961058959,0.14999999562965177,-0.4999999849988393,-0.4999999849988393,-1.2999999611569824,1.309999961058959,-0.14999999542965176,0.49999998519883926,0.49999998519883926,1.2999999613569824,9.999999701976783e-11,0.1999999941395357,9.999999701976783e-11,0.14999999562965177,-0.14999999542965176,-0.1999999939395357,9.999999701976783e-11,-0.1999999939395357,9.999999701976783e-11,0.14999999562965177,-0.14999999542965176,0.1999999941395357,0.49999998519883926,0.49999998519883926
static,5e-11,5e-11,1.3099999805294789,0.14999999781482581,-0.4999999924994194,-0.4999999924994194,-1.2999999805784905,1.3099999805294789,-0.1499999977148258,0.4999999925994194,0.4999999925994194,1.2999999806784905,5e-11,0.1999999970697678,5e-11,0.14999999781482581,-0.1499999977148258,-0.19999999696976778,5e-11,-0.19999999696976778,5e-11,0.14999999781482581,-0.1499999977148258,0.1999999970697678,0.4999999925994194,0.4999999925994194
naive,-0.0040051365001739295,0.006731892838273475,1.307208786745072,0.1546917942299601,-0.5135160648275279,-0.5000818504234451,-1.3106268452851801,1.302160517932457,-0.14848547599942669,0.511537840287594,0.5025240025981459,1.2983722559729942,5e-11,0.1999999970697678,5e-11,0.14999999781482581,-0.1499999977148258,-0.19999999696976778,5e-11,-0.19999999696976778,5e-11,0.14999999781482581,-0.1499999977148258,0.1999999970697678,0.4917274428834094,0.5306526747000174
lively,9.999999701976783e-11,9.999999701976783e-11,1.309999961058959,0.14999999562965177,-0.4999999849988393,-0.4999999849988393,-1.2999999611569824,1.309999961058959,-0.14999999542965176,0.49999998519883926,0.49999998519883926,1.2999999613569824,9.999999701976783e-11,0.1999999941395357,9.999999701976783e-11,0.14999999562965177,-0.14999999542965176,-0.1999999939395357,9.999999701976783e-11,-0.1999999939395357,9.999999701976783e-11,0.14999999562965177,-0.14999999542965176,0.1999999941395357,0.49999998519883926,0.49999998519883926
static,5e-11,5e-11,1.3099999805294789,0.14999999781482581,-0.4999999924994194,-0.4999999924994194,-1.2999999805784905,1.3099999805294789,-0.1499999977148258,0.4999999925994194,0.4999999925994194,1.2999999806784905,5e-11,0.1999999970697678,5e-11,0.14999999781482581,-0.1499999977148258,-0.19999999696976778,5e-11,-0.19999999696976778,5e-11,0.14999999781482581,-0.1499999977148258,0.1999999970697678,0.4999999925994194,0.4999999925994194
naive,-0.003876951582260612,0.006904801158425982,1.3073555324270274,0.15464296418944937,-0.5133968658999767,-0.5000597606209479,-1.3092582627502791,1.3017769125536658,-0.14856229459396933,0.511631765066062,0.5026917816867769,1.3003101843181704,5e-11,0.1999999970697678,5e-11,0.14999999781482581,-0.1499999977148258,-0.19999999696976778,5e-11,-0.19999999696976778,5e-11,0.14999999781482581,-0.1499999977148258,0.1999999970697678,0.49163129172847303,0.5310267550803612
lively,9.999999701976783e-11,9.999999701976783e-11,1.309999961058959,0.14999999562965177,-0.4999999849988393,-0.4999999849988393,-1.2999999611569824,1.309999961058959,-0.14999999542965176,0.49999998519883926,0.49999998519883926,1.2999999613569824,9.999999701976783e-11,0.1999999941395357,9.999999701976783e-11,0.14999999562965177,-0.14999999542965176,-0.1999999939395357,9.999999701976783e-11,-0.1999999939395357,9.999999701976783e-11,0.14999999562965177,-0.14999999542965176,0.1999999941395357,0.49999998519883926,0.49999998519883926
static,5e-11,5e-11,1.3099999805294789,0.14999999781482581,-0.4999999924994194,-0.4999999924994194,-1.2999999805784905,1.3099999805294789,-0.1499999977148258,0.4999999925994194,0.4999999925994194,1.2999999806784905,5e-11,0.1999999970697678,5e-11,0.14999999781482581,-0.1499999977148258,-0.19999999696976778,5e-11,-0.19999999696976778,5e-11,0.14999999781482581,-0.1499999977148258,0.1999999970697678,0.4999999925994194,0.4999999925994194
